SVM-light Version V5.01-TK-1.5
5 # kernel type
3 # kernel parameter -d 
1 # kernel parameter -g 
1 # kernel parameter -s 
1 # kernel parameter -r 
empty# kernel parameter -u 
0.4 # kernel parameter -L 
1 # kernel parameter -T 
S # kernel parameter -C 
1 # kernel parameter -F 
0 # kernel parameter -S 
0.400000 # kernel parameter -M 
3 # kernel parameter -N 
S # kernel parameter -V 
S # kernel parameter -W 
0 # kernel parameter -U 
4330 # highest feature index 
509 # number of training documents 
318 # number of support vectors plus 1 
1.0240474 # threshold b, each following line is a SV (starting with alpha*y)
-4.5068990627598779497020586859435  |BT| (S (PRP$ (Our))(VP (VBP (result))(ADVP (RB (clearly)))(VP (VBP (indicate))(SBAR (S (NP (JJ (sulfated))(NN (polysaccharide))(NNP (U.))(NN (lactuca)))(VP (VBD (exert))(NP (JJ (marked))(NN (chemoprevention))(JJ (DENA-initiated))(NN (hepatocarcinogenesis))(NN (inhibition))(JJ (abnormal))(NN (cell))(NN (proliferation))(NN (induction))(NN (apoptosis))))))))) |ET|  |BS| 39:G04.299.139.160 43:F01.145.544 183:G04.299.233.750 253:E02.319.162 554:D02.654.442.200 803:D01.248.497.158.845 804:D09.698  |ES| 19:1 89:1 94:1 101:1 103:1 299:1 658:1 736:1 870:1 900:1 1229:1 1479:1 2802:1 2838:1 2839:1 2840:1 2841:1 2842:1 2843:1 2844:1  |EV| 
-4.5068990627598779497020586859435  |BT| (NP (NP (NN (BACKGROUND))(: (:)))(NP (NP (NNP (Magnolol))(, (,))(NN (plant))(NN (lignan)))(NP (VBN (isolated))(NN (bark))(NN (seed))(NN (cone))(NN (Magnolia))(NN (officinalis)))(, (,))(VP (VBN (shown))(NP (JJ (chemopreventive))(NN (effect))(JJ (chemically-induced))(NN (skin))(NN (cancer))(NN (development)))))) |ET|  |BS| 30:Z01.058.290.190.800 31:D08.811.520.224.800 328:B01.650 619:D02.455.426.559.847.117.159.205 620:B01.650.940.800.575.100.680.500 621:D02.455.426.559.389.140.450 622:A08.675.650.850.625.670.100 623:A08.186.211.730.885.287.500 624:D27.505.696.706.018 625:A06.407.071.140 626:A05.810.453.324 627:A18.024.500.750  |ES| 2:1 18:1 19:1 35:1 75:1 104:1 237:1 1046:1 1098:1 1653:1 1946:1 2233:1 2312:1 2313:1 2314:1 2315:1 2316:1 2317:1 2318:1 2319:1  |EV| 
-4.259579715249174114433117210865  |BT| (NP (NP (NN (PURPOSE)))(: (:))(S (NP (JJ (Recent))(NN (study)))(VP (VBD (revealed))(S (NP (NP (JJ (branched-chain))(NN (amino))(NN (acid)))(PRN (-LRB- (-LRB-))(NP (NN (BCAA)))(-RRB- (-RRB-))))(VP (VB (reduce))(NP (NP (NP (NN (development))(JJ (hepatocellular))(NN (carcinoma)))(PRN (-LRB- (-LRB-))(NP (NN (HCC)))(-RRB- (-RRB-))))(NN (patient))(NN (obesity))(NN (hepatitis))(NN (C))(NN (virus))(NN (infection))(S (VP (VBG (improving))(NP (NP (NN (insulin))(NN (resistance)))(PRN (-LRB- (-LRB-))(NP (NN (IR)))(-RRB- (-RRB-)))))))))))) |ET|  |BS| 50:M01.643 104:C04.557.470.200.025.255 550:B04.450.410 564:C18.654.726.500 637:D06.472.699.587.200.500.625 638:C02.440.440 639:D12.125.070  |ES| 10:1 14:1 19:1 35:1 104:1 120:1 131:1 275:1 303:1 304:1 441:1 687:1 1094:1 1275:1 1422:1 1955:1 2010:1 2048:1 2189:1 2358:1 2359:1 2360:1 2361:1 2362:1 2363:1 2364:1 2365:1  |EV| 
-4.5068990627598779497020586859435  |BT| (S (NP (NNS (RESULTS))(: (:)))(NP (NN (Silibinin))(NN (feeding)))(VP (VBD (showed))(NP (NP (ADJP (NP (JJ (dose-dependent))(NN (decrease))(JJ (azoxymethane-induced))(NN (colon))(NN (tumorigenesis)))(JJR (stronger)))(NN (efficacy))(NN (pretreatment)))(CC (versus))(NP (NN (posttreatment))(NNS (regimen)))))) |ET|  |BS| 32:C04.697.098.500 33:C04.697.098 46:A03.556.124.526.356 132:D02.172.080 532:E02.183  |ES| 19:1 78:1 104:1 113:1 132:1 295:1 710:1 1881:1 1983:1 2304:1 2531:1 2533:1 2824:1 2942:1 2943:1 2944:1 2945:1  |EV| 
-4.5068990627598779497020586859435  |BT| (NP (NP (NN (BACKGROUND))(: (:)))(NP (NP (NNP (Drug))(NN (combination))(NN (therapy)))(VP (VBG (using))(NP (NP (NN (cisplatin))(JJ (natural))(NN (product)))(JJ (common))(NN (practice))(NN (treatment))(JJ (human))(NN (lung))(NN (cancer)))))) |ET|  |BS| 52:E02 55:B01.050.150.900.649.801.400.112.400.400 498:D01.210.375 793:D20.215 939:E02.319.310  |ES| 18:1 19:1 36:1 104:1 130:1 328:1 350:1 530:1 546:1 655:1 675:1 1046:1 1761:1 2333:1 2345:1 3296:1  |EV| 
4.5068990627598779497020586859435  |BT| (NP (NP (NN (BACKGROUND/AIMS)))(: (:))(NP (NP (JJ (Several))(NN (study)))(VP (VBD (reported))(NP (NP (NP (NP (NP (NN (efficacy))(NN (combination))(NN (therapy))(NN (interferon)))(PRN (-LRB- (-LRB-))(NP (NN (IFN)))(-RRB- (-RRB-))))(NN (alpha))(NN (5-fluorouracil)))(PRN (-LRB- (-LRB-))(NP (NN (5-FU)))(-RRB- (-RRB-))))(NP (NP (JJ (hepatocellular))(NN (carcinoma)))(PRN (-LRB- (-LRB-))(NP (NN (HCC)))(-RRB- (-RRB-)))))))) |ET|  |BS| 104:C04.557.470.200.025.255 560:D03.383.742.698.875.404 617:D12.644.276.374.440 618:E02.186  |ES| 10:1 14:1 19:1 104:1 130:1 131:1 303:1 304:1 441:1 530:1 993:1 1836:1 2302:1 2303:1 2304:1 2305:1 2306:1 2307:1 2308:1  |EV| 
4.5068990627598779497020586859435  |BT| (NP (NP (NN (AIM))(: (:)))(S (S (VP (TO (To))(VP (VB (elucidate))(S (NP (JJ (anticancer))(NN (mechanism))(NNP (Huqi))(NNP (San)))(VP (VBG (assessing))(NP (NN (expression))(NN (G-6-Pase))))))))(, (,))(NP (NP (NN (SDH)))(, (,))(NP (NN (ATPase))(NN (AFP))(JJ (N-nitrosodiethylamine-mediated))(NN (hepatocarcinogenesis))(NN (rat)))))) |ET|  |BS| 30:Z01.058.290.190.800 31:D08.811.520.224.800 245:B01.050.150.900.649.865.635.505.700 246:B01.050.150.900.649.865.635.505.700 554:D02.654.442.200 893:D08.811.277.040.025 894:D08.811.277.040.025  |ES| 2:1 19:1 104:1 115:1 162:1 828:1 849:1 900:1 959:1 1196:1 1697:1 1880:1 2762:1 2765:1 2766:1 3630:1 3632:1 3634:1 3957:1  |EV| 
4.5068990627598779497020586859435  |BT| (S (NP (NN (AIM))(: (:)))(S (VP (TO (To))(VP (VB (investigate))(NP (NP (NP (JJ (therapeutic))(NN (effect))(JJ (potential))(NN (mechanism))(JJ (natural))(NN (flavonoid))(NN (quercetin-3-O-beta-D-glucuronide)))(PRN (-LRB- (-LRB-))(NP (NN (Q3GA)))(-RRB- (-RRB-))))(VP (NN (lipid))(NP (NP (NN (metabolism))(NN (disorder))(JJ (free))(JJ (fatty))(NN (acid)))(PRN (-LRB- (-LRB-))(NP (NN (FFA)))(-RRB- (-RRB-)))))))))(: (-))(VP (VBN (induced))(NP (NN (fatty))(NN (liver)))(ADVP (FW (vivo))(FW (vitro))))) |ET|  |BS| 30:Z01.058.290.190.800 31:D08.811.520.224.800 242:A03.620 533:D03.383.663.283.266.450.284.777 534:D03.383.663.283.266.450 1132:C18.452.584 1133:D10.251.310  |ES| 10:1 14:1 19:1 75:1 104:1 162:1 216:1 378:1 409:1 459:1 541:1 827:1 828:1 836:1 959:1 1275:1 1886:1 2007:1 2070:1 2333:1 2401:1 3163:1 3958:1 3959:1 3960:1 3961:1  |EV| 
4.5068990627598779497020586859435  |BT| (NP (NP (NN (Alcohol))(JJ (well-established))(NN (risk))(NN (factor))(JJ (hepatocellular))(NN (carcinoma)))(, (,))(NP (NN (mechanism))(NN (alcohol))(NN (liver))(NN (cancer))(NN (complex)))) |ET|  |BS| 104:C04.557.470.200.025.255 409:E05.318.740.600.800.725 751:D02.033.375 822:D02.033  |ES| 2:1 18:1 19:1 162:1 171:1 185:1 303:1 304:1 695:1 836:1 1770:1 3710:1 3962:1  |EV| 
4.5068990627598779497020586859435  |BT| (NP (NP (NP (JJ (Altered))(NN (gene))(NN (expression))(NN (DNA))(NN (repair)))(: (-))(NP (NP (NN (cell))(JJ (proliferation-associated))(NNS (proteins/enzymes)))(VP (VBN (examined))(NP (NN (process))(JJ (tamoxifen-induced))(NN (hepatocarcinogenesis))(JJ (female))(JJ (Sprague-Dawley))(NN (rat))))))) |ET|  |BS| 155:G05.355.310 640:D02.455.426.559.389.150.700.900 642:M01.975 730:D08.811 769:B01.050.150.900.649.865.635.505.700.750 1134:G02.111.087.219 1135:D12.776.543  |ES| 9:1 19:1 94:1 115:1 324:1 638:1 666:1 849:1 900:1 971:1 1404:1 2707:1 3963:1 3964:1 3965:1 3966:1  |EV| 
-4.5068990627598779497020586859435  |BT| (NP (NP (NNP (Thymidylate))(NN (synthase)))(, (,))(NP (NN (thymidine))(NN (phosphorylase)))(, (,))(NP (NN (dihydropyrimidine))(NN (dehydrogenase))(NN (expression)))(, (,))(NP (JJ (histological))(NN (tumour))(NN (regression))(JJ (5-FU-based))(JJ (neo-adjuvant))(JJ (chemoradiotherapy))(JJ (rectal))(NN (cancer)))) |ET|  |BS| 8:C04 333:D01.045 560:D03.383.742.698.875.404 561:E02.186.079.500 713:D08.811.913.555.500.862 846:F01.393.784 869:D08.811.913.400.725.850.500 870:D08.811.682.660.350  |ES| 2:1 18:1 19:1 66:1 115:1 1011:1 1986:1 1987:1 1988:1 1989:1 3002:1 3081:1 3082:1 3083:1 3084:1 3085:1 3086:1  |EV| 
4.5068990627598779497020586859435  |BT| (S (NP (NN (AIRmax)))(ADVP (RB (also)))(NP (JJ (susceptible))(NN (AIRmin))(NN (colon))(NN (cancer)))(VP (VP (VBD (induced))(NP (NP (QP (CD (2))(CD (7)))(JJ (weekly))(NNS (dos)))(ADJP (ADJP (JJ (1,2-dimethylhydrazine)))(PRN (-LRB- (-LRB-))(NP (NN (DMH)))(-RRB- (-RRB-)))))(, (,))(S (VP (VBG (showing))(NP (NP (ADJP (RB (significantly))(JJR (higher)))(NN (number))(JJ (colonic))(JJ (aberrant))(NN (crypt))(NN (focus)))(PRN (-LRB- (-LRB-))(NP (NN (ACF)))(-RRB- (-RRB-))))(NP (CD (150))(NN (day))(NN (DMH))(NN (treatment))))))(PRN (-LRB- (-LRB-))(S (NP (NN (P)))(VP (JJ (=))(NP (CD (0.01)))))(-RRB- (-RRB-))))(NP (ADJP (RB (significantly))(JJR (higher)))(NN (number))(NN (tumor))(VBG (affecting))(NP (NP (JJR (larger))(JJ (intestinal))(NN (area)))(CD (300-475))(NN (day))))) |ET|  |BS| 8:C04 46:A03.556.124.526.356 52:E02 292:Z01 433:F01.470.047 824:C04.834.020 1177:A03.556.124.526  |ES| 2:1 5:1 7:1 10:1 14:1 18:1 19:1 109:1 113:1 124:1 148:1 170:1 311:1 315:1 412:1 546:1 581:1 646:1 677:1 899:1 988:1 1431:1 1725:1 2201:1 2530:1 2642:1 2643:1 2653:1 2913:1 2914:1 4074:1 4075:1 4076:1 4077:1 4078:1 4079:1 4080:1 4081:1  |EV| 
-4.5068990627598779497020586859435  |BT| (S (NP (JJ (Preclinical))(JJ (clinical))(NN (investigation)))(VP (VBP (demonstrate))(SBAR (S (NP (NN (aspirin)))(VP (VBP (inhibit))(NP (NP (JJ (several))(NN (type))(NN (cancer))(JJ (colorectal))(NN (adenoma))(JJ (hepatocellular))(NN (carcinoma)))(PRN (-LRB- (-LRB-))(NP (NN (HCC)))(-RRB- (-RRB-))))))))) |ET|  |BS| 17:C04.557.470.035 104:C04.557.470.200.025.255 122:C14.280.383 225:E05.337 670:D02.455.426.559.389.657.410.595.176  |ES| 10:1 14:1 17:1 18:1 19:1 42:1 84:1 262:1 303:1 304:1 441:1 502:1 543:1 1370:1 1497:1 2487:1 2893:1  |EV| 
4.5068990627598779497020586859435  |BT| (FRAG (PP (IN (In))(ADJP (JJ (present))(SBAR (S (NP (NP (NN (paper)))(, (,))(NP (NP (JJ (ethanol-induced))(JJ (acute))(JJ (chronic))(NN (liver))(NN (damage))(NN (rat))(NN (model)))(VP (VBN (used))))(, (,)))(VP (VBP (result))(VP (VBD (showed))(SBAR (S (NP (NN (dioscin)))(ADVP (RB (significantly)))(VP (VBD (alleviated))(SBAR (S (NP (NP (NN (liver))(NN (steatosis)))(, (,))(NP (VBN (reduced))(NN (level))(NN (alanine))(NN (aminotransferase)))(, (,))(NP (NN (aspartate))(NN (aminotransferase)))(, (,))(NP (NP (JJ (total))(NN (triglyceride)))(PRN (-LRB- (-LRB-))(NP (NN (TG)))(-RRB- (-RRB-))))(, (,))(NP (JJ (total))(NN (cholesterol))(NN (malondialdehyde)))(, (,)))(VP (VBD (increased))(NP (NP (NN (level))(JJ (high-density))(NN (lipoprotein)))(, (,))(NP (NN (superoxide))(NN (dismutase)))(, (,))(NP (NN (glutathione))(NN (glutathione))(NN (peroxidase))))))))))))))))) |ET|  |BS| 58:D08.811.682.881 242:A03.620 245:B01.050.150.900.649.865.635.505.700 246:B01.050.150.900.649.865.635.505.700 508:C06.552.241 646:D08.811.913.477.700.100 647:D08.811.913.477.700.347 655:D04.808.247.222.284 751:D02.033.375 753:C06.552.241 991:D08.811.682.732.500 1207:D08.811.913.477.700.225 1208:D12.644.456.448 1209:D10.532.432 1210:D02.047.700 1211:J01.637.650 1212:D10.351.801  |ES| 2:1 10:1 14:1 19:1 47:1 72:1 90:1 101:1 124:1 132:1 146:1 147:1 244:1 249:1 452:1 476:1 836:1 849:1 1307:1 1790:1 1848:1 2392:1 2393:1 2403:1 2672:1 2674:1 2678:1 2744:1 3132:1 3485:1 4234:1 4235:1 4236:1 4237:1 4238:1 4239:1 4240:1 4241:1  |EV| 
4.5068990627598779497020586859435  |BT| (NP (NP (NP (NN (BACKGROUND)))(CC (&))(NP (NNS (AIMS))))(: (:))(S (NP (JJ (Chronic))(NN (alcohol))(NN (drinking)))(VP (VBZ (accelerates))(NP (NP (NN (liver))(NN (fibrosis))(NN (patient)))(JJ (viral))(NN (hepatitis)))(VP (ADVP (RB (fully)))(VBD (explained))(NP (JJ (ethanol-enhanced))(NN (liver))(NN (damage))))))) |ET|  |BS| 50:M01.643 242:A03.620 676:C06.552.630 751:D02.033.375 904:F01.145.317.269 1136:B04.450  |ES| 19:1 104:1 120:1 529:1 836:1 889:1 949:1 1046:1 1777:1 1778:1 1848:1 2048:1 3710:1 3967:1 3968:1 3969:1 3970:1 3971:1  |EV| 
4.5068990627598779497020586859435  |BT| (NP (NP (NN (BACKGROUND))(: (:)))(S (NP (NN (Alcohol))(NN (consumption)))(VP (VBZ (promotes))(NP (NP (JJ (hepatocellular))(NN (carcinoma)))(PRN (-LRB- (-LRB-))(NP (NN (HCC)))(-RRB- (-RRB-))))))) |ET|  |BS| 104:C04.557.470.200.025.255 904:F01.145.317.269  |ES| 10:1 14:1 19:1 104:1 298:1 303:1 304:1 441:1 1046:1 2387:1 3962:1  |EV| 
-4.5068990627598779497020586859435  |BT| (S (PP (IN (In))(NP (NN (order))))(VB (clarify))(SBAR (IN (whether))(S (NP (NP (JJ (peroxisomal))(NN (hydrogen))(NN (peroxide)))(PRN (-LRB- (-LRB-))(NP (NN (H2O2)))(-RRB- (-RRB-))))(VP (VBP (play))(NP (JJ (important))(NN (role))(NN (peroxisome))(JJ (proliferator-induced))(NN (hepatocarcinogenesis))))))(, (,))(NP (VBN (examined))(NN (change))(NN (metabolism))(JJ (peroxisomal))(NN (H2O2)))(ADVP (FW (vivo))(FW (vitro)))(VP (VBG (using))(NP (NP (JJ (male))(NN (Fischer-344))(NN (rat))(NN (fed))(NN (clofibrate)))(, (,))(NP (NP (JJ (bezafibrate))(FW (di)))(PRN (-LRB- (-LRB-))(NP (NN (2-ethylhexyl)))(-RRB- (-RRB-))))(NP (NP (NN (phthalate)))(PRN (-LRB- (-LRB-))(NP (NN (DEHP)))(-RRB- (-RRB-)))))(NP (CD (78))(NN (week))))) |ET|  |BS| 12:Z01.542.049 15:F01.829.316.616 30:Z01.058.290.190.800 31:D08.811.520.224.800 79:I03.450.642.693 245:B01.050.150.900.649.865.635.505.700 246:B01.050.150.900.649.865.635.505.700 479:G08.686.157.500 590:B01.050.050.199.520.760.200 663:C16.320.565.398.500.330.500 898:G03.495 907:D01.248.497.158.685.750.424 908:A11.284.430.214.190.500.585.600 909:D02.065.277.067 910:D02.241.081.114.968.500.500.195 911:D02.241.223.805.250 912:D27.888.569.100.675  |ES| 2:1 10:1 14:1 19:1 31:1 200:1 216:1 221:1 238:1 244:1 324:1 350:1 378:1 783:1 849:1 900:1 902:1 1402:1 1887:1 2426:1 3163:1 3192:1 3193:1 3194:1 3195:1 3196:1 3197:1 3198:1 3199:1 3200:1 3201:1 3202:1 3203:1 3204:1 3205:1 3206:1  |EV| 
-4.5068990627598779497020586859435  |BT| (S (NP (NP (NNP (Celecoxib)))(, (,))(NP (NP (JJ (selective))(NN (cyclooxygenase-2)))(PRN (-LRB- (-LRB-))(NP (NN (COX-2)))(-RRB- (-RRB-))))(NP (NN (inhibitor)))(, (,)))(NP (JJ (effective))(JJ (chemopreventive))(NN (colon))(NN (cancer))(JJ (nonsteoroidal))(JJ (antiinflammatory))(NN (drug)))(VP (VBD (approved))(NP (NP (NNP (FDA))(JJ (adjuvant))(NN (therapy))(NN (patient)))(JJ (familial))(JJ (adenomatous))(NN (polyposis))))) |ET|  |BS| 3:C04.557.470.035.215.100 50:M01.643 52:E02 349:D27.505.519.389.310.500 633:I01.409.418.750.600.650.760 683:D27.505.519.389.310 684:D02.065.884.247 685:D27.505.696.477.067 686:D27.505.954.158 687:D26.650.064  |ES| 2:1 10:1 14:1 18:1 19:1 57:1 58:1 61:1 76:1 113:1 120:1 130:1 191:1 380:1 854:1 1639:1 1749:1 1946:1 2343:1 2475:1 2476:1 2477:1 2478:1 2479:1  |EV| 
4.5068990627598779497020586859435  |BT| (S (ADVP (RB (However)))(, (,))(NP (NNP (Sorafenib))(NN (treatment)))(ADVP (RB (transiently)))(VP (VBD (inhibited))(SBAR (S (NP (NN (cell))(NN (cycle))(NN (progression)))(VP (VBD (resulted))(SBAR (S (NP (JJ (mitotic))(NN (catastrophe)))(VP (VBD (enhanced))(NP (JJ (non-apoptotic))(NN (liver))(NN (injury))(NN (regeneration))))))))))) |ET|  |BS| 16:C23.550.291.656 39:G04.299.139.160 52:E02 122:C14.280.383 353:G04.299.134 925:G10.261.326.520  |ES| 2:1 19:1 48:1 94:1 365:1 385:1 433:1 546:1 594:1 601:1 720:1 836:1 2416:1 2833:1 3210:1 3260:1 3614:1 4213:1  |EV| 
-4.5068990627598779497020586859435  |BT| (NP (NP (JJ (Critical))(NN (function))(NN (ADAM9))(NN (mouse))(NN (prostate))(NN (cancer)))) |ET|  |BS| 11:B01.050.150.900.649.865.635.505.500  |ES| 18:1 19:1 33:1 52:1 77:1 3211:1 3415:1  |EV| 
4.5068990627598779497020586859435  |BT| (S (PP (IN (In))(NP (NN (conclusion))))(, (,))(NP (NP (NP (NN (dioscin))(NN (show))(JJ (excellent))(JJ (protective))(NN (effect)))(JJ (ethanol-induced))(NN (liver))(NN (injury)))(S (VP (VBG (ameliorating))(NP (NP (JJ (ethanol-induced))(JJ (oxidative))(NN (stress)))(, (,))(NP (JJ (mitochondrial))(NN (function)))(, (,)))(NP (NP (JJ (inflammatory))(NP (NN (cytokine)))(NN (production)))(, (,))(NP (NN (apoptosis))(NN (liver))(NN (steatosis)))(, (,))))))(VP (VBD (developed))(NP (JJ (new))(NN (drug))(NN (treatment))(JJ (ethanol-induced))(NN (liver))(NN (injury))(NN (future))))) |ET|  |BS| 39:G04.299.139.160 52:E02 67:D26 242:A03.620 354:I01.320 508:C06.552.241 565:A11.284.430.214.190.875.564 567:G05.360.340.024.340.365 716:G03.495.710 751:D02.033.375 752:D12.644.276.374 753:C06.552.241  |ES| 2:1 19:1 33:1 75:1 89:1 191:1 244:1 429:1 493:1 546:1 712:1 836:1 1165:1 1190:1 1284:1 2004:1 2416:1 2430:1 2522:1 2583:1 2672:1 2673:1 2674:1 2675:1 2676:1 2677:1 2678:1  |EV| 
4.5068990627598779497020586859435  |BT| (SINV (NP (NP (JJ (Hepatocellular))(NN (carcinoma)))(PRN (-LRB- (-LRB-))(NP (NN (HCC)))(-RRB- (-RRB-))))(NP (CD (one))(JJ (common))(NN (cancer)))(ADVP (RB (worldwide)))(, (,))(VP (VBD (caused)))(NP (NP (NP (NNP (Hepatitis))(NNP (C))(NN (virus)))(PRN (-LRB- (-LRB-))(NP (NN (HCV)))(-RRB- (-RRB-))))(NN (hepatotoxin)))) |ET|  |BS| 104:C04.557.470.200.025.255 550:B04.450.410  |ES| 2:1 10:1 14:1 18:1 19:1 304:1 441:1 655:1 1010:1 1422:1 1938:1 1954:1 1955:1 2151:1 2506:1 3987:1 3988:1  |EV| 
-4.5068990627598779497020586859435  |BT| (S (ADVP (RB (Conversely)))(, (,))(NP (NP (JJ (partial))(NN (loss))(NN (A20)))(, (,))(NP (NN (A20))(NN (heterozygote))(NN (mouse)))(, (,)))(ADVP (RB (significantly)))(VP (VBZ (impairs))(NP (NP (NN (liver))(NN (regeneration))(NN (damage)))(, (,))(NP (VP (VBZ (confers))(NP (JJ (high))(NN (lethality)))(S (VP (ADVP (RB (otherwise)))(NP (JJ (safe))(NN (procedure))))))(NP (FW (i.e.))(, (,))(CD (2/3))(JJ (partial))(NN (hepatectomy))))))) |ET|  |BS| 11:B01.050.150.900.649.865.635.505.500 157:G05.380.383 375:Z01.639.100 925:G10.261.326.520 928:E04.210.556 967:D01.248.497.158.490  |ES| 2:1 19:1 32:1 52:1 124:1 178:1 836:1 1508:1 1826:1 1848:1 2729:1 2737:1 3260:1 3272:1 3273:1 3404:1 3405:1 3406:1 3407:1 3408:1 3409:1 3410:1  |EV| 
-0.034894999737659304628323297947645  |BT| (S (NP (JJ (Anthocyanin-containing))(JJ (purple-fleshed))(NN (potato)))(VP (VBP (suppress))(NP (NP (NN (colon))(NN (tumorigenesis)))(PP (IN (via))(NP (NN (elimination))(NN (colon))(NN (cancer))(NN (stem))(NN (cell))))))) |ET|  |BS| 32:C04.697.098.500 33:C04.697.098 308:A11.872 667:B01.650.940.800.575.100.905.725.777 668:B01.650.940.800.575.100.905.725.777 669:D03.383.663.283.266.450.087  |ES| 18:1 19:1 78:1 94:1 113:1 156:1 596:1 1106:1 2438:1 2439:1 2440:1 2441:1  |EV| 
4.5068990627598779497020586859435  |BT| (S (NP (NP (NP (JJ (Carcinogenic))(NN (risk))(JJ (molecular))(NN (mechanism)))(VP (VBG (underlying))(NP (NP (NN (liver))(JJ (tumor-promoting))(NN (activity)))(NN (copper))(NN (gluconate)))))(, (,))(NP (JJ (additive))(JJ (functional))(NN (food)))(, (,)))(VP (VBN (investigated))(S (VP (VBG (using))(NP (NP (NP (NN (rat))(JJ (medium-term))(NN (liver))(NN (carcinogenicity))(NN (bioassay))(NN (protocol)))(PRN (-LRB- (-LRB-))(NP (NN (Ito))(NN (test)))(-RRB- (-RRB-))))(ADJP (ADJP (JJ (2-week)))(ADJP (JJ (short-term))))(NN (administration))(NN (experiment))))))) |ET|  |BS| 12:Z01.542.049 61:E05.318.740.600.800 106:E05.091 242:A03.620 245:B01.050.150.900.649.865.635.505.700 246:B01.050.150.900.649.865.635.505.700 279:D27.888.569.100 515:C04.588.274.623 849:G08.686.785.760.769.490.500 914:L01.178 1145:D02.241.081.844.322 1146:D27.720.368 1147:C17.800.621  |ES| 2:1 10:1 14:1 19:1 161:1 162:1 171:1 350:1 399:1 403:1 415:1 435:1 836:1 849:1 1418:1 2470:1 2575:1 2632:1 2931:1 3022:1 3215:1 3216:1 3266:1 3583:1 3776:1 3801:1 3978:1 3979:1 3980:1 3981:1  |EV| 
4.5068990627598779497020586859435  |BT| (S (NP (NN (Loss))(NN (hepatocyte))(NN (growth))(NN (factor/c-Met))(NN (signaling))(NN (pathway)))(VP (VBZ (accelerates))(SBAR (S (NP (JJ (early))(NN (stage))(NN (N-nitrosodiethylamine)))(VP (VBD (induced))(NP (NN (hepatocarcinogenesis)))))))) |ET|  |BS| 45:G07.700.320.249 69:G02.111.087.800 126:G02.111.087.800 262:A11.436.348 554:D02.654.442.200  |ES| 19:1 102:1 195:1 383:1 412:1 529:1 900:1 1128:1 1129:1 1788:1 1909:1 2602:1 4289:1  |EV| 
-1.7878676945520055596716701984406  |BT| (S (NP (DT (The))(NN (cyclooxygenase-2))(-LRB- (-LRB-))(NN (COX-2))(-RRB- (-RRB-))(NN (inhibitor))(NN (celecoxib)))(VP (VBN (approved))(NP (NP (NN (drug))(NN (clinic))(NN (colon))(NN (cancer))(NN (chemoprevention)))(VP (VBN (tested))(NP (NP (JJ (chemopreventive))(JJ (therapeutic))(NN (efficacy)))(JJ (various))(JJ (clinical))(NN (trial))))))) |ET|  |BS| 12:Z01.542.049 52:E02 67:D26 253:E02.319.162 349:D27.505.519.389.310.500 683:D27.505.519.389.310 684:D02.065.884.247 840:E01.789.800 841:E05.318.760.250.500 842:N02.278.035  |ES| 10:1 14:1 18:1 19:1 61:1 76:1 84:1 113:1 191:1 380:1 541:1 691:1 870:1 1096:1 1946:1 2304:1 2343:1 2807:1 2987:1 2988:1 2989:1  |EV| 
4.5068990627598779497020586859435  |BT| (SINV (PP (IN (In))(NP (NN (order))))(VP (VBP (prepare)))(NP (NP (JJ (human))(NN (trial))(NN (inhibition))(NN (colon))(NN (carcinogenesis)))(, (,))(NP (NP (VBN (conducted))(NN (study))(JJ (green))(NN (tea))(NNS (polyphenols)))(VP (JJ (preventive))(VP (NN (agent))(NP (NN (azoxymethane))(S (-LRB- (-LRB-))(NP (NN (AOM))(-RRB- (-RRB-))(: (-)))(VP (VBN (induced))(NP (NN (rat))(NN (colon))(NN (cancer))(NN (model)))(S (VP (VBG (using))(NP (NP (NP (JJ (aberrant))(NN (crypt))(NN (focus)))(PRN (-LRB- (-LRB-))(NP (NN (ACF)))(-RRB- (-RRB-))))(NN (end))(NN (point))))))))))))) |ET|  |BS| 30:Z01.058.290.190.800 31:D08.811.520.224.800 33:C04.697.098 43:F01.145.544 46:A03.556.124.526.356 55:B01.050.150.900.649.801.400.112.400.400 56:D02.455.426.559.389.657.715 132:D02.172.080 245:B01.050.150.900.649.865.635.505.700 246:B01.050.150.900.649.865.635.505.700 375:Z01.639.100 824:C04.834.020 841:E05.318.760.250.500 876:F01.145  |ES| 2:1 10:1 14:1 18:1 19:1 36:1 72:1 103:1 113:1 131:1 154:1 207:1 244:1 350:1 409:1 728:1 849:1 1431:1 1725:1 1883:1 1993:1 1994:1 2121:1 2379:1 2834:1 2913:1 2914:1 2989:1 3100:1 3192:1 4228:1 4229:1  |EV| 
4.5068990627598779497020586859435  |BT| (NP (NP (PRP$ (Our))(S (VP (VBP (result))(S (VP (VBP (provide))(NP (NP (ADJP (NN (clue))(JJ (molecular)))(NN (event)))(VP (VBN (involved))(NP (NN (mechanism))(NN (action))(JJ (HCB-induced))(NN (hepatocarcinogenesis))))))))))) |ET|  |BS| 742:G03.787 1232:D02.455.426.559.389.261.400  |ES| 19:1 101:1 161:1 162:1 205:1 658:1 711:1 774:1 900:1 1142:1 2013:1 4320:1  |EV| 
4.5068990627598779497020586859435  |BT| (S (NP (NN (Hepatocarcinogenesis)))(VP (VBD (induced))(NP (NN (diethylnitrosamine))(JJ (hepatic))(NN (deletion))(NN (PTEN))))) |ET|  |BS| 306:G05.355.600.800 554:D02.654.442.200  |ES| 19:1 412:1 838:1 1059:1 1936:1 1952:1 1959:1  |EV| 
-4.5068990627598779497020586859435  |BT| (S (NP (NP (NP (NN (Expression))(NN (cyclooxygenase)))(PRN (-LRB- (-LRB-))(NP (NN (COX)))(-RRB- (-RRB-))))(CD (-2))(NN (protein))(NN (rat))(NN (hepatocarcinogenesis)))(VP (VBN (associated))(NP (NP (JJ (fatty))(NN (change)))(, (,))(NP (NN (fibrosis)))(, (,)))(NP (NP (NN (cirrhosis))(JJ (oxidative))(NN (DNA))(NN (damage)))(, (,))(VP (VBD (caused))(SBAR (S (NP (ADJP (ADJP (JJ (choline-deficient)))(, (,))(ADJP (ADJP (NN (L-amino))(JJ (acid-defined)))(PRN (-LRB- (-LRB-))(ADJP (JJ (CDAA)))(-RRB- (-RRB-)))))(NN (diet)))(VP (VBD (investigated))(NP (NP (NN (F344))(JJ (male))(NN (rat)))(, (,))(PP (IN (along))(NP (NP (JJ (chemopreventive))(NN (efficacy))(JJ (specific))(NN (COX-2))(NN (inhibitor)))(, (,))(NP (NP (NN (nimesulide)))(PRN (-LRB- (-LRB-))(NP (NN (NIM)))(-RRB- (-RRB-)))))))))))))) |ET|  |BS| 7:D12.776 24:D08.811.600.720.750 245:B01.050.150.900.649.865.635.505.700 246:B01.050.150.900.649.865.635.505.700 349:D27.505.519.389.310.500 357:C06.552.630 526:G05.355.180 590:B01.050.050.199.520.760.200 594:D02.033.100.291.211 595:G07.203.650.240 596:E02.642.249 597:D12.125 662:C23.550.355 691:C23.550.355  |ES| 2:1 4:1 10:1 14:1 19:1 76:1 169:1 200:1 316:1 380:1 403:1 540:1 666:1 849:1 900:1 949:1 1199:1 1402:1 1848:1 1946:1 2070:1 2188:1 2190:1 2191:1 2304:1 2506:1 2583:1 2666:1 3180:1 3181:1 3182:1 3183:1 3184:1 3185:1 3186:1 3187:1  |EV| 
-2.2758268477314231859054416418076  |BT| (S (VP (NP (NNP (Digital)))(VBG (karyotyping))(VP (VBZ (identifies))(NP (NN (thymidylate))(NN (synthase))(NN (amplification))(NN (mechanism))(NN (resistance))(NN (5-fluorouracil))(JJ (metastatic))(JJ (colorectal))(NN (cancer))(NN (patient)))))) |ET|  |BS| 4:C04.588.274.476.411.307 5:C04.588.274.476.411.307 30:Z01.058.290.190.800 31:D08.811.520.224.800 50:M01.643 560:D03.383.742.698.875.404 712:E01.370.225.500.385.315 713:D08.811.913.555.500.862 714:A01.378.800.667.430  |ES| 17:1 18:1 19:1 66:1 120:1 162:1 337:1 921:1 1094:1 1610:1 2307:1 2576:1 2577:1 2578:1  |EV| 
4.5068990627598779497020586859435  |BT| (S (NP (NP (NP (DT (The))(NN (process))(NN (hepatocarcinogenesis))(NN (diethylnitrosamine)))(PRN (-LRB- (-LRB-))(NP (NN (DEN)))(-RRB- (-RRB-))))(JJ (initiation/phenobarbital))(-LRB- (-LRB-))(NN (PB))(-RRB- (-RRB-))(NN (promotion))(NN (mouse))(NN (model)))(VP (VBZ (involves))(NP (NP (JJ (selective))(JJ (clonal))(NN (outgrowth))(NN (cell))(NN (harboring))(NN (oncogene))(NN (mutation))(NN (Ctnnb1)))(, (,))(S (NP (JJ (spontaneous))(JJ (DEN-only-induced))(NN (tumor)))(ADVP (RB (often)))(NP (NP (NN (Ha-ras)))(: (-))(NP (JJ (B-raf-mutated)))))))) |ET|  |BS| 1:G05.360.340.024.340.375.500.791.550 8:C04 9:G05.360.340.024.340.375.500 11:B01.050.150.900.649.865.635.505.500 18:G05.365.590 23:D12.776.091.249 41:A11 216:Z01.107.084.900.425 278:D08.811.913.696.620.682.700.559.842.374 301:A11.251.353 554:D02.654.442.200 756:D03.383.742.698.253.650  |ES| 2:1 7:1 10:1 14:1 19:1 24:1 34:1 52:1 72:1 94:1 283:1 632:1 638:1 691:1 900:1 1069:1 1304:1 1673:1 1749:1 1875:1 1952:1 2337:1 3496:1 4030:1 4031:1 4032:1 4033:1 4034:1 4035:1  |EV| 
-4.5068990627598779497020586859435  |BT| (NP (NP (NN (CONCLUSION)))(: (:))(NP (NP (NNP (Metformin)))(, (,))(VP (ADVP (RB (generally)))(VBN (considered))(S (ADJP (JJ (nontoxic))(SBAR (S (ADJP (RB (remarkably))(JJ (inexpensive)))(, (,))(VP (MD (might))(NP (VBN (used))(NN (combination))(NNS (TKIs))(NN (patient))(JJ (non-small))(NN (cell))(NN (lung))(NN (cancer)))(, (,))(S (VP (VBG (harboring))(S (NP (NN (EGFR))(NN (mutation)))(VP (VBP (overcome))(S (NP (NN (TKI))(NN (resistance)))(VP (VB (prolong))(NP (NN (survival))))))))))))))))) |ET|  |BS| 18:G05.365.590 30:Z01.058.290.190.800 31:D08.811.520.224.800 50:M01.643 96:I03.784 110:C04.588.894.797.520.109.220.249 784:D02.078.370.141.450  |ES| 2:1 18:1 19:1 34:1 94:1 104:1 120:1 187:1 274:1 328:1 476:1 530:1 694:1 798:1 1061:1 1094:1 1304:1 1882:1 2746:1 2998:1 3364:1 3365:1 3366:1 3367:1 3368:1 3369:1 3370:1  |EV| 
-4.5068990627598779497020586859435  |BT| (NP (NP (S (VP (TO (To))(ADVP (RBR (better)))(VP (VB (understand))(NP (NP (JJ (anticancer))(NN (activity))(NNP (Levamisole)))(PRN (-LRB- (-LRB-))(NP (NNP (LMS)))(-RRB- (-RRB-)))))))(, (,))(NP (NP (NN (serf))(JJ (adjuvant))(NN (colon))(NN (cancer))(NN (therapy))(NN (combination))(NN (5-Fluorouracil)))(, (,))(NP (NP (NN (study))(NN (analysis))(NNP (LMS))(POS (')))(NN (ability)))(S (VP (VBP (induce))(NP (NP (NN (apoptosis))(NN (growth))(NN (arrest)))(NP (VBN (cultured))(JJ (human))(JJ (micro))(: (-))(NP (JJ (macrovascular))(JJ (endothelial))(NN (cell))(PRN (-LRB- (-LRB-))(NP (NNS (ECs)))(-RRB- (-RRB-)))(NN (fibroblast)))))))))) |ET|  |BS| 30:Z01.058.290.190.800 31:D08.811.520.224.800 39:G04.299.139.160 45:G07.700.320.249 55:B01.050.150.900.649.801.400.112.400.400 239:F02.463.188.357 385:F02.784.629.131 560:D03.383.742.698.875.404 618:E02.186 685:D27.505.696.477.067 687:D26.650.064 871:D02.886.675.346 872:A11.329.228 873:A11.436.275  |ES| 2:1 10:1 14:1 18:1 19:1 36:1 89:1 94:1 102:1 113:1 130:1 131:1 243:1 399:1 530:1 602:1 661:1 828:1 829:1 882:1 904:1 1232:1 1300:1 1489:1 1880:1 2213:1 2404:1 2479:1 3088:1 3089:1 3090:1 3091:1 3092:1 3093:1  |EV| 
-4.5068990627598779497020586859435  |BT| (NP (DT (These))(VBG (finding))(S (VP (VBP (confirm))(NP (NN (hypothesis))(NN (ODC))(NN (polymorphism))(JJ (genetic))(NN (marker))(NN (colon))(NN (cancer))(NN (risk))))(, (,))(NP (NP (NP (NN (support))(NN (use))(NN (ODC))(NN (inhibitor))(NN (aspirin)))(, (,))(NP (NP (JJ (nonsteroidal))(JJ (antiinflammatory))(NN (drug)))(PRN (-LRB- (-LRB-))(NP (NNS (NSAIDs)))(-RRB- (-RRB-))))(, (,)))(NN (combination))(NN (strategy))(NN (colon))(NN (cancer))(NN (prevention))))) |ET|  |BS| 61:E05.318.740.600.800 149:G05.360.340.024.340.364.875.890 158:D23.101 307:G05.365.795 670:D02.455.426.559.389.657.410.595.176 796:D27.505.696.663.850.014.040.500  |ES| 2:1 10:1 14:1 18:1 19:1 113:1 171:1 191:1 380:1 530:1 534:1 792:1 864:1 927:1 1060:1 1114:1 1364:1 1474:1 1659:1 2477:1 2487:1 2697:1 2966:1 3044:1 3045:1 3046:1  |EV| 
4.5068990627598779497020586859435  |BT| (NP (NP (NNS (METHODS))(: (:)))(S (NP (DT (A))(JJ (Solt-Farber))(JJ (two-step))(NN (test))(NN (model))(NN (hepatocarcino))(NN (genesis)))(VP (VBD (established))(S (NP (NP (NP (NP (NP (NN (diethylnitrosamine)))(PRN (-LRB- (-LRB-))(NP (NN (DEN)))(-RRB- (-RRB-))))(NN (2-acetylaminofluorene)))(PRN (-LRB- (-LRB-))(NP (NN (AAF)))(-RRB- (-RRB-))))(NN (rat)))(VP (VBP (investigate))(S (VP (VBG (modifying))(NP (NP (NP (NN (effect))(NN (expression))(NN (6-glucosephosphatase)))(PRN (-LRB- (-LRB-))(NP (NN (G-6-Pase)))(-RRB- (-RRB-))))(, (,))(NP (NN (succinodehydrogenase))(-LRB- (-LRB-))(NN (SDH))(-RRB- (-RRB-)))(, (,))(NP (NP (NP (NN (adenosine))(NN (triphosphatase)))(PRN (-LRB- (-LRB-))(NP (NN (ATPase)))(-RRB- (-RRB-))))(JJ (N-nitrosodiethylamine-mediated))(NN (hepatocarcinogenesis))))))))))) |ET|  |BS| 30:Z01.058.290.190.800 31:D08.811.520.224.800 168:E05.581 245:B01.050.150.900.649.865.635.505.700 246:B01.050.150.900.649.865.635.505.700 506:F01.829.263.315 554:D02.654.442.200 767:D02.065.064.150 893:D08.811.277.040.025 894:D08.811.277.040.025 1040:D08.811.277.352.650.225 1041:E01.370.370.380.250  |ES| 2:1 10:1 14:1 19:1 69:1 72:1 75:1 104:1 115:1 459:1 565:1 849:1 900:1 1418:1 1875:1 1952:1 2660:1 2762:1 3158:1 3221:1 3271:1 3624:1 3625:1 3626:1 3627:1 3628:1 3629:1 3630:1 3631:1 3632:1 3633:1 3634:1  |EV| 
4.5068990627598779497020586859435  |BT| (NP (NP (NP (NN (Involvement))(NN (Mouse))(JJ (Constitutive))(NN (Androstane))(NN (Receptor))(JJ (Acifluorfen-Induced))(NN (Liver)))(NP (NNP (Injury))(JJ (Subsequent))(NN (Tumor))(NN (Development))))) |ET|  |BS| 8:C04 242:A03.620  |ES| 19:1 1218:1 2059:1 2127:1 2721:1 3399:1 4264:1 4265:1 4266:1 4267:1 4268:1 4269:1  |EV| 
-4.5068990627598779497020586859435  |BT| (NP (NP (NP (NNP (Farnesyltransferase))(NN (inhibitor)))(, (,))(NP (NN (ABT-100)))(, (,))(NP (JJ (potent))(NN (liver))(NN (cancer))(JJ (chemopreventive))(NN (agent))))) |ET|  |BS| 988:D08.811.913.225.431 989:D08.811.913.225.437  |ES| 2:1 18:1 19:1 22:1 380:1 728:1 836:1 1946:1 2538:1 3487:1  |EV| 
4.5068990627598779497020586859435  |BT| (S (PP (IN (In))(NP (JJ (medium-term))(NN (carcinogenesis))(NN (test))(NN (rat))))(, (,))(NP (NP (ADJP (CD (2.0))(NN (%)))(NN (KA)))(VP (ADVP (RB (orally)))(VBN (given))(NP (NN (F344/DuCrj))(NN (rat))(CD (4))(NN (week))(NN (initiation))(NN (period))))(, (,)))(VP (VBD (followed))(NP (NP (NN (combination))(JJ (partial))(NN (hepatectomy))(NN (treatment))(NN (hepatocarcinogenesis))(NN (promoter)))(, (,))(NP (NP (NN (phenobarbital)))(PRN (-LRB- (-LRB-))(NP (NN (PB)))(-RRB- (-RRB-))))))) |ET|  |BS| 52:E02 245:B01.050.150.900.649.865.635.505.700 246:B01.050.150.900.649.865.635.505.700 590:B01.050.050.199.520.760.200 756:D03.383.742.698.253.650 776:G01.910.645 849:G08.686.785.760.769.490.500 914:L01.178 928:E04.210.556 1205:E05.940.150  |ES| 2:1 10:1 14:1 19:1 29:1 83:1 207:1 244:1 319:1 369:1 530:1 546:1 637:1 783:1 849:1 900:1 1418:1 2685:1 2725:1 3130:1 3215:1 3272:1 3273:1 3496:1 4224:1 4225:1 4226:1 4227:1  |EV| 
-4.5068990627598779497020586859435  |BT| (S (NP (DT (The))(NNS (data)))(VP (VBP (provide))(NP (JJ (additional))(NN (evidence))(JJ (potential))(NN (use))(NN (roxithromycin))(NN (treatment))(JJ (hepatocellular))(NN (carcinoma))(NN (prevention))))) |ET|  |BS| 52:E02 104:C04.557.470.200.025.255 843:D02.540.576.500.992.630  |ES| 19:1 38:1 303:1 304:1 546:1 691:1 711:1 793:1 827:1 980:1 1474:1 1659:1 2990:1  |EV| 
-4.5068990627598779497020586859435  |BT| (S (NP (NNP (Administration))(NN (HMGB1))(NN (release))(NN (inhibitor))(NN (ethyl))(NN (pyruvate)))(, (,))(VP (VBP (affect))(NP (NP (JJ (p53-mediated))(JJ (hepatic))(NN (apoptosis)))(, (,))(VP (ADVP (RB (substantially)))(VBD (prevented))(NP (JJ (carcinogen-induced))(NN (cirrhosis))(NN (tumorigenesis))(NN (rat))(NN (liver))))))) |ET|  |BS| 2:G05.360.340.024.340.375.249.385 32:C04.697.098.500 33:C04.697.098 39:G04.299.139.160 242:A03.620 245:B01.050.150.900.649.865.635.505.700 246:B01.050.150.900.649.865.635.505.700 279:D27.888.569.100 357:C06.552.630 433:F01.470.047 585:D12.644.276.087.371 589:E02.204.125 662:C23.550.355  |ES| 2:1 19:1 78:1 89:1 380:1 836:1 838:1 849:1 1199:1 1486:1 1944:1 2164:1 2165:1 2346:1 2417:1 2418:1 2419:1 2420:1 2421:1  |EV| 
-4.5068990627598779497020586859435  |BT| (S (NP (NP (JJ (Dietary))(NN (intake))(NN (pterostilbene)))(, (,))(NP (NN (constituent))(NN (blueberry)))(, (,)))(VP (VBZ (inhibits))(NP (NN (beta-catenin/p65))(JJ (downstream))(NN (signaling))(NN (pathway))(NN (colon))(NN (carcinogenesis))(NN (rat))))) |ET|  |BS| 23:D12.776.091.249 33:C04.697.098 46:A03.556.124.526.356 69:G02.111.087.800 122:C14.280.383 126:G02.111.087.800 245:B01.050.150.900.649.865.635.505.700 246:B01.050.150.900.649.865.635.505.700 595:G07.203.650.240 710:B01.650.940.800.575.100.343.774.249  |ES| 2:1 19:1 113:1 195:1 207:1 383:1 560:1 615:1 849:1 2428:1 2457:1 2562:1 2563:1 2564:1 2565:1  |EV| 
4.5068990627598779497020586859435  |BT| (NP (NP (S (VP (TO (To))(VP (VB (clarify))(S (VP (VBG (modifying))(NP (NP (NN (effect))(NN (N-Acetyl-L-Cysteine)))(PRN (-LRB- (-LRB-))(NP (NN (NAC)))(-RRB- (-RRB-)))))))))(, (,))(NP (NP (JJ (antioxidative))(NN (ability)))(, (,))(NP (NN (hepatocarcinogenesis)))(VP (VBD (promoted))(SBAR (S (NP (NP (NP (NP (NN (fenofibrate)))(PRN (-LRB- (-LRB-))(NP (NN (FF)))(-RRB- (-RRB-))))(, (,))(NP (NP (NP (NN (peroxisome))(JJ (proliferator-activated))(NN (receptor)))(PRN (-LRB- (-LRB-))(NP (NN (PPAR)))(-RRB- (-RRB-))))(NN (alpha)))(NP (NN (agonist))))(, (,))(NP (NP (JJ (male))(NN (F344/N))(NN (rat)))(VP (VBN (administered))(NP (NP (NP (ADJP (JJ (single))(JJ (intraperitoneal)))(NN (injection))(NN (N-diethylnitrosamine)))(PRN (-LRB- (-LRB-))(NP (NN (DEN)))(-RRB- (-RRB-))))(NN (initiator))))))(VP (VBD (followed))(NP (NN (administration))(NN (diet))(VBG (containing))(CD (3,000))(NN (ppm))(NN (FF))(CD (16))(NN (week)))))))))) |ET|  |BS| 30:Z01.058.290.190.800 31:D08.811.520.224.800 385:F02.784.629.131 536:D12.776.826.239.500 554:D02.654.442.200 590:B01.050.050.199.520.760.200 596:E02.642.249 791:D02.886.030.230.259 805:F01.829.263.315.500.725 806:F01.829.263.315.500.725 916:D02.241.081.114.968.500.625 917:E02.319.267.530.490  |ES| 2:1 10:1 14:1 19:1 75:1 186:1 286:1 783:1 785:1 828:1 849:1 900:1 1300:1 1402:1 1801:1 1836:1 1875:1 1887:1 1912:1 2191:1 2336:1 2575:1 2644:1 2846:1 3130:1 3193:1 3221:1 3222:1 3223:1 3224:1 3225:1 3226:1 3227:1 3228:1 3229:1 3230:1 3231:1 3232:1 3233:1 3234:1  |EV| 
-4.5068990627598779497020586859435  |BT| (S (VP (VBG (Combining))(NP (NN (kallistatin))(NN (gene))(NN (therapy))(NN (meloxicam))(NN (treat))(JJ (hepatocellular))(NN (carcinoma))(NN (mouse))))) |ET|  |BS| 11:B01.050.150.900.649.865.635.505.500 30:Z01.058.290.190.800 31:D08.811.520.224.800 52:E02 104:C04.557.470.200.025.255  |ES| 9:1 19:1 52:1 130:1 303:1 304:1 1087:1 1088:1 1089:1 1090:1  |EV| 
4.5068990627598779497020586859435  |BT| (S (NP (EX (There)))(NP (JJ (abundant))(JJ (epidemiological))(NN (evidence))(JJ (heavy))(NN (alcohol))(NN (intake)))(VP (VBZ (contributes))(NP (NP (NP (JJ (hepatocellular))(NN (carcinoma)))(PRN (-LRB- (-LRB-))(NP (NN (HCC)))(-RRB- (-RRB-))))(NN (development))))) |ET|  |BS| 104:C04.557.470.200.025.255 651:H02.403.720.500 904:F01.145.317.269  |ES| 10:1 14:1 19:1 35:1 38:1 303:1 304:1 441:1 767:1 845:1 1798:1 2563:1 3217:1 3710:1 4039:1  |EV| 
4.5068990627598779497020586859435  |BT| (S (PP (IN (In))(NP (JJ (present))(NN (study))))(, (,))(S (VP (VBG (using))(NP (FW (vivo))(NN (model))(NN (rat))(NN (hepatocarcinogenesis)))))(VP (VP (VBD (induced))(NP (NN (2-acetylaminofluorene))))(, (,))(VP (VBD (found))(NP (JJ (extensive))(NN (alteration))(JJ (cellular))(NN (iron))(NN (metabolism))(JJ (preneoplastic))(NN (stage))(NN (liver))(NN (carcinogenesis)))))) |ET|  |BS| 12:Z01.542.049 33:C04.697.098 41:A11 242:A03.620 245:B01.050.150.900.649.865.635.505.700 246:B01.050.150.900.649.865.635.505.700 881:D02.065.064.150 895:D01.490.600 896:D01.268.556.412 898:G03.495  |ES| 2:1 19:1 37:1 72:1 131:1 207:1 244:1 350:1 378:1 412:1 836:1 849:1 900:1 951:1 1129:1 1307:1 1438:1 3074:1 3162:1 3163:1 3271:1 4242:1  |EV| 
-4.4668487773322738121350994333625  |BT| (S (NP (JJ (Epidemiological))(NN (evidence)))(VP (VBZ (suggests))(S (NP (NN (vitamin))(NN (D)))(VP (MD (may))(VP (VB (play))(NP (NP (NN (role)))(VP (VBG (inhibiting))(NP (NN (development))(NN (colon))(NN (prostate))(NN (cancer)))))))))) |ET|  |BS| 15:F01.829.316.616 46:A03.556.124.526.356 79:I03.450.642.693 122:C14.280.383 651:H02.403.720.500 720:D04.808.247.222.474 721:D04.808.812.768  |ES| 18:1 19:1 31:1 35:1 38:1 77:1 113:1 238:1 331:1 491:1 880:1 2384:1 2591:1 2592:1  |EV| 
-4.5068990627598779497020586859435  |BT| (S (NP (NN (5-aza-dC))(NN (treatment)))(ADVP (RB (markedly)))(VP (VBD (decreased))(NP (NP (NN (atherosclerosis))(NN (development))(NN (Ldlr)))(-LRB- (-LRB-))(PRN (: (-))(: (/))(: (-)))(-RRB- (-RRB-))(NN (mouse)))(NP (PP (IN (without))(NP (NN (change))(NN (body))(NN (weight))))(, (,))(NP (NN (plasma))(NN (lipid))(NN (profile)))(, (,))(NP (NN (macrophage))(NN (cholesterol))(NN (level))(NN (plaque))(NN (lipid))(NN (content)))))) |ET|  |BS| 11:B01.050.150.900.649.865.635.505.500 52:E02 511:C14.907.137.126.307 513:C14.907.137.126 558:C23.300.821 653:C23.888.144 654:D02.145.150 655:D04.808.247.222.284 656:C07.793.208.377 657:A12.207.152.693 658:A11.329.372 659:D10  |ES| 2:1 10:1 14:1 19:1 35:1 45:1 52:1 200:1 202:1 249:1 546:1 1195:1 1711:1 1794:1 1804:1 1981:1 2395:1 2396:1 2397:1 2398:1 2399:1 2400:1 2401:1 2402:1 2403:1  |EV| 
4.5068990627598779497020586859435  |BT| (S (NP (NN (Hepatocarcinogenesis)))(VP (VBD (induced))(ADJP (JJ (diethylnitrosamine/phenobarbital))(PRN (-LRB- (-LRB-))(NP (NN (DEN/PB)))(-RRB- (-RRB-)))))) |ET|  |BS| 554:D02.654.442.200 756:D03.383.742.698.253.650  |ES| 10:1 14:1 19:1 412:1 1959:1 4182:1 4183:1  |EV| 
4.5068990627598779497020586859435  |BT| (S (NP (JJ (Considerable))(NN (attention)))(VP (VBD (focused))(NP (NP (JJ (peroxisome))(JJ (proliferator-induced))(JJ (hepatocellular))(NN (carcinoma)))(, (,))(SBAR (S (NP (NN (phenomenon)))(VP (VBD (noted))(NP (NN (man)))))))(, (,))(SBAR (IN (whereas))(S (NP (JJ (limited))(NN (study)))(VP (VBP (examine))(VP (VBZ (fibrates))(SBAR (S (NP (JJ (therapeutic))(NN (drug)))(VP (VBP (induce))(NP (NP (NN (cholestasis)))(, (,))(NP (JJ (common))(NN (finding))(JJ (human))))))))))))) |ET|  |BS| 52:E02 55:B01.050.150.900.649.801.400.112.400.400 67:D26 104:C04.557.470.200.025.255 275:C23.888 879:C06.130.120.135 905:F02.830.104.214 912:D27.888.569.100.675 1188:D02.241.081.114.968.500 1189:M01.390  |ES| 2:1 19:1 36:1 131:1 191:1 243:1 303:1 304:1 372:1 541:1 655:1 927:1 960:1 1887:1 2131:1 2310:1 3198:1 4125:1 4126:1 4127:1 4128:1 4129:1 4130:1 4131:1  |EV| 
-4.5068990627598779497020586859435  |BT| (S (NP (PRP (We)))(ADVP (RB (also)))(VP (VBN (shown))(SBAR (S (NP (NP (JJ (ursodeoxycholic))(NN (acid)))(PRN (-LRB- (-LRB-))(NP (NN (UDCA)))(-RRB- (-RRB-))))(VP (VBD (prevented))(SBAR (S (NP (JJ (AOM-induced))(NN (colon))(NN (cancer)))(VP (VBD (suppressed))(NP (NN (Cox-2))(NN (induction))))))))))) |ET|  |BS| 132:D02.172.080 737:D04.808.105.225.272.962  |ES| 5:1 10:1 14:1 18:1 19:1 62:1 113:1 237:1 307:1 736:1 843:1 1275:1 1944:1 2630:1 2631:1 3135:1  |EV| 
-4.5068990627598779497020586859435  |BT| (NP (NP (S (VP (TO (To))(VP (VB (clarify))(S (VP (VBG (modifying))(NP (NP (NN (effect))(NN (N-Acetyl-L-Cysteine)))(PRN (-LRB- (-LRB-))(NP (NN (NAC)))(-RRB- (-RRB-)))))))))(, (,))(NP (NP (JJ (antioxidative))(NN (ability)))(, (,))(NP (NN (hepatocarcinogenesis)))(VP (VBD (promoted))(SBAR (S (NP (NP (NP (NP (NN (fenofibrate)))(PRN (-LRB- (-LRB-))(NP (NN (FF)))(-RRB- (-RRB-))))(, (,))(NP (NP (NP (NN (peroxisome))(JJ (proliferator-activated))(NN (receptor)))(PRN (-LRB- (-LRB-))(NP (NN (PPAR)))(-RRB- (-RRB-))))(NN (alpha)))(NP (NN (agonist))))(, (,))(NP (NP (JJ (male))(NN (F344/N))(NN (rat)))(VP (VBN (administered))(NP (NP (NP (ADJP (JJ (single))(JJ (intraperitoneal)))(NN (injection))(NN (N-diethylnitrosamine)))(PRN (-LRB- (-LRB-))(NP (NN (DEN)))(-RRB- (-RRB-))))(NN (initiator))))))(VP (VBD (followed))(NP (NN (administration))(NN (diet))(VBG (containing))(CD (3,000))(NN (ppm))(NN (FF))(CD (16))(NN (week)))))))))) |ET|  |BS| 30:Z01.058.290.190.800 31:D08.811.520.224.800 385:F02.784.629.131 536:D12.776.826.239.500 554:D02.654.442.200 590:B01.050.050.199.520.760.200 596:E02.642.249 791:D02.886.030.230.259 805:F01.829.263.315.500.725 806:F01.829.263.315.500.725 916:D02.241.081.114.968.500.625 917:E02.319.267.530.490  |ES| 2:1 10:1 14:1 19:1 75:1 186:1 286:1 783:1 785:1 828:1 849:1 900:1 1300:1 1402:1 1801:1 1836:1 1875:1 1887:1 1912:1 2191:1 2336:1 2575:1 2644:1 2846:1 3130:1 3193:1 3221:1 3222:1 3223:1 3224:1 3225:1 3226:1 3227:1 3228:1 3229:1 3230:1 3231:1 3232:1 3233:1 3234:1  |EV| 
4.5068990627598779497020586859435  |BT| (FRAG (ADVP (RB (However)))(, (,))(NP (NP (NN (action))(NN (compound))(JJ (ethanol-induced))(NN (liver))(NN (injury)))(ADJP (RB (still))(JJ (unknown))))) |ET|  |BS| 242:A03.620 751:D02.033.375  |ES| 2:1 19:1 433:1 776:1 836:1 2013:1 2182:1 2416:1 2433:1 2674:1  |EV| 
-4.5068990627598779497020586859435  |BT| (S (NP (JJ (Garlic))(NN (oil)))(VP (VBD (attenuated))(NP (NP (JJ (nitrosodiethylamine-induced))(NN (hepatocarcinogenesis)))(VP (VBG (modulating))(NP (JJ (metabolic))(NN (activation))(NN (detoxification))(NN (enzyme))))))) |ET|  |BS| 554:D02.654.442.200 728:G03.495.244.224 729:G03.495.244.450 730:D08.811  |ES| 19:1 225:1 808:1 900:1 2006:1 2388:1 2435:1 2613:1 2614:1 2615:1 2616:1  |EV| 
-4.5068990627598779497020586859435  |BT| (S (NP (PRP$ (Our))(VBP (result)))(VP (VBP (indicate))(SBAR (S (NP (NP (NN (administration))(NN (resveratrol)))(UCP (CC (either))(NP (JJ (early))(JJ (advanced))(NN (stage))(NN (hepatocarcinogenesis)))(ADJP (RB (equally))(JJ (effective)))))(VP (VBZ (involves))(NP (NP (NN (activation)))(NP (JJ (apoptotic))(NN (pathway))(NN (male))(NNP (Wistar))(NN (rat))))))))) |ET|  |BS| 39:G04.299.139.160 723:B01.050.150.900.649.865.635.505.700.900  |ES| 19:1 39:1 101:1 225:1 383:1 658:1 849:1 900:1 997:1 1128:1 1129:1 1402:1 1479:1 1639:1 1673:1 1712:1 2223:1 2575:1 2603:1 2854:1  |EV| 
4.5068990627598779497020586859435  |BT| (S (PP (IN (In))(NP (JJ (azoxymethane-treated))(NN (rat))(NN (model))(JJ (experimental))(NN (colon))(NN (carcinogenesis))))(, (,))(NP (NN (sulindac))(NN (treatment)))(ADVP (RB (markedly)))(VP (VBD (induced))(NP (NP (NNP (Csk))(JJ (corresponding))(NN (increase))(JJ (inhibitory))(NN (phosphorylation))(NN (Src)))(PRN (-LRB- (-LRB-))(NP (NN (Tyr))(PRN (-LRB- (-LRB-))(CD (527))(-RRB- (-RRB-)))(-RRB- (-RRB-))))))) |ET|  |BS| 33:C04.697.098 46:A03.556.124.526.356 52:E02 95:E05.599 132:D02.172.080 245:B01.050.150.900.649.865.635.505.700 246:B01.050.150.900.649.865.635.505.700 251:D02.455.426.559.847.486.875 634:D12.125.072.050.875 972:G02.111.087.677 1206:D08.811.682.690.708.125.500  |ES| 2:1 10:1 14:1 19:1 40:1 72:1 113:1 207:1 244:1 263:1 412:1 546:1 849:1 869:1 2396:1 2429:1 2793:1 3426:1 3674:1 4230:1 4231:1 4232:1 4233:1  |EV| 
4.5068990627598779497020586859435  |BT| (NP (NP (JJ (High-saturate-fat))(NN (diet))(NN (delay))(NN (initiation))(JJ (diethylnitrosamine-induced))(JJ (hepatocellular))(NN (carcinoma)))) |ET|  |BS| 104:C04.557.470.200.025.255 554:D02.654.442.200 694:G07.203.650.240.267  |ES| 19:1 136:1 303:1 304:1 637:1 2191:1 2732:1 4211:1  |EV| 
4.5068990627598779497020586859435  |BT| (NP (PRP$ (Our))(VP (VBP (result))(NP (NP (NN (show))(NNS (HCCs)))(VP (VBG (developing))(FRAG (X (SYM (AOX)))(: (-))(NP (NP (: (/))(: (-))(NN (mouse))(NN (share))(NN (number)))(VP (VBN (deregulated))(FRAG (-LRB- (-LRB-))(NP (RP (up))(: (-))(VBN (down-regulated))(-RRB- (-RRB-))(NN (gene))(JJ (ciprofibrate-induced))(NN (liver))(NN (tumor))))))))))) |ET|  |BS| 6:G05.360.340.024.340 11:B01.050.150.900.649.865.635.505.500 104:C04.557.470.200.025.255 142:I01.880.604 351:A17.360 515:C04.588.274.623  |ES| 7:1 9:1 10:1 14:1 19:1 52:1 101:1 429:1 590:1 646:1 658:1 836:1 1132:1 1283:1 1965:1 4321:1 4322:1 4323:1 4324:1  |EV| 
-4.5068990627598779497020586859435  |BT| (NP (NP (NP (NN (Tamoxifen))(JJ (non-steroidal))(JJ (anti-estrogenic))(NN (drug)))(NP (ADJP (RB (widely))(JJ (used)))(NN (treatment))(NN (prevention))(NN (breast))(NN (cancer))(NN (woman))))(: (;))(FRAG (ADVP (RB (however)))(, (,))(NP (NP (NN (evidence))(NN (tamoxifen))(JJ (hepatocarcinogenic))(NN (rat)))(, (,))(NP (NN (mouse)))))) |ET|  |BS| 11:B01.050.150.900.649.865.635.505.500 52:E02 67:D26 245:B01.050.150.900.649.865.635.505.700 246:B01.050.150.900.649.865.635.505.700 640:D02.455.426.559.389.150.700.900 641:D27.505.696.399.472.277.540 642:M01.975  |ES| 2:1 18:1 19:1 23:1 38:1 52:1 191:1 217:1 476:1 546:1 849:1 1387:1 1474:1 2366:1 2367:1 2368:1 2369:1 2370:1 2371:1 2372:1  |EV| 
4.5068990627598779497020586859435  |BT| (NP (JJ (Arsenic))(VP (VBN (induced))(NP (NP (NP (JJ (dose-related))(NN (increase))(NN (lung))(NN (adenocarcinoma)))(PRN (-LRB- (-LRB-))(NP (NN (sex)))(-RRB- (-RRB-))))(, (,))(NP (NP (JJ (hepatocellular))(NN (carcinoma)))(PRN (-LRB- (-LRB-))(NP (NN (sex)))(-RRB- (-RRB-))))(, (,))(NP (NP (NN (gallbladder))(NN (tumor)))(PRN (-LRB- (-LRB-))(NP (NN (male)))(-RRB- (-RRB-))))(, (,))(NP (JJ (uterine))(NN (carcinoma)))))) |ET|  |BS| 104:C04.557.470.200.025.255 265:C04.557.470.200 1158:D01.268.513.249 1178:F01.145.802.188 1179:F01.393.446.250 1180:F01.145.802 1181:G08.686.810 1182:C04.588.274.120.401 1183:A05.360.319.679  |ES| 2:1 7:1 10:1 14:1 19:1 40:1 255:1 303:1 304:1 328:1 412:1 1402:1 4086:1 4087:1 4088:1 4089:1 4090:1  |EV| 
4.5068990627598779497020586859435  |BT| (S (S (NP (JJ (Chronic))(JJ (inorganic))(JJ (arsenic))(NN (exposure)))(VP (VBZ (induces))(NP (JJ (hepatic))(JJ (global))(JJ (individual))(NN (gene))(NN (hypomethylation)))))(: (:))(NP (NN (implication))(JJ (arsenic))(NN (hepatocarcinogenesis)))) |ET|  |BS| 6:G05.360.340.024.340 197:A01.456.505.420 493:M01 1158:D01.268.513.249  |ES| 9:1 19:1 85:1 104:1 214:1 660:1 838:1 900:1 1953:1 2512:1 3174:1 3967:1 4106:1 4107:1  |EV| 
-4.5068990627598779497020586859435  |BT| (S (NP (DT (The))(NN (purpose))(NN (investigation)))(VP (VBP (investigate))(FRAG (NP (NP (JJ (chemopreventive))(NN (action))(JJ (possible))(NN (mechanism))(NN (saffron))(NN (diethylnitrosamine)))(PRN (-LRB- (-LRB-))(NP (NN (DEN)))(-RRB- (-RRB-))))(: (-))(NP (VBN (induced))(NN (liver))(NN (cancer))(NN (rat)))))) |ET|  |BS| 30:Z01.058.290.190.800 31:D08.811.520.224.800 225:E05.337 245:B01.050.150.900.649.865.635.505.700 246:B01.050.150.900.649.865.635.505.700 554:D02.654.442.200 701:B01.650.940.800.575.100.549.500  |ES| 10:1 14:1 18:1 19:1 162:1 409:1 459:1 691:1 836:1 849:1 1359:1 1497:1 1875:1 1946:1 1952:1 2013:1 2523:1 3011:1  |EV| 
4.5068990627598779497020586859435  |BT| (S (PP (VBG (Following))(NP (NP (JJ (initial))(CD (14))(NN (day)))(JJ (dietary))(NN (dose))(NN (range-finding))(NN (study))(JJ (male))(NN (mouse))))(, (,))(ADJP (NP (NP (JJ (mechanistic))(NN (study)))(PRN (-LRB- (-LRB-))(NP (NP (CD (0))(, (,))(CD (3))(, (,))(CD (32))(, (,))(CD (320))(NN (ppm))(NN (toxaphene))(NN (diet))(CD (7)))(, (,))(NP (CD (14)))(, (,))(NP (ADJP (CD (28))(NN (day)))(NN (treatment))))(-RRB- (-RRB-))))(VBN (performed)))(VP (VBP (examine))(SBAR (S (NP (JJ (potential))(NN (mechanism))(NN (toxaphene)))(VP (VBD (induced))(NP (NN (mouse))(NN (liver))(NN (tumor)))))))) |ET|  |BS| 11:B01.050.150.900.649.865.635.505.500 30:Z01.058.290.190.800 31:D08.811.520.224.800 52:E02 275:C23.888 515:C04.588.274.623 595:G07.203.650.240 596:E02.642.249 1149:D02.455.526.439.913  |ES| 2:1 7:1 10:1 14:1 19:1 52:1 131:1 162:1 412:1 458:1 546:1 827:1 836:1 862:1 960:1 988:1 1401:1 1402:1 1440:1 1890:1 2191:1 2301:1 2546:1 2594:1 3233:1 3985:1 4078:1 4160:1 4161:1 4162:1 4163:1 4164:1  |EV| 
4.5068990627598779497020586859435  |BT| (NP (NP (NN (indica)))(NP (NP (-RRB- (-RRB-))(NN (extract))(-LRB- (-LRB-))(NN (FIE))(-RRB- (-RRB-))(NN (N-nitrosodiethylamine))(NN (CCl)))(FRAG (-LRB- (-LRB-))(NP (NP (CD (4))(-RRB- (-RRB-))(: (-)))(VBN (induced))(NN (hepatocarcinogenesis))(NNP (Wistar))(NN (rat)))))) |ET|  |BS| 554:D02.654.442.200 723:B01.050.150.900.649.865.635.505.700.900 1217:A02.513.514.100  |ES| 10:1 14:1 19:1 319:1 409:1 849:1 900:1 2496:1 2601:1 2602:1 2603:1 4260:1 4261:1  |EV| 
-4.5068990627598779497020586859435  |BT| (S (NP (NN (Pterostilbene)))(VP (VBZ (inhibits))(NP (NP (NP (JJ (colorectal))(JJ (aberrant))(NN (crypt))(NN (focus)))(PRN (-LRB- (-LRB-))(NP (NN (ACF)))(-RRB- (-RRB-))))(NP (NP (NN (colon))(NN (carcinogenesis)))(PP (IN (via))(NP (NN (suppression))(JJ (multiple))(NN (signal))(NN (transduction))(NN (pathway))(JJ (azoxymethane-treated))(NN (mouse)))))))) |ET|  |BS| 11:B01.050.150.900.649.865.635.505.500 33:C04.697.098 46:A03.556.124.526.356 52:E02 122:C14.280.383 126:G02.111.087.800 132:D02.172.080 824:C04.834.020  |ES| 10:1 14:1 17:1 19:1 52:1 113:1 207:1 383:1 596:1 615:1 649:1 859:1 1431:1 1725:1 2453:1 2793:1 2912:1 2913:1 2914:1 2915:1  |EV| 
-4.5068990627598779497020586859435  |BT| (S (NP (ADJP (RB (Orally))(VBN (administered)))(NN (lycopene)))(VP (VBZ (attenuates))(NP (NP (JJ (diethylnitrosamine-induced))(NN (hepatocarcinogenesis))(NN (rat)))(VP (VBG (modulating))(NP (NP (NN (Nrf-2)))(: (/))(NP (NN (HO-1))(NN (Akt/mTOR))(NN (pathway)))))))) |ET|  |BS| 245:B01.050.150.900.649.865.635.505.700 246:B01.050.150.900.649.865.635.505.700 378:D08.811.913.696.620.682.700.755 554:D02.654.442.200 799:D12.776.260.615.249 800:Z01.107.169.534  |ES| 19:1 383:1 849:1 900:1 2336:1 2423:1 2435:1 2566:1 2732:1 2817:1 2818:1 2819:1  |EV| 
4.5068990627598779497020586859435  |BT| (NP (NP (NN (BACKGROUND))(: (:)))(NP (JJ (Chronic))(NP (NP (NN (ethanol))(NN (consumption))(NN (increase))(NN (risk))(JJ (hepatic))(NN (cirrhosis))(JJ (hepatocellular))(NN (carcinoma)))(PRN (-LRB- (-LRB-))(NP (NN (HCC)))(-RRB- (-RRB-)))))) |ET|  |BS| 61:E05.318.740.600.800 104:C04.557.470.200.025.255 357:C06.552.630 904:F01.145.317.269  |ES| 10:1 14:1 19:1 40:1 104:1 171:1 303:1 304:1 441:1 838:1 1046:1 1199:1 2387:1 3440:1 3967:1  |EV| 
4.5068990627598779497020586859435  |BT| (SINV (ADVP (RB (Here)))(, (,))(VP (VBN (examined))(NP (NP (NP (JJ (chemopreventive))(JJ (potential))(NN (Acteoside)))(PRN (-LRB- (-LRB-))(NP (NN (ACT)))(-RRB- (-RRB-))))(, (,))(NP (NP (NN (plant)))(VP (VBN (derived))(NP (NP (JJ (phenylethanoid))(NN (glycoside))(JJ (environmental))(JJ (dietary))(NN (carcinogen)))(, (,))(NP (NP (NN (diethylnitrosamine)))(PRN (-LRB- (-LRB-))(NP (NN (DEN)))(-RRB- (-RRB-))))(S (: (-))(VP (VBN (induced))(NP (NN (rat))(NN (hepatocarcinogenesis))))))))))) |ET|  |BS| 245:B01.050.150.900.649.865.635.505.700 246:B01.050.150.900.649.865.635.505.700 279:D27.888.569.100 328:B01.650 554:D02.654.442.200 595:G07.203.650.240 1199:D04.808.155.580 1200:G16.500.275 1201:D09.408  |ES| 2:1 10:1 14:1 19:1 324:1 400:1 409:1 827:1 849:1 900:1 1098:1 1721:1 1875:1 1946:1 1952:1 2125:1 2594:1 3446:1 4195:1 4196:1 4197:1 4198:1  |EV| 
4.5068990627598779497020586859435  |BT| (S (PP (IN (In))(NP (JJ (present))(NN (study))))(, (,))(VP (VBP (demonstrate))(NP (NP (JJ (altered))(NN (gene))(NN (expression))(JJ (various))(NNS (proteins/enzymes)))(VP (VBN (involved))(NP (NP (NN (DNA))(NN (repair)))(, (,))(NP (NP (NN (cell))(NN (growth))(NN (cell))(NN (cycle))(NN (process)))(JJ (tamoxifen-induced))(NN (hepatocarcinogenesis)))))))) |ET|  |BS| 41:A11 45:G07.700.320.249 353:G04.299.134 640:D02.455.426.559.389.150.700.900 730:D08.811 1134:G02.111.087.219 1213:D12.776  |ES| 2:1 9:1 19:1 94:1 102:1 115:1 131:1 244:1 502:1 513:1 601:1 638:1 666:1 693:1 774:1 900:1 1096:1 1307:1 3965:1 3966:1  |EV| 
-4.5068990627598779497020586859435  |BT| (NP (NP (NN (Vanadium))(JJ (chemopreventive))(JJ (early))(NN (stage))(JJ (2-AAF-induced))(NN (hepatocarcinogenesis))(NN (rat)))) |ET|  |BS| 245:B01.050.150.900.649.865.635.505.700 246:B01.050.150.900.649.865.635.505.700 837:D01.268.556.920 881:D02.065.064.150  |ES| 19:1 849:1 900:1 1128:1 1129:1 1946:1 3124:1 3125:1  |EV| 
-4.5068990627598779497020586859435  |BT| (S (PP (IN (In))(NP (JJ (present))(NN (study))))(, (,))(VP (VBD (demonstrated))(NP (NP (NN (alantolactone)))(, (,))(NP (NN (sesquiterpene))(NN (lactone)))(, (,))(NP (NP (JJ (potential))(NN (activity))(JJ (triple-negative))(NN (breast))(NN (cancer))(NN (MDA-MB-231))(NN (cell))(JJ (suppressing))(NN (signal))(NN (transducer))(NN (activator))(NN (transcription))(CD (3)))(PRN (-LRB- (-LRB-))(NP (NN (STAT3)))(-RRB- (-RRB-))))(NP (NN (signaling))(NN (pathway)))))) |ET|  |BS| 41:A11 69:G02.111.087.800 160:C04.588.180.788 209:G02.111.087.847 250:E07.305.812 759:D02.092.471.683.152.660 760:Z01.107.084.900.600 761:G02.111.087.800 762:D02.455.849.765 763:Z01.542.248.540 764:D02.540  |ES| 2:1 10:1 14:1 18:1 19:1 23:1 26:1 94:1 131:1 195:1 244:1 251:1 383:1 399:1 487:1 827:1 859:1 860:1 861:1 862:1 1175:1 1307:1 2250:1 2686:1 2687:1 2688:1 2689:1  |EV| 
4.5068990627598779497020586859435  |BT| (NP (NP (NP (JJ (Male))(NN (Malat1)))(: (-))(: (/))(: (-)))(NP (S (NP (NN (mouse))(JJ (wild-type))(-LRB- (-LRB-))(JJ (WT))(-RRB- (-RRB-))(NNS (littermates)))(VP (VBD (studied))(NP (NP (CD (one))(NN (year)))(NP (NP (NN (treatment))(JJ (genotoxic))(NN (agent))(NN (diethylnitrosamine)))(PRN (-LRB- (-LRB-))(NP (NN (DEN)))(-RRB- (-RRB-)))))))(, (,))(NP (JJ (potent))(NN (inducer))(NN (liver))(NN (cancer))))) |ET|  |BS| 11:B01.050.150.900.649.865.635.505.500 554:D02.654.442.200 775:E02.760.058  |ES| 2:1 8:1 10:1 14:1 18:1 19:1 22:1 52:1 401:1 546:1 728:1 836:1 1010:1 1355:1 1452:1 1875:1 1952:1 1995:1 3329:1 3635:1 3791:1 4296:1  |EV| 
-4.5068990627598779497020586859435  |BT| (S (NP (NN (Curcumin)))(VP (VBZ (sensitizes))(NP (NP (JJ (human))(JJ (colorectal))(NN (cancer))(NN (xenograft))(JJ (nude))(NN (mouse))(NN (gamma-radiation)))(VP (VBG (targeting))(NP (JJ (nuclear))(JJ (factor-kappaB-regulated))(NN (gene))(NN (product))))))) |ET|  |BS| 4:C04.588.274.476.411.307 5:C04.588.274.476.411.307 30:Z01.058.290.190.800 31:D08.811.520.224.800 55:B01.050.150.900.649.801.400.112.400.400 88:B01.050.150.900.649.865.635.505.500.550.500 92:E04.936.764 93:A01.941.875 142:I01.880.604 210:D12.776.260.600 692:D02.455.326.146.485.222.222 816:G01.358.500.505.300 973:E05.393.335  |ES| 9:1 17:1 18:1 19:1 36:1 52:1 265:1 266:1 616:1 675:1 1256:1 2062:1 3429:1 3430:1 3431:1  |EV| 
-4.0333834854075121256755664944649  |BT| (FRAG (NP (NNS (RESULTS)))(: (:))(NP (NP (NN (Liver))(NN (tumor))(NN (mass)))(NP (NP (NP (JJR (lower))(NN (pravastatin))(NN (group)))(PRN (-LRB- (-LRB-))(NP (NN (PG)))(-RRB- (-RRB-))))(NP (NP (NP (NN (control))(NN (group)))(PRN (-LRB- (-LRB-))(NP (NN (CG)))(-RRB- (-RRB-))))(, (,))(NP (NP (VBN (estimated))(NN (number))(NN (liver))(NN (tumor)))(PRN (-LRB- (-LRB-))(NP (NP (NN (p)))(ADJP (JJR (<))(NP (CD (0.004)))))(-RRB- (-RRB-))))(NP (NP (NN (liver))(NN (weight/body))(NN (weight))(NN (ratio)))(PRN (-LRB- (-LRB-))(S (NP (NN (p)))(NP (QP (JJR (<))(CD (0.04)))))(-RRB- (-RRB-)))))))) |ET|  |BS| 242:A03.620 515:C04.588.274.623 616:E05.318.780.074 653:C23.888.144 817:D02.455.426.559.847.638.930 829:M01.686  |ES| 2:1 7:1 10:1 14:1 19:1 104:1 117:1 289:1 312:1 646:1 710:1 836:1 2300:1 2399:1 2721:1 2804:1 2933:1 2934:1 2935:1 2936:1 2937:1 2938:1 2939:1 2940:1 2941:1  |EV| 
4.5068990627598779497020586859435  |BT| (S (NP (NN (Liver))(NN (tumor)))(VP (VBD (induced))(NP (NP (JJ (male))(NNP (Fischer))(NN (F344))(NN (rat))(NN (diethylnitrosamine)))(PRN (-LRB- (-LRB-))(NP (NN (DEN)))(-RRB- (-RRB-)))))) |ET|  |BS| 515:C04.588.274.623 554:D02.654.442.200 590:B01.050.050.199.520.760.200  |ES| 7:1 10:1 14:1 19:1 412:1 849:1 1402:1 1875:1 1952:1 2721:1 3185:1 4288:1  |EV| 
-4.5068990627598779497020586859435  |BT| (NP (NP (NP (NP (NP (NP (NN (PPARgamma)))(PRN (-LRB- (-LRB-))(CC (+))(: (/))(: (-))))(-RRB- (-RRB-))(NN (mouse))(JJ (susceptible))(JJ (DMH-induced))(NN (colon))(NN (carcinogenesis))(NN (PPARgamma)))(PRN (-LRB- (-LRB-))(CC (+))(: (/))(CC (+))(-RRB- (-RRB-))))(NP (NN (mouse))))(, (,))(S (NP (NN (embelin)))(ADVP (RB (significantly)))(VP (VBD (reduced))(NP (NP (NP (NN (incidence))(NN (colon))(NN (cancer))(NN (PPARgamma)))(PRN (-LRB- (-LRB-))(NP (NP (CC (+))(: (/))(CC (+))(-RRB- (-RRB-))(NN (mouse))(NN (PPARgamma)))(PRN (-LRB- (-LRB-))(CC (+))(: (/))(: (-))))(-RRB- (-RRB-))))(NN (mouse)))))) |ET|  |BS| 11:B01.050.150.900.649.865.635.505.500 33:C04.697.098 46:A03.556.124.526.356 434:E05.318.308.985.525.375 719:D12.776.826.239.588  |ES| 2:1 10:1 14:1 18:1 19:1 44:1 51:1 52:1 113:1 124:1 207:1 452:1 899:1 1511:1 2588:1 2888:1 2889:1  |EV| 
-4.5068990627598779497020586859435  |BT| (S (NP (NP (NP (JJ (Aldo-keto))(NN (reductase))(NN (family))(CD (1))(NN (B10)))(PRN (-LRB- (-LRB-))(NP (NN (AKR1B10)))(-RRB- (-RRB-))))(, (,))(NP (NN (member))(JJ (aldo-keto))(NN (reductase))(NN (superfamily)))(, (,)))(VP (VP (VBN (overexpressed))(NP (JJ (human))(JJ (hepatocellular))(NN (carcinoma))))(, (,))(NP (NN (lung))(JJ (squamous))(NN (cell))(NN (carcinoma))(NN (lung))(NN (adenocarcinoma))))) |ET|  |BS| 44:F01.829.263 55:B01.050.150.900.649.801.400.112.400.400 104:C04.557.470.200.025.255 182:A04.411 929:C04.557.470.200.400  |ES| 2:1 10:1 14:1 19:1 25:1 36:1 94:1 95:1 96:1 97:1 98:1 99:1 255:1 303:1 304:1 328:1 769:1 1067:1 3275:1 3276:1 3277:1  |EV| 
-4.5068990627598779497020586859435  |BT| (S (ADVP (RB (Notably)))(, (,))(NP (NN (colon))(NN (tumor))(NN (prevention))(NN (activity))(NN (sulindac)))(VP (VP (VBN (accompanied))(NP (NP (JJ (marked))(NN (induction))(JJ (lymphoid))(NN (aggregate)))(NP (JJ (proximal))(JJ (colonic))(JJ (inflammatory))(NN (mass))(NN (lesion)))))(, (,))(VP (S (NP (JJ (side))(NN (effect)))(VP (VBN (seen))(NP (JJR (lesser))(NN (degree))(NN (celecoxib)))))(, (,))(NP (NN (aspirin)))))) |ET|  |BS| 51:C04.588.274.476.411.307.180 213:F02.830.816.964 251:D02.455.426.559.847.486.875 670:D02.455.426.559.389.657.410.595.176 684:D02.065.884.247 797:A10.549.600  |ES| 2:1 7:1 19:1 75:1 113:1 399:1 677:1 724:1 736:1 869:1 871:1 1070:1 1131:1 1474:1 1967:1 2430:1 2487:1 2798:1 2801:1 2802:1 2803:1 2804:1 2805:1 2806:1 2807:1  |EV| 
-4.5068990627598779497020586859435  |BT| (NP (NP (NP (NP (NN (BACKGROUND)))(CC (&))(NP (NNS (AIMS))))(: (:))(NP (NP (NP (NN (Chromodomain))(NN (helicase/adenosine))(NN (triphosphatase))(NN (DNA))(NN (binding))(NN (protein)))(NP (ADJP (JJ (1-like))(-LRB- (-LRB-))(NN (CHD1L))(-RRB- (-RRB-))(JJ (SNF2-like)))(NN (transcription))(NN (factor))))(VP (VBN (involved))(S (VP (NN (development))(NP (NP (JJ (human))(JJ (hepatocellular))(NN (carcinoma)))(PRN (-LRB- (-LRB-))(NP (NN (HCC)))(-RRB- (-RRB-)))))))))) |ET|  |BS| 14:F01.525 104:C04.557.470.200.025.255 166:D12.776.930 893:D08.811.277.040.025 894:D08.811.277.040.025  |ES| 4:1 10:1 14:1 19:1 35:1 36:1 104:1 185:1 303:1 304:1 441:1 487:1 666:1 774:1 1046:1 1487:1 1777:1 1778:1 3156:1 3157:1 3158:1 3159:1 3160:1 3161:1  |EV| 
4.5068990627598779497020586859435  |BT| (S (S (NP (NP (JJ (Low))(JJ (dietary))(NN (folate))(NN (intake)))(VP (VBN (associated))))(VP (VBD (increased))(NP (NN (risk))(NN (colon))(NN (cancer))))(: (;)))(S (ADVP (RB (however)))(, (,))(NP (JJ (relevant))(JJ (genetic))(NN (animal))(NN (model)))(VP (VBG (lacking))))) |ET|  |BS| 19:B01.050 61:E05.318.740.600.800 224:D03.438.733.631.400 285:E05.598 595:G07.203.650.240 1109:E05.599.395.397  |ES| 2:1 18:1 19:1 46:1 47:1 72:1 113:1 169:1 171:1 217:1 376:1 778:1 864:1 865:1 1387:1 2563:1 2594:1 3615:1  |EV| 
4.5068990627598779497020586859435  |BT| (S (PP (IN (In))(NP (JJ (wild-type))(NN (mouse))))(, (,))(NP (CD (200))(NN (ppm))(NN (cyproconazole)))(VP (VBD (caused))(NP (NP (NP (NP (NN (liver))(NN (hypertrophy)))(, (,))(NP (VBD (increased))(NN (liver))(NN (weight))(NN (cell))(NN (proliferation)))(, (,)))(JJ (single-cell))(NN (necrosis))(JJ (fat))(NN (vacuolation)))(, (,))(NP (NP (NP (NN (effect)))(ADJP (RB (generally))(JJ (similar))))(VP (VBN (caused))(NP (CD (850))(NN (ppm))(NN (phenobarbital)))))))) |ET|  |BS| 11:B01.050.150.900.649.865.635.505.500 183:G04.299.233.750 242:A03.620 756:D03.383.742.698.253.650 805:F01.829.263.315.500.725 806:F01.829.263.315.500.725 1151:C06.552.416 1215:C23.888.144.243.926 1216:C23.550.717  |ES| 2:1 8:1 19:1 47:1 52:1 75:1 94:1 244:1 299:1 332:1 836:1 2399:1 2425:1 2506:1 2685:1 3233:1 3364:1 3992:1 4254:1 4255:1 4256:1 4257:1 4258:1 4259:1  |EV| 
-4.5068990627598779497020586859435  |BT| (S (NP (NNP (Pravastatin)))(VP (VBZ (reduces))(NP (NN (lung))(NN (metastasis))(NN (rat))(JJ (hepatocellular))(NN (carcinoma)))(PP (IN (via))(NP (VBN (coordinated))(NN (decrease))(NN (MMP))(NN (expression))(NN (activity)))))) |ET|  |BS| 104:C04.557.470.200.025.255 113:C04.697.650 182:A04.411 245:B01.050.150.900.649.865.635.505.700 246:B01.050.150.900.649.865.635.505.700 817:D02.455.426.559.847.638.930 818:D08.811.277.656.300.480.525  |ES| 19:1 115:1 142:1 295:1 303:1 304:1 328:1 399:1 596:1 806:1 849:1 2890:1 2891:1 2892:1  |EV| 
-4.5068990627598779497020586859435  |BT| (S (S (NP (JJ (Diethylnitrosamine-induced))(NN (hepatocarcinogenesis)))(VP (VBD (suppressed))(NP (NN (lecithin)))))(: (:))(S (NP (NN (retinol))(JJ (acyltransferase-deficient))(NN (mouse)))(ADVP (RB (primarily)))(NP (NP (JJ (retinoid))(NN (action)))(NP (ADVP (RB (immediately)))(NP (NN (carcinogen))(NN (administration))))))) |ET|  |BS| 11:B01.050.150.900.649.865.635.505.500 279:D27.888.569.100 554:D02.654.442.200 711:D02.455.326.271.665.202.495  |ES| 19:1 52:1 104:1 307:1 900:1 1970:1 2013:1 2125:1 2569:1 2570:1 2571:1 2572:1 2573:1 2574:1 2575:1  |EV| 
-4.5068990627598779497020586859435  |BT| (S (PP (IN (In))(NP (JJ (present))(NN (study))))(, (,))(NP (VBN (shown))(NN (diosmin)))(VP (VBZ (attenuates))(SBAR (S (NP (NP (NN (2-AAF)))(VP (VBD (induced))(NP (NP (NP (JJ (hepatic))(NN (toxicity))(JJ (early))(NN (tumor))(NN (promotion))(NN (marker)))(PRN (-LRB- (-LRB-))(NP (NP (NN (ODC)))(, (,))(NP (NN (PCNA))(NN (Ki67))))(-RRB- (-RRB-))))(, (,))(NP (JJ (chemopreventive))(NN (efficacy))(NN (DEN))))))(VP (VBD (initiated))(NP (JJ (2-AAF))(VBN (promoted))(NN (hyper-proliferation))(NN (hepatocarcinogenesis))(NNP (Wistar))(NN (rat)))))))) |ET|  |BS| 376:D23.101.140 715:D03.383.663.283.266.450.260.222 723:B01.050.150.900.649.865.635.505.700.900 745:C10.597.350.350 767:D02.065.064.150 768:D12.776.660.740  |ES| 2:1 7:1 10:1 14:1 19:1 131:1 237:1 244:1 412:1 534:1 838:1 849:1 900:1 1128:1 1307:1 1875:1 1900:1 1912:1 1946:1 2304:1 2337:1 2406:1 2423:1 2603:1 2695:1 2696:1 2697:1 2698:1 2699:1 2700:1  |EV| 
4.5068990627598779497020586859435  |BT| (S (NP (JJ (Male))(NN (F344))(NN (rat)))(VP (VBN (treated))(S (NP (NP (CD (one))(JJ (powerful))(NNP (Valerian))(NN (specie)))(PRN (-LRB- (-LRB-))(NP (NN (Valeriana))(NN (sitchensis)))(-RRB- (-RRB-))))(VP (VBZ (dos))(NP (CD (0))(, (,))(CD (50))(, (,))(NP (NP (CD (500))(CD (5000))(NN (ppm))(NN (drinking))(NN (water))(NN (initiation))(NN (hepatocarcinogenesis))(NN (diethylnitrosamine)))(PRN (-LRB- (-LRB-))(NP (NN (DEN)))(-RRB- (-RRB-))))))))) |ET|  |BS| 52:E02 554:D02.654.442.200 590:B01.050.050.199.520.760.200 857:B01.650.940.800.575.100.955.888 858:B01.650.940.800.575.100.955.888 1060:D01.045.250.875.300 1224:E05.318.740.872 1225:F01.658.780  |ES| 2:1 10:1 14:1 19:1 368:1 637:1 849:1 900:1 1010:1 1099:1 1875:1 1952:1 2355:1 2653:1 3057:1 3185:1 3233:1 3635:1 3968:1 4163:1 4290:1 4291:1 4292:1 4293:1 4294:1 4295:1  |EV| 
4.5068990627598779497020586859435  |BT| (FRAG (NP (NNS (METHODS))(: (:)))(NP (NN (Liver))(NN (fibrosis)))(VBD (induced))(NP (NN (mouse)))(VBG (receiving))(NP (NP (NN (bile))(NN (duct))(NN (ligation)))(PRN (-LRB- (-LRB-))(NP (NN (BDL)))(-RRB- (-RRB-))))(NP (NN (carbon))(NN (tetrachloride)))(-LRB- (-LRB-))(NP (NP (NN (CCl))(PRN (-LRB- (-LRB-))(CD (4))(-RRB- (-RRB-))(-RRB- (-RRB-)))(NN (administration))))) |ET|  |BS| 11:B01.050.150.900.649.865.635.505.500 168:E05.581 676:C06.552.630 1217:A02.513.514.100 1220:D02.455.526.439.150 1222:A03.159.183 1223:E04.426  |ES| 10:1 14:1 19:1 52:1 104:1 319:1 412:1 548:1 565:1 949:1 1621:1 1622:1 2575:1 2721:1 4261:1 4278:1 4279:1 4282:1 4309:1  |EV| 
4.5068990627598779497020586859435  |BT| (NP (NP (JJ (Chronic))(JJ (excessive))(NN (alcohol))(NN (consumption))(NN (lead))(NN (development)))(NP (NP (JJ (alcoholic))(NN (liver))(NN (disease)))(PRN (-LRB- (-LRB-))(NP (NN (ALD)))(-RRB- (-RRB-))))(S (VP (ADVP (RB (greatly)))(VB (increase))(NP (NN (risk))(NN (liver))(NN (cancer)))))) |ET|  |BS| 61:E05.318.740.600.800 86:D01.268.556.435 650:C06.552 904:F01.145.317.269 1148:M01.066  |ES| 10:1 14:1 18:1 19:1 35:1 40:1 171:1 254:1 836:1 998:1 2387:1 2880:1 3710:1 3967:1 3982:1 3983:1 3984:1  |EV| 
4.5068990627598779497020586859435  |BT| (S (NP (JJ (Chronic))(NN (exposure))(NN (toxaphene)))(VP (VBD (resulted))(NP (NN (increase))(NN (liver))(NN (tumor))(NN (B6C3F1))(NN (mouse))))) |ET|  |BS| 11:B01.050.150.900.649.865.635.505.500 515:C04.588.274.623 1149:D02.455.526.439.913  |ES| 7:1 19:1 40:1 52:1 594:1 836:1 1953:1 3967:1 3985:1 3986:1  |EV| 
4.5068990627598779497020586859435  |BT| (S (ADVP (RB (Here)))(, (,))(VP (VBN (conducted))(S (NP (NP (NP (CD (two))(NN (stage))(NN (hepatocarcinogenesis))(NN (study))(NN (rat)))(VP (VBN (exposed))(S (VP (VBG (initiating))(NP (NP (NN (agent))(NN (nitrosodiethylamine)))(PRN (-LRB- (-LRB-))(NP (NN (DEN)))(-RRB- (-RRB-))))))))(, (,))(NP (NP (JJ (hepatotoxic))(NN (compound))(NN (thioacetamide)))(PRN (-LRB- (-LRB-))(NP (NN (TAA)))(-RRB- (-RRB-))))(, (,)))(NP (NP (NN (methapyrilene)))(PRN (-LRB- (-LRB-))(NP (NN (MP)))(-RRB- (-RRB-))))(VP (NN (acetaminophen))(S (-LRB- (-LRB-))(NP (NN (APAP))(-RRB- (-RRB-))(CD (1-2))(NP (NN (week))))(VP (VBD (followed))(NP (NP (NN (liver))(NN (tumor))(NN (promoter))(NN (phenobarbital)))(PRN (-LRB- (-LRB-))(NP (NN (PB)))(-RRB- (-RRB-)))))))))) |ET|  |BS| 242:A03.620 245:B01.050.150.900.649.865.635.505.700 246:B01.050.150.900.649.865.635.505.700 296:D02.065.064.786 554:D02.654.442.200 600:D27.888.569.100 661:D02.065.199.092.040 756:D03.383.742.698.253.650 876:F01.145 1198:D02.092.782.258.368.500  |ES| 2:1 7:1 10:1 14:1 19:1 83:1 131:1 400:1 728:1 783:1 836:1 849:1 900:1 933:1 1035:1 1129:1 1875:1 2019:1 2412:1 2433:1 2685:1 2862:1 3100:1 3102:1 3130:1 3496:1 4189:1 4190:1 4191:1 4192:1 4193:1 4194:1  |EV| 
-4.5068990627598779497020586859435  |BT| (NP (NP (NP (NN (Expression))(NP (JJ (ets-related))(JJ (transcriptional))(NN (factor)))(NN (E1AF))(VBN (associated))(NN (tumor))(NN (progression))(NN (over-expression))(NN (matrilysin)))(NP (JJ (human))(JJ (gastric))(NN (cancer))))) |ET|  |BS| 8:C04 16:C23.550.291.656 55:B01.050.150.900.649.801.400.112.400.400 166:D12.776.930 937:D08.811.277.656.300.480.525.700.250  |ES| 7:1 18:1 19:1 36:1 48:1 86:1 169:1 185:1 316:1 559:1 1013:1 3289:1 3483:1 3484:1  |EV| 
4.5068990627598779497020586859435  |BT| (S (NP (DT (The))(JJ (objective))(NN (study)))(VP (VBD (determine))(SBAR (S (NP (NP (NP (NP (JJ (chemopreventive))(NN (activity))(JJ (Korean))(JJ (red))(NN (ginseng))(NN (extract)))(PRN (-LRB- (-LRB-))(NP (NN (KRG)))(-RRB- (-RRB-))))(NN (diethylnitrosamine)))(PRN (-LRB- (-LRB-))(NP (NN (DEN)))(-RRB- (-RRB-))))(VP (VBD (induced))(NP (NN (hepatocarcinogenesis))(NN (rat)))))))) |ET|  |BS| 30:Z01.058.290.190.800 31:D08.811.520.224.800 245:B01.050.150.900.649.865.635.505.700 246:B01.050.150.900.649.865.635.505.700 415:F01.658.500 554:D02.654.442.200 1162:B01.650.940.800.575.100.087.500  |ES| 10:1 14:1 19:1 74:1 131:1 399:1 412:1 691:1 849:1 900:1 1634:1 1875:1 1946:1 1952:1 2496:1 2916:1 4014:1 4015:1 4016:1  |EV| 
4.5068990627598779497020586859435  |BT| (NP (NP (NN (Amelioration))(JJ (free))(NN (fatty))(JJ (acid-induced))(NN (fatty))(NN (liver))(NN (quercetin-3-O-beta-D-glucuronide))(NN (modulation))(NN (peroxisome))(JJ (proliferator-activated))(JJ (receptor-alpha/sterol))(JJ (regulatory))(JJ (element-binding))(JJ (protein-1c))(NN (signaling)))) |ET|  |BS| 69:G02.111.087.800 242:A03.620 533:D03.383.663.283.266.450.284.777 536:D12.776.826.239.500 576:D12.776.260.103.500.750.500 1133:D10.251.310  |ES| 19:1 195:1 836:1 1801:1 1817:1 1887:1 1945:1 2070:1 2599:1 3958:1 3960:1 4082:1 4083:1 4084:1 4085:1  |EV| 
-4.5068990627598779497020586859435  |BT| (S (PP (IN (After))(NP (JJ (2-week))(NN (treatment))))(, (,))(NP (NN (animal)))(VP (VBN (subjected))(SBAR (`` (``))(S (NP (NP (JJ (resistant))(NN (hepatocyte))('' (''))(NN (model))(NN (hepatocarcinogenesis)))(PRN (-LRB- (-LRB-))(NP (NP (NN (initiation))(NN (diethylnitrosamine)))(, (,))(NP (NN (selection/promotion))(JJ (2-acetylaminofluorene))(JJ (partial))(NN (hepatectomy))))(-RRB- (-RRB-))))(VP (VBD (euthanized))(NP (ADJP (CD (8))(NN (week)))(NN (treatment)))))))) |ET|  |BS| 19:B01.050 52:E02 262:A11.436.348 554:D02.654.442.200 812:G05.355.800 881:D02.065.064.150 927:E02.760.905.850 928:E04.210.556  |ES| 2:1 10:1 14:1 19:1 46:1 72:1 427:1 546:1 637:1 781:1 783:1 900:1 1909:1 1952:1 3265:1 3266:1 3267:1 3268:1 3269:1 3270:1 3271:1 3272:1 3273:1 3274:1  |EV| 
-4.5068990627598779497020586859435  |BT| (S (NP (NNS (Effects)))(VP (VBP (magnolol))(NP (NP (JJ (UVB-induced))(NN (skin))(NN (cancer))(NN (development))(NN (mouse)))(JJ (possible))(NN (mechanism))(NN (action))))) |ET|  |BS| 11:B01.050.150.900.649.865.635.505.500 742:G03.787  |ES| 18:1 19:1 35:1 52:1 162:1 1359:1 2013:1 2319:1 2526:1 2752:1 3461:1  |EV| 
4.5068990627598779497020586859435  |BT| (S (NP (DT (This))(NN (study)))(VP (VBZ (validates))(NP (NP (NP (NN (utility))(NN (Gum))(JJ (Arabic-conjugated))(NN (gold))(NNS (nanoparticles)))(PRN (-LRB- (-LRB-))(NP (NNS (GA-AuNPs)))(-RRB- (-RRB-))))(SBAR (S (NP (NN (laser)))(VP (VBP (induce))(NP (JJ (photothermal))(NN (inhibition))(NN (hepatocarcinogenesis)))))))(, (,))(PP (IN (via))(S (VP (VBG (employing))(NP (NP (NN (diethylnitrosamine)))(PRN (-LRB- (-LRB-))(NP (NN (DEN)))(-RRB- (-RRB-)))))))(FRAG (: (-))(NP (VBN (mediated))(JJ (hepatocellular))(NN (carcinoma))(NN (model)))))) |ET|  |BS| 30:Z01.058.290.190.800 31:D08.811.520.224.800 43:F01.145.544 104:C04.557.470.200.025.255 554:D02.654.442.200 1166:Z01.058.290.190.300 1167:D05.750.078.739.500 1168:J01.637.512.600 1169:D01.268.556.322 1170:E07.632.490  |ES| 2:1 10:1 14:1 19:1 72:1 103:1 131:1 243:1 303:1 304:1 596:1 807:1 900:1 1875:1 1952:1 2194:1 4011:1 4040:1 4041:1 4042:1 4043:1 4044:1 4045:1 4046:1 4047:1 4048:1  |EV| 
4.5068990627598779497020586859435  |BT| (S (NP (NN (Liver))(NN (tumor)))(VP (VBG (promoting))(NP (NN (effect))(NN (etofenprox))(NN (rat))(JJ (possible))(NN (mechanism))(NN (action))))) |ET|  |BS| 245:B01.050.150.900.649.865.635.505.700 246:B01.050.150.900.649.865.635.505.700 515:C04.588.274.623 742:G03.787  |ES| 7:1 19:1 75:1 162:1 849:1 881:1 1359:1 2013:1 2721:1 4287:1  |EV| 
4.5068990627598779497020586859435  |BT| (S (NP (NN (GT-094))(JJ (first))(NN (nitrate)))(VP (VBD (reported))(VP (VB (reduce))(NP (NP (NP (JJ (aberrant))(NN (crypt))(NN (focus)))(PRN (-LRB- (-LRB-))(NP (CD (45))(NN (%)))(-RRB- (-RRB-))))(NP (VBN (administered))(NN (carcinogen))(NN (standard))(NN (azoxymethane))(NN (rat))(NN (model))(JJ (colorectal))(NN (cancer))))))) |ET|  |BS| 4:C04.588.274.476.411.307 5:C04.588.274.476.411.307 30:Z01.058.290.190.800 31:D08.811.520.224.800 132:D02.172.080 245:B01.050.150.900.649.865.635.505.700 246:B01.050.150.900.649.865.635.505.700 279:D27.888.569.100 824:C04.834.020 1195:D01.248.497.158.606  |ES| 10:1 14:1 17:1 18:1 19:1 72:1 369:1 816:1 849:1 993:1 1431:1 1725:1 1993:1 2125:1 2336:1 2361:1 2913:1 4175:1 4176:1 4177:1 4178:1  |EV| 
-4.5068990627598779497020586859435  |BT| (S (NP (NP (NNP (Myrtenal)))(, (,))(NP (JJ (natural))(NN (monoterpene)))(, (,)))(VP (VBZ (down-regulates))(SBAR (S (NP (NN (TNF-alpha))(NN (expression)))(VP (VBZ (suppresses))(NP (JJ (carcinogen-induced))(JJ (hepatocellular))(NN (carcinoma))(NN (rat)))))))) |ET|  |BS| 104:C04.557.470.200.025.255 245:B01.050.150.900.649.865.635.505.700 246:B01.050.150.900.649.865.635.505.700 279:D27.888.569.100 351:A17.360 758:D02.455.849.575 789:D12.644.276.374.500.800 790:D12.644.276.374.750  |ES| 2:1 19:1 115:1 303:1 304:1 686:1 849:1 2333:1 2421:1 2683:1 2773:1 2774:1 2775:1  |EV| 
4.5068990627598779497020586859435  |BT| (FRAG (PP (IN (In))(NP (NP (NP (NN (azoxymethane)))(PRN (-LRB- (-LRB-))(NP (NN (AOM)))(-RRB- (-RRB-))))(NN (model))(NN (colon))(NN (cancer))))(, (,))(NP (NP (NN (addition))(NN (K-ras))(NN (mutation)))(, (,))(VP (VBN (shown))(S (NP (ADJP (ADJP (JJ (wild-type)))(PRN (-LRB- (-LRB-))(ADJP (JJ (WT)))(-RRB- (-RRB-))))(NN (Ras)))(VP (VBD (activated))(NP (NP (JJ (upstream))(NN (pathway)))(, (,))(S (VBG (including))(, (,))(PP (FW (e.g.)))(, (,))(VP (VBG (signaling))(NP (NN (ErbB))(NN (receptor))))))))))) |ET|  |BS| 1:G05.360.340.024.340.375.500.791.550 18:G05.365.590 69:G02.111.087.800 132:D02.172.080 563:D08.811.913.696.620.682.725.400.009  |ES| 2:1 8:1 10:1 14:1 18:1 19:1 34:1 72:1 113:1 163:1 186:1 195:1 237:1 244:1 383:1 468:1 561:1 1121:1 1775:1 1993:1 1994:1 1995:1 1996:1 1997:1 1998:1  |EV| 
-4.5068990627598779497020586859435  |BT| (S (NP (PRP$ (Our))(NNS (data)))(VP (VBD (indicated))(NP (NP (NN (silymarin))(JJ (therapeutic))(NN (effect)))(NP (JJ (early))(NN (stage))(NN (liver))(NN (damage))))(, (,))(S (VP (VBG (reversing))(NP (NP (JJ (fatty))(NN (change)))(VP (VBG (recovering))(NP (NN (liver))(NN (histopathology))(JJ (dose-dependent))(NN (manner))))))))) |ET|  |BS| 242:A03.620 801:D03.383.663.283.266.450.268.777  |ES| 2:1 19:1 75:1 200:1 541:1 658:1 793:1 836:1 1128:1 1129:1 1541:1 1668:1 1848:1 2070:1 2740:1 2821:1 2822:1 2823:1 2824:1  |EV| 
4.5068990627598779497020586859435  |BT| (S (NP (NP (DT (The))(JJ (key))(NN (event))(JJ (responsible))(NN (mouse))(NN (liver))(NN (tumor)))(VP (VBD (induced))(NP (NP (NN (pesticide)))(PRN (-LRB- (-LRB-))(NP (NP (NN (viz.)))(, (,))(NP (NN (pronamide))))(-RRB- (-RRB-))))))(VP (VBD (investigated))(NP (S (NP (NN (series))(NN (study)))(VP (VBG (employing))(ADJP (ADJP (JJ (molecular)))(, (,))(ADJP (JJ (biochemical)))(, (,))(ADJP (JJ (cellular))))))(, (,))(NP (JJ (apical))(NN (endpoint)))))) |ET|  |BS| 11:B01.050.150.900.649.865.635.505.500 41:A11 515:C04.588.274.623 913:D27.720.031.700  |ES| 2:1 7:1 10:1 14:1 19:1 52:1 131:1 159:1 161:1 205:1 403:1 412:1 691:1 836:1 1689:1 1807:1 2132:1 3074:1 3214:1 3323:1 4010:1 4011:1 4012:1 4013:1  |EV| 
-4.5068990627598779497020586859435  |BT| (NP (NP (NN (Inhibition))(NP (NN (c-Jun))(JJ (NH2-terminal))(NN (kinase))(NN (switch)))(NN (Smad3))(NN (signaling))(NN (oncogenesis))(NN (tumor)))(: (-))(NP (NN (suppression))(NN (rat))(JJ (hepatocellular))(NN (carcinoma)))) |ET|  |BS| 8:C04 30:Z01.058.290.190.800 31:D08.811.520.224.800 32:C04.697.098.500 33:C04.697.098 43:F01.145.544 69:G02.111.087.800 104:C04.557.470.200.025.255 245:B01.050.150.900.649.865.635.505.700 246:B01.050.150.900.649.865.635.505.700 771:D08.811.913.696.620.682.700.567.374  |ES| 19:1 195:1 303:1 304:1 470:1 849:1 1686:1 2453:1 2703:1 2708:1 2709:1 2710:1 2711:1 2712:1  |EV| 
4.5068990627598779497020586859435  |BT| (S (NP (NN (Melatonin)))(VP (VBZ (prevents))(NP (NN (deregulation))(NN (sphingosine))(NN (kinase/sphingosine))(NN (1-phosphate))(NN (signaling))(NN (pathway))(NN (mouse))(NN (model))(JJ (diethylnitrosamine-induced))(JJ (hepatocellular))(NN (carcinoma))))) |ET|  |BS| 11:B01.050.150.900.649.865.635.505.500 69:G02.111.087.800 104:C04.557.470.200.025.255 126:G02.111.087.800 469:D08.811.913.696 554:D02.654.442.200 707:D03.438.473.914.481 1227:D01.029.260.700.675.374 1228:D02.705.400  |ES| 19:1 52:1 72:1 195:1 303:1 304:1 383:1 402:1 2718:1 2732:1 2738:1 4306:1 4307:1 4308:1  |EV| 
-4.5068990627598779497020586859435  |BT| (NP (NP (ADVP (RB (However)))(, (,))(NP (NN (investigation))(JJ (protective))(NN (effect))(NN (betaine))(NN (hepatocarcinogenesis))))) |ET|  |BS| 225:E05.337 743:D02.092.877.883.077  |ES| 2:1 19:1 75:1 433:1 493:1 900:1 1497:1 2636:1  |EV| 
-4.5068990627598779497020586859435  |BT| (NP (NP (DT (These))(NN (observation))(NN (show)))(, (,))(NP (JJ (first))(NN (time)))(, (,))(S (NP (NP (NN (CP-31398))(NN (posse))(JJ (significant))(JJ (dose-dependent))(JJ (chemopreventive))(NN (activity)))(JJ (well-established))(NN (colon))(NN (cancer))(NN (model))(NN (combination))(JJ (low-dose))(NN (CP-31398))(NN (celecoxib)))(ADVP (RB (significantly)))(VP (VBD (enhanced))(NP (NN (colon))(NN (cancer))(JJ (chemopreventive))(NN (efficacy)))))) |ET|  |BS| 322:G01.910 429:N04.761.559.590.900 430:E05.581.249 684:D02.065.884.247  |ES| 2:1 18:1 19:1 72:1 113:1 124:1 135:1 385:1 399:1 429:1 530:1 792:1 816:1 1081:1 1477:1 1770:1 1946:1 2304:1 2807:1 2824:1 3047:1 3048:1 3049:1  |EV| 
4.5068990627598779497020586859435  |BT| (S (NP (NP (NNS (Mice)))(VP (VBG (developing))(NP (NP (JJ (diethylnitrosamine-induced))(JJ (hepatocellular))(NN (carcinoma)))(VP (VBN (subjected))(NP (JJ (hydrodynamic))(NN (gene))(NN (delivery)))))))(VP (VBP (overexpress))(NP (NN (Gas1))(NN (liver))))) |ET|  |BS| 6:G05.360.340.024.340 11:B01.050.150.900.649.865.635.505.500 30:Z01.058.290.190.800 31:D08.811.520.224.800 104:C04.557.470.200.025.255 242:A03.620 554:D02.654.442.200 1229:E04.520.252 1230:G01.342  |ES| 9:1 19:1 303:1 304:1 583:1 590:1 836:1 2513:1 2732:1 3267:1 4311:1 4312:1 4313:1  |EV| 
-4.5068990627598779497020586859435  |BT| (NP (NP (NP (JJ (Antagonistic))(NN (effect))(NN (selenium))(NN (lipid))(NN (peroxide)))(NN (growth))(NN (control))(JJ (early))(JJ (hepatocellular))(NN (carcinoma)))) |ET|  |BS| 45:G07.700.320.249 104:C04.557.470.200.025.255 934:D01.248.497.158.685.750.637 935:D01.268.185.850  |ES| 19:1 75:1 102:1 289:1 303:1 304:1 1128:1 2401:1 3196:1 3283:1 3284:1  |EV| 
4.5068990627598779497020586859435  |BT| (S (ADVP (RB (Herein)))(VP (VBP (show))(SBAR (S (NP (JJ (global))(NN (loss))(NN (ERRalpha)))(VP (VBZ (accelerates))(NP (NP (NN (development))(NN (diethylnitrosamine)))(PRN (-LRB- (-LRB-))(NP (NN (DEN)))(-RRB- (-RRB-)))))))(: (-))(S (VP (VBN (induced))(NP (JJ (hepatocellular))(NN (carcinoma))))))) |ET|  |BS| 104:C04.557.470.200.025.255 197:A01.456.505.420 554:D02.654.442.200  |ES| 10:1 14:1 19:1 32:1 35:1 303:1 304:1 409:1 428:1 429:1 529:1 660:1 1875:1 1952:1 4209:1  |EV| 
-1.9383128784746759265544824302197  |BT| (S (S (S (NP (PRP (We)))(VP (VBD (found))(S (VP (VBG (impairing))(NP (JJ (autophagy))(NNS (hepatocytes)))))))(VP (MD (would))(VP (VB (induce))(NP (JJ (oxidative))(NN (stress))(NN (DNA))(NN (damage))))))(, (,))(NP (VBD (followed))(NN (initiation))(NN (hepatocarcinogenesis)))(, (,))(VP (MD (could))(VP (VBD (suppressed))(NP (NN (antioxidant))(NN (N-acetylcysteine)))))) |ET|  |BS| 262:A11.436.348 390:G04.299.139.399 526:G05.355.180 700:D27.505.519.217 716:G03.495.710 791:D02.886.030.230.259  |ES| 2:1 19:1 37:1 243:1 307:1 637:1 666:1 775:1 843:1 866:1 894:1 900:1 908:1 1317:1 1848:1 2521:1 2522:1 2583:1 3130:1 3131:1  |EV| 
-4.5068990627598779497020586859435  |BT| (S (PP (IN (In))(NP (JJ (present))(NN (study))))(, (,))(VP (VBN (shown))(NP (NP (JJ (myrtenal))(, (,))(JJ (natural))(NN (monoterpene)))(, (,))(NP (VP (VBP (act))(SBAR (S (NP (JJ (antineoplastic))(NN (agent))(NN (diethylnitrosamine)))(VP (VBD (induced))(NP (JJ (phenobarbital))(VBN (promoted))(NP (JJ (experimental))(JJ (hepatocellular))(NN (carcinoma)))))))))))) |ET|  |BS| 81:E02.095.465.425.400.330.050.400 554:D02.654.442.200 660:D27.505.954.248 756:D03.383.742.698.253.650 757:C04.588.274.623.460 758:D02.455.849.575  |ES| 2:1 19:1 131:1 237:1 244:1 246:1 263:1 303:1 304:1 412:1 728:1 1307:1 1912:1 1952:1 2333:1 2682:1 2683:1 2684:1 2685:1  |EV| 
4.5068990627598779497020586859435  |BT| (NP (NP (NN (BACKGROUND))(: (:)))(S (NP (NP (JJ (Hepatocellular))(NN (carcinoma)))(PRN (-LRB- (-LRB-))(NP (NN (HCC)))(-RRB- (-RRB-))))(ADVP (RB (rapidly)))(VP (VBG (increasing))(NP (NP (NN (cancer)))(WHNP (WHNP (WP$ (whose))(JJ (known))(NN (risk))(NN (factor)))(NP (JJ (chronic))(NN (ethanol))(NN (abuse))))(, (,))(NP (JJ (viral))(NN (hepatitis))(NN (infection)))(, (,))(NP (NN (aflatoxin))(NN (exposure))))))) |ET|  |BS| 104:C04.557.470.200.025.255 409:E05.318.740.600.800.725 1137:D03.383.663.283.119 1138:C02.440.420 1139:C25.775.100.250 1140:C06.552.380 1141:C02  |ES| 2:1 10:1 14:1 18:1 19:1 104:1 171:1 185:1 304:1 441:1 556:1 715:1 919:1 1046:1 1790:1 1953:1 2048:1 2151:1 2214:1 2362:1 3424:1 3440:1 3969:1 3974:1  |EV| 
4.5068990627598779497020586859435  |BT| (S (PP (IN (For))(NP (FW (vivo))(NN (study))))(, (,))(NP (JJ (1,2-dimethylhydrazine))(NN (dihydrochloride))(-LRB- (-LRB-))(NN (DMH))(-RRB- (-RRB-))(NN (s.c.)))(VP (VBD (injected))(VP (VBP (induce))(NP (NP (NP (NN (colon))(NN (cancer))(NN (PPARgamma)))(PRN (-LRB- (-LRB-))(CC (+))(: (/))(CC (+))(-RRB- (-RRB-))))(NN (PPARgamma))(PRN (-LRB- (-LRB-))(CC (+))(: (/))(: (-)))))(-RRB- (-RRB-))(NP (NN (mouse))))) |ET|  |BS| 11:B01.050.150.900.649.865.635.505.500 30:Z01.058.290.190.800 31:D08.811.520.224.800 719:D12.776.826.239.588  |ES| 2:1 10:1 14:1 18:1 19:1 44:1 51:1 52:1 113:1 131:1 243:1 378:1 2588:1 2642:1 2643:1 3489:1 3586:1 4165:1 4166:1  |EV| 
-4.5068990627598779497020586859435  |BT| (NP (NP (NN (BACKGROUND))(: (:)))(S (NP (DT (The))(NP (NN (ErbB2/Her2/Neu))(NN (receptor))(NN (tyrosine))(NN (kinase))))(VP (VBD (amplified))(NP (ADJP (QP (RB (approximately))(CD (30)))(NN (%)))(JJ (human))(NN (breast))(NN (cancer)))))) |ET|  |BS| 55:B01.050.150.900.649.801.400.112.400.400 63:G05.360.340.024.340.375.500.791.295.305 65:D08.811.913.696.620.682.725.400.009.400  |ES| 18:1 19:1 23:1 36:1 104:1 186:1 369:1 470:1 691:1 1046:1 1520:1 1843:1 2208:1 2341:1 3165:1  |EV| 
-4.5068990627598779497020586859435  |BT| (NP (NP (PP (IN (In))(NP (NN (study))))(, (,))(NP (NP (NP (NN (report))(NN (effect))(NN (resveratrol))(JJ (early))(JJ (advanced))(NN (stage))(NN (hepatocarcinogenesis))(NN (model))(NN (N-nitrosodiethylamine)))(PRN (-LRB- (-LRB-))(NP (NN (DEN)))(-RRB- (-RRB-))))(: (-))(VBN (induced))(NP (NP (JJ (hepatocellular))(NN (carcinoma)))(PRN (-LRB- (-LRB-))(NP (NN (HCC)))(-RRB- (-RRB-))))(JJ (male))(NNP (Wistar))(NN (rat))))) |ET|  |BS| 104:C04.557.470.200.025.255 554:D02.654.442.200 723:B01.050.150.900.649.865.635.505.700.900  |ES| 2:1 10:1 14:1 19:1 72:1 75:1 131:1 244:1 303:1 304:1 409:1 417:1 441:1 849:1 900:1 997:1 1128:1 1129:1 1402:1 1712:1 1875:1 2602:1 2603:1  |EV| 
4.5068990627598779497020586859435  |BT| (S (NP (PRP$ (Our))(JJ (prior))(NN (work)))(VP (VBD (showed))(NP (NP (NP (JJ (brief))(NN (exposure))(JJ (pregnant))(NN (C3H))(NN (mouse))(JJ (inorganic))(JJ (arsenic-induced))(JJ (hepatocellular))(NN (carcinoma)))(PRN (-LRB- (-LRB-))(NP (NN (HCC)))(-RRB- (-RRB-))))(NP (NN (formation))(JJ (adult))(JJ (male))(NN (offspring)))))) |ET|  |BS| 30:Z01.058.290.190.800 31:D08.811.520.224.800 104:C04.557.470.200.025.255 445:I03.946 1154:B01.050.050.199.520.520.388 1155:G08.686.340 1156:F01.829.263.065 1157:E05.916.039 1158:D01.268.513.249  |ES| 10:1 14:1 19:1 43:1 52:1 132:1 303:1 304:1 355:1 441:1 658:1 1402:1 1546:1 1953:1 3174:1 3998:1 3999:1 4000:1 4001:1 4002:1 4003:1  |EV| 
-4.5068990627598779497020586859435  |BT| (S (PP (IN (In))(NP (CD (2012))(NN (case))(NN (report))))(, (,))(VP (VBN (described))(NP (NP (NN (breakthrough)))(VP (VBG (finding))(NP (NP (CD (two))(JJ (advanced))(NNP (HCC))(NN (patient)))(, (,))(NP (S (NP (CD (one)))(VP (VBD (achieved))(SBAR (S (NP (JJ (complete))(NN (remission))(NN (liver))(NN (tumor)))(VP (VBD (normalized))(NP (NP (NN (alpha-fetoprotein))(NN (level)))(, (,))(PP (IN (along))(NP (JJ (complete))(NN (remission))(NN (lung))(NN (metastasis))))))))))(, (,))(NP (JJ (concomitant))(NN (use))(NN (thalidomide))(NN (cyproheptadine))))))))) |ET|  |BS| 50:M01.643 104:C04.557.470.200.025.255 113:C04.697.650 182:A04.411 275:C23.888 405:V03.100 406:V03.100 515:C04.588.274.623 747:D02.455.426.559.847.181.384.340 748:D12.776.124.790.106.092 749:D02.241.223.805.810.800  |ES| 2:1 7:1 19:1 120:1 172:1 244:1 249:1 328:1 417:1 441:1 634:1 806:1 836:1 927:1 933:1 934:1 997:1 1010:1 1659:1 1681:1 2491:1 2661:1 2662:1 2663:1 2664:1 2665:1 2666:1 2667:1 2668:1  |EV| 
4.5068990627598779497020586859435  |BT| (FRAG (PP (IN (In))(NP (NN (contrast))))(, (,))(NP (NP (CD (three))(CD (18))(NN (vinyl))(JJ (carbamate-induced))(NN (liver))(NN (tumor)))(, (,))(NP (CD (one))(CD (18))(JJ (TCDD-induced))(NN (liver))(NN (tumor)))(, (,))(NP (CD (two))(CD (22))(JJ (spontaneous))(NN (liver))(NN (neoplasm))(NN (mutation))(NN (beta-catenin))))) |ET|  |BS| 18:G05.365.590 23:D12.776.091.249 491:D27.505.259.500 515:C04.588.274.623 1096:D03.383.231.900  |ES| 2:1 7:1 19:1 34:1 60:1 244:1 283:1 482:1 836:1 933:1 1010:1 1193:1 1392:1 1523:1 3714:1 4221:1 4222:1 4223:1  |EV| 
-4.5068990627598779497020586859435  |BT| (S (NP (PRP$ (Our))(JJ (previous))(NN (study)))(VP (VBD (demonstrated))(SBAR (S (NP (NP (JJ (garlic))(NN (oil)))(PRN (-LRB- (-LRB-))(NP (NN (GO)))(-RRB- (-RRB-))))(VP (MD (could))(VP (VB (prevent))(NP (JJ (NDEA-induced))(NN (hepatocarcinogenesis))(NN (rat)))(, (,))(NP (NP (VBG (underlying))(NN (mechanism)))(VP (ADVP (RB (fully)))(VBN (understood)))))))))) |ET|  |BS| 239:F02.463.188.357 245:B01.050.150.900.649.865.635.505.700 246:B01.050.150.900.649.865.635.505.700 554:D02.654.442.200  |ES| 2:1 10:1 14:1 19:1 131:1 162:1 435:1 658:1 733:1 849:1 889:1 900:1 908:1 979:1 1175:1 1819:1 2614:1 2835:1 2836:1 2837:1  |EV| 
-4.5068990627598779497020586859435  |BT| (S (NP (NNP (Coffee)))(VP (VBZ (reduces))(NP (NP (NN (liver))(NN (damage))(NN (rat))(NN (model))(NN (steatohepatitis)))(: (:))(NP (VBG (underlying))(NN (mechanism))(NN (role))(NNS (polyphenols))(NNS (melanoidins)))))) |ET|  |BS| 15:F01.829.316.616 56:D02.455.426.559.389.657.715 242:A03.620 245:B01.050.150.900.649.865.635.505.700 246:B01.050.150.900.649.865.635.505.700 508:C06.552.241 652:D20.215.784.249  |ES| 19:1 31:1 72:1 104:1 142:1 154:1 162:1 435:1 836:1 849:1 1791:1 1848:1 2480:1 2481:1  |EV| 
4.5068990627598779497020586859435  |BT| (S (NP (NN (Liver))(NN (tumor))(NN (formation))(JJ (female))(NN (rat)))(VP (VBD (induced))(NP (NN (fluopyram))(JJ (mediated))(NN (CAR/PXR))(JJ (nuclear))(NN (receptor))(NN (activation))))) |ET|  |BS| 20:G03.495 245:B01.050.150.900.649.865.635.505.700 246:B01.050.150.900.649.865.635.505.700 515:C04.588.274.623 642:M01.975  |ES| 7:1 19:1 43:1 186:1 225:1 412:1 437:1 849:1 1256:1 1404:1 2721:1 4285:1 4286:1  |EV| 
4.5068990627598779497020586859435  |BT| (NP (NP (NP (NN (BACKGROUND)))(: (:))(NP (NP (JJ (Prolonged))(JJ (high))(NN (intake))(JJ (dietary))(NN (selenium)))(VP (VBN (shown))(VP (VBP (induce))(NP (JJ (gestational))(NN (diabetes))(NN (rat))(NN (hyperinsulinemia))(NN (pig)))))))) |ET|  |BS| 30:Z01.058.290.190.800 31:D08.811.520.224.800 245:B01.050.150.900.649.865.635.505.700 246:B01.050.150.900.649.865.635.505.700 595:G07.203.650.240 935:D01.268.185.850 1053:C18.452.394.968 1142:B01.050.150.900.649.077.880.399 1143:B01.050.150.900.649.077.880 1144:C13.703.170  |ES| 19:1 104:1 178:1 237:1 243:1 849:1 1046:1 2009:1 2563:1 2594:1 3284:1 3670:1 3975:1 3976:1 3977:1  |EV| 
4.5068990627598779497020586859435  |BT| (S (PP (IN (In))(NP (JJ (present))(NN (study))))(, (,))(VP (VBN (investigated))(S (NP (NP (NN (role))(NN (IDO))(NN (diethylnitrosamine)))(PRN (-LRB- (-LRB-))(NP (NN (DEN)))(-RRB- (-RRB-))))(: (-))(VP (VBN (induced))(NP (NN (hepatocarcinogenesis)))(S (VP (VBG (using))(NP (NP (NP (NN (IDO-knockout)))(PRN (-LRB- (-LRB-))(NP (NN (KO)))(-RRB- (-RRB-))))(NN (mouse))))))))) |ET|  |BS| 15:F01.829.316.616 29:B01.050.050.136.500.500 554:D02.654.442.200  |ES| 2:1 10:1 14:1 19:1 31:1 52:1 131:1 244:1 350:1 403:1 409:1 900:1 1307:1 1875:1 1952:1 2849:1 4243:1 4244:1  |EV| 
-4.5068990627598779497020586859435  |BT| (S (NP (NNP (Coffee)))(VP (VBZ (reduces))(NP (NP (NN (liver))(NN (damage))(NN (rat))(NN (model))(NN (steatohepatitis)))(: (:))(NP (VBG (underlying))(NN (mechanism))(NN (role))(NNS (polyphenols))(NNS (melanoidins)))))) |ET|  |BS| 15:F01.829.316.616 56:D02.455.426.559.389.657.715 242:A03.620 245:B01.050.150.900.649.865.635.505.700 246:B01.050.150.900.649.865.635.505.700 508:C06.552.241 652:D20.215.784.249  |ES| 19:1 31:1 72:1 104:1 142:1 154:1 162:1 435:1 836:1 849:1 1791:1 1848:1 2480:1 2481:1  |EV| 
-4.5068990627598779497020586859435  |BT| (S (NP (NN (N-acetyl-L-cysteine)))(VP (VBD (blocked))(SBAR (S (NP (NN (EGFR))(NN (activation)))(VP (VBD (reduced))(NP (JJ (N-nitrosodiethylamine-initiated))(NN (hepatocarcinogenesis))(NN (level))(NNP (Cre-Ctrl))(NN (mouse)))))))) |ET|  |BS| 11:B01.050.150.900.649.865.635.505.500 122:C14.280.383 554:D02.654.442.200 791:D02.886.030.230.259  |ES| 19:1 52:1 187:1 225:1 249:1 452:1 900:1 2776:1 2777:1 2778:1 2779:1  |EV| 
4.5068990627598779497020586859435  |BT| (SINV (PP (IN (In))(NP (NN (study))))(, (,))(VBD (evaluated))(FRAG (NP (NN (susceptibility))(NNP (Vparp)))(: (-))(: (/))(: (-))(NP (NN (Tep1))(: (-))(: (/))(: (-))(NN (mouse))(JJ (dimethylhydrazine-induced))(NN (colon))(NN (tumorigenesis))(JJ (urethane-induced))(NN (lung))(NN (tumorigenesis))))) |ET|  |BS| 11:B01.050.150.900.649.865.635.505.500 32:C04.697.098.500 33:C04.697.098 46:A03.556.124.526.356 182:A04.411 225:E05.337 401:C23.550.291.687 1214:D02.241.081.251.944  |ES| 2:1 19:1 52:1 78:1 113:1 131:1 244:1 328:1 780:1 1353:1 4250:1 4251:1 4252:1 4253:1  |EV| 
4.5068990627598779497020586859435  |BT| (S (NP (NN (HTHQ)))(ADVP (RB (also)))(VP (VBD (inhibited))(NP (NP (NP (JJ (2-amino-1-methyl-6-phenylimidazo))(-LRB- (-LSB-))(JJ (4,5-b))(-RRB- (-RSB-))(NN (pyridine)))(PRN (-LRB- (-LRB-))(NP (NN (PhIP)))(-RRB- (-RRB-))))(: (-))(NP (VBN (induced))(NN (colon))(NN (carcinogenesis))(CD (two))(NN (stage))(NN (colon))(NN (carcinogenesis))(NN (model)))(S (VP (VBG (using))(NP (NP (NP (NN (1,2-dimethylhydrazine)))(PRN (-LRB- (-LRB-))(NP (NN (DMH)))(-RRB- (-RRB-))))(NN (initiator)))))))) |ET|  |BS| 33:C04.697.098 46:A03.556.124.526.356 122:C14.280.383 744:D03.383.725  |ES| 5:1 10:1 14:1 19:1 72:1 113:1 207:1 350:1 365:1 409:1 933:1 1129:1 1373:1 1378:1 2637:1 2638:1 2639:1 2640:1 2641:1 2642:1 2643:1 2644:1  |EV| 
-4.5068990627598779497020586859435  |BT| (SINV (ADVP (RB (Here)))(VP (VBN (aimed)))(VP (VBP (determine))(NP (NP (NN (mechanism))(NN (action))(NN (DHEA)))(, (,))(NP (NP (NN (comparison))(NN (vitamin))(NN (E)))(, (,))(NP (JJ (chemically-induced))(JJ (hepatocellular))(NN (carcinoma))(NN (model))(NN (rat))))))) |ET|  |BS| 30:Z01.058.290.190.800 31:D08.811.520.224.800 104:C04.557.470.200.025.255 245:B01.050.150.900.649.865.635.505.700 246:B01.050.150.900.649.865.635.505.700 740:D04.808.054.079.429.625 741:D03.383.663.283.909 742:G03.787  |ES| 2:1 19:1 72:1 74:1 162:1 303:1 304:1 400:1 844:1 849:1 2013:1 2085:1 2233:1 2591:1 2633:1 2634:1  |EV| 
-4.5068990627598779497020586859435  |BT| (S (NP (PRP (We)))(VP (VBD (studied))(NP (NP (NN (mechanism))(VBG (underlying))(NN (inhibition))(NN (diethylnitrosamine))(-LRB- (-LRB-))(NN (DEN))(-RRB- (-RRB-))(: (-)))(VBN (induced))(NN (hepatocarcinogenesis))(NN (lycopene))(NN (rat))))) |ET|  |BS| 38:Z01.058.290.120.180 40:Z01.542.248.700 43:F01.145.544 245:B01.050.150.900.649.865.635.505.700 246:B01.050.150.900.649.865.635.505.700 554:D02.654.442.200  |ES| 10:1 14:1 19:1 103:1 162:1 401:1 409:1 435:1 843:1 849:1 900:1 1875:1 1952:1 2566:1  |EV| 
-4.5068990627598779497020586859435  |BT| (NP (NP (NP (NP (JJ (Dimethylarsinic))(NN (acid)))(PRN (-LRB- (-LRB-))(NP (NN (DMA)))(-RRB- (-RRB-))))(JJ (major))(NN (metabolite))(JJ (inorganic))(JJ (arsenical)))(, (,))(NP (ADJP (RB (epidemiologically))(JJ (significant)))(NN (chemical))(NN (relation))(NN (liver))(NN (cancer))(NN (mammal)))) |ET|  |BS| 901:B01.050.150.900.649 902:D02.691.088.100 903:D01.075  |ES| 2:1 10:1 14:1 18:1 19:1 135:1 462:1 836:1 1275:1 1678:1 2124:1 3171:1 3172:1 3173:1 3174:1 3175:1 3176:1 3177:1  |EV| 
4.5068990627598779497020586859435  |BT| (S (ADVP (RB (Moreover)))(, (,))(NP (NP (NN (mouse))(NN (model))(JJ (azoxymethane-induced))(NN (colon))(NN (carcinogenesis)))(, (,))(S (NP (NN (rimonabant)))(ADVP (RB (significantly)))(VP (VBD (decreased))(NP (NP (NP (JJ (aberrant))(NN (crypt))(NN (focus)))(PRN (-LRB- (-LRB-))(NP (NN (ACF)))(-RRB- (-RRB-))))(NN (formation)))))(, (,)))(VP (VBZ (precedes))(NP (JJ (colorectal))(NN (cancer))))) |ET|  |BS| 4:C04.588.274.476.411.307 5:C04.588.274.476.411.307 11:B01.050.150.900.649.865.635.505.500 20:G03.495 33:C04.697.098 46:A03.556.124.526.356 132:D02.172.080 824:C04.834.020  |ES| 2:1 10:1 14:1 17:1 18:1 19:1 43:1 52:1 72:1 113:1 124:1 202:1 207:1 622:1 1431:1 1725:1 2533:1 2831:1 2913:1 2914:1 4318:1  |EV| 
4.5068990627598779497020586859435  |BT| (S (S (NP (NNP (Lycopene)))(VP (VBZ (modulates))(SBAR (S (NP (NN (initiation))(NN (N-nitrosodiethylamine)))(VP (VBD (induced))(NP (NN (hepatocarcinogenesis))))))))(: (:))(S (NP (NP (NN (study))(JJ (chromosomal))(NN (abnormality)))(, (,))(NP (NN (membrane))(NN (fluidity))(JJ (antioxidant))(NN (defense))(NN (system)))))) |ET|  |BS| 554:D02.654.442.200 700:D27.505.519.217 1037:C23.550.210 1038:G01.154.500 1039:C16.131.260  |ES| 2:1 19:1 104:1 131:1 412:1 593:1 606:1 637:1 900:1 1002:1 1027:1 1104:1 2521:1 2602:1 2733:1 3622:1 3623:1  |EV| 
4.5068990627598779497020586859435  |BT| (NP (NP (JJ (2-Amino-1-methyl-6-phenylimidazo))(PRN (-LRB- (-LSB-))(ADJP (JJ (4,5-b)))(-RRB- (-RSB-)))(NN (pyridine))(NN (increase))(NN (number))(NN (tumor)))(, (,))(NP (JJ (cystic))(NN (crypt))(JJ (aberrant))(NN (crypt))(NN (focus))(JJ (multiple))(JJ (intestinal))(NN (neoplasia))(NN (mouse)))) |ET|  |BS| 8:C04 11:B01.050.150.900.649.865.635.505.500 102:C04.588.274.476.411 555:C04.182 744:D03.383.725 824:C04.834.020  |ES| 2:1 7:1 19:1 40:1 52:1 109:1 640:1 646:1 649:1 1373:1 1378:1 1431:1 1725:1 2639:1 2640:1 2913:1 4060:1 4061:1  |EV| 
4.5068990627598779497020586859435  |BT| (NP (NP (NN (Modulation))(NN (energy))(JJ (metabolic))(NN (enzyme))(NN (expression))(JJ (N-nitrosodiethylamine-mediated))(NN (hepatocarcinogenesis))(JJ (Chinese))(NN (herb)))(, (,))(NP (NNP (Huqi))(NNP (San)))) |ET|  |BS| 554:D02.654.442.200 730:D08.811 788:H01.158.273.118.598.500  |ES| 2:1 19:1 115:1 900:1 2006:1 2388:1 2760:1 2761:1 2762:1 2763:1 2764:1 2765:1 2766:1  |EV| 
-4.5068990627598779497020586859435  |BT| (NP (NP (NP (NP (NN (Aspirin)))(PRN (-LRB- (-LSB-))(NP (NP (JJ (acetylsalicylic))(NN (acid)))(PRN (-LRB- (-LRB-))(NP (NN (ASA)))(-RRB- (-RRB-))))(-RRB- (-RSB-))))(VP (VBN (shown))(VP (VBP (prevent))(NP (NN (CRC))))))(: (;))(S (ADVP (RB (however)))(, (,))(NP (JJ (epigenetic))(NN (mechanism))(NN (action)))(VP (VBP (remain))(ADJP (JJ (unknown)))))) |ET|  |BS| 4:C04.588.274.476.411.307 5:C04.588.274.476.411.307 30:Z01.058.290.190.800 31:D08.811.520.224.800 670:D02.455.426.559.389.657.410.595.176 671:G05.355.315.203  |ES| 2:1 10:1 14:1 19:1 162:1 217:1 237:1 245:1 733:1 1275:1 1373:1 1378:1 1387:1 1603:1 2013:1 2181:1 2182:1 2449:1 2450:1 2451:1  |EV| 
4.5068990627598779497020586859435  |BT| (S (NP (NN (Liver))(NN (fibrosis)))(VP (VBD (induced))(NP (NP (NN (carbon))(NN (tetrachloride)))(, (,))(NP (NN (bile))(NN (duct))(NN (ligation)))(, (,))(NP (NP (NN (disruption))(JJ (multidrug-resistance))(NN (transporter))(CD (2))(NN (gene)))(PRN (-LRB- (-LRB-))(NP (NN (Mdr2)))(-RRB- (-RRB-))))))) |ET|  |BS| 227:D12.776.157.530 676:C06.552.630 1220:D02.455.526.439.150 1221:G05.360.340.024.340.361 1222:A03.159.183 1223:E04.426  |ES| 2:1 9:1 10:1 14:1 19:1 148:1 412:1 779:1 949:1 1602:1 1621:1 1622:1 2721:1 4278:1 4279:1 4282:1 4283:1 4284:1  |EV| 
-4.5068990627598779497020586859435  |BT| (S (NP (NP (JJ (Pre-operative))(NN (5-fluorouracil)))(PRN (-LRB- (-LRB-))(NP (NN (5-FU)))(-RRB- (-RRB-))))(: (-))(NP (VBN (based))(NN (chemoradiotherapy)))(ADVP (RB (locally)))(VP (VBD (advanced))(SBAR (S (NP (NP (JJ (rectal))(NN (cancer)))(PRN (-LRB- (-LRB-))(NP (NN (UICC-II/III)))(-RRB- (-RRB-))))(VP (MD (may))(ADVP (RB (significantly)))(VP (VB (reduce))(NP (JJ (local))(NN (tumour))(NN (mass))))))))) |ET|  |BS| 8:C04 59:E02.186.079 333:D01.045 560:D03.383.742.698.875.404  |ES| 10:1 14:1 18:1 19:1 124:1 491:1 997:1 1011:1 1985:1 1986:1 1989:1 2307:1 2308:1 2361:1 2804:1 2894:1 2895:1 2896:1 2897:1  |EV| 
-4.5068990627598779497020586859435  |BT| (S (NP (NN (AZD6244))(NN (doxorubicin)))(VP (VBP (induce))(NP (NN (growth))(NN (suppression))(NN (apoptosis))(NN (mouse))(NN (model))(JJ (hepatocellular))(NN (carcinoma))))) |ET|  |BS| 11:B01.050.150.900.649.865.635.505.500 39:G04.299.139.160 45:G07.700.320.249 104:C04.557.470.200.025.255 136:D02.455.426.559.847.562.050.200.175  |ES| 19:1 52:1 72:1 89:1 102:1 243:1 303:1 304:1 599:1 2452:1 2453:1  |EV| 
-4.5068990627598779497020586859435  |BT| (S (NP (PRP (We)))(VP (VBP (find))(SBAR (S (JJ (enzastaurin))(ADVP (RB (potently)))(VP (VBZ (reduces))(NP (NP (JJ (azoxymethane-induced))(NN (colon))(NN (tumor))(NN (initiation))(NN (progression)))(VP (VBG (inhibiting))(NP (JJ (PKCbetaII-mediated))(NN (tumor))(NN (cell))(NN (proliferation))(NN (beta-catenin))(NN (accumulation)))))))))) |ET|  |BS| 8:C04 16:C23.550.291.656 23:D12.776.091.249 51:C04.588.274.476.411.307.180 122:C14.280.383 132:D02.172.080 183:G04.299.233.750 866:D08.811.913.696.620.682.700.725.049  |ES| 7:1 19:1 48:1 60:1 94:1 113:1 142:1 299:1 637:1 843:1 880:1 2120:1 2533:1 2855:1 3127:1 3128:1 3129:1  |EV| 
4.5068990627598779497020586859435  |BT| (NP (NP (JJ (Chemopreventive))(NN (evaluation))(NN (Tephrosia))(NN (purpurea))(JJ (N-nitrosodiethylamine-induced))(NN (hepatocarcinogenesis))(NNP (Wistar))(NN (rat)))) |ET|  |BS| 225:E05.337 554:D02.654.442.200 723:B01.050.150.900.649.865.635.505.700.900 1153:B01.650.940.800.575.100.401.890  |ES| 19:1 849:1 900:1 2503:1 2603:1 2948:1 3972:1 3994:1 3995:1  |EV| 
4.5068990627598779497020586859435  |BT| (S (NP (NN (Inhibition))(JJ (retinoic))(NN (acid))(NN (hepatocarcinogenesis)))(VP (VBD (induced))(NP (NN (N-nitrosomorpholine))(NN (expression))(NN (myc))(NN (oncogene))(NN (protein))(JJ (Sprague-Dawley))(NN (rat))))) |ET|  |BS| 43:F01.145.544 584:D12.776.624.664 769:B01.050.150.900.649.865.635.505.700.750 770:D02.455.326.271.665.202.495.818.500  |ES| 4:1 19:1 24:1 115:1 412:1 849:1 900:1 1275:1 2703:1 2704:1 2705:1 2706:1 2707:1  |EV| 
-4.5068990627598779497020586859435  |BT| (S (NP (NN (Liver))(NN (cell))(NN (proliferation)))(VP (VBD (increased))(ADVP (RB (significantly)))(NP (NP (NN (liver))(NN (tumor))(JJ (tamoxifen-treated))(NN (rat)))(NP (ADJP (CD (12))(NN (month)))(NN (treatment))(NN (recovery))(NN (period)))))) |ET|  |BS| 52:E02 183:G04.299.233.750 242:A03.620 245:B01.050.150.900.649.865.635.505.700 246:B01.050.150.900.649.865.635.505.700 515:C04.588.274.623 640:D02.455.426.559.389.150.700.900 775:E02.760.058 776:G01.910.645  |ES| 7:1 19:1 47:1 94:1 124:1 299:1 546:1 836:1 849:1 1120:1 2721:1 2722:1 2723:1 2724:1 2725:1  |EV| 
-4.5068990627598779497020586859435  |BT| (S (NP (NN (DNA))(NN (methylation))(NN (alteration)))(VP (VBD (detected))(SBAR (S (NP (NN (zebrafish))(NN (liver))(NN (tumor)))(VP (VBD (induced))(NP (NP (JJ (environmental))(NN (carcinogen))(CD (7)))(, (,))(NP (JJ (12-dimethylbenz))(-LRB- (-LRB-))(-RRB- (-RRB-))(NN (anthracene))))))))) |ET|  |BS| 366:G02.111.087.029.538.161 515:C04.588.274.623 572:B01.050.150.900.493.200.244.828 977:D27.888.569.100.125  |ES| 2:1 7:1 10:1 14:1 19:1 81:1 412:1 666:1 836:1 951:1 988:1 1007:1 2017:1 2125:1 3446:1 3447:1 3448:1  |EV| 
4.5068990627598779497020586859435  |BT| (FRAG (PP (IN (After))(NP (NP (JJ (3-month))(NN (recovery))(NN (period))(JJ (tamoxifen-treated))(NN (rat))(JJ (large))(NN (liver))(NN (tumor)))(PRN (-LRB- (-LRB-))(NP (NN (diameter))(CD (3))(NN (cm)))(-RRB- (-RRB-)))))) |ET|  |BS| 8:C04 52:E02 245:B01.050.150.900.649.865.635.505.700 246:B01.050.150.900.649.865.635.505.700 515:C04.588.274.623 640:D02.455.426.559.389.150.700.900 776:G01.910.645 1151:C06.552.416  |ES| 7:1 10:1 14:1 19:1 836:1 849:1 862:1 1408:1 1409:1 2722:1 2724:1 2725:1 3265:1 4072:1 4073:1  |EV| 
4.5068990627598779497020586859435  |BT| (S (ADVP (RB (Moreover)))(, (,))(NP (NN (mechanism))(NNS (fibrates)))(VP (VBP (induce))(NP (NN (hepatocyte))(NN (proliferation))(NN (cholestasis)))(ADVP (RB (still)))(VP (ADVP (RB (fully)))(VBN (understood))))) |ET|  |BS| 239:F02.463.188.357 262:A11.436.348 879:C06.130.120.135 1188:D02.241.081.114.968.500  |ES| 2:1 19:1 162:1 243:1 299:1 622:1 776:1 889:1 979:1 1909:1 4130:1 4131:1  |EV| 
