SVM-light Version V5.01-TK-1.5
5 # kernel type
3 # kernel parameter -d 
1 # kernel parameter -g 
1 # kernel parameter -s 
1 # kernel parameter -r 
empty# kernel parameter -u 
0.4 # kernel parameter -L 
1 # kernel parameter -T 
S # kernel parameter -C 
1 # kernel parameter -F 
0 # kernel parameter -S 
0.400000 # kernel parameter -M 
3 # kernel parameter -N 
S # kernel parameter -V 
S # kernel parameter -W 
0 # kernel parameter -U 
5750 # highest feature index 
1647 # number of training documents 
371 # number of support vectors plus 1 
1.0004745 # threshold b, each following line is a SV (starting with alpha*y)
-0.00018108512185661083948584604286225  |BT| (FRAG (PP (IN (In))(NP (NN (LNCaP))(NN (cell))))(, (,))(NP (NP (JJ (caspase-mediated))(NN (apoptosis))(NN (induction))(NN (PGG)))(SBAR (S (NP (VBN (associated))(JJ (mediated))(JJ (major))(NN (part))(NN (activation))(NN (p53)))(VP (VBD (established))(NP (JJ (small))(VBG (interfering))(NN (RNA))(NN (knockdown))(JJ (dominant-negative))(JJ (mutant))(NN (approach)))))))) |ET|  |BS| 2:G05.360.340.024.340.375.249.385 38:Z01.058.290.120.180 39:G04.299.139.160 40:Z01.542.248.700 41:A11 117:D13.150.650.700 133:D01.248.497.158.685.750.744.600 1367:D08.811.277.656.262.500.126  |ES| 2:1 12:1 19:1 89:1 94:1 169:1 225:1 244:1 413:1 437:1 451:1 462:1 464:1 515:1 736:1 750:1 811:1 911:1 2115:1 2660:1 3019:1 4904:1 4905:1  |EV| 
0.00041788035725208173528158472898042  |BT| (S (ADVP (RB (Intriguingly)))(, (,))(NP (NN (ZKSCAN3))(NN (protein)))(ADVP (RB (also)))(VP (VBD (expressed))(NP (NP (NP (NN (tumor))(JJ (wild-type))(NN (gene)))(PRN (-LRB- (-LRB-))(NP (NP (NN (APC)))(, (,))(NP (NN (p53)))(, (,))(NP (NN (K-Ras))))(-RRB- (-RRB-))))(RRC (ADVP (RB (commonly)))(NP (VBN (targeted))(NP (JJ (colorectal))(NN (cancer)))))))) |ET|  |BS| 1:G05.360.340.024.340.375.500.791.550 2:G05.360.340.024.340.375.249.385 3:C04.557.470.035.215.100 4:C04.588.274.476.411.307 5:C04.588.274.476.411.307 6:G05.360.340.024.340 7:D12.776 8:C04  |ES| 1:1 2:1 3:1 4:1 5:1 6:1 7:1 8:1 9:1 10:1 11:1 12:1 13:1 14:1 15:1 16:1 17:1 18:1 19:1  |EV| 
0.00041788035725208173528158472898042  |BT| (S (NP (NNS (CONCLUSIONS))(: (:)))(PP (IN (In))(NP (JJ (human))(NN (CRC))(NN (cell))))(, (,))(NP (NN (miR-221))(NN (miR-222)))(VP (VBP (act))(NP (JJ (positive))(NN (feedback))(NN (loop))(NN (increase))(NN (expression))(NN (level))(NN (RelA))(NN (STAT3))))) |ET|  |BS| 4:C04.588.274.476.411.307 5:C04.588.274.476.411.307 30:Z01.058.290.190.800 31:D08.811.520.224.800 41:A11 55:B01.050.150.900.649.801.400.112.400.400 81:E02.095.465.425.400.330.050.400 82:D12.644.360.024.342.300 83:L01.143.283.425  |ES| 2:1 19:1 36:1 40:1 94:1 104:1 115:1 140:1 141:1 233:1 239:1 244:1 245:1 246:1 247:1 248:1 249:1 250:1 251:1  |EV| 
0.00041788035725208173528158472898042  |BT| (S (NP (NN (PURPOSE))(: (:)))(NP (DT (The))(NN (MYC))(NN (oncogene)))(ADVP (RB (frequently)))(VP (VBN (overexpressed))(NP (NN (prostate))(NN (cancer))))) |ET| 18:1 19:1 24:1 25:1 77:1 104:1 472:1 687:1 691:1 698:1  |EV| 
-0.00041788035725208173528158472898042  |BT| (S (NP (JJ (Elevated))(NN (expression))(JJ (coactivator-associated))(NN (arginine))(NN (methyltransferase))(CD (1)))(VP (VBN (associated))(NP (JJ (early))(NN (hepatocarcinogenesis))))) |ET| 19:1 98:1 115:1 169:1 900:1 1128:1 1350:1 2655:1 3464:1 3465:1  |EV| 
0.00041788035725208173528158472898042  |BT| (S (NP (NN (SPDEF)))(VP (VP (VBD (inhibited))(NP (NN (expression))(JJ (beta-catenin-target))(NN (gene))(NN (mouse))(NN (colon))(NN (tumor))))(, (,))(VP (VBD (interacted))(NP (NP (NN (beta-catenin))(NN (block))(JJ (transcriptional))(NN (activity)))(NP (NN (CRC))(NN (cell))(NN (line))))(, (,))(S (VP (VBG (resulting))(NP (JJR (lower))(NN (level))(NN (cyclin))(NN (D1))(NN (c-MYC)))))))) |ET|  |BS| 4:C04.588.274.476.411.307 5:C04.588.274.476.411.307 11:B01.050.150.900.649.865.635.505.500 23:D12.776.091.249 30:Z01.058.290.190.800 31:D08.811.520.224.800 51:C04.588.274.476.411.307.180 94:A11.251.210 122:C14.280.383 155:G05.355.310 209:G02.111.087.847 215:D12.644.360.262.150.100  |ES| 2:1 7:1 9:1 19:1 52:1 60:1 94:1 113:1 115:1 117:1 245:1 249:1 264:1 365:1 384:1 399:1 559:1 625:1 739:1 740:1 741:1 742:1 743:1 744:1  |EV| 
0.00041788035725208173528158472898042  |BT| (S (NP (DT (The))(NN (effect))(NN (folate))(NN (transporter))(NN (gene))(NN (ablation))(NN (colon))(NN (carcinogenesis)))(VP (VBD (evaluated))(NP (NP (CD (8))(CD (38))(NN (week)))(JJ (post-azoxymethane))(NN (injection))(JJ (wild-type))(JJ (heterozygous))(NN (mouse))))) |ET|  |BS| 6:G05.360.340.024.340 11:B01.050.150.900.649.865.635.505.500 33:C04.697.098 46:A03.556.124.526.356 132:D02.172.080 157:G05.380.383 224:D03.438.733.631.400 225:E05.337 226:E02.319.267.530 227:D12.776.157.530  |ES| 8:1 9:1 19:1 52:1 75:1 91:1 113:1 207:1 691:1 778:1 779:1 780:1 781:1 782:1 783:1 784:1 785:1 786:1  |EV| 
-0.00030302255390179336919098673774897  |BT| (S (NP (NNS (CONCLUSIONS)))(: (:))(S (NP (DT (This))(NN (study)))(VP (VBZ (demonstrates))(NP (JJ (synergistic))(NN (antitumor))(NN (activity))(NN (combination))(NN (dovitinib))(NN (oxaliplatin))(NN (colon))(NN (cancer))(JJ (different))(NN (RAS-RAF))(NN (status)))))) |ET|  |BS| 1:G05.360.340.024.340.375.500.791.550  |ES| 18:1 19:1 104:1 113:1 131:1 239:1 399:1 414:1 416:1 530:1 807:1 2012:1 2244:1 2541:1 2542:1 2543:1 2544:1  |EV| 
0.00041788035725208173528158472898042  |BT| (S (ADVP (RB (Furthermore)))(, (,))(NP (NN (Cdx2)))(VP (VBD (decreased))(S (VP (VBG (knocking))(NP (NN (HNF4alpha))(JJ (human))(NN (colon))(NN (cancer))(NN (cell)))(S (VP (VBG (using))(NP (NN (siRNA))(NN (colon))(NN (mouse))))))))(S (ADVP (RB (conditionally)))(VP (VBD (knocked))(NP (NN (Hnf4alpha))(NN (gene))(JJ (adult))(NN (intestine)))(PRN (-LRB- (-LRB-))(NP (NP (NP (NN (Hnf4alpha)))(PRN (-LRB- (-LRB-))(NP (NN (f/f)))(-RRB- (-RRB-))))(: (;))(NP (NNP (VilCre))(-LRB- (-LRB-))(NN (ERT2))(-RRB- (-RRB-))(NN (mouse))))(-RRB- (-RRB-)))))) |ET|  |BS| 6:G05.360.340.024.340 11:B01.050.150.900.649.865.635.505.500 41:A11 46:A03.556.124.526.356 47:A03.556.124 55:B01.050.150.900.649.801.400.112.400.400 116:D08.811.913.696.620.682.700.567.249.750 117:D13.150.650.700 118:D01.248.497.158.380 119:M01.060.116  |ES| 2:1 9:1 10:1 14:1 18:1 19:1 36:1 52:1 94:1 113:1 123:1 202:1 213:1 217:1 334:1 349:1 350:1 351:1 352:1 353:1 354:1 355:1 356:1 357:1 358:1 359:1  |EV| 
-7.3157230365281664466459154994027e-05  |BT| (S (NP (NP (ADVP (RB (Surprisingly)))(, (,))(VBN (given))(VBN (proposed))(NN (role))(NN (loss))(NN (function))(NN (mutation))(NN (p53))(NN (gene))(NN (development)))(NP (JJ (human))(JJ (colorectal))(NN (cancer)))(, (,)))(VP (VBD (found))(NP (NP (NN (evidence)))(PP (CC (either))(NP (NP (NN (increase))(NN (rate))(NN (adenoma))(NN (formation))(NN (APC)))(CC (+))(: (/))(: (-))(, (,))(NP (NN (p53))(: (-)))(: (/))(FRAG (: (-))(NP (NP (NN (animal)))(, (,))(NP (NP (VBD (increased))(NN (rate))(NN (progression))(NN (malignancy)))(VP (VBN (compared))(NP (NP (NN (APC)))(NP (CC (+))(: (/))(: (-))(NN (p53))(CC (+))(FRAG (: (/))(CC (+))(NP (NN (mouse))))))))))))))) |ET|  |BS| 2:G05.360.340.024.340.375.249.385 3:C04.557.470.035.215.100 4:C04.588.274.476.411.307 5:C04.588.274.476.411.307 11:B01.050.150.900.649.865.635.505.500 12:Z01.542.049 13:D01.339.387 14:F01.525 15:F01.829.316.616 16:C23.550.291.656 17:C04.557.470.035 18:G05.365.590 19:B01.050 20:G03.495  |ES| 2:1 9:1 11:1 12:1 17:1 18:1 19:1 28:1 29:1 30:1 31:1 32:1 33:1 34:1 35:1 36:1 37:1 38:1 39:1 40:1 41:1 42:1 43:1 44:1 45:1 46:1 47:1 48:1 49:1 50:1 51:1 52:1  |EV| 
0.00041788035725208173528158472898042  |BT| (S (NP (NP (ADVP (RB (Surprisingly)))(, (,))(VBN (given))(VBN (proposed))(NN (role))(NN (loss))(NN (function))(NN (mutation))(NN (p53))(NN (gene))(NN (development)))(NP (JJ (human))(JJ (colorectal))(NN (cancer)))(, (,)))(VP (VBD (found))(NP (NP (NN (evidence)))(PP (CC (either))(NP (NP (NN (increase))(NN (rate))(NN (adenoma))(NN (formation))(NN (APC)))(CC (+))(: (/))(: (-))(, (,))(NP (NN (p53))(: (-)))(: (/))(FRAG (: (-))(NP (NP (NN (animal)))(, (,))(NP (NP (VBD (increased))(NN (rate))(NN (progression))(NN (malignancy)))(VP (VBN (compared))(NP (NP (NN (APC)))(NP (CC (+))(: (/))(: (-))(NN (p53))(CC (+))(FRAG (: (/))(CC (+))(NP (NN (mouse))))))))))))))) |ET|  |BS| 2:G05.360.340.024.340.375.249.385 3:C04.557.470.035.215.100 4:C04.588.274.476.411.307 5:C04.588.274.476.411.307 11:B01.050.150.900.649.865.635.505.500 12:Z01.542.049 13:D01.339.387 14:F01.525 15:F01.829.316.616 16:C23.550.291.656 17:C04.557.470.035 18:G05.365.590 19:B01.050 20:G03.495  |ES| 2:1 9:1 11:1 12:1 17:1 18:1 19:1 28:1 29:1 30:1 31:1 32:1 33:1 34:1 35:1 36:1 37:1 38:1 39:1 40:1 41:1 42:1 43:1 44:1 45:1 46:1 47:1 48:1 49:1 50:1 51:1 52:1  |EV| 
-0.0002630569695981277086871408243951  |BT| (S (NP (DT (The))(NN (effect))(NN (folate))(NN (transporter))(NN (gene))(NN (ablation))(NN (colon))(NN (carcinogenesis)))(VP (VBD (evaluated))(NP (NP (CD (8))(CD (38))(NN (week)))(JJ (post-azoxymethane))(NN (injection))(JJ (wild-type))(JJ (heterozygous))(NN (mouse))))) |ET|  |BS| 6:G05.360.340.024.340 11:B01.050.150.900.649.865.635.505.500 33:C04.697.098 46:A03.556.124.526.356 132:D02.172.080 157:G05.380.383 224:D03.438.733.631.400 225:E05.337 226:E02.319.267.530 227:D12.776.157.530  |ES| 8:1 9:1 19:1 52:1 75:1 91:1 113:1 207:1 691:1 778:1 779:1 780:1 781:1 782:1 783:1 784:1 785:1 786:1  |EV| 
-0.00041788035725208173528158472898042  |BT| (S (NP (NP (NN (Cyclooxygenase-2)))(PRN (-LRB- (-LRB-))(NP (NN (COX-2)))(-RRB- (-RRB-))))(ADVP (RB (constitutively)))(VP (VBD (expressed))(NP (NP (NN (variety))(NN (tumor)))(PP (VBG (including))(NP (JJ (colorectal))(NN (cancer))))))) |ET|  |BS| 4:C04.588.274.476.411.307 5:C04.588.274.476.411.307 8:C04 24:D08.811.600.720.750  |ES| 6:1 7:1 10:1 14:1 17:1 18:1 19:1 76:1 196:1 561:1 952:1 1158:1  |EV| 
-0.00028371100423812967150638542079832  |BT| (S (NP (PRP (We)))(VP (VBD (observed))(NP (NP (JJ (similar))(NN (result))(JJ (cellular))(NN (model)))(JJ (hepatocellular))(NN (colon))(NN (cancer)))(, (,))(S (VP (VBG (indicating))(S (NP (JJ (doxorubicin-sensitizing))(NN (effect))(NN (miR-137))(NN (tumor)))(ADJP (JJ (type-specific)))))))) |ET|  |BS| 8:C04 41:A11 136:D02.455.426.559.847.562.050.200.175  |ES| 2:1 7:1 18:1 19:1 72:1 75:1 101:1 113:1 261:1 303:1 332:1 420:1 843:1 2236:1 3074:1 5749:1 5750:1  |EV| 
0.00041788035725208173528158472898042  |BT| (S (NP (DT (This))(NN (study)))(VP (VBZ (provides))(SBAR (S (NP (NP (JJ (first))(JJ (quantitative))(NN (analysis))(JJ (discrete))(NN (CRKI))(NN (CRKII))(NN (protein))(NNS (isoforms)))(SBAR (S (NP (JJ (human))(NN (lung))(NN (tumor)))(VP (VBZ (provides))(NP (NN (evidence))(NN (C-CRK))(NN (proto-oncogene)))))))(VP (MD (may))(VP (VB (foment))(NP (JJ (aggressive))(NN (phenotype))(NN (lung))(NN (cancer))))))))) |ET|  |BS| 55:B01.050.150.900.649.801.400.112.400.400 80:G05.695 162:F01.145.126.125 235:G05.360.340.024.340.375.500.791 236:D12.644.360.024.318 237:C04.588.894.797.520 238:D12.776.800  |ES| 4:1 7:1 18:1 19:1 36:1 38:1 131:1 236:1 328:1 491:1 538:1 563:1 661:1 807:1 815:1 816:1 817:1 818:1 819:1 820:1 821:1 822:1 823:1  |EV| 
0.00041788035725208173528158472898042  |BT| (S (NP (NNS (Tumors)))(VP (VBD (graded))(NP (NP (NN (histology))(JJ (immunostained))(NN (p53)))(, (,))(NP (JJ (adenomatous))(NN (polyposis))(NN (coli)))(, (,))(NP (NN (beta-catenin)))(, (,))(NP (NP (NP (NN (cyclooxygenase-2))(-LRB- (-LRB-))(NN (Cox-2))(-RRB- (-RRB-))(JJ (inducible))(JJ (nitric))(NN (oxide))(NN (synthase)))(PRN (-LRB- (-LRB-))(NP (NN (iNOS)))(-RRB- (-RRB-))))(VBN (sequenced))(NN (p53))(NN (mutation)))))) |ET|  |BS| 2:G05.360.340.024.340.375.249.385 3:C04.557.470.035.215.100 8:C04 18:G05.365.590 21:G05.360.340.024.340.375.249.050 22:D08.811.682.664.500.772.500 23:D12.776.091.249 24:D08.811.600.720.750 25:G02.111.570.080 26:G02.111.570.080 27:G02.111.570.080 28:H01.158.100.656  |ES| 2:1 10:1 12:1 14:1 19:1 34:1 53:1 54:1 55:1 56:1 57:1 58:1 59:1 60:1 61:1 62:1 63:1 64:1 65:1 66:1 67:1 68:1  |EV| 
0.00041788035725208173528158472898042  |BT| (FRAG (PP (TO (To))(NP (VB (investigate))(NP (NP (NN (role))(NN (KCNQ1))(JJ (human))(JJ (colorectal))(NN (cancer)))(PRN (-LRB- (-LRB-))(NP (NN (CRC)))(-RRB- (-RRB-))))(, (,))(NP (NP (VBN (measured))(NN (protein))(NN (level))(NN (KCNQ1))(NN (immunohistochemistry))(NN (tissue))(NNS (microarrays)))(VP (VBG (containing))(NP (NP (NN (sample))(NN (CRC))(NN (patient))(NN (liver))(NN (metastasis)))(VP (VBN (undergone))(NP (JJ (hepatic))(NN (resection)))))))))) |ET|  |BS| 4:C04.588.274.476.411.307 5:C04.588.274.476.411.307 15:F01.829.316.616 30:Z01.058.290.190.800 31:D08.811.520.224.800 38:Z01.058.290.120.180 40:Z01.542.248.700 50:M01.643 55:B01.050.150.900.649.801.400.112.400.400 98:A10 113:C04.697.650 143:E01.370.225.500.607.512 228:E05.978 241:D12.776.157.530.400.600.900.124.249.500 242:A03.620  |ES| 2:1 4:1 10:1 14:1 17:1 18:1 19:1 31:1 36:1 120:1 128:1 245:1 249:1 272:1 286:1 459:1 789:1 791:1 806:1 828:1 833:1 834:1 835:1 836:1 837:1 838:1  |EV| 
-0.00041788035725208173528158472898042  |BT| (S (NP (DT (This))(NN (study)))(VP (VBP (show))(SBAR (S (NP (NN (c-Myc))(JJ (critical))(JJ (Apc-dependent))(JJ (intestinal))(NN (tumorigenesis))(NN (mouse)))(VP (VBZ (provides))(NP (JJ (potential))(JJ (therapeutic))(NN (target))(NN (treatment))(JJ (colorectal))(NN (cancer)))))))) |ET|  |BS| 3:C04.557.470.035.215.100 4:C04.588.274.476.411.307 5:C04.588.274.476.411.307 11:B01.050.150.900.649.865.635.505.500 32:C04.697.098.500 33:C04.697.098 47:A03.556.124 52:E02  |ES| 17:1 18:1 19:1 52:1 78:1 109:1 131:1 160:1 429:1 541:1 546:1 807:1 815:1 824:1 825:1 826:1 827:1  |EV| 
-0.00030166342045082755740637026065087  |BT| (S (SBAR (IN (Although))(S (NP (NP (NN (therapy)))(VP (VBG (targeting))(NP (JJ (high))(NN (EphA1))(NN (expression)))))(VP (VBP (seem))(NP (JJ (plausible))(NN (CRC))))))(, (,))(S (NP (NN (loss))(NN (expression)))(VP (VBD (advanced))(NP (NN (disease)))))(VP (VBZ (suggests))(SBAR (S (NP (NP (NP (JJ (potential))(NN (risk)))(VBN (targeted))(NN (therapy)))(, (,))(VP (VBG (selecting))(NP (NN (loss))(NN (expression))))(, (,)))(VP (MD (might))(VP (VB (contribute))(NP (NN (disease))(NN (progression))))))))) |ET|  |BS| 4:C04.588.274.476.411.307 5:C04.588.274.476.411.307 16:C23.550.291.656 38:Z01.058.290.120.180 40:Z01.542.248.700 52:E02 61:E05.318.740.600.800 288:C23.550.288  |ES| 2:1 16:1 19:1 32:1 48:1 107:1 115:1 130:1 171:1 178:1 245:1 331:1 450:1 616:1 798:1 827:1 994:1 995:1 996:1 997:1 998:1 999:1  |EV| 
0.00041788035725208173528158472898042  |BT| (S (PP (IN (As))(NP (JJ (key))(NN (molecule))(NN (drive))(NN (progression))(NN (chemoresistance))(JJ (gastrointestinal))(NN (cancer))))(, (,))(NP (NP (NP (JJ (epidermal))(NN (growth))(NN (factor))(NN (receptor)))(PRN (-LRB- (-LRB-))(NP (NN (EGFR)))(-RRB- (-RRB-))))(NN (HER2)))(VP (VBP (become))(NP (JJ (efficacious))(NN (drug))(NN (target))(NN (setting))))) |ET|  |BS| 16:C23.550.291.656 63:G05.360.340.024.340.375.500.791.295.305 64:D08.811.913.696.620.682.725.400.009.300 65:D08.811.913.696.620.682.725.400.009.400 66:F01.658.293 67:D26  |ES| 2:1 10:1 14:1 18:1 19:1 48:1 102:1 159:1 160:1 168:1 180:1 181:1 182:1 183:1 184:1 185:1 186:1 187:1 188:1 189:1 190:1 191:1 192:1  |EV| 
-0.00041788035725208173528158472898042  |BT| (NP (NP (NNS (Mutations)))(NP (NP (NP (JJ (human))(NN (DNA))(NN (mismatch))(NN (repair)))(PRN (-LRB- (-LRB-))(NP (NN (MMR)))(-RRB- (-RRB-))))(NP (NP (NP (NN (gene))(NN (MLH1))(VBN (associated))(JJ (hereditary))(JJ (nonpolyposis))(JJ (colorectal))(NN (cancer)))(PRN (-LRB- (-LRB-))(NP (NP (NNP (Lynch))(NN (syndrome)))(, (,))(NP (NN (HNPCC))))(-RRB- (-RRB-))))(NP (JJ (significant))(NN (proportion))(JJ (sporadic))(JJ (colorectal))(NN (cancer)))))) |ET|  |BS| 4:C04.588.274.476.411.307 5:C04.588.274.476.411.307 6:G05.360.340.024.340 18:G05.365.590 55:B01.050.150.900.649.801.400.112.400.400 174:G02.111.087.219.220 524:C04.588.274.476.411.307.190  |ES| 2:1 9:1 10:1 14:1 17:1 18:1 19:1 36:1 135:1 169:1 513:1 584:1 666:1 723:1 725:1 1294:1 1410:1 1845:1 1846:1 1940:1 2134:1 2135:1 2136:1  |EV| 
-4.4127191695615198326757555591371e-06  |BT| (S (NP (NN (Curcumin)))(VP (VBZ (sensitizes))(NP (NP (JJ (human))(JJ (colorectal))(NN (cancer))(NN (xenograft))(JJ (nude))(NN (mouse))(NN (gamma-radiation)))(VP (VBG (targeting))(NP (JJ (nuclear))(JJ (factor-kappaB-regulated))(NN (gene))(NN (product))))))) |ET|  |BS| 4:C04.588.274.476.411.307 5:C04.588.274.476.411.307 30:Z01.058.290.190.800 31:D08.811.520.224.800 55:B01.050.150.900.649.801.400.112.400.400 88:B01.050.150.900.649.865.635.505.500.550.500 92:E04.936.764 93:A01.941.875 142:I01.880.604 210:D12.776.260.600 692:D02.455.326.146.485.222.222 816:G01.358.500.505.300 973:E05.393.335  |ES| 9:1 17:1 18:1 19:1 36:1 52:1 265:1 266:1 616:1 675:1 1256:1 2062:1 3429:1 3430:1 3431:1  |EV| 
0.00041788035725208173528158472898042  |BT| (S (NP (NN (Downregulation))(NN (miR-610)))(VP (VBZ (promotes))(SBAR (S (NP (NN (proliferation))(NN (tumorigenicity)))(VP (VBZ (activates))(NP (NN (Wnt/beta-catenin))(NN (signaling))(JJ (human))(JJ (hepatocellular))(NN (carcinoma)))))))) |ET|  |BS| 55:B01.050.150.900.649.801.400.112.400.400 85:G02.111.087.225 104:C04.557.470.200.025.255 105:G02.149.115.800.925  |ES| 19:1 36:1 195:1 296:1 297:1 298:1 299:1 300:1 301:1 302:1 303:1 304:1  |EV| 
0.00041788035725208173528158472898042  |BT| (S (NP (DT (These)))(VP (VBP (result))(VP (VBP (suggest))(NP (S (NP (NN (K-sam))(NN (overexpression)))(VP (VBN (associated))(NP (JJ (malignant))(NN (phenotype))(JJ (undifferentiated))(NN (type))(NN (stomach))(NN (cancer)))))(, (,))(NP (JJ (infiltrative))(NN (growth))(NN (metastasis))))))) |ET|  |BS| 45:G07.700.320.249 80:G05.695 113:C04.697.650 231:C04.557.465.625.600.380.590 232:D02.886.030.676.180  |ES| 2:1 18:1 19:1 101:1 102:1 152:1 169:1 236:1 543:1 792:1 796:1 801:1 802:1 803:1 804:1 805:1 806:1  |EV| 
0.00041788035725208173528158472898042  |BT| (NP (NP (NN (Expression))(JJ (gut-enriched))(JJ (Kruppel-like))(NN (factor)))(FRAG (-LRB- (-LRB-))(NP (NP (JJ (Kruppel-like))(NN (factor))(CD (4))(-RRB- (-RRB-))(NN (gene)))(JJ (human))(ADJP (NN (colon))(NN (cancer))(NN (cell))(NN (line))(NN (RKO))(JJ (dependent)))(NN (CDX2))))) |ET|  |BS| 6:G05.360.340.024.340 9:G05.360.340.024.340.375.500 46:A03.556.124.526.356 55:B01.050.150.900.649.801.400.112.400.400 94:A11.251.210  |ES| 9:1 10:1 14:1 18:1 19:1 36:1 94:1 113:1 114:1 185:1 264:1 316:1 317:1 318:1 319:1 320:1 321:1  |EV| 
-0.00041788035725208173528158472898042  |BT| (NP (NP (NP (DT (The))(NN (potency))(JJ (nifuroxazide))(NN (breast))(NN (cancer)))(VP (VBN (assessed))(ADVP (FW (vitro))(FW (vivo)))))) |ET| 18:1 19:1 23:1 216:1 378:1 691:1 2796:1 2820:1 3823:1  |EV| 
0.00041788035725208173528158472898042  |BT| (S (ADVP (RB (Furthermore)))(, (,))(NP (NP (JJ (stable))(NN (overexpression)))(VP (VBG (using))(NP (JJ (lentiviral))(NN (vector))(NN (NCI-H460))(NN (A549))(NN (cell)))))(VP (VBD (inhibited))(NP (NN (tumor))(NN (xenograft))(NN (growth))(JJ (immunodeficient))(NN (mouse)))(PRN (-LRB- (-LRB-))(NP (NP (CD (95))(ADJP (CD (50))(NN (%)))(NN (reduction)))(VP (VBN (compared))(NP (NN (control)))(, (,))(ADVP (RB (respectively)))(-RRB- (-RRB-))))(, (,))(PP (IN (whereas))(NP (NP (NP (NN (effect))(NN (mir-660))(NN (overexpression))(JJ (absent))(NN (H1299)))(, (,))(NP (NP (NN (lung))(NN (cancer))(NN (cell))(NN (line)))(VP (VBG (lacking))(NP (NN (p53))(NN (locus))))))(, (,))(NP (ADJP (FW (vitro))(FW (vivo)))(NN (assay)))))))) |ET|  |BS| 2:G05.360.340.024.340.375.249.385 8:C04 11:B01.050.150.900.649.865.635.505.500 41:A11 45:G07.700.320.249 92:E04.936.764 93:A01.941.875 94:A11.251.210 106:E05.091 120:I01.409.418.750.600.480.150 121:B04.820.650.589 122:C14.280.383 123:G05.360.337 124:C20.673  |ES| 2:1 7:1 10:1 12:1 14:1 18:1 19:1 50:1 52:1 75:1 94:1 102:1 152:1 216:1 264:1 265:1 289:1 310:1 328:1 334:1 350:1 360:1 361:1 362:1 363:1 364:1 365:1 366:1 367:1 368:1 369:1 370:1 371:1 372:1 373:1 374:1 375:1 376:1 377:1 378:1  |EV| 
-0.00011985672340244103023509936178925  |BT| (S (S (NP (NP (JJ (Low))(JJ (dietary))(NN (folate))(NN (intake)))(VP (VBN (associated))))(VP (VBD (increased))(NP (NN (risk))(NN (colon))(NN (cancer))))(: (;)))(S (ADVP (RB (however)))(, (,))(NP (JJ (relevant))(JJ (genetic))(NN (animal))(NN (model)))(VP (VBG (lacking))))) |ET|  |BS| 19:B01.050 61:E05.318.740.600.800 224:D03.438.733.631.400 285:E05.598 595:G07.203.650.240 1109:E05.599.395.397  |ES| 2:1 18:1 19:1 46:1 47:1 72:1 113:1 169:1 171:1 217:1 376:1 778:1 864:1 865:1 1387:1 2563:1 2594:1 3615:1  |EV| 
0.00041788035725208173528158472898042  |BT| (NP (NP (ADJP (RB (Here))(VBN (studied)))(NN (role))(NN (HNF4alpha))(NN (mechanism))(NN (deregulation))(NN (Cdx2))(NN (colon))(NN (cancer)))) |ET|  |BS| 15:F01.829.316.616  |ES| 18:1 19:1 31:1 113:1 123:1 162:1 213:1 400:1 401:1 402:1  |EV| 
0.00041788035725208173528158472898042  |BT| (S (NP (DT (The))(NN (CDX2))(NN (expression))(JJ (gastric))(NN (cancer)))(ADVP (RB (also)))(ADVP (RB (inversely)))(VP (VBD (correlated))(NP (NN (expression))(JJ (gastric))(NN (mucin))))) |ET|  |BS| 72:D12.776.395.560.631.100  |ES| 5:1 18:1 19:1 86:1 114:1 115:1 209:1 418:1 446:1 691:1  |EV| 
-0.00015017486222773657189577534154523  |BT| (S (NP (DT (The))(JJ (anti-tumor))(NN (effect))(NN (thymoquinone)))(ADVP (RB (also)))(VP (VP (VBD (investigated))(NP (NN (tumor))(NN (xenograft))(NN (mouse))(NN (model))(NN (colon))))(, (,))(NP (NN (prostate))(, (,))(JJ (pancreatic))(NN (lung))(NN (cancer))))) |ET|  |BS| 8:C04 11:B01.050.150.900.649.865.635.505.500 34:A05.360.444.575 46:A03.556.124.526.356 92:E04.936.764 93:A01.941.875 608:A03.734  |ES| 2:1 5:1 7:1 18:1 19:1 52:1 72:1 75:1 77:1 113:1 265:1 328:1 403:1 467:1 691:1 3677:1 3796:1  |EV| 
0.00041788035725208173528158472898042  |BT| (S (NP (NN (Expression))(NN (KLK13))(NN (KLK14))(NN (gene)))(VP (VBN (examined))(NP (NP (NN (mRNA))(NN (protein))(NN (level))(NN (cohort))(CD (57))(NN (patient)))(NP (NP (JJ (non-small-cell))(NN (lung))(NN (cancer)))(PRN (-LRB- (-LRB-))(NP (NN (NSCLC)))(-RRB- (-RRB-))))))) |ET|  |BS| 6:G05.360.340.024.340 50:M01.643 110:C04.588.894.797.520.109.220.249 111:D13.444.735.544 112:D12.776.097.820  |ES| 4:1 9:1 10:1 14:1 18:1 19:1 120:1 121:1 249:1 316:1 322:1 323:1 324:1 325:1 326:1 327:1 328:1 329:1  |EV| 
0.00041788035725208173528158472898042  |BT| (S (S (NP (NN (miR-137))(NN (overexpression)))(VP (VBD (resulted))(NP (NP (NN (downregulation))(NN (CAR))(NN (protein))(NN (mRNA)))(PRN (-LRB- (-LRB-))(PP (IN (via))(NP (NN (mRNA))(NN (degradation))))(-RRB- (-RRB-))))))(: (;))(S (VBN (sensitized))(NP (JJ (doxorubicin-resistant))(NN (cell))(NN (doxorubicin)))(-LRB- (-LRB-))(VP (VP (VBN (shown))(S (VP (VBN (reduced))(NP (NN (proliferation))))))(, (,))(VP (VBD (increased))(NP (NN (apoptosis))))(VP (VBD (increased))(NP (JJ (G2-phase))(NN (cell))(NN (cycle))(NN (arrest))))(SINV (-RRB- (-RRB-))(NP (VBD (reduced))(FW (vivo))(NN (growth))(NN (rate))(NN (neuroblastoma))(NN (xenograft))))))) |ET|  |BS| 7:D12.776 39:G04.299.139.160 41:A11 45:G07.700.320.249 85:G02.111.087.225 92:E04.936.764 93:A01.941.875 111:D13.444.735.544 136:D02.455.426.559.847.562.050.200.175 137:C04.557.465.625.600.590.650.550 139:J01.937.500.100 177:G04.299.134.109.500 178:G02.111.780  |ES| 2:1 4:1 10:1 14:1 19:1 41:1 47:1 89:1 94:1 102:1 152:1 217:1 237:1 265:1 299:1 325:1 378:1 420:1 421:1 423:1 424:1 452:1 594:1 595:1 596:1 597:1 598:1 599:1 600:1 601:1 602:1  |EV| 
-0.00041788035725208173528158472898042  |BT| (NP (NP (NP (NN (KLF4)))(NP (ADVP (RB (therefore)))(NP (JJ (potential))(NN (mediator))(NN (antitumor))(NN (effect))(NN (Notch))(NN (inhibitor))(NN (dibenzazepine)))))) |ET| 19:1 75:1 218:1 256:1 380:1 827:1 1892:1 2244:1 3018:1 3351:1  |EV| 
-0.00040462668174228930140223781108944  |BT| (S (ADVP (RB (Thus)))(, (,))(NP (JJ (NAC1-mediated))(NN (autophagy)))(VP (MD (may))(VP (VBN (exploited))(NP (JJ (new))(NN (target))(VBG (enhancing))(NN (efficacy))(NN (cisplatin))(JJ (ovarian))(NN (cancer))(NN (type))(NN (malignancy)))))) |ET|  |BS| 390:G04.299.139.399 498:D01.210.375  |ES| 2:1 18:1 19:1 49:1 160:1 491:1 543:1 712:1 1317:1 1691:1 1760:1 1761:1 1763:1 2304:1 2527:1 3867:1  |EV| 
-1.1294591332136269534736072728265e-05  |BT| (NP (NP (NNS (CONCLUSIONS))(: (:)))(S (NP (NN (Expression))(NN (ra))(NN (protein))(NN (type))(CD (II))(JJ (alveolar))(NNS (pneumocytes))(NN (mutation))(NN (codon))(CD (12))(JJ (K-ras))(NN (gene))(NN (lung))(NN (tissue)))(VP (MD (may))(VP (VB (contribute))(NP (NN (induction))(NN (lung))(NN (carcinoma))(NN (patient))(NN (IPF))))))) |ET|  |BS| 18:G05.365.590 50:M01.643 98:A10 182:A04.411 265:C04.557.470.200 276:C08.381.483.487.500 334:D08.811.277.040.330.300.400.500 335:D13.444.735.544.355 336:A04.411.715.512 337:C08.381.765  |ES| 4:1 9:1 19:1 34:1 104:1 120:1 239:1 272:1 304:1 316:1 328:1 450:1 491:1 543:1 736:1 1115:1 1116:1 1117:1 1118:1 1119:1 1120:1 1121:1 1122:1  |EV| 
0.00041788035725208173528158472898042  |BT| (S (NP (JJ (Ectopic))(NN (expression))(NN (miR-139-5p))(NN (colon))(NN (cancer))(NN (cell))(NN (line)))(VP (ADVP (RB (significantly)))(NP (VBD (suppressed))(NP (NP (NN (cell))(NN (growth))(VBN (evidenced))(NN (cell))(NN (viability))(NN (assay)))(PRN (-LRB- (-LRB-))(S (NP (NN (P)))(VP (JJR (<))(NP (CD (0.001)))))(-RRB- (-RRB-))))(NP (NP (NP (NN (colony))(NN (formation))(NN (assay)))(PRN (-LRB- (-LRB-))(NP (NP (NN (P)))(ADJP (JJR (<))(NP (CD (0.01)))))(-RRB- (-RRB-))))(NP (NP (NN (xenograft))(NN (tumor))(NN (growth))(JJ (nude))(NN (mouse)))(PRN (-LRB- (-LRB-))(NP (NP (NN (P)))(ADJP (JJR (<))(NP (CD (0.01)))))(-RRB- (-RRB-)))))))) |ET|  |BS| 8:C04 20:G03.495 45:G07.700.320.249 88:B01.050.150.900.649.865.635.505.500.550.500 92:E04.936.764 93:A01.941.875 94:A11.251.210 106:E05.091 107:G05.355.315.202 108:G04.299.316 109:I01.696.116  |ES| 7:1 10:1 14:1 18:1 19:1 43:1 52:1 94:1 102:1 113:1 115:1 124:1 264:1 265:1 266:1 305:1 306:1 307:1 308:1 309:1 310:1 311:1 312:1 313:1 314:1 315:1  |EV| 
-0.00041788035725208173528158472898042  |BT| (NP (NP (NP (VBN (Enhanced))(NN (sensitivity))(NN (celecoxib))(JJ (human))(NN (glioblastoma))(NN (cell)))(: (:))(NP (NP (NN (Induction))(NN (DNA))(NN (damage)))(VP (VBG (leading))(NP (JJ (p53-dependent))(NN (G1))(NN (cell))(NN (cycle))(NN (arrest))(NN (autophagy))))))) |ET|  |BS| 2:G05.360.340.024.340.375.249.385 41:A11 55:B01.050.150.900.649.801.400.112.400.400 86:D01.268.556.435 390:G04.299.139.399 526:G05.355.180 592:C04.557.465.625.600.380.080.335 684:D02.065.884.247 1076:G04.299.134.109.249  |ES| 19:1 36:1 88:1 94:1 104:1 601:1 602:1 607:1 639:1 666:1 670:1 1317:1 1848:1 2020:1 2186:1 2807:1 3466:1  |EV| 
0.00041788035725208173528158472898042  |BT| (NP (NP (NP (DT (The))(JJ (adenomatous))(NN (polyposis))(NN (coli))(-LRB- (-LRB-))(NN (APC))(-RRB- (-RRB-))(NN (gene))(NN (product)))(NP (VBN (mutated))(JJ (vast))(NN (majority))(JJ (human))(JJ (colorectal))(NN (cancer))))) |ET|  |BS| 55:B01.050.150.900.649.801.400.112.400.400 219:G05.360.340.024.340.375.249.320 220:D05.500.117.249  |ES| 9:1 10:1 11:1 14:1 17:1 18:1 19:1 36:1 57:1 58:1 59:1 198:1 229:1 675:1 691:1 752:1  |EV| 
-0.00041788035725208173528158472898042  |BT| (S (NP (DT (This)))(VP (VBD (led))(SBAR (S (NP (NN (u)))(VP (VBP (investigate))(SBAR (S (NP (NP (JJ (antitumor))(NN (growth)))(NP (JJ (antimetastatic))(NN (activity))(NN (alpha-mangostin))(JJ (immunocompetent))(NN (xenograft))(NN (model))(NN (mouse))(JJ (metastatic))(JJ (mammary))(NN (cancer))(NN (p53))(NN (mutation))))(VP (VBZ (induces))(NP (NP (JJ (metastatic))(NN (spectrum)))(NP (JJ (similar))(VBN (seen))(JJ (human))(NN (breast))(NN (cancer)))))))))))) |ET|  |BS| 2:G05.360.340.024.340.375.249.385 10:A01.236 11:B01.050.150.900.649.865.635.505.500 18:G05.365.590 30:Z01.058.290.190.800 31:D08.811.520.224.800 45:G07.700.320.249 55:B01.050.150.900.649.801.400.112.400.400 86:D01.268.556.435 92:E04.936.764 93:A01.941.875 113:C04.697.650 213:F02.830.816.964 609:A01.236.249 610:G12.460  |ES| 12:1 18:1 19:1 23:1 34:1 36:1 52:1 72:1 102:1 214:1 265:1 332:1 337:1 399:1 459:1 724:1 807:1 2228:1 2243:1 2244:1 2245:1 2246:1 2247:1 2248:1 2249:1  |EV| 
-0.00039698482700542894741069233077724  |BT| (S (NP (NN (Magnolol)))(VP (MD (could))(ADVP (RB (potentially)))(NP (JJ (safe))(JJ (potent))(JJ (anticarcinogenic))(NN (agent))(NN (skin))(NN (cancer))))) |ET|  |BS| 778:D27.505.954.444  |ES| 18:1 19:1 22:1 333:1 728:1 773:1 908:1 2312:1 2319:1 2737:1  |EV| 
-0.00010031119169383317935029253931134  |BT| (S (NP (DT (A))(NN (relationship))(JJ (renal))(NN (tumor))(NN (ASPS)))(ADVP (RB (initially)))(VP (VBD (suggested))(NP (JJ (cytogenetic))(NN (finding))(JJ (balanced))(-LRB- (-LRB-))(NN (X))(: (;))(CD (17))(-RRB- (-RRB-))(-LRB- (-LRB-))(NN (p11))(NN (.2))(: (;)))(NP (CD (q25)))(-RRB- (-RRB-))(SBAR (S (NP (NP (CD (two))(NN (case)))(, (,))(NP (NN (ASPL-TFE3))(NN (fusion))(NN (transcript))))(VP (VBD (confirmed))(NP (JJ (reverse))(NN (transcriptase-polymerase))(NN (chain))(NN (reaction)))))))) |ET|  |BS| 272:E05.393.620.500.725 273:H01.158.273.343.180 274:C04.588.945.947.535 275:C23.888  |ES| 2:1 7:1 10:1 14:1 19:1 69:1 217:1 223:1 768:1 922:1 923:1 924:1 925:1 926:1 927:1 928:1 929:1 930:1 931:1 932:1 933:1 934:1 935:1 936:1 937:1 938:1 939:1 940:1 941:1  |EV| 
0.00041788035725208173528158472898042  |BT| (FRAG (NP (NNS (Results)))(VBP (show))(NP (NN (KLF9))(JJ (haploinsufficient))(NN (suppressor))(NN (colon))(NN (tumorigenesis))(NN (Apc)))(-LRB- (-LRB-))(NP (NP (NP (NP (NN (Min)))(: (/))(CC (+))(-RRB- (-RRB-))(NN (mouse))(NN (part)))(, (,))(NP (NP (NN (repression))(NN (ISG15))(NN (latter))(POS ('s)))(JJ (antiapoptotic))(NN (function)))))) |ET|  |BS| 3:C04.557.470.035.215.100 11:B01.050.150.900.649.865.635.505.500 30:Z01.058.290.190.800 31:D08.811.520.224.800 32:C04.697.098.500 33:C04.697.098 38:Z01.058.290.120.180 40:Z01.542.248.700 46:A03.556.124.526.356 207:G05.365.590.029.530.587 208:F01.393.821  |ES| 2:1 10:1 14:1 19:1 33:1 52:1 78:1 113:1 280:1 429:1 451:1 461:1 700:1 702:1 703:1 704:1 705:1 706:1 707:1 708:1 709:1  |EV| 
0.00041788035725208173528158472898042  |BT| (S (PP (IN (In))(NP (JJ (current))(NN (report))))(, (,))(VBN (used))(S (NP (NN (DLD-1))(JJ (colorectal))(NN (cancer))(NN (cell)))(ADVP (RB (stably)))(NP (VBN (transfected))(NP (NN (POX))(NN (gene))(NN (control))(JJ (tetracycline-inducible))(NN (promoter))))(VP (VBD (found))(SBAR (S (NP (CD (three))(NN (pathway))(NN (cross))(NN (talk)))(VP (VBD (downregulated))(NP (NP (NN (POX)))(: (:))(NP (NP (NP (NP (NN (cyclooxygenase-2)))(PRN (-LRB- (-LRB-))(NP (NN (COX-2)))(-RRB- (-RRB-))))(NN (pathway)))(, (,))(NP (NP (NP (JJ (epidermal))(NN (growth))(NN (factor))(NN (receptor)))(PRN (-LRB- (-LRB-))(NP (NN (EGFR)))(-RRB- (-RRB-))))(NN (pathway))(NN (Wnt/beta-catenin))(NN (pathway))))))))))) |ET|  |BS| 4:C04.588.274.476.411.307 5:C04.588.274.476.411.307 6:G05.360.340.024.340 23:D12.776.091.249 24:D08.811.600.720.750 41:A11 64:D08.811.913.696.620.682.725.400.009.300 146:D02.455.426.559.847.562.900.875 147:G02.149.115.800.925 148:G12.425.143.281  |ES| 2:1 9:1 10:1 14:1 17:1 18:1 19:1 37:1 61:1 76:1 83:1 94:1 102:1 104:1 175:1 184:1 185:1 186:1 187:1 244:1 289:1 302:1 383:1 417:1 426:1 476:1 477:1 478:1 479:1 480:1 481:1 482:1 483:1 484:1  |EV| 
0.00041788035725208173528158472898042  |BT| (S (NP (NN (Notch1)))(ADVP (RB (directly)))(VP (VBD (induced))(NP (NN (CD133))(NN (expression))(JJ (human))(JJ (diffuse))(NN (type))(JJ (gastric))(NN (cancer))))) |ET|  |BS| 55:B01.050.150.900.649.801.400.112.400.400  |ES| 18:1 19:1 36:1 86:1 115:1 412:1 543:1 621:1 651:1 652:1 653:1  |EV| 
-0.00041788035725208173528158472898042  |BT| (S (ADVP (RB (Nevertheless)))(, (,))(NP (NN (extent))(NN (NAG-1))(NN (induction)))(VP (MD (could))(NP (VBN (altered))(NN (ERK))(NN (inhibitor))(NN (PD98059))))) |ET| 2:1 19:1 380:1 693:1 736:1 908:1 1662:1 4486:1 4968:1 5046:1 5047:1  |EV| 
-0.00041788035725208173528158472898042  |BT| (NP (NP (JJ (Previous))(NN (study)))(VP (VBN (shown))(S (NP (NN (decorin))(NN (expression)))(VP (ADVP (RB (significantly)))(VBD (reduced))(NP (NP (JJ (colorectal))(NN (cancer))(NN (tissue))(NN (cancer))(NN (cell)))(, (,))(NP (JJ (genetic))(NN (deletion))(NN (decorin))(NN (gene))(JJ (sufficient))(NN (cause))(JJ (intestinal))(NN (tumor))(NN (formation))(NN (mouse)))(, (,))(VP (VBG (resulting))(NP (NN (downregulation))(NN (p21))))(, (,))(NP (NP (NN (p27)))(PRN (-LRB- (-LRB-))(NP (NN (kip1)))(-RRB- (-RRB-))))(FRAG (NP (NN (E-cadherin))(NN (upregulation))(NN (beta-catenin))(NN (signaling)))(-LRB- (-LSB-))(NP (NP (NN (Bi)))(, (,))(NP (NN (X)))))))))) |ET|  |BS| 4:C04.588.274.476.411.307 5:C04.588.274.476.411.307 11:B01.050.150.900.649.865.635.505.500 12:Z01.542.049 20:G03.495 23:D12.776.091.249 30:Z01.058.290.190.800 31:D08.811.520.224.800 41:A11 69:G02.111.087.800 85:G02.111.087.225 98:A10 102:C04.588.274.476.411 249:G05.355.315.800 338:D12.644.360.225.600 339:G02.111.087.880 549:G05.355.600.800.320 708:D12.776.395.650.750.625 820:D12.776.395.550.200.200  |ES| 2:1 7:1 9:1 10:1 14:1 17:1 18:1 19:1 43:1 52:1 60:1 94:1 109:1 115:1 124:1 131:1 195:1 237:1 242:1 272:1 384:1 452:1 595:1 864:1 929:1 1059:1 1124:1 1126:1 1135:1 1373:1 1779:1 2267:1 2900:1 2901:1 2902:1 2903:1  |EV| 
-4.6118725517123315693623908373411e-05  |BT| (S (NP (PRP$ (Our))(NNS (data)))(VP (VBP (suggest))(NP (JJ (important))(NP (NN (role))(NN (beta2-AR/STAT3/miR))(CD (-373))(NN (signaling))(NN (transformation))(JJ (gastric))(NN (cancer))(NN (cell)))))) |ET|  |BS| 12:Z01.542.049 15:F01.829.316.616 41:A11 69:G02.111.087.800 82:D12.644.360.024.342.300  |ES| 18:1 19:1 31:1 86:1 94:1 195:1 658:1 793:1 796:1 902:1 1384:1 2144:1  |EV| 
0.00041788035725208173528158472898042  |BT| (NP (NP (NP (NN (Activation))(JJ (p53-dependent))(NN (apoptosis))(JJ (acute))(NN (ablation))(NN (glycogen))(NN (synthase))(NN (kinase-3beta)))(NP (JJ (colorectal))(NN (cancer))(NN (cell))))) |ET|  |BS| 2:G05.360.340.024.340.375.249.385 4:C04.588.274.476.411.307 5:C04.588.274.476.411.307 38:Z01.058.290.120.180 39:G04.299.139.160 40:Z01.542.248.700 41:A11  |ES| 17:1 18:1 19:1 66:1 87:1 88:1 89:1 90:1 91:1 92:1 93:1 94:1  |EV| 
-0.00035336699829374706993689869705122  |BT| (S (NP (DT (The))(NN (orphan))(NN (cotransport))(NN (protein)))(VP (VBD (expressed))(NP (NP (NP (NN (SLC5A8))(NN (gene))(VBN (shown))(NN (play))(NN (role)))(NP (VBG (controlling))(NN (growth))(NN (colon))(NN (cancer))))(, (,))(NP (NN (silencing))(NP (NN (gene))(JJ (common))(NP (JJ (early))(NN (event))(JJ (human))(NN (colon))(NN (neoplasia)))))))) |ET|  |BS| 6:G05.360.340.024.340 7:D12.776 15:F01.829.316.616 30:Z01.058.290.190.800 31:D08.811.520.224.800 42:G05.355.315.203.374 45:G07.700.320.249 51:C04.588.274.476.411.307.180 55:B01.050.150.900.649.801.400.112.400.400 79:I03.450.642.693 604:M01.108  |ES| 2:1 4:1 6:1 9:1 18:1 19:1 31:1 36:1 100:1 102:1 113:1 205:1 237:1 238:1 640:1 655:1 691:1 1128:1 2217:1 2218:1 2219:1 2220:1  |EV| 
0.00041788035725208173528158472898042  |BT| (S (NP (NN (miR-490-3p)))(VP (VBD (exhibited))(NP (NP (JJ (progressive))(NN (downregulation))(NN (gastritis)))(, (,))(NP (JJ (intestinal))(NN (metaplasia)))(, (,))(NP (NN (adenocarcinoma))(NN (H)))))) |ET|  |BS| 47:A03.556.124 48:C23.550.589 84:C04.557.470.200.025 85:G02.111.087.225 175:J01.897.280.500.269 179:D01.248.497.300.459.700 180:C06.405.205.697  |ES| 2:1 19:1 109:1 110:1 255:1 595:1 608:1 609:1 610:1 611:1 612:1  |EV| 
-0.00041788035725208173528158472898042  |BT| (S (NP (NN (Coexpression))(NN (K-rasVal12))(NN (TAgWt)))(VP (VBP (produce))(NP (NN (dysplasia))))) |ET| 19:1 203:1 1565:1 5405:1 5406:1 5407:1  |EV| 
0.00041788035725208173528158472898042  |BT| (S (NP (NP (NN (Mutation))(NN (Pla2g2a)))(, (,))(NP (JJ (secretory))(NN (phospholipase))(NN (A))(-LRB- (-LRB-))(CD (2))(-RRB- (-RRB-)))(NP (NN (gene)))(, (,)))(VP (VP (ADVP (RB (dramatically)))(VB (increase))(NP (NN (number))(JJ (intestinal))(NN (polyp)))(VP (VB (develop))(NP (NP (NP (JJ (multiple))(JJ (intestinal))(NN (neoplasia)))(PRN (-LRB- (-LRB-))(NP (NN (Min)))(-RRB- (-RRB-))))(NN (mouse)))))(, (,))(NP (JJ (murine))(ADJP (NN (model))(JJ (adenomatous))(NN (polyposis))(NN (coli))(JJ (human)))))) |ET|  |BS| 3:C04.557.470.035.215.100 6:G05.360.340.024.340 11:B01.050.150.900.649.865.635.505.500 18:G05.365.590 21:G05.360.340.024.340.375.249.050 55:B01.050.150.900.649.801.400.112.400.400 102:C04.588.274.476.411 192:D08.811.277.352.100.680.750.937.750 193:C23.300.825.411  |ES| 2:1 9:1 10:1 14:1 19:1 36:1 40:1 52:1 57:1 58:1 59:1 69:1 72:1 109:1 148:1 627:1 640:1 641:1 642:1 643:1 644:1 645:1 646:1 647:1 648:1 649:1 650:1  |EV| 
0.00041788035725208173528158472898042  |BT| (S (NP (NP (JJ (Antisense))(NNS (oligodeoxynucleotides))(JJ (human))(NN (superoxide))(NN (dismutase))(CD (2)))(CC (and/or))(NP (JJ (ectopic))(NN (bcl-2))(NN (overexpression))))(VP (VBD (avoided))(NP (NP (NNS (polyphenols)))(SBAR (S (NP (JJ (chemoradiotherapy-induced))(JJ (colorectal))(NN (cancer))(NN (elimination)))(VP (VBD (showed))(NP (NP (JJ (mangano-type))(NN (superoxide))(NN (dismutase))(NN (Bcl-2))(JJ (key))(NN (target))(JJ (molecular))(NN (mechanism)))(VP (VBN (activated))(NP (JJ (combined))(NN (application))(NN (t-PTER))(NNP (QUER))))))))))) |ET|  |BS| 4:C04.588.274.476.411.307 5:C04.588.274.476.411.307 54:G05.360.340.024.340.375.500.791.150 55:B01.050.150.900.649.801.400.112.400.400 56:D02.455.426.559.389.657.715 57:D13.695.578.424.450 58:D08.811.682.881 59:E02.186.079  |ES| 17:1 18:1 19:1 36:1 132:1 144:1 145:1 146:1 147:1 148:1 149:1 150:1 151:1 152:1 153:1 154:1 155:1 156:1 157:1 158:1 159:1 160:1 161:1 162:1 163:1 164:1 165:1 166:1 167:1  |EV| 
-0.00041788035725208173528158472898042  |BT| (FRAG (PP (JJ (Molecular))(S (VP (VBG (targeting))(NP (NP (NP (NN (GSK3beta))(NN (overexpression))(NN (GSK3beta))(JJ (dominant-negative))(NN (mutant)))(, (,))(NP (JJ (acute-silencing))(NN (GSK3beta))(NN (RNA))(NN (interference)))(, (,)))(VBN (reproduced))(NN (induction)))(NP (ADJP (RB (transcriptionally))(JJ (active)))(NP (NN (p53))(JJ (colorectal))(NN (cancer))(NN (cell)))))))) |ET|  |BS| 2:G05.360.340.024.340.375.249.385 4:C04.588.274.476.411.307 5:C04.588.274.476.411.307 38:Z01.058.290.120.180 40:Z01.542.248.700 41:A11 156:G05.355.315.203.374.790  |ES| 2:1 12:1 17:1 18:1 19:1 94:1 152:1 197:1 515:1 516:1 616:1 736:1 811:1 1854:1 1894:1 2114:1 2115:1 2116:1 2117:1  |EV| 
-1.5700033827864556812414775777142e-07  |BT| (S (S (NP (NN (Resveratrol)))(VP (VBD (induced))(NP (NP (NN (cell))(NN (cycle))(NN (arrest)))(VP (VBG (up-regulating))(NP (NN (expression))(NN (p21/CIP1)))))))(, (,))(S (NP (NN (p27/KIP1)))(VP (VBG (inhibiting))(NP (NN (expression))(NN (cyclin))(NN (D1)))))) |ET|  |BS| 122:C14.280.383 150:Z01.542.248.960 215:D12.644.360.262.150.100 338:D12.644.360.225.600 773:G04.299.134.109  |ES| 2:1 19:1 94:1 115:1 412:1 601:1 602:1 743:1 744:1 880:1 1876:1 2946:1 5140:1 5141:1  |EV| 
-0.00041788035725208173528158472898042  |BT| (NP (NP (ADJP (RB (Here))(VBN (studied)))(NN (role))(NN (HNF4alpha))(NN (mechanism))(NN (deregulation))(NN (Cdx2))(NN (colon))(NN (cancer)))) |ET|  |BS| 15:F01.829.316.616  |ES| 18:1 19:1 31:1 113:1 123:1 162:1 213:1 400:1 401:1 402:1  |EV| 
0.00041788035725208173528158472898042  |BT| (S (NP (PRP (We)))(VP (VBD (investigated))(SBAR (IN (whether))(S (NP (NP (NN (rat))(NN (model)))(VP (VBG (carrying))(NP (JJ (knockout))(NN (allele))(NN (gatekeeper))(NN (gene))(NNP (Adenomatous))(NN (polyposis))(NN (coli))(-LRB- (-LRB-))(NN (Apc))(-RRB- (-RRB-)))))(VP (VBZ (recapitulates))(NP (NP (JJ (familial))(NN (colon))(NN (cancer)))(JJ (human))(S (ADVP (RB (closely)))(VP (VBG (existing))(NP (JJ (murine))(NN (model))))))))))) |ET|  |BS| 3:C04.557.470.035.215.100 11:B01.050.150.900.649.865.635.505.500 21:G05.360.340.024.340.375.249.050 44:F01.829.263 55:B01.050.150.900.649.801.400.112.400.400 77:G05.360.340.024.340.030 245:B01.050.150.900.649.865.635.505.700 246:B01.050.150.900.649.865.635.505.700 247:G01.374.676.530 248:E05.393.335.750  |ES| 9:1 10:1 14:1 18:1 19:1 36:1 58:1 59:1 71:1 72:1 113:1 221:1 230:1 280:1 403:1 627:1 843:1 849:1 850:1 851:1 852:1 853:1 854:1 855:1 856:1  |EV| 
-0.00041788035725208173528158472898042  |BT| (S (S (VP (TO (To))(VP (VB (determine))(SBAR (IN (whether))(S (NP (NP (NN (DAP))(NN (kinase))(NN (promoter)))(NN (methylation)))(VP (VBZ (contributes))(NP (NP (NN (TRAIL))(NN (resistance))(NN (NSCLC))(NN (cell)))(, (,))(NP (NP (VBN (measured))(NN (DAP))(NN (kinase))(NN (promoter))(NN (methylation))(NN (gene))(NN (expression))(NN (status)))(NP (CD (11))(NN (NSCLC))(NN (cell))(NN (line)))))))))))(VP (VBD (correlated))(NP (NN (methylation/expression))(NN (status))(NN (sensitivity))(NN (cell))(NN (TRAIL))))) |ET|  |BS| 30:Z01.058.290.190.800 31:D08.811.520.224.800 36:G02.111.087.029.538 41:A11 94:A11.251.210 110:C04.588.894.797.520.109.220.249 155:G05.355.310 228:E05.978 474:D08.811.913.696.620.682.700.125.387  |ES| 2:1 9:1 19:1 74:1 81:1 83:1 94:1 115:1 221:1 264:1 329:1 416:1 446:1 470:1 607:1 789:1 828:1 845:1 1057:1 1094:1 1694:1 1695:1 1696:1  |EV| 
0.00041788035725208173528158472898042  |BT| (S (ADVP (RB (Moreover)))(, (,))(NP (NN (CDX2))(NN (expression)))(ADVP (RB (progressively)))(VP (VBD (reduced))(NP (JJ (gastric))(NN (dysplasia))(NN (cancer))))) |ET|  |BS| 70:A03.556.875.875  |ES| 2:1 18:1 19:1 86:1 114:1 115:1 201:1 203:1 452:1 622:1  |EV| 
0.00041788035725208173528158472898042  |BT| (S (NP (NP (NN (miRNA-141)))(, (,))(VP (VBD (downregulated))(NP (JJ (pancreatic))(NN (cancer))))(, (,)))(VP (VBZ (inhibits))(NP (NN (cell))(NN (proliferation))(NN (invasion)))(S (VP (ADVP (RB (directly)))(VBG (targeting))(NP (NN (MAP4K4))))))) |ET|  |BS| 122:C14.280.383 183:G04.299.233.750 184:D13.150.650.319  |ES| 2:1 18:1 19:1 94:1 299:1 426:1 465:1 467:1 615:1 616:1 619:1 620:1 621:1  |EV| 
-0.00041788035725208173528158472898042  |BT| (S (ADVP (RB (However)))(, (,))(NP (JJ (combined))(NN (effect))(NN (mda-7))(NN (sulindac)))(ADVP (RB (previously)))(VP (VBN (tested)))) |ET|  |BS| 251:D02.455.426.559.847.486.875  |ES| 2:1 19:1 75:1 164:1 433:1 869:1 1527:1 2988:1 5657:1  |EV| 
-0.0001872271367056709684417725725325  |BT| (S (NP (NN (CONCLUSION))(: (:)))(VP (VP (VBN (Taken))(ADVP (RB (together))))(, (,))(SBAR (S (NP (NNS (data))(VBP (show))(NN (Akt))(NN (inhibitor))(NN (AZD5363)))(VP (VBZ (synergizes))(SBAR (S (NP (JJ (lysosomotropic))(NN (inhibitor))(NN (autophagy))(NN (chloroquine)))(VP (VBP (induce))(NP (NN (apoptosis))(NN (delay))(NN (tumor))(NN (progression))(NN (prostate))(NN (cancer))(NN (model))(JJ (resistant))(NN (monotherapy))(NN (AZD5363)))(, (,))(S (VP (VBG (providing))(NP (NP (JJ (new))(JJ (therapeutic))(NN (approach)))(RRC (ADVP (RB (potentially)))(NP (JJ (translatable))(NN (patient))))))))))))))) |ET|  |BS| 8:C04 16:C23.550.291.656 30:Z01.058.290.190.800 31:D08.811.520.224.800 39:G04.299.139.160 50:M01.643 52:E02 202:C04.588.945.440.770 390:G04.299.139.399 961:D03.438.810.050.180  |ES| 2:1 7:1 18:1 19:1 48:1 72:1 77:1 89:1 104:1 120:1 136:1 243:1 380:1 427:1 429:1 541:1 712:1 773:1 793:1 911:1 1289:1 1317:1 1537:1 1538:1 1882:1 3025:1 3375:1 3376:1 3377:1 3378:1 3379:1 3380:1  |EV| 
0.00041788035725208173528158472898042  |BT| (FRAG (PP (IN (In))(NP (JJ (adult))))(, (,))(NP (NP (JJ (Cdx1))(NN (Cdx2)))(, (,))(NP (NN (Cdx4)))(, (,))(NP (ADJP (RB (intensively))(VBN (explored)))(NN (function))(JJ (intestinal))(NN (tissue))(NN (homeostasis))(NN (pathogenesis))(JJ (gastrointestinal))(NN (cancer))))) |ET|  |BS| 47:A03.556.124 98:A10 119:M01.060.116 152:G07.700.345  |ES| 2:1 18:1 19:1 33:1 109:1 183:1 213:1 244:1 272:1 355:1 496:1 497:1 498:1 499:1 500:1 501:1  |EV| 
-0.00041788035725208173528158472898042  |BT| (S (NP (NP (NNP (Ling))(NN (extract)))(, (,))(NP (JJ (high))(NN (furanodiene))(NN (content)))(, (,)))(VP (VBD (showed))(NP (JJ (anti-cancer))(NN (effect))(NN (breast))(NN (cancer))(NN (cell))(NN (vitro))))) |ET|  |BS| 41:A11  |ES| 2:1 18:1 19:1 23:1 75:1 94:1 132:1 178:1 216:1 1112:1 1794:1 2496:1 3610:1 3611:1  |EV| 
0.00041788035725208173528158472898042  |BT| (S (NP (NP (NP (NN (Overexpression))(NN (progastrin)))(, (,))(NP (JJ (nonamidated))(ADJP (RB (incompletely))(VBN (processed)))(NN (product))(NN (gastrin))(NN (gene)))(, (,)))(VP (VBN (shown))(VP (VBP (induce))(NP (JJ (colonic))(NN (hyperproliferation))))))(VP (VBP (promote))(NP (NP (JJ (colorectal))(NN (cancer))(NN (mouse)))(, (,))(NP (NP (NN (mechanism))(NN (pathogenesis)))(VP (VBN (defined))))))) |ET|  |BS| 4:C04.588.274.476.411.307 5:C04.588.274.476.411.307 7:D12.776 11:B01.050.150.900.649.865.635.505.500 30:Z01.058.290.190.800 31:D08.811.520.224.800 46:A03.556.124.526.356 199:D06.472.317.413 200:D06.472.317.413  |ES| 2:1 9:1 17:1 18:1 19:1 52:1 162:1 237:1 243:1 501:1 668:1 671:1 672:1 673:1 674:1 675:1 676:1 677:1 678:1 679:1 680:1  |EV| 
-0.00041724959759709308315667186661813  |BT| (NP (NP (JJ (Critical))(NN (function))(NN (ADAM9))(NN (mouse))(NN (prostate))(NN (cancer)))) |ET|  |BS| 11:B01.050.150.900.649.865.635.505.500  |ES| 18:1 19:1 33:1 52:1 77:1 3211:1 3415:1  |EV| 
0.00041788035725208173528158472898042  |BT| (S (NP (JJ (Correlated))(NN (pattern)))(VP (VBN (observed))(NP (NP (NN (HNF4alpha))(NN (Cdx2))(JJ (several))(JJ (experimental))(NN (model))(JJ (human))(NN (colon))(NN (cancer))(NN (cell))(NN (line)))(: (:))(NP (NP (NN (xenograft))(JJ (nude))(NN (mouse)))(, (,))(NP (NN (wound))(NN (healing))(NN (glucose))(NN (starvation))))))) |ET|  |BS| 55:B01.050.150.900.649.801.400.112.400.400 88:B01.050.150.900.649.865.635.505.500.550.500 89:G16.100.856.891 90:C18.654.521.750 91:D09.546.359.448 92:E04.936.764 93:A01.941.875 94:A11.251.210 95:E05.599  |ES| 2:1 18:1 19:1 36:1 52:1 72:1 94:1 104:1 113:1 123:1 213:1 259:1 260:1 261:1 262:1 263:1 264:1 265:1 266:1 267:1 268:1 269:1 270:1  |EV| 
-0.00018452939606816709527947750757448  |BT| (SINV (S (VP (TO (To))(VP (VB (determine))(NP (NP (JJ (genetic))(JJ (molecular))(JJ (characteristic))(NN (tumor)))(VP (VBG (carrying))(NP (NN (EGFR))(NN (gene))(NN (mutation))))))))(, (,))(VBD (investigated))(S (S (NP (NN (EGFR))(NN (gene))(NN (status))(NN (lung))(NN (adenocarcinoma)))(VP (VBD (evaluated))(NP (NN (association))(JJ (specific))(JJ (characteristic))(NN (patient))(NN (tumor)))))(, (,))(NP (NP (NP (NP (NX (NN (mutation))(NNP (KRAS))(NN (p53)))(, (,))(NN (EGFR))(NN (ErbB2))(NN (gene))(NN (amplification)))(, (,))(NP (NN (level))(NN (EGFR))(NN (HER2))(NN (protein)))(, (,)))(NN (level))(JJ (downstream))(NN (effector))(NN (EGFR)))(, (,))(NP (JJ (phospho-extracellular))(JJ (signal-regulated))(NN (kinase))(NN (phospho-S6))(NN (protein)))))) |ET|  |BS| 2:G05.360.340.024.340.375.249.385 7:D12.776 8:C04 18:G05.365.590 30:Z01.058.290.190.800 31:D08.811.520.224.800 50:M01.643 63:G05.360.340.024.340.375.500.791.295.305 65:D08.811.913.696.620.682.725.400.009.400 225:E05.337 247:G01.374.676.530 358:G05.360.340.024.340.375.500.791.295.300 386:F02.463.425.069 388:G05.360.340.024.340.375.500.791.550 392:G05.355.315.250 477:D08.811.913.696.620.682.700.567.249 478:D08.811.913.696.620.682.700.567  |ES| 2:1 4:1 7:1 9:1 12:1 19:1 34:1 74:1 120:1 161:1 187:1 188:1 249:1 255:1 328:1 336:1 403:1 416:1 470:1 540:1 560:1 570:1 780:1 828:1 850:1 864:1 921:1 1298:1 1305:1 1705:1 1706:1 1707:1 1708:1  |EV| 
-0.00041788035725208173528158472898042  |BT| (S (NP (DT (The))(NN (Tg737))(NN (gene)))(VP (VBD (found))(NP (NP (JJ (altered))(ADJP (QP (RB (approximately))(CD (40)))(NN (%)))(JJ (rodent))(JJ (chemically-induced))(NN (liver))(NN (tumor)))(, (,))(NP (NP (CD (40))(NN (%)))(JJ (human))(NN (liver))(NN (tumor)))(, (,))(NP (NN (liver)))(, (,))(NP (NN (kidney))(JJ (pancreatic))(JJ (human))(NN (tumor))(NN (cell))(NN (line)))))) |ET|  |BS| 6:G05.360.340.024.340 30:Z01.058.290.190.800 31:D08.811.520.224.800 55:B01.050.150.900.649.801.400.112.400.400 242:A03.620 485:A05.810.453 514:B01.050.150.900.649.865 515:C04.588.274.623 607:A11.251.210.190 608:A03.734  |ES| 2:1 7:1 9:1 19:1 36:1 37:1 94:1 264:1 369:1 467:1 582:1 691:1 693:1 836:1 1717:1 1805:1 1843:1 2173:1 2233:1  |EV| 
-0.0003466180303452809016717672818686  |BT| (S (ADVP (RB (Importantly)))(, (,))(NP (NN (cotreatment))(JJ (low))(NNS (dos))(NP (NP (NNS (oligoamines))(NN (DNA))(NN (methyltransferase))(NN (inhibitor)))(ADVP (RB (highly)))))(VP (VBZ (induces))(SBAR (S (NP (NN (reexpression)))(ADVP (RB (aberrantly)))(VP (VBD (silenced))(SBAR (S (NP (NN (SFRP2))(NN (gene)))(VP (VBP (result))(NP (NP (JJ (significant))(NN (inhibition))(NN (growth)))(VBN (established))(NN (tumor))(JJ (human))(NN (colon))(NN (tumor))(NN (model)))(FW (vivo)))))))))) |ET|  |BS| 6:G05.360.340.024.340 8:C04 43:F01.145.544 45:G07.700.320.249 51:C04.588.274.476.411.307.180 55:B01.050.150.900.649.801.400.112.400.400 618:E02.186 746:D08.811.150.240  |ES| 2:1 7:1 9:1 19:1 36:1 72:1 101:1 102:1 103:1 113:1 135:1 214:1 378:1 380:1 531:1 626:1 666:1 2651:1 2652:1 2653:1 2654:1 2655:1 2656:1 2657:1 2658:1 2659:1 2660:1  |EV| 
0.00041788035725208173528158472898042  |BT| (NP (NP (NN (INTRODUCTION)))(: (:))(NP (NP (NP (NP (JJ (Triple))(JJ (negative))(NN (breast))(NN (cancer)))(PRN (-LRB- (-LRB-))(NP (NN (TNBC)))(-RRB- (-RRB-))))(NP (JJ (aggressive))(ADJP (RB (currently))(JJ (specific)))(JJ (therapeutic))(NN (target))))(, (,))(NP (NP (NN (hormone))(NN (receptor))(JJ (human))(JJ (epidermal))(NN (growth))(NN (factor))(NN (receptor))(NN (type))(CD (2)))(PRN (-LRB- (-LRB-))(NP (NN (HER2)))(-RRB- (-RRB-)))))(: (;))(ADVP (RB (therefore)))(, (,))(NP (NN (prognosis))(JJ (poor)))) |ET|  |BS| 52:E02 63:G05.360.340.024.340.375.500.791.295.305 65:D08.811.913.696.620.682.725.400.009.400 159:I01.880.735.634 160:C04.588.180.788 161:D06.472 162:F01.145.126.125 163:E01.789  |ES| 2:1 10:1 14:1 18:1 19:1 23:1 36:1 102:1 104:1 148:1 160:1 184:1 185:1 186:1 188:1 217:1 218:1 449:1 535:1 536:1 537:1 538:1 539:1 540:1 541:1 542:1 543:1 544:1 545:1  |EV| 
-0.00041788035725208173528158472898042  |BT| (S (NP (DT (The))(NN (result)))(VP (VBP (demonstrate))(NP (NP (JJ (growth-promoting))(NN (property))(NN (periostin)))(, (,))(NP (NP (JJ (possible))(NN (role)))(VP (VBG (targeting))(NP (NN (protein))(JJ (therapeutic))(NN (option))(JJ (colorectal))(NN (cancer)))))))) |ET|  |BS| 4:C04.588.274.476.411.307 15:F01.829.316.616 45:G07.700.320.249 52:E02 112:D12.776.097.820  |ES| 2:1 4:1 17:1 18:1 19:1 31:1 101:1 502:1 541:1 616:1 691:1 841:1 1359:1 3512:1 3832:1 3833:1  |EV| 
0.00041788035725208173528158472898042  |BT| (S (S (NP (DT (This))(JJ (K-Ras))(NN (tumor))(NN (phenotype)))(VP (VBN (associated))(VP (VBD (attenuated))(NP (NN (signaling))(NN (MAPK))(NN (pathway))))))(, (,))(NP (JJ (human))(NN (colon))(NN (cancer))(NN (cell)))(VP (VBG (expressing))(NP (NP (JJ (mutant))(NN (K-Ras))(JJ (hypersensitive))(NN (inhibition))(NN (Raf)))(, (,))(NP (NN (Mek)))))) |ET|  |BS| 1:G05.360.340.024.340.375.500.791.550 8:C04 41:A11 43:F01.145.544 55:B01.050.150.900.649.801.400.112.400.400 69:G02.111.087.800 80:G05.695 233:D08.811.913.696.620.682.700.565 234:D08.811.913.696.620.682.700.565  |ES| 2:1 7:1 13:1 18:1 19:1 36:1 94:1 103:1 113:1 169:1 195:1 236:1 383:1 807:1 808:1 809:1 810:1 811:1 812:1 813:1 814:1  |EV| 
-0.00041777749719995593835619729361497  |BT| (NP (NP (JJ (Therapeutic))(NN (effect))(JJ (multi-targeted))(NN (imidazolium))(NN (compound))(JJ (hepatocellular))(NN (carcinoma)))) |ET|  |BS| 104:C04.557.470.200.025.255  |ES| 19:1 75:1 303:1 304:1 2433:1 2993:1 3034:1 3035:1  |EV| 
0.00041788035725208173528158472898042  |BT| (NP (NP (NNS (METHODS))(: (:)))(S (NP (NN (Notch))(NN (status)))(VP (VBD (analysed))(S (VP (VBG (studying))(S (NP (NN (expression))(NN (Notch))(NN (effector))(NN (Hes1))(NN (Notch))(NNS (ligands/receptors)))(NP (JJ (human))(JJ (colorectal))(NP (NP (NN (cancer)))(PRN (-LRB- (-LRB-))(NP (NN (CRC)))(-RRB- (-RRB-))))(NN (mouse))(NN (model))(NN (Apc))(NN (mutation))))))))) |ET|  |BS| 3:C04.557.470.035.215.100 4:C04.588.274.476.411.307 5:C04.588.274.476.411.307 11:B01.050.150.900.649.865.635.505.500 18:G05.365.590 55:B01.050.150.900.649.801.400.112.400.400 168:E05.581 169:D12.776.543.750.725 170:D27.720.470.480  |ES| 10:1 14:1 17:1 18:1 19:1 34:1 36:1 52:1 72:1 104:1 115:1 245:1 256:1 258:1 280:1 416:1 565:1 568:1 569:1 570:1 571:1  |EV| 
0.00041788035725208173528158472898042  |BT| (FRAG (PP (IN (In))(NP (NN (study))))(, (,))(NP (VBN (explored))(NN (role))(NN (miR-141))(JJ (pancreatic))(NN (cancer)))) |ET|  |BS| 15:F01.829.316.616  |ES| 2:1 18:1 19:1 31:1 131:1 244:1 463:1 467:1 499:1  |EV| 
0.00041788035725208173528158472898042  |BT| (S (NP (DT (A))(NN (TRAMP/COX))(CD (-2))(JJ (knockout))(NN (mouse))(NN (model)))(ADVP (RB (also)))(VP (VBD (generated))(VP (VB (determine))(NP (NN (effect))(NN (loss))(NN (COX-2))(NN (gene))(NN (prostate))(NN (tumorigenesis))(NN (TRAMP))(NN (mouse)))))) |ET|  |BS| 6:G05.360.340.024.340 11:B01.050.150.900.649.865.635.505.500 29:B01.050.050.136.500.500 30:Z01.058.290.190.800 31:D08.811.520.224.800 32:C04.697.098.500 33:C04.697.098 34:A05.360.444.575  |ES| 5:1 9:1 19:1 32:1 52:1 69:1 70:1 71:1 72:1 73:1 74:1 75:1 76:1 77:1 78:1 79:1  |EV| 
-4.2106493022359137157195618783589e-05  |BT| (S (NP (NP (JJ (CRC-associated))(NN (symptom))(NN (patient)))(PP (VBG (including))(NP (JJ (intestinal))(NN (bleeding))(NN (anaemia)))))(ADVP (RB (faithfully)))(VP (VBD (mimicked))(NP (NP (NP (JJ (AOM-treated))(NN (MybER))(JJ (transgenic))(NN (mouse)))(VBN (implicated))(NN (hypoxia))(NN (vessel))(NN (leakage)))(VP (VBG (identifying))(NP (ADJP (ADJP (JJ (additional)))(ADJP (JJ (pathogenic))))(NN (role))(NN (Myb))))))) |ET|  |BS| 4:C04.588.274.476.411.307 5:C04.588.274.476.411.307 12:Z01.542.049 15:F01.829.316.616 47:A03.556.124 50:M01.643 52:E02 99:B01.050.050.136.500 132:D02.172.080 327:G06.930 371:A07.231 1011:C23.888.852.079 1322:C15.378.071 1323:C23.550.414  |ES| 19:1 31:1 52:1 109:1 120:1 285:1 561:1 977:1 980:1 1698:1 2474:1 4710:1 4711:1 4712:1 4713:1 4714:1 4715:1 4716:1 4717:1 4718:1 4719:1 4720:1 4721:1  |EV| 
0.00041788035725208173528158472898042  |BT| (S (NP (NNS (RESULTS))(: (:)))(VP (ADVP (RB (Herein)))(VB (provide))(NP (JJ (new))(NP (NN (evidence))(JJ (transcriptional))(NN (regulation)))(NN (Notch))(NN (PEA3))(NN (breast))(NN (cancer))))) |ET|  |BS| 142:I01.880.604 209:G02.111.087.847  |ES| 18:1 19:1 23:1 38:1 104:1 256:1 428:1 438:1 559:1 710:1 711:1 712:1 713:1  |EV| 
-0.00029674089238878318449538218359862  |BT| (FRAG (NP (PRP (We)))(VBD (characterized))(SBAR (S (NP (NP (NN (effect))(JJ (gefitinib))(NN (EGFR)))(, (,))(NP (NN (HER2)))(, (,))(NP (NN (ErbB-3))(NN (phosphorylation))(NN (Western))(NN (blot))))(VP (VBD (determined))(NP (NN (effect))(JJ (downstream))(NN (signaling))(NN (growth))))))(, (,))(NP (NP (NN (survival)))(, (,))(NP (NN (stress))(NN (pathway))(NN (effect))(NN (proliferation)))(, (,))(NP (NN (cell))(NN (cycle)))(, (,))(NP (NN (apoptosis))))) |ET|  |BS| 39:G04.299.139.160 45:G07.700.320.249 63:G05.360.340.024.340.375.500.791.295.305 65:D08.811.913.696.620.682.725.400.009.400 69:G02.111.087.800 96:I03.784 255:E05.196.401.143 256:E05.196.401.143 353:G04.299.134 972:G02.111.087.677 1350:G05.360.340.024.340.375.500.791.295  |ES| 2:1 19:1 75:1 89:1 94:1 102:1 187:1 188:1 195:1 274:1 299:1 383:1 560:1 601:1 843:1 872:1 873:1 985:1 1582:1 2522:1 3310:1 3426:1 4818:1  |EV| 
0.00041788035725208173528158472898042  |BT| (S (NP (DT (These))(NNS (data)))(VP (VP (VBP (provide))(NP (NN (evidence))(NN (Cdx2))(VP (VBZ (antagonizes))(NP (NN (process))(NN (tumor))(NN (cell))(NN (dissemination))))))(, (,))(VP (VBP (suggest))(SBAR (S (NP (NN (homeobox))(NN (gene)))(VP (MD (might))(VP (VB (represent))(NP (JJ (new))(JJ (therapeutic))(NN (target))(JJ (metastatic))(NN (spreading))(NN (colon))(NN (cancer)))))))))) |ET|  |BS| 8:C04 52:E02 229:G05.360.340.024.340.230.500 230:G04  |ES| 2:1 7:1 9:1 18:1 19:1 38:1 94:1 113:1 160:1 213:1 337:1 541:1 638:1 711:1 712:1 792:1 793:1 794:1 795:1 796:1 797:1 798:1 799:1 800:1  |EV| 
-0.00027853541668662086527863408491612  |BT| (S (ADVP (RB (Moreover)))(, (,))(NP (NN (silencing))(NN (IGFBP1))(NN (gene)))(VP (VBD (blunted))(NP (JJ (emodin-induced))(NN (inhibition))(NN (cell))(NN (growth))(NN (cell))(NN (cycle))(NN (arrest))))) |ET|  |BS| 41:A11 42:G05.355.315.203.374 43:F01.145.544 45:G07.700.320.249 773:G04.299.134.109 1327:D12.776.157.420.250 1518:D02.455.426.559.847.117.159.205.400  |ES| 2:1 9:1 19:1 94:1 100:1 102:1 103:1 601:1 602:1 622:1 5201:1 5613:1 5690:1  |EV| 
0.00041788035725208173528158472898042  |BT| (S (ADVP (RB (Moreover)))(, (,))(VP (VBD (identified))(SBAR (S (NP (NN (Usp28))(NN (c-MYC))(NN (target))(NN (gene)))(ADVP (RB (highly)))(VBD (expressed))(NP (JJ (murine))(JJ (human))(JJ (intestinal))(NN (cancer)))(, (,))(VP (VBZ (indicates))(SBAR (S (NP (NN (USP28))(NN (c-MYC))(NN (form))(JJ (positive))(NN (feedback))(NN (loop)))(VP (VBZ (maintains))(NP (JJ (high))(NN (c-MYC))(NN (protein))(NN (level))(NN (tumor))))))))))) |ET|  |BS| 8:C04 11:B01.050.150.900.649.865.635.505.500 55:B01.050.150.900.649.801.400.112.400.400 83:L01.143.283.425 101:C04.588.274.476.411 185:G05.360.340.024.340.375.500.791.420 186:G05.360.340.024.340.375.500.791.420 187:D08.622.705 188:N02.628 189:V02.460  |ES| 2:1 4:1 6:1 7:1 9:1 18:1 19:1 36:1 109:1 160:1 178:1 233:1 247:1 248:1 249:1 622:1 623:1 624:1 625:1 626:1 627:1 628:1 629:1 630:1 631:1  |EV| 
0.00041788035725208173528158472898042  |BT| (S (NP (PRP (We)))(VP (VBD (wanted))(VP (VB (determine))(SBAR (IN (whether))(S (NP (NP (JJ (genetic))(NN (defect))(JJ (relevant))(JJ (colorectal))(NN (cancer)))(, (,))(NP (NN (Msh2))(NN (p53))(NN (deficiency)))(, (,)))(VP (MD (would))(VP (VB (influence))(NP (NN (efficiency))(NN (sulindac))(NN (chemoprevention))(NN (increase))(NN (side))(NN (effect)))))))))) |ET|  |BS| 2:G05.360.340.024.340.375.249.385 4:C04.588.274.476.411.307 5:C04.588.274.476.411.307 30:Z01.058.290.190.800 31:D08.811.520.224.800 87:C18.654.521 251:D02.455.426.559.847.486.875 252:F02.784.692.351 253:E02.319.162 254:C16.131  |ES| 2:1 12:1 17:1 18:1 19:1 40:1 74:1 75:1 221:1 253:1 585:1 588:1 843:1 863:1 864:1 865:1 866:1 867:1 868:1 869:1 870:1 871:1  |EV| 
0.00041788035725208173528158472898042  |BT| (S (NP (PRP$ (Our))(NP (NP (JJ (recent))(JJ (global))(NN (analysis))(NN (CpG))(NN (island))(NN (hypermethylation))(NN (gene))(NN (expression))(JJ (colorectal))(NN (cancer)))(PRN (-LRB- (-LRB-))(NP (NN (CRC)))(-RRB- (-RRB-))))(NN (cell))(NN (line)))(VP (VBD (revealed))(S (NP (NN (SOX17))(NN (gene))(NN (silencing)))(NP (VBN (associated))(NN (DNA))(NN (hypermethylation))(NN (CpG))(NN (island))(NN (promoter))(NN (region)))))) |ET|  |BS| 4:C04.588.274.476.411.307 5:C04.588.274.476.411.307 42:G05.355.315.203.374 94:A11.251.210 155:G05.355.310 195:G02.111.570.080.380.160 196:G02.111.570.080.689.675 197:A01.456.505.420 198:D13.444.308  |ES| 9:1 10:1 14:1 17:1 18:1 19:1 83:1 94:1 100:1 115:1 169:1 245:1 264:1 275:1 658:1 659:1 660:1 661:1 662:1 663:1 664:1 665:1 666:1 667:1  |EV| 
0.00041788035725208173528158472898042  |BT| (S (NP (NN (Western))(NN (blot)))(VP (VBD (revealed))(NP (NP (NN (overexpression))(NN (beta-catenin)))(, (,))(NP (NP (NN (c-Myc)))(, (,))(NP (NN (cyclin))(NN (D1)))(, (,))(NP (JJ (inducible))(JJ (nitric))(NN (oxide))(NN (synthase)))(NP (NN (cyclooxygenase-2))(NN (colon))(NN (tumor))(NN (sample))))))) |ET|  |BS| 22:D08.811.682.664.500.772.500 23:D12.776.091.249 24:D08.811.600.720.750 51:C04.588.274.476.411.307.180 215:D12.644.360.262.150.100 255:E05.196.401.143  |ES| 2:1 7:1 19:1 60:1 61:1 63:1 64:1 65:1 66:1 113:1 152:1 275:1 743:1 744:1 824:1 835:1 872:1 873:1  |EV| 
-0.00012924564501393131805279113066831  |BT| (S (NP (NN (K-Ras))(NN (mutation))(NN (treatment))(NN (outcome))(JJ (colorectal))(NN (cancer))(NN (patient)))(VP (VBG (receiving))(NP (JJ (exclusive))(NN (fluoropyrimidine))(NN (therapy))))) |ET|  |BS| 1:G05.360.340.024.340.375.500.791.550 4:C04.588.274.476.411.307 5:C04.588.274.476.411.307 18:G05.365.590 50:M01.643 52:E02 164:E01.789.800  |ES| 13:1 17:1 18:1 19:1 34:1 120:1 130:1 546:1 547:1 548:1 549:1 550:1  |EV| 
-2.1065152450892854485431371358573e-05  |BT| (NP (NP (JJ (Epigenetic))(NN (inactivation))(JJ (paired))(NN (box))(NN (gene))(CD (5)))(, (,))(NP (JJ (novel))(NN (tumor))(NN (suppressor))(NN (gene)))(, (,))(NP (NP (JJ (direct))(NN (upregulation))(NN (p53)))(NP (VBN (associated))(NN (prognosis))(JJ (gastric))(NN (cancer))(NN (patient))))) |ET|  |BS| 2:G05.360.340.024.340.375.249.385 42:G05.355.315.203.374 50:M01.643 163:E01.789 206:G05.360.340.024.340.375.249 249:G05.355.315.800 259:D12.776.395.240.150.500 339:G02.111.087.880  |ES| 2:1 7:1 9:1 12:1 18:1 19:1 86:1 120:1 169:1 544:1 578:1 700:1 790:1 891:1 1126:1 1201:1 1314:1 1891:1 1918:1  |EV| 
0.00041788035725208173528158472898042  |BT| (S (NP (ADJP (RB (Here))(VBN (investigated)))(NP (NN (role))(NN (Bcl-3))(NN (azoxymethane/dextran))(NN (sulfate))(NN (sodium)))(PRN (-LRB- (-LRB-))(NP (NN (AOM/DSS)))(-RRB- (-RRB-))))(: (-))(VP (VBN (induced))(NP (NP (NN (colon))(NN (tumor)))(, (,))(NP (NN (mouse))(NN (model))(JJ (colitis-associated))(JJ (colorectal))(NN (cancer)))(JJ (human))))) |ET|  |BS| 4:C04.588.274.476.411.307 11:B01.050.150.900.649.865.635.505.500 15:F01.829.316.616 51:C04.588.274.476.411.307.180 53:C06.405.205.265 55:B01.050.150.900.649.801.400.112.400.400 131:D09.698.365.272.300 132:D02.172.080  |ES| 2:1 7:1 10:1 14:1 17:1 18:1 19:1 31:1 36:1 52:1 72:1 113:1 400:1 403:1 404:1 405:1 406:1 407:1 408:1 409:1 410:1  |EV| 
-0.00041788035725208173528158472898042  |BT| (NP (NP (NP (DT (The))(JJ (adenomatous))(NN (polyposis))(NN (coli))(-LRB- (-LRB-))(NN (APC))(-RRB- (-RRB-))(NN (gene))(NN (product)))(NP (VBN (mutated))(JJ (vast))(NN (majority))(JJ (human))(JJ (colorectal))(NN (cancer))))) |ET|  |BS| 55:B01.050.150.900.649.801.400.112.400.400 219:G05.360.340.024.340.375.249.320 220:D05.500.117.249  |ES| 9:1 10:1 11:1 14:1 17:1 18:1 19:1 36:1 57:1 58:1 59:1 198:1 229:1 675:1 691:1 752:1  |EV| 
-3.2959746043559334793826565146446e-17  |BT| (S (PP (IN (In))(NP (NN (study))))(, (,))(VP (VBD (identified))(NP (NP (JJ (novel))(NN (CEBPD))(NN (activator)))(, (,))(NP (NP (LST (LS (1))(: (-)))(-LRB- (-LRB-))(JJ (2-hydroxy-5-methylphenyl))(-RRB- (-RRB-))(NN (-3-phenyl-1,3-propanedione)))(PRN (-LRB- (-LRB-))(NP (NN (HMDB)))(-RRB- (-RRB-))))))) |ET|  |BS| 259:D12.776.395.240.150.500  |ES| 2:1 10:1 14:1 19:1 131:1 244:1 623:1 861:1 891:1 5667:1 5668:1 5669:1 5670:1 5671:1  |EV| 
-0.00027251118897220205639086998417042  |BT| (NP (NP (NNS (METHODS)))(: (:))(S (NP (NP (NP (JJ (Stable))(JJ (transient))(NN (RNA))(NN (silencing))(NN (GAST))(NN (gene)))(VP (VBD (induced))(NP (NP (JJ (human))(NN (tumor))(NN (cell))(NN (mouse)))(VP (VBG (carrying))(NP (NP (JJ (heterozygous))(NN (Apc))(NN (mutation)))(PRN (-LRB- (-LRB-))(NP (NN (APCDelta14)))(-RRB- (-RRB-))))))))(, (,))(VP (VBP (overexpress))(NP (NN (progastrin)))))(VP (VBD (amidated))(NP (JJ (glycine-extended))(NN (gastrin)))))) |ET|  |BS| 3:C04.557.470.035.215.100 6:G05.360.340.024.340 8:C04 11:B01.050.150.900.649.865.635.505.500 18:G05.365.590 41:A11 42:G05.355.315.203.374 55:B01.050.150.900.649.801.400.112.400.400 156:G05.355.315.203.374.790 157:G05.380.383 168:E05.581 199:D06.472.317.413 200:D06.472.317.413 247:G01.374.676.530 1003:D12.125.481 1422:D13.444.735  |ES| 2:1 7:1 9:1 10:1 14:1 19:1 34:1 36:1 52:1 94:1 100:1 104:1 280:1 412:1 515:1 565:1 671:1 676:1 745:1 786:1 850:1 2513:1 5677:1 5678:1 5679:1 5680:1 5681:1  |EV| 
0.00041788035725208173528158472898042  |BT| (S (NP (NN (Notch-1))(NN (Notch-4))(JJ (potent))(NN (breast))(NN (oncogene)))(VP (VBN (overexpressed))(NP (JJ (triple-negative))(NNS (subtypes))(NN (breast))(NN (cancer))))) |ET|  |BS| 9:G05.360.340.024.340.375.500 10:A01.236  |ES| 18:1 19:1 20:1 21:1 22:1 23:1 24:1 25:1 26:1 27:1  |EV| 
-0.00041788035725208173528158472898042  |BT| (S (ADVP (RB (Importantly)))(, (,))(NP (NN (cotreatment))(JJ (low))(NNS (dos))(NP (NP (NNS (oligoamines))(NN (DNA))(NN (methyltransferase))(NN (inhibitor)))(ADVP (RB (highly)))))(VP (VBZ (induces))(SBAR (S (NP (NN (reexpression)))(ADVP (RB (aberrantly)))(VP (VBD (silenced))(SBAR (S (NP (NN (SFRP2))(NN (gene)))(VP (VBP (result))(NP (NP (JJ (significant))(NN (inhibition))(NN (growth)))(VBN (established))(NN (tumor))(JJ (human))(NN (colon))(NN (tumor))(NN (model)))(FW (vivo)))))))))) |ET|  |BS| 6:G05.360.340.024.340 8:C04 43:F01.145.544 45:G07.700.320.249 51:C04.588.274.476.411.307.180 55:B01.050.150.900.649.801.400.112.400.400 618:E02.186 746:D08.811.150.240  |ES| 2:1 7:1 9:1 19:1 36:1 72:1 101:1 102:1 103:1 113:1 135:1 214:1 378:1 380:1 531:1 626:1 666:1 2651:1 2652:1 2653:1 2654:1 2655:1 2656:1 2657:1 2658:1 2659:1 2660:1  |EV| 
-3.2937018894160785542624125810107e-06  |BT| (S (NP (PRP (We)))(ADVP (RB (previously)))(VP (VBD (showed))(SBAR (S (NP (NN (embelin)))(VP (VBZ (inhibits))(NP (NN (growth))(NN (colon))(NN (cancer))(NN (cell))(NN (vitro))))))(, (,))(VP (ADVP (RB (effectively)))(VBZ (suppresses))(NP (JJ (1,2-dimethylhydrazine))(JJ (dihydrochloride-induced))(NN (colon))(NN (carcinogenesis))(NN (mouse)))))) |ET|  |BS| 11:B01.050.150.900.649.865.635.505.500 33:C04.697.098 41:A11 45:G07.700.320.249 46:A03.556.124.526.356 122:C14.280.383  |ES| 2:1 18:1 19:1 52:1 94:1 102:1 113:1 132:1 207:1 216:1 615:1 686:1 843:1 1527:1 2642:1 2889:1 2977:1 3145:1  |EV| 
0.00041788035725208173528158472898042  |BT| (S (NP (JJ (Sonic))(NN (hedgehog))(NN (inhibitor)))(VP (VBP (prevent))(NP (JJ (colitis-associated))(NN (cancer)))(FRAG (IN (via))(NP (VBN (orchestrated))(NN (mechanism))(NN (IL-6)))(: (/))(NP (NP (NN (gp130))(NN (inhibition)))(, (,))(NP (NN (15-PGDH))(NN (induction)))(, (,))(NP (NN (Bcl-2))(NN (abrogation)))(, (,))(NP (NN (tumorsphere))(NN (inhibition))))))) |ET|  |BS| 43:F01.145.544 53:C06.405.205.265 54:G05.360.340.024.340.375.500.791.150 201:D12.644.276.374.465.224 214:B01.050.150.900.649.473.376  |ES| 2:1 18:1 19:1 103:1 133:1 158:1 162:1 380:1 410:1 596:1 731:1 732:1 733:1 734:1 735:1 736:1 737:1 738:1  |EV| 
-0.00041788035725208173528158472898042  |BT| (S (NP (DT (The))(NN (Tg737))(NN (gene)))(VP (VBD (investigated))(NP (JJ (gross))(NN (alteration))(NN (series))(NN (rodent/human))(NN (liver))(NN (tumor))(JJ (human))(JJ (tumorigenic))(NN (cell))(NN (line))))) |ET|  |BS| 6:G05.360.340.024.340 55:B01.050.150.900.649.801.400.112.400.400 94:A11.251.210 514:B01.050.150.900.649.865 515:C04.588.274.623  |ES| 7:1 9:1 19:1 36:1 94:1 264:1 403:1 691:1 836:1 951:1 1805:1 1806:1 1807:1 1808:1 1809:1  |EV| 
0.00041788035725208173528158472898042  |BT| (S (NP (NN (Penta-1,2,3,4,6-O-galloyl-beta-D-glucose)))(VP (VP (VBZ (induces))(SBAR (S (NP (NN (p53)))(VP (VBZ (inhibits))(NP (NN (STAT3))(NN (prostate))(NN (cancer))(NN (cell))(NN (vitro)))))))(VP (VBZ (suppresses))(NP (NN (prostate))(NN (xenograft))(NN (tumor))(NN (growth)))(FW (vivo))))) |ET|  |BS| 2:G05.360.340.024.340.375.249.385 41:A11 45:G07.700.320.249 82:D12.644.360.024.342.300 91:D09.546.359.448 92:E04.936.764 93:A01.941.875 122:C14.280.383 202:C04.588.945.440.770  |ES| 7:1 12:1 18:1 19:1 77:1 94:1 102:1 214:1 216:1 251:1 265:1 378:1 615:1 685:1 686:1  |EV| 
0.00041788035725208173528158472898042  |BT| (S (NP (NNS (CONCLUSIONS))(: (:)))(NP (NP (JJ (Gastric))(NN (expression))(NN (Cdx2)))(ADJP (RB (alone))(JJ (sufficient))))(VP (VBP (induce))(NP (JJ (intestinal))(NN (metaplasia))(NN (mouse))))) |ET|  |BS| 11:B01.050.150.900.649.865.635.505.500 30:Z01.058.290.190.800 31:D08.811.520.224.800 47:A03.556.124 48:C23.550.589 70:A03.556.875.875  |ES| 19:1 52:1 104:1 109:1 110:1 115:1 213:1 239:1 240:1 241:1 242:1 243:1  |EV| 
-0.00041788035725208173528158472898042  |BT| (S (S (NP (JJ (Regular))(NN (aspirin))(NN (use))(NN (diagnosis)))(VP (VBD (associated))(NP (JJR (lower))(NN (risk))(JJ (colorectal))(JJ (cancer-specific))(NN (mortality)))(PP (IN (among))(NP (NP (NN (participant))(JJ (primary))(NN (tumor))(JJ (overexpressed))(NN (COX-2)))(PRN (-LRB- (-LRB-))(NP (NP (JJ (multivariate))(NN (HR)))(, (,))(NP (CD (0.39)))(: (;))(NP (NP (ADJP (CD (95))(NN (%)))(NN (CI)))(, (,))(NP (CD (0.20-0.76)))))(-RRB- (-RRB-)))))))(, (,))(IN (whereas))(S (NP (NN (aspirin))(NN (use)))(VP (VBD (associated))(NP (JJR (lower))(NN (risk)))(PP (IN (among))(NP (NP (JJ (primary))(NN (tumor))(JJ (weak))(JJ (absent))(NN (expression)))(PRN (-LRB- (-LRB-))(NP (NP (JJ (multivariate))(NN (HR)))(, (,))(NP (CD (1.22)))(: (;))(NP (NP (ADJP (CD (95))(NN (%)))(NN (CI)))(, (,))(NP (CD (0.36-4.18)))))(-RRB- (-RRB-)))))))) |ET|  |BS| 4:C04.588.274.476.411.307 5:C04.588.274.476.411.307 8:C04 61:E05.318.740.600.800 263:E01 670:D02.455.426.559.389.657.410.595.176 695:E05.318.308.985.550 828:Z01.107.757.235  |ES| 2:1 7:1 10:1 14:1 17:1 19:1 25:1 76:1 115:1 117:1 169:1 171:1 217:1 338:1 344:1 367:1 369:1 372:1 374:1 1037:1 1372:1 1659:1 2487:1 2508:1 2509:1 2511:1 2923:1 2924:1 2925:1 2926:1 2927:1 2928:1 2929:1 2930:1  |EV| 
-0.00036532756435716552678716340096798  |BT| (S (NP (NN (Astrocyte))(JJ (elevated))(NN (gene-1))(NN (c-Myc)))(VP (VBP (cooperate))(VP (VBP (promote))(NP (NN (hepatocarcinogenesis))(NN (mouse)))))) |ET|  |BS| 6:G05.360.340.024.340 11:B01.050.150.900.649.865.635.505.500 30:Z01.058.290.190.800 31:D08.811.520.224.800 529:A08.637.200  |ES| 19:1 52:1 474:1 679:1 756:1 824:1 900:1 1858:1 1859:1  |EV| 
-0.00041788035725208173528158472898042  |BT| (S (NP (NN (Induction))(NN (p53)))(VP (VBP (render))(NP (JJ (ATM-deficient))(NN (mouse))(JJ (refractory))(NN (hepatocarcinogenesis))))) |ET|  |BS| 2:G05.360.340.024.340.375.249.385 11:B01.050.150.900.649.865.635.505.500  |ES| 12:1 19:1 52:1 900:1 2020:1 2021:1 2022:1 2023:1  |EV| 
-6.1166675303314654854602849809453e-05  |BT| (S (PP (IN (In))(NP (JJ (present))(NN (study))))(, (,))(VP (VBN (investigated))(S (NP (NP (NN (role))(NN (IDO))(NN (diethylnitrosamine)))(PRN (-LRB- (-LRB-))(NP (NN (DEN)))(-RRB- (-RRB-))))(: (-))(VP (VBN (induced))(NP (NN (hepatocarcinogenesis)))(S (VP (VBG (using))(NP (NP (NP (NN (IDO-knockout)))(PRN (-LRB- (-LRB-))(NP (NN (KO)))(-RRB- (-RRB-))))(NN (mouse))))))))) |ET|  |BS| 15:F01.829.316.616 29:B01.050.050.136.500.500 554:D02.654.442.200  |ES| 2:1 10:1 14:1 19:1 31:1 52:1 131:1 244:1 350:1 403:1 409:1 900:1 1307:1 1875:1 1952:1 2849:1 4243:1 4244:1  |EV| 
-0.00041788035725208173528158472898042  |BT| (UCP (S (NP (DT (The))(NN (miR-122))(JJ (regulatory))(NN (circuitry))(NN (implication))(NN (hepatocarcinogenesis)))(VP (VBN (identified))(S (VP (VBG (using))(NP (NN (liver))(JJ (different))(NN (development))(NN (stage)))))))(, (,))(NP (NP (NP (NP (JJ (human))(JJ (hepatocellular))(NN (carcinoma)))(PRN (-LRB- (-LRB-))(NP (NN (HCC)))(-RRB- (-RRB-))))(NP (NN (tissue))(NN (cell))(NN (line)))(, (,))(NP (NP (NN (aflatoxin))(NN (B)))(-LRB- (-LRB-))(CD (1))(-RRB- (-RRB-))(-LRB- (-LRB-))(NN (AFB))(LST (-LRB- (-LRB-))(CD (1))(-RRB- (-RRB-))(-RRB- (-RRB-)))))(: (-))(NP (VBN (transformed))(NN (cell))))) |ET|  |BS| 41:A11 55:B01.050.150.900.649.801.400.112.400.400 94:A11.251.210 98:A10 104:C04.557.470.200.025.255 242:A03.620 603:D03.383.663.283.119.075  |ES| 2:1 10:1 14:1 19:1 35:1 36:1 85:1 94:1 98:1 264:1 272:1 303:1 304:1 350:1 414:1 441:1 623:1 691:1 763:1 836:1 900:1 1129:1 1789:1 1817:1 1818:1 2214:1 2215:1 2216:1  |EV| 
0.00041788035725208173528158472898042  |BT| (S (NP (NN (Sil))(NN (gene))(NN (expression))(NN (lung))(NN (cancer)))(VP (VBD (correlated))(NP (NN (expression))(JJ (several))(NN (kinetochore))(NN (check-point))(NN (gene))(JJ (histopathologic))(JJ (mitotic))(NN (index))))) |ET|  |BS| 155:G05.355.310 211:A11.284.430.106.279.345.190.160.165.500 212:E01.370.225.500.385.500  |ES| 9:1 18:1 19:1 115:1 262:1 328:1 446:1 716:1 717:1 718:1 719:1 720:1 721:1  |EV| 
0.00041788035725208173528158472898042  |BT| (S (NP (JJ (Intestinal))(NN (metaplasia))(NN (dysplasia))(JJ (low))(NN (expression))(NN (CDX2)))(VP (MD (may))(VP (VB (serve))(NP (JJ (predictive))(NN (marker))(JJ (gastric))(NN (cancer)))))) |ET|  |BS| 47:A03.556.124 48:C23.550.589 158:D23.101  |ES| 18:1 19:1 86:1 110:1 114:1 115:1 203:1 204:1 491:1 531:1 532:1 533:1 534:1  |EV| 
0.00041788035725208173528158472898042  |BT| (S (NP (NN (Wnt/beta-catenin))(NN (signaling))(JJ (critical))(JJ (intestinal))(NN (cell))(NN (proliferation)))(, (,))(VP (VBD (decreased))(NP (NN (CDX2))(NN (expression))(NN (influence))(NN (Wnt))(JJ (signaling-related))(NN (gene))(NN (progression))(JJ (colorectal))(NN (cancer))))) |ET|  |BS| 4:C04.588.274.476.411.307 5:C04.588.274.476.411.307 6:G05.360.340.024.340 16:C23.550.291.656 47:A03.556.124 69:G02.111.087.800 105:G02.149.115.800.925 183:G04.299.233.750  |ES| 2:1 9:1 17:1 18:1 19:1 48:1 94:1 109:1 114:1 115:1 195:1 202:1 299:1 302:1 825:1 867:1 877:1 878:1  |EV| 
-0.00041788035725208173528158472898042  |BT| (S (NP (JJ (Isogenic))(JJ (LKB1-knockdown))(NN (breast))(NN (cancer))(NN (cell))(NN (line))(NN (pair)))(VP (VBD (developed)))) |ET|  |BS| 94:A11.251.210  |ES| 18:1 19:1 23:1 94:1 264:1 1165:1 2035:1 2036:1 2037:1  |EV| 
0.00041788035725208173528158472898042  |BT| (S (NP (NP (NN (CDX2)))(, (,))(NP (NN (master))(NN (regulator))(JJ (intestinal))(NN (phenotype)))(, (,)))(VP (VBN (shown))(NP (NN (play))(JJ (tumor-suppressive))(NN (role))(NN (colon))(NN (cancer))))) |ET|  |BS| 15:F01.829.316.616 30:Z01.058.290.190.800 31:D08.811.520.224.800 47:A03.556.124 51:C04.588.274.476.411.307.180 79:I03.450.642.693 80:G05.695  |ES| 2:1 18:1 19:1 31:1 109:1 113:1 114:1 177:1 234:1 235:1 236:1 237:1 238:1  |EV| 
0.00041788035725208173528158472898042  |BT| (S (NP (NN (Silencing))(NN (MLH1)))(VP (ADVP (RB (frequently)))(VBN (seen))(S (NP (JJ (sporadic))(JJ (colorectal))(NN (cancer)))))) |ET|  |BS| 4:C04.588.274.476.411.307 213:F02.830.816.964  |ES| 17:1 18:1 19:1 698:1 722:1 723:1 724:1 725:1  |EV| 
0.00041788035725208173528158472898042  |BT| (S (NP (DT (The))(JJ (apoptosis-inducing))(NN (effect))(NN (gastrin))(JJ (colorectal))(NN (cancer))(NN (cell)))(VP (VBZ (relates))(NP (NP (VBN (increased))(NP (NN (IEX-1)))(NN (expression)))(VP (VBG (mediating))(NP (NP (NN (NF-kappa))(NN (B)))(NN (inhibition))))))) |ET|  |BS| 4:C04.588.274.476.411.307 5:C04.588.274.476.411.307 39:G04.299.139.160 41:A11 43:F01.145.544 199:D06.472.317.413 200:D06.472.317.413 210:D12.776.260.600  |ES| 17:1 18:1 19:1 47:1 75:1 94:1 103:1 115:1 676:1 691:1 758:1 759:1 760:1 761:1 762:1 763:1  |EV| 
-9.9582845788426244126867459272034e-05  |BT| (S (PP (IN (In))(NP (NN (aggregate))))(, (,))(VP (VBP (conclude))(NP (NP (NP (NN (Let-7))(NN (depletion))(NN (drive))(NN (stem))(NN (cell))(NN (phenotype)))(NN (development))(JJ (intestinal))(NN (cancer)))(, (,))(PP (ADVP (RB (primarily)))(IN (via))(NP (NN (Hmga2))))))) |ET|  |BS| 66:F01.658.293 80:G05.695 101:C04.588.274.476.411 283:D12.776.260.312.937 308:A11.872 557:D02.241.081.069.600.150  |ES| 2:1 18:1 19:1 35:1 94:1 109:1 181:1 236:1 244:1 596:1 1106:1 1613:1 1967:1 1968:1 1969:1 1970:1 1971:1  |EV| 
0.00041788035725208173528158472898042  |BT| (NP (NP (ADVP (RB (Interestingly)))(, (,))(NP (NP (NP (JJ (gastric))(NN (adenocarcinoma)))(ADJP (RB (significantly))(JJ (frequent)))(NN (Pdx-1-Cre)))(: (;))(NP (NN (Smad4))(-LRB- (-LRB-))(NN (F/F))(-RRB- (-RRB-)))(: (;))(NP (NN (Trp53))(-LRB- (-LRB-))(NN (F/F))(-RRB- (-RRB-)))(: (;))(NP (NP (NP (NN (Cdh1))(-LRB- (-LRB-))(NN (F))(-RRB- (-RRB-)))(PRN (-LRB- (-LRB-))(: (/))(CC (+))(-RRB- (-RRB-))))(NN (mouse))(NN (Pdx-1-Cre)))(: (;))(NP (NN (Smad4))(-LRB- (-LRB-))(NN (F/F))(-RRB- (-RRB-)))(: (;))(NP (NN (Trp53))(-LRB- (-LRB-))(NN (F/F))(-RRB- (-RRB-)))(: (;))(NP (NN (Cdh1))(PRN (-LRB- (-LRB-))(CC (+))(: (/))(CC (+))(-RRB- (-RRB-)))(NN (mouse)))(, (,))(S (NP (VBG (demonstrating))(NN (Cdh1))(NN (heterozygosity)))(VP (VBZ (accelerates))(NP (NN (development))(NN (progression))(JJ (gastric))(NN (adenocarcinoma)))))(, (,))(NP (NN (combination))(NN (loss))(NN (Smad4))(NN (p53)))))) |ET|  |BS| 2:G05.360.340.024.340.375.249.385 11:B01.050.150.900.649.865.635.505.500 16:C23.550.291.656 70:A03.556.875.875 84:C04.557.470.200.025 118:D01.248.497.158.380 157:G05.380.383  |ES| 2:1 10:1 12:1 14:1 19:1 32:1 35:1 48:1 51:1 52:1 86:1 124:1 217:1 255:1 518:1 519:1 520:1 521:1 522:1 523:1 524:1 525:1 526:1 527:1 528:1 529:1 530:1  |EV| 
-1.9296473573889982161544409677845e-05  |BT| (S (NP (NN (CRC))(NN (xenograft)))(VP (VBD (differed))(NP (NP (NP (NP (NN (p53))(NN (status)))(PRN (-LRB- (-LRB-))(NP (JJ (wt))(NN (muf)))(-RRB- (-RRB-))))(NN (microsatellite))(NN (instability))(NN (phenotype)))(PRN (-LRB- (-LRB-))(NP (NP (NN (MSI)))(CC (+))(NP (JJ (altered))))(-RRB- (-RRB-)))))) |ET|  |BS| 2:G05.360.340.024.340.375.249.385 4:C04.588.274.476.411.307 5:C04.588.274.476.411.307 80:G05.695 92:E04.936.764 93:A01.941.875 538:C23.550.362.590  |ES| 10:1 12:1 14:1 19:1 236:1 245:1 265:1 416:1 693:1 1299:1 1332:1 1901:1 1902:1 1903:1 1904:1  |EV| 
-9.316471092095379713526881459984e-05  |BT| (SINV (NP (NP (JJ (Hepatocellular))(NN (carcinoma)))(PRN (-LRB- (-LRB-))(NP (NN (HCC)))(-RRB- (-RRB-))))(NP (CD (one))(JJ (common))(NN (cancer)))(ADVP (RB (worldwide)))(, (,))(VP (VBD (caused)))(NP (NP (NP (NNP (Hepatitis))(NNP (C))(NN (virus)))(PRN (-LRB- (-LRB-))(NP (NN (HCV)))(-RRB- (-RRB-))))(NN (hepatotoxin)))) |ET|  |BS| 104:C04.557.470.200.025.255 550:B04.450.410  |ES| 2:1 10:1 14:1 18:1 19:1 304:1 441:1 655:1 1010:1 1422:1 1938:1 1954:1 1955:1 2151:1 2506:1 3987:1 3988:1  |EV| 
0.00041788035725208173528158472898042  |BT| (S (ADVP (RB (Similarly)))(, (,))(NP (NN (treatment))(JJ (human))(NN (colon))(NN (cancer))(NN (cell))(NN (line))(NN (hypomethylating))(NN (agent)))(VP (VBZ (induces))(NP (NP (JJ (differentiation-related))(NN (gene)))(, (,))(PP (VBG (including))(NP (NN (CDX1))))))) |ET|  |BS| 6:G05.360.340.024.340 52:E02 55:B01.050.150.900.649.801.400.112.400.400 74:G04.299.151 94:A11.251.210  |ES| 2:1 9:1 18:1 19:1 36:1 94:1 113:1 214:1 264:1 546:1 561:1 726:1 727:1 728:1 729:1 730:1  |EV| 
-0.0003692824855528985261710062104612  |BT| (S (NP (JJ (Knock-down))(NN (TnC))(NN (gene)))(VP (VBD (increased))(NP (NN (susceptibility))(JJ (DSS-induced))(NN (colitis)))(, (,))(S (VP (VBN (compared))(S (NP (NP (NN (TnC)))(PRN (-LRB- (-LRB-))(CC (+))(: (/))(CC (+))(-RRB- (-RRB-))))(NP (NNS (littermates)))))))) |ET|  |BS| 53:C06.405.205.265 400:E05.393.335.500 401:C23.550.291.687  |ES| 2:1 9:1 10:1 14:1 19:1 47:1 50:1 51:1 143:1 1343:1 1352:1 1353:1 1354:1 1355:1  |EV| 
0.00041788035725208173528158472898042  |BT| (S (NP (NP (CD (One))(JJ (common))(JJ (rate-limiting))(NN (mutation)))(JJ (human))(NN (CRC)))(VP (VBZ (occurs))(NP (JJ (adenomatous))(NN (polyposis))(NN (coli))(-LRB- (-LRB-))(NN (APC))(-RRB- (-RRB-))(NN (gene))))) |ET|  |BS| 3:C04.557.470.035.215.100 4:C04.588.274.476.411.307 5:C04.588.274.476.411.307 6:G05.360.340.024.340 21:G05.360.340.024.340.375.249.050 55:B01.050.150.900.649.801.400.112.400.400 194:G05.355.044.250.750  |ES| 9:1 10:1 11:1 14:1 19:1 34:1 36:1 57:1 58:1 59:1 245:1 654:1 655:1 656:1 657:1  |EV| 
0.00041788035725208173528158472898042  |BT| (NP (NP (NP (NP (JJ (Human))(NN (CRC))(NN (tissue)))(NP (JJR (higher))(NN (level))(NN (miR-221))(NN (miR-222))(JJ (nontumor))(NN (colon))(NN (tissue))))(: (;))(NP (NN (increase)))(VP (VBD (correlated))(NP (VBN (increased))(NN (level))(NN (RelA))(NN (STAT3))(NNS (mRNAs)))))) |ET|  |BS| 4:C04.588.274.476.411.307 5:C04.588.274.476.411.307 46:A03.556.124.526.356 55:B01.050.150.900.649.801.400.112.400.400 82:D12.644.360.024.342.300 98:A10 111:D13.444.735.544  |ES| 19:1 40:1 47:1 113:1 140:1 141:1 170:1 217:1 245:1 249:1 250:1 251:1 272:1 444:1 445:1 446:1 447:1  |EV| 
-5.000804197583322285858287159499e-06  |BT| (S (NP (JJ (Transgenic))(NN (mouse))(VBG (expressing))(NN (cyclooxygenase-2))(NNS (hepatocytes)))(VP (VBP (reveal))(NP (JJ (minor))(NN (contribution))(NN (enzyme))(NN (chemical))(NN (hepatocarcinogenesis))))) |ET|  |BS| 24:D08.811.600.720.750 99:B01.050.050.136.500 262:A11.436.348 730:D08.811 1108:M01.416  |ES| 19:1 52:1 61:1 810:1 894:1 900:1 1360:1 1670:1 2124:1 2388:1 3880:1 3881:1  |EV| 
-0.00041788035725208173528158472898042  |BT| (S (NP (ADJP (QP (IN (About))(CD (80)))(NN (%)))(JJ (gastric))(NN (cancer)))(VP (VBD (showed))(NP (JJ (high))(NN (level))(NN (expression))(NN (cyclooxygenase))(CD (2)))(, (,))(S (NP (NN (subset))(NN (case)))(VP (VBP (express))(PP (IN (without))(NP (JJ (unknown))(NN (reason)))))))) |ET|  |BS| 24:D08.811.600.720.750  |ES| 2:1 18:1 19:1 86:1 115:1 132:1 148:1 178:1 208:1 249:1 369:1 573:1 934:1 1195:1 1285:1 2182:1 3180:1 3257:1 3258:1  |EV| 
0.00041788035725208173528158472898042  |BT| (NP (NP (NNS (CONCLUSIONS))(: (:)))(UCP (PP (IN (In))(NP (NN (mouse))))(, (,))(NP (NP (NN (fucosylation))(NN (deficiency))(NN (lead))(NN (colitis))(NN (adenocarcinoma)))(, (,))(NP (NN (loss))(NN (Notch))(NN (activation)))(, (,))(NP (NN (down-regulation))(NN (Hes1)))))) |ET|  |BS| 11:B01.050.150.900.649.865.635.505.500 53:C06.405.205.265 84:C04.557.470.200.025 85:G02.111.087.225 86:D01.268.556.435 87:C18.654.521  |ES| 2:1 19:1 32:1 52:1 104:1 143:1 225:1 239:1 244:1 252:1 253:1 254:1 255:1 256:1 257:1 258:1  |EV| 
-0.00034111837555078627914895150752272  |BT| (S (NP (NN (Penta-O-galloyl-beta-D-glucose)))(VP (VBZ (induces))(NP (NN (G1))(NN (arrest))(NN (DNA))(JJ (replicative))(NN (S-phase))(NN (arrest)))(NP (NP (ADJP (RB (independently))(JJ (cyclin-dependent)))(NN (kinase))(NN (inhibitor))(NN (1A)))(, (,))(NP (JJ (cyclin-dependent))(NN (kinase))(NN (inhibitor))(NN (1B))(NN (P53))(JJ (human))(NN (breast))(NN (cancer))(NN (cell)))(NP (RB (orally))(JJ (active))(JJ (triple))(JJ (negative))(NN (xenograft))(NN (growth)))))) |ET|  |BS| 2:G05.360.340.024.340.375.249.385 41:A11 45:G07.700.320.249 55:B01.050.150.900.649.801.400.112.400.400 91:D09.546.359.448 92:E04.936.764 93:A01.941.875 122:C14.280.383 198:D13.444.308 338:D12.644.360.225.600 1299:D12.644.360.225.500 1404:G02.111.087.222.880  |ES| 2:1 18:1 19:1 23:1 36:1 94:1 102:1 197:1 214:1 265:1 380:1 449:1 470:1 602:1 666:1 670:1 1503:1 1916:1 2052:1 2149:1 4226:1 4546:1 5097:1 5098:1 5099:1 5100:1  |EV| 
-0.00041788035725208173528158472898042  |BT| (S (ADVP (RB (Herein)))(, (,))(VP (VBD (investigated))(NP (NP (ADJP (FW (vitro))(FW (vivo)))(JJ (anticancer))(NN (effect)))(NP (VBN (associated))(NN (mechanism))(NN (wogonin))(JJ (human))(NN (breast))(NN (cancer)))))) |ET|  |BS| 55:B01.050.150.900.649.801.400.112.400.400  |ES| 2:1 18:1 19:1 23:1 36:1 75:1 162:1 169:1 216:1 378:1 403:1 428:1 1880:1 2444:1  |EV| 
0.00041788035725208173528158472898042  |BT| (S (NP (NN (Animal))(NN (breast))(NN (colon))(NN (tumor))(NN (therapy))(NN (study)))(VP (VBD (showed))(SBAR (S (NP (JJ (15-PGDH))(NN (gene))(NN (therapy)))(VP (VBD (produced))(NP (JJ (significant))(NN (delay))(NN (2LMP))(NN (LS174T))(NN (tumor))(NN (growth)))))))) |ET|  |BS| 8:C04 10:A01.236 19:B01.050 45:G07.700.320.249 51:C04.588.274.476.411.307.180 52:E02  |ES| 7:1 9:1 19:1 23:1 102:1 113:1 129:1 130:1 131:1 132:1 133:1 134:1 135:1 136:1 137:1 138:1  |EV| 
-0.00041788035725208173528158472898042  |BT| (S (NP (NP (CD (One))(JJ (common))(JJ (rate-limiting))(NN (mutation)))(JJ (human))(NN (CRC)))(VP (VBZ (occurs))(NP (JJ (adenomatous))(NN (polyposis))(NN (coli))(-LRB- (-LRB-))(NN (APC))(-RRB- (-RRB-))(NN (gene))))) |ET|  |BS| 3:C04.557.470.035.215.100 4:C04.588.274.476.411.307 5:C04.588.274.476.411.307 6:G05.360.340.024.340 21:G05.360.340.024.340.375.249.050 55:B01.050.150.900.649.801.400.112.400.400 194:G05.355.044.250.750  |ES| 9:1 10:1 11:1 14:1 19:1 34:1 36:1 57:1 58:1 59:1 245:1 654:1 655:1 656:1 657:1  |EV| 
-0.00041788035725208173528158472898042  |BT| (S (NP (NN (17-Allylamino-17-demethoxygeldanamycin)))(VP (VBZ (overcomes))(NP (NN (TRAIL))(NN (resistance))(NN (colon))(NN (cancer))(NN (cell))(NN (line))))) |ET|  |BS| 94:A11.251.210  |ES| 18:1 19:1 94:1 113:1 264:1 1094:1 1695:1 3238:1 3239:1  |EV| 
0.00041788035725208173528158472898042  |BT| (S (NP (NN (YY1)))(VP (VBZ (promotes))(NP (NP (NN (colon))(NN (cancer))(NN (growth)))(VP (VBG (inhibiting))(NP (NP (NN (p53)))(S (VP (VBG (promoting))(NP (NN (Wnt))(NN (signaling))(NN (pathway))(NN (serf))(JJ (independent))(JJ (prognostic))(NN (biomarker))(NN (CRC))(NN (patient)))))))))) |ET|  |BS| 2:G05.360.340.024.340.375.249.385 4:C04.588.274.476.411.307 5:C04.588.274.476.411.307 45:G07.700.320.249 50:M01.643 122:C14.280.383 147:G02.149.115.800.925 158:D23.101 258:D12.776.260.235.875  |ES| 12:1 18:1 19:1 102:1 113:1 120:1 195:1 245:1 298:1 383:1 877:1 879:1 880:1 881:1 882:1 883:1 884:1 885:1  |EV| 
-7.5645809245035618151309364520785e-05  |BT| (S (NP (DT (All))(NN (fusion)))(VP (VBD (identified))(SBAR (S (NP (NP (NNP (RET))(NN (KIF5B))(NN (gene)))(, (,))(NP (NP (NNP (RET))(NN (fusion))(NN (CCDC6))(NN (NCOA4))(NN (gene)))(, (,))(NP (JJ (characteristic))(NN (thyroid))(NN (cancer)))(, (,))))(VP (VBD (identified))(NP (JJ (irradiated))(NN (lung))(NN (cell)))))))) |ET|  |BS| 6:G05.360.340.024.340 13:D01.339.387 41:A11 182:A04.411 281:E02.815  |ES| 2:1 9:1 18:1 19:1 94:1 328:1 336:1 623:1 936:1 956:1 965:1 966:1 967:1 968:1 969:1 970:1  |EV| 
0.00041788035725208173528158472898042  |BT| (S (ADVP (RB (Moreover)))(, (,))(NP (JJ (gastric))(NN (cancer))(JJ (human)))(ADVP (RB (often)))(VP (VBD (preceded))(NP (NP (JJ (intestinal))(NN (metaplasia)))(, (,))(NP (NN (phenotype))))(S (VP (VBD (described))(SBAR (S (ADVP (RB (strongly)))(VP (VBZ (suggests))(NP (NP (NN (involvement))(NN (Cdx2))(NN (initiation))(NN (process)))(VBG (leading))(JJ (intestinal))(NN (neoplasia))(JJ (gastric))(NN (mucosa)))))))))) |ET|  |BS| 47:A03.556.124 48:C23.550.589 55:B01.050.150.900.649.801.400.112.400.400 80:G05.695 86:D01.268.556.435 190:C04.588.274.476.767 191:A03.556.124.369  |ES| 2:1 18:1 19:1 36:1 86:1 109:1 110:1 213:1 236:1 331:1 579:1 622:1 632:1 633:1 634:1 635:1 636:1 637:1 638:1 639:1 640:1  |EV| 
-1.3767629767824293707256799734751e-06  |BT| (FRAG (SBAR (IN (Although))(S (NP (NP (NP (JJ (additional))(NN (study))(NN (animal))(NN (model)))(VP (VBN (needed))(, (,))))(VP (VBG (finding))(VP (VBP (suggest))(S (VP (VBG (targeting))(NP (NN (HMGA2))))))))(VP (MD (could))(SBAR (S (NP (RB (therapeutically))(JJ (beneficial))(NN (lung))(NN (cancer))(NN (cancer)))(VP (VBD (characterized))(NP (VBN (increased))(NN (HMGA2))(NN (expression)))))))))) |ET|  |BS| 283:D12.776.260.312.937 284:N03.349.380.420 285:E05.598  |ES| 2:1 18:1 19:1 46:1 47:1 72:1 107:1 115:1 131:1 328:1 616:1 796:1 908:1 927:1 980:1 981:1 982:1 983:1 984:1 985:1  |EV| 
-0.00041788035725208173528158472898042  |BT| (NP (NP (NP (NNS (CONCLUSIONS))(: (:)))(S (NP (JJ (Acute))(NN (ablation))(NN (GSK3beta))(JJ (colorectal))(NN (cancer))(NN (cell)))(VP (VBZ (activates))(NP (JJ (p53-dependent))(NN (apoptosis)))))(SBAR (S (VP (VBZ (antagonizes))(NP (NN (tumor))(NN (growth)))))))) |ET|  |BS| 2:G05.360.340.024.340.375.249.385 4:C04.588.274.476.411.307 5:C04.588.274.476.411.307 8:C04 39:G04.299.139.160 41:A11 45:G07.700.320.249  |ES| 7:1 17:1 18:1 19:1 88:1 89:1 91:1 94:1 102:1 104:1 239:1 301:1 794:1 1893:1 1894:1  |EV| 
0.00041788035725208173528158472898042  |BT| (S (NP (NN (LINE-1))(NN (methylation)))(VP (VBD (decreased))(SBAR (S (NP (NN (transition))(JJ (intestinal))(NN (metaplasia))(JJ (gastric))(NN (adenoma))(NN (decrease)))(VP (VBD (occurred))(NP (NN (transition))(JJ (gastric))(NN (adenoma))(NN (GC)))))))) |ET|  |BS| 17:C04.557.470.035 36:G02.111.087.029.538 47:A03.556.124 48:C23.550.589 70:A03.556.875.875  |ES| 19:1 42:1 81:1 86:1 109:1 110:1 202:1 295:1 551:1 552:1 553:1 554:1  |EV| 
0.00041788035725208173528158472898042  |BT| (FRAG (NP (S (NP (NP (NNS (Mice))(NN (mutation))(NN (mismatch))(NN (repair))(NN (gene)))(, (,))(NP (NN (Msh2))(NN (Mlh1)))(, (,)))(VP (VBP (exhibit))(S (NP (NN (mismatch))(NN (repair))(NN (defect)))(VP (VBN (predisposed))(S (VP (VBG (developing))(NP (JJ (gastrointestinal))(NN (cancer)))))))))(, (,))(NN (lymphoma))(NN (tumor))(NN (organ))(NN (system)))) |ET|  |BS| 6:G05.360.340.024.340 8:C04 11:B01.050.150.900.649.865.635.505.500 18:G05.365.590 174:G02.111.087.219.220 175:J01.897.280.500.269 176:C04.557.386  |ES| 2:1 7:1 9:1 18:1 19:1 34:1 183:1 513:1 583:1 584:1 585:1 586:1 587:1 588:1 589:1 590:1 591:1 592:1 593:1  |EV| 
-0.00040815028093276264908872974501719  |BT| (NP (NP (DT (The))(JJ (K-rasVal12-augmented))(NN (apoptosis))(JJ (unrelated))(NN (dysplasia)))(: (;))(S (NP (VBN (enhanced))(NN (apoptosis)))(ADVP (RB (also)))(VP (VBD (observed))(SBAR (S (NP (NN (cycling))(JJ (nondysplastic))(NNS (enterocytes)))(VP (VBP (produce))(NP (NN (K-rasVal12))(NN (TAg))(JJ (COOH-terminal))(NN (truncation))))))))) |ET|  |BS| 39:G04.299.139.160 1475:A03.556.124.369.290  |ES| 5:1 19:1 89:1 203:1 217:1 261:1 385:1 691:1 1565:1 5362:1 5406:1 5508:1 5535:1 5536:1 5537:1 5538:1 5539:1 5540:1  |EV| 
0.00041788035725208173528158472898042  |BT| (NP (NP (NP (NN (Immunohistochemistry))(NN (beta-catenin)))(, (,))(NP (NN (c-myc)))(, (,))(NP (NP (NN (Ki-67))(NN (TUNEL-staining)))(VP (VBN (performed))(VP (VBP (investigate))(NP (NP (NN (TQ))(POS ('s)))(NN (effect))(JJ (major))(JJ (colorectal))(NN (cancer))(NN (pathway)))))))) |ET|  |BS| 4:C04.588.274.476.411.307 5:C04.588.274.476.411.307 23:D12.776.091.249 30:Z01.058.290.190.800 31:D08.811.520.224.800 143:E01.370.225.500.607.512 144:E05.393.475  |ES| 2:1 17:1 18:1 19:1 60:1 75:1 383:1 454:1 455:1 456:1 457:1 458:1 459:1 460:1 461:1 462:1  |EV| 
0.00041788035725208173528158472898042  |BT| (S (ADVP (RB (Herein)))(, (,))(VP (VBP (show))(SBAR (S (NP (NNP (NANOG)))(VP (VBD (expressed))(NP (NP (NN (NANOG1))(NN (NANOGP8))(JJ (human))(JJ (colorectal))(NN (cancer)))(PRN (-LRB- (-LRB-))(NP (NN (CRC)))(-RRB- (-RRB-))))))))) |ET|  |BS| 4:C04.588.274.476.411.307 55:B01.050.150.900.649.801.400.112.400.400  |ES| 2:1 6:1 10:1 14:1 17:1 18:1 19:1 36:1 245:1 428:1 429:1 430:1 431:1 432:1  |EV| 
-0.00041788035725208173528158472898042  |BT| (S (PP (IN (In))(NP (NN (study))))(, (,))(VP (VBP (demonstrate))(S (NP (NP (NP (NN (histone))(NN (deacetylase))(NN (inhibitor)))(PRN (-LRB- (-LRB-))(NP (NN (HDACi)))(-RRB- (-RRB-))))(NN (vorinostat))(NN (LBH589)))(VP (ADVP (RB (significantly)))(VBP (downregulate))(NP (NN (TS))(NN (gene))(NN (expression))(NN (panel))(NN (colon))(NN (cancer))(NN (cell))(NN (line))))))) |ET|  |BS| 94:A11.251.210 153:D27.505.519.389.360 154:Z01.058.266.887 155:G05.355.310  |ES| 2:1 9:1 10:1 14:1 18:1 19:1 94:1 113:1 115:1 124:1 131:1 244:1 264:1 380:1 502:1 503:1 504:1 505:1 506:1 507:1 508:1 509:1 510:1  |EV| 
-0.00041788035725208173528158472898042  |BT| (S (NP (NN (K-Ras))(NN (mutation))(NN (treatment))(NN (outcome))(JJ (colorectal))(NN (cancer))(NN (patient)))(VP (VBG (receiving))(NP (JJ (exclusive))(NN (fluoropyrimidine))(NN (therapy))))) |ET|  |BS| 1:G05.360.340.024.340.375.500.791.550 4:C04.588.274.476.411.307 5:C04.588.274.476.411.307 18:G05.365.590 50:M01.643 52:E02 164:E01.789.800  |ES| 13:1 17:1 18:1 19:1 34:1 120:1 130:1 546:1 547:1 548:1 549:1 550:1  |EV| 
-0.00041787912499419155309965390188154  |BT| (NP (NP (NN (Protein))(NN (kinase))(JJ (potential))(JJ (chemotherapeutic))(NN (target))(JJ (colorectal))(NN (cancer)))) |ET|  |BS| 4:C04.588.274.476.411.307 5:C04.588.274.476.411.307 151:E02.319 823:D08.811.913.696.620.682.700.150.125  |ES| 17:1 18:1 19:1 160:1 470:1 827:1 1762:1 2911:1  |EV| 
0.00041788035725208173528158472898042  |BT| (S (NP (PRP (We)))(VP (VBD (investigated))(SBAR (IN (whether))(S (NP (NN (microRNA))(NN (miR-221))(NN (miR-222)))(VP (VBP (regulate))(NP (NP (NP (NN (NF-kappaB))(NN (signal))(NN (transducer))(NN (activator))(NN (transcription))(CD (3)))(PRN (-LRB- (-LRB-))(NP (NN (STAT3)))(-RRB- (-RRB-))))(NP (NN (activation))(JJ (human))(NN (CRC))(NN (cell))(NN (line))))))))) |ET|  |BS| 4:C04.588.274.476.411.307 5:C04.588.274.476.411.307 55:B01.050.150.900.649.801.400.112.400.400 94:A11.251.210 184:D13.150.650.319 210:D12.776.260.600 249:G05.355.315.800 250:E07.305.812  |ES| 10:1 14:1 19:1 36:1 94:1 140:1 141:1 221:1 225:1 245:1 251:1 264:1 403:1 487:1 714:1 843:1 857:1 858:1 859:1 860:1 861:1 862:1  |EV| 
-0.00041788035725208173528158472898042  |BT| (S (NP (NP (PRP$ (Our))(VBN (integrated))(NN (microRNA)))(VP (VBG (profiling))(NP (NN (approach)))))(VP (VBD (identified))(S (NP (NN (miR-195-5p)))(ADVP (RB (independently)))(VP (VBN (associated))(NP (NN (prognosis))(NN (CRC))))))) |ET|  |BS| 4:C04.588.274.476.411.307 5:C04.588.274.476.411.307 163:E01.789 184:D13.150.650.319  |ES| 19:1 169:1 245:1 271:1 544:1 623:1 658:1 857:1 911:1 2147:1 2148:1 2149:1  |EV| 
0.00041788035725208173528158472898042  |BT| (S (S (S (VP (TO (To))(VP (VB (understand))(NP (NN (miR-141))))))(VP (VBZ (mediates))(NP (NN (phenotype))(JJ (pancreatic))(NN (cancer))(NN (cell)))))(S (, (,))(NP (NNS (bioinformatics))(NN (tool)))(VP (VBN (used))(VP (VBP (identify))(NP (NN (MAP4K4))(JJ (potential))(NN (target))(NN (miR-141))))))) |ET|  |BS| 30:Z01.058.290.190.800 31:D08.811.520.224.800 41:A11 80:G05.695 239:F02.463.188.357 240:H01.158.273.180  |ES| 2:1 18:1 19:1 94:1 160:1 236:1 463:1 465:1 467:1 476:1 755:1 827:1 828:1 829:1 830:1 831:1 832:1  |EV| 
0.00041788035725208173528158472898042  |BT| (NP (NP (NP (NN (Germline))(JJ (somatic))(NN (mutation))(NN (BER))(NN (gene)))(, (,))(NP (NP (NN (MutY))(NN (Homolog)))(PRN (-LRB- (-LRB-))(NP (NN (MUTYH/MYH)))(-RRB- (-RRB-))))(NP (NP (JJ (DNA-directed))(NN (polymerase)))(PRN (-LRB- (-LRB-))(NP (NN (POLB)))(-RRB- (-RRB-))))(, (,)))(NP (VBN (associated))(VBN (increased))(NN (risk))(JJ (colorectal))(NN (cancer)))) |ET|  |BS| 4:C04.588.274.476.411.307 5:C04.588.274.476.411.307 18:G05.365.590 61:E05.318.740.600.800 127:D08.811.913.696.445.308.300 128:E02.095.301 129:G02.111.087.219 130:A05.360.490  |ES| 2:1 9:1 10:1 14:1 17:1 18:1 19:1 34:1 47:1 169:1 171:1 387:1 388:1 389:1 390:1 391:1 392:1 393:1 394:1 395:1  |EV| 
-9.7162647703528861459210119733143e-07  |BT| (S (S (NP (NN (Rimonabant)))(VP (VBZ (inhibits))(NP (JJ (human))(NN (colon))(NN (cancer))(NN (cell))(NN (growth)))))(VP (VBZ (reduces))(NP (NN (formation))(JJ (precancerous))(NN (lesion))(NN (mouse))(NN (colon))))) |ET|  |BS| 11:B01.050.150.900.649.865.635.505.500 20:G03.495 41:A11 45:G07.700.320.249 46:A03.556.124.526.356 55:B01.050.150.900.649.801.400.112.400.400 122:C14.280.383 341:C04.834  |ES| 18:1 19:1 36:1 43:1 52:1 94:1 102:1 113:1 142:1 615:1 1130:1 1131:1 2949:1  |EV| 
-7.4775785940287692321604140488489e-05  |BT| (S (PP (IN (In))(NP (JJ (present))(NN (study))))(, (,))(NP (NP (NN (report))(NN (vitro))(NN (treatment))(JJ (primary))(NN (hepatoma)))(, (,))(NP (NP (NN (HepG2)))(PRN (-LRB- (-LRB-))(NP (JJ (wild-type))(NN (p53)))(-RRB- (-RRB-))))(, (,))(NP (NP (NN (PLC/PRF/5)))(PRN (-LRB- (-LRB-))(NP (NN (p53-mutant)))(-RRB- (-RRB-))))(, (,))(NP (NP (NN (Hep3B)))(PRN (-LRB- (-LRB-))(ADJP (JJ (p53-deleted)))(-RRB- (-RRB-))))(NP (NP (NN (cell))(NN (2-chloroethyl-3-sarcosinamide-1-nitrosourea)))(PRN (-LRB- (-LRB-))(NP (NN (SarCNU)))(-RRB- (-RRB-)))))(VP (VBD (resulted))(NP (NP (NN (upregulation))(NN (p53))(, (,))(NN (p21))(-LRB- (-LRB-))(NN (Cip1/Waf1))(-RRB- (-RRB-)))(, (,))(NP (NP (VBN (phosphorylated))(NN (cdc-2))(NN (Tyr15))(JJ (wild-type))(NN (p53))(NN (cell))(NN (phosphorylation))(NN (cdc-2))(NN (Tyr15)))(NP (JJ (p53-mutant))(NP (JJ (p53-deleted))(NN (hepatoma))(NN (cell)))))))) |ET|  |BS| 2:G05.360.340.024.340.375.249.385 41:A11 52:E02 104:C04.557.470.200.025.255 249:G05.355.315.800 339:G02.111.087.880 515:C04.588.274.623 972:G02.111.087.677 1371:I01.409.418.750.600.650.225  |ES| 2:1 8:1 10:1 12:1 14:1 19:1 94:1 131:1 216:1 244:1 344:1 417:1 546:1 594:1 1126:1 1135:1 1307:1 3426:1 3481:1 3896:1 4502:1 4924:1 4925:1 4926:1 4927:1 4928:1 4929:1 4930:1 4931:1 4932:1  |EV| 
0.00041788035725208173528158472898042  |BT| (NP (NP (NP (NN (Overexpression))(NN (miR-141))(JJ (pancreatic))(NN (cancer))(NN (cell)))(VBD (inhibited))(NP (NN (cell))(NN (proliferation)))(, (,))(NP (NP (NN (clonogenicity)))(, (,))(NP (NN (invasion)))(: (;))(NP (VBN (induced))(NN (G1))(NN (arrest))(NN (apoptosis)))(: (;))(NP (VBN (enhanced))(NN (chemosensitivity)))))) |ET|  |BS| 39:G04.299.139.160 41:A11 122:C14.280.383 183:G04.299.233.750  |ES| 2:1 18:1 19:1 89:1 94:1 217:1 299:1 365:1 385:1 386:1 412:1 463:1 467:1 602:1 620:1 668:1 669:1 670:1  |EV| 
0.00041788035725208173528158472898042  |BT| (S (NP (NN (gamma-Secretase))(NN (inhibitor)))(VP (VBP (abrogate))(NP (NP (JJ (oxaliplatin-induced))(NN (activation))(NN (Notch-1))(NN (signaling))(NN (pathway))(NN (colon))(NN (cancer))(NN (cell)))(VP (VBG (resulting))(NP (VBN (enhanced))(NN (chemosensitivity))))))) |ET|  |BS| 41:A11 69:G02.111.087.800 125:D08.811.277.656.300.032 126:G02.111.087.800  |ES| 18:1 19:1 20:1 94:1 113:1 195:1 225:1 379:1 380:1 381:1 382:1 383:1 384:1 385:1 386:1  |EV| 
-0.00015050676227661597284673833385682  |BT| (S (NP (NP (NP (NNP (Administration))(NN (acetaminophen))(NN (Jnk)))(PRN (-LRB- (-LRB-))(NP (NN (Deltahepa)))(-RRB- (-RRB-))))(NN (mouse)))(VP (VBD (produced))(NP (NP (JJR (greater))(NN (level))(NN (liver))(NN (injury)))(VBN (observed))(NP (NP (NN (Jnk1)))(PRN (-LRB- (-LRB-))(NP (NN (Deltahepa)))(-RRB- (-RRB-))))(NN (control))(NN (mouse)))(, (,))(NP (VBN (based))(NN (level))(NN (serum))(NN (marker))(JJ (microscopic))(JJ (histologic))(NN (analysis))(NN (liver))(NN (tissue))))) |ET|  |BS| 11:B01.050.150.900.649.865.635.505.500 98:A10 242:A03.620 333:D01.045 426:E01.370.350.515 661:D02.065.199.092.040 1176:D23.101  |ES| 2:1 10:1 14:1 19:1 52:1 134:1 249:1 261:1 272:1 289:1 534:1 661:1 836:1 1992:1 2204:1 2346:1 2412:1 2414:1 2415:1 2416:1 2741:1 4069:1 4070:1 4071:1  |EV| 
0.00041788035725208173528158472898042  |BT| (S (NP (DT (This))(NN (study)))(VP (VBP (show))(SBAR (S (NP (NN (c-Myc))(JJ (critical))(JJ (Apc-dependent))(JJ (intestinal))(NN (tumorigenesis))(NN (mouse)))(VP (VBZ (provides))(NP (JJ (potential))(JJ (therapeutic))(NN (target))(NN (treatment))(JJ (colorectal))(NN (cancer)))))))) |ET|  |BS| 3:C04.557.470.035.215.100 4:C04.588.274.476.411.307 5:C04.588.274.476.411.307 11:B01.050.150.900.649.865.635.505.500 32:C04.697.098.500 33:C04.697.098 47:A03.556.124 52:E02  |ES| 17:1 18:1 19:1 52:1 78:1 109:1 131:1 160:1 429:1 541:1 546:1 807:1 815:1 824:1 825:1 826:1 827:1  |EV| 
-0.00036084384559492699295901729783509  |BT| (S (NP (NP (NNP (PIRC))(NN (rat)))(PRN (-LRB- (-LRB-))(NP (NP (NN (F344/NTac-Apc)))(PRN (-LRB- (-LRB-))(NP (NN (am1137)))(-RRB- (-RRB-))))(-RRB- (-RRB-))))(NP (VBN (mutated))(NN (Apc))(NN (gene)))(ADVP (RB (spontaneously)))(VP (VB (develop))(NP (NN (colon)))(NP (NN (tumor)))(ADVP (RB (thus)))(VP (NP (VBG (mimicking))(JJ (familial))(NP (NP (JJ (adenomatous))(NN (polyposis))(-LRB- (-LRB-))(NN (FAP))(-RRB- (-RRB-))(JJ (sporadic))(JJ (colorectal))(NN (cancer)))(PRN (-LRB- (-LRB-))(NP (NN (CRC)))(-RRB- (-RRB-))))(RB (closely))(JJ (Apc-based))(JJ (rodent))(NN (model)))(S (VP (VBG (developing))(NP (NP (NN (tumor)))(ADJP (RB (mostly))(JJ (small)))(NN (intestine)))))))) |ET|  |BS| 3:C04.557.470.035.215.100 4:C04.588.274.476.411.307 5:C04.588.274.476.411.307 21:G05.360.340.024.340.375.249.050 51:C04.588.274.476.411.307.180 102:C04.588.274.476.411 245:B01.050.150.900.649.865.635.505.700 246:B01.050.150.900.649.865.635.505.700 333:D01.045 514:B01.050.150.900.649.865 590:B01.050.050.199.520.760.200  |ES| 7:1 9:1 10:1 14:1 17:1 18:1 19:1 57:1 58:1 72:1 113:1 229:1 245:1 280:1 356:1 590:1 648:1 725:1 750:1 849:1 854:1 855:1 1334:1 1506:1 2133:1 2168:1 2169:1 2170:1 2171:1 2172:1 2173:1 2174:1  |EV| 
0.00041788035725208173528158472898042  |BT| (FRAG (PP (IN (As))(NP (NP (JJ (incomplete))(JJ (intestinal))(NN (metaplasia)))(VP (VBN (associated))(NP (NP (JJR (higher))(NN (risk))(JJ (gastric))(NN (cancer)))(, (,))(NP (JJR (lower))(NN (CDX2))(NN (expression)))(VP (VBD (compared))(NP (NP (JJ (complete))(JJ (intestinal))(NN (metaplasia))(JJ (normal))(NN (colon))(NN (epithelium)))(VP (VBN (resolved))(NP (NP (JJ (current))(NN (contradiction))(JJ (tumor-suppressive))(NN (role)))(NN (CDX2))(NN (colon))(JJ (high))(NN (prevalence))(NN (CDX2))(JJ (intestinal))(NN (metaplasia))))))))))) |ET|  |BS| 8:C04 15:F01.829.316.616 46:A03.556.124.526.356 47:A03.556.124 48:C23.550.589 60:E05.318.308.985.525.750 61:E05.318.740.600.800 62:A10.272  |ES| 2:1 18:1 19:1 31:1 50:1 86:1 108:1 109:1 110:1 113:1 114:1 115:1 117:1 118:1 168:1 169:1 170:1 171:1 172:1 173:1 174:1 175:1 176:1 177:1 178:1 179:1  |EV| 
-2.8450020117531948926625773310661e-12  |BT| (S (NP (NN (Iso-3)))(VP (VBD (induced))(NP (NP (NP (NN (growth))(NN (arrest))(NN (cancer))(NN (cell))(NN (G0/G1)))(JJ (concomitant)))(SBAR (S (NP (VBN (increased))(NN (p21))(NN (p27))(NN (expression)))(VP (VBD (reduced))(NP (NP (NN (cyclin))(NN (E1)))(, (,))(NP (NN (PCNA))(NN (c-myc))(NN (level)))))))))) |ET|  |BS| 41:A11 45:G07.700.320.249 768:D12.776.660.740  |ES| 2:1 18:1 19:1 47:1 94:1 102:1 115:1 249:1 412:1 452:1 455:1 602:1 743:1 1124:1 1135:1 1580:1 1681:1 2698:1 5666:1 5673:1  |EV| 
