SVM-light Version V5.01-TK-1.5
5 # kernel type
3 # kernel parameter -d 
1 # kernel parameter -g 
1 # kernel parameter -s 
1 # kernel parameter -r 
empty# kernel parameter -u 
0.4 # kernel parameter -L 
1 # kernel parameter -T 
S # kernel parameter -C 
1 # kernel parameter -F 
0 # kernel parameter -S 
0.400000 # kernel parameter -M 
3 # kernel parameter -N 
S # kernel parameter -V 
S # kernel parameter -W 
0 # kernel parameter -U 
5645 # highest feature index 
300 # number of training documents 
219 # number of support vectors plus 1 
-1.0000933 # threshold b, each following line is a SV (starting with alpha*y)
-3.2587713040417143339766425924608  |BT| (S (NP (JJ (Other))(NN (expression))(NN (alteration)))(VP (VBN (observed))(S (NP (JJ (arsenic-treated))(JJ (male))(NN (mouse))(JJ (newborn))(NN (liver)))(VP (VBD (included))(SBAR (S (NP (NP (NN (overexpression))(NNS (cdk-inhibitors))(NN (stress))(NN (response))(NN (gene)))(PP (VBG (including))(NP (VBN (increased))(NN (expression))(NN (metallothionein-1)))))(VP (VBD (decreased))(NP (NN (expression))(NN (betaine-homocysteine))(NN (methyltransferase))(NN (thioether))(NN (S-methyltransferase)))))))))) |ET|  |BS| 6:G05.360.340.024.340 11:B01.050.150.900.649.865.635.505.500 52:E02 242:A03.620 978:D08.811.913.696.620.682.700.646.500 1158:D01.268.513.249 1462:D08.811.913.555.500.175 1463:D08.811.913.555.500 1464:D01.248.497.158.874 1465:M01.060.703.520 1466:D12.776.556.670  |ES| 9:1 19:1 47:1 52:1 115:1 152:1 202:1 261:1 494:1 561:1 836:1 951:1 1402:1 1528:1 2522:1 2655:1 5375:1 5376:1 5377:1 5378:1 5379:1 5380:1 5381:1 5382:1  |EV| 
-3.2587713040417143339766425924608  |BT| (S (NP (DT (A))(JJ (recent))(NN (study)))(VP (VBD (revealed))(SBAR (S (NP (NP (JJ (long-term))(NN (exposure)))(ADJP (RB (relatively))(JJ (low-dose)))(NN (DEHP))(PRN (-LRB- (-LRB-))(NP (CD (0.05))(NN (%)))(-RRB- (-RRB-))))(VP (VBD (caused))(NP (NP (NN (liver))(NN (tumor)))(PP (VBG (including))(NP (NP (JJ (hepatocellular))(NN (carcinoma)))(, (,))(NP (JJ (hepatocellular))(NN (adenoma)))(, (,))(NP (NP (NP (NP (ADJP (NP (JJ (chologiocellular))(NN (carcinoma)))(JJR (higher)))(NN (incidence))(NN (Ppar))(JJ (alpha-null))(NN (mouse)))(PRN (-LRB- (-LRB-))(NP (CD (25.8))(NN (%)))(-RRB- (-RRB-))))(NP (JJ (wild-type))(NN (mouse))))(PRN (-LRB- (-LRB-))(NP (CD (10.0))(NN (%)))(-RRB- (-RRB-)))))))))))) |ET|  |BS| 11:B01.050.150.900.649.865.635.505.500 29:B01.050.050.136.500.500 104:C04.557.470.200.025.255 265:C04.557.470.200 434:E05.318.308.985.525.375 515:C04.588.274.623 536:D12.776.826.239.500 849:G08.686.785.760.769.490.500 911:D02.241.223.805.250 1194:C04.557.470.035.120  |ES| 2:1 7:1 8:1 10:1 14:1 19:1 42:1 52:1 69:1 131:1 170:1 275:1 303:1 304:1 369:1 561:1 659:1 836:1 1511:1 1953:1 2506:1 3049:1 3205:1 3546:1 3849:1 3924:1 5383:1 5384:1 5385:1 5386:1 5387:1  |EV| 
-3.2587713040417143339766425924608  |BT| (S (NP (NP (NN (Activation))(JJ (nonsteroidal))(JJ (anti-inflammatory))(JJ (drug-activated))(NN (gene-1)))(PP (IN (via))(NP (JJ (extracellular))(JJ (signal-regulated))(NN (kinase))(CD (1/2))(JJ (mitogen-activated))(NN (protein))(NN (kinase)))))(VP (VBD (revealed))(NP (JJ (isochaihulactone-triggered))(JJ (apoptotic))(NN (pathway))(NP (JJ (human))(NN (lung))(NN (cancer))(NN (A549))(NN (cell)))))) |ET|  |BS| 39:G04.299.139.160 41:A11 55:B01.050.150.900.649.801.400.112.400.400 264:G05.355.315.800 469:D08.811.913.696 477:D08.811.913.696.620.682.700.567.249 573:N05.715.350.200.650 796:D27.505.696.663.850.014.040.500  |ES| 4:1 18:1 19:1 36:1 87:1 94:1 275:1 328:1 364:1 383:1 470:1 596:1 1707:1 1859:1 2223:1 2795:1 3046:1 3295:1 4812:1 4966:1 4978:1 5388:1  |EV| 
-3.2587713040417143339766425924608  |BT| (S (S (S (ADVP (RB (Additionally)))(, (,))(NP (NN (co-treatment))(NN (RV))(NN (erlotinib)))(VP (VBD (repressed))(NP (NP (NN (expression))(JJ (anti-apoptosis))(NN (protein)))(, (,))(NP (NN (survivin))(NN (Mcl-1)))))(, (,)))(IN (whereas))(NP (VBN (promoted))(NN (p53))(NN (PUMA))(NN (expression))(NN (caspase))(CD (3))(NN (activity))))) |ET|  |BS| 2:G05.360.340.024.340.375.249.385 52:E02 906:D08.811.277.656.262.500.126.350.300 1042:Z01.107.757.284 1467:B01.050.150.900.649.147.354.630 1468:E01.370.386.700.485.750.275.650 1469:D12.644.360.075  |ES| 2:1 4:1 12:1 19:1 115:1 372:1 399:1 466:1 862:1 1912:1 2229:1 2342:1 4068:1 4796:1 5312:1 5389:1 5390:1 5391:1 5392:1  |EV| 
-3.2587713040417143339766425924608  |BT| (NP (NP (JJ (Altered))(NN (expression))(NN (c-myc)))(, (,))(NP (NN (p16))(NN (p27))(NN (rat))(NN (colon))(NN (tumor))(NN (reversal))(JJ (short-term))(NN (treatment))(JJ (chemopreventive))(NN (agent)))) |ET|  |BS| 51:C04.588.274.476.411.307.180 52:E02 203:G05.360.340.024.340.375.249.375 245:B01.050.150.900.649.865.635.505.700 246:B01.050.150.900.649.865.635.505.700 833:D27.505.696.706.018 849:G08.686.785.760.769.490.500  |ES| 2:1 7:1 19:1 113:1 115:1 455:1 546:1 728:1 849:1 971:1 1124:1 1313:1 1946:1 3022:1 3770:1  |EV| 
3.2268042632676952052861452102661  |BT| (S (ADVP (RB (Additionally)))(, (,))(NP (NP (NP (NN (transcription))(NN (factor))(JJ (early))(NN (growth))(NN (response-1)))(PRN (-LRB- (-LRB-))(NP (NN (Egr-1)))(-RRB- (-RRB-))))(NN (gene))(ADJP (RB (transcriptionally))(VBN (activated)))(NN (level))(NP (NP (JJ (non-steroidal))(JJ (anti-inflammatory))(NN (drug)))(PRN (-LRB- (-LRB-))(NP (NN (NSAID)))(-RRB- (-RRB-)))))(: (-))(NP (NP (NP (VBN (activated))(NN (gene-1)))(PRN (-LRB- (-LRB-))(NP (NN (NAG-1)))(-RRB- (-RRB-))))(NN (protein)))(ADVP (RB (also)))(VP (VBD (elevated))(NP (JJ (PTX-2-treated))(NN (Hep3B))(NN (cell))))) |ET|  |BS| 6:G05.360.340.024.340 7:D12.776 41:A11 52:E02 580:D12.776.260.158.500 796:D27.505.696.663.850.014.040.500 1272:D03.438.759.758.824.651.700  |ES| 2:1 4:1 5:1 9:1 10:1 14:1 19:1 94:1 102:1 163:1 185:1 191:1 249:1 487:1 756:1 1128:1 1662:1 1854:1 1859:1 2367:1 2795:1 4068:1 4497:1 4498:1 4499:1 4500:1 4501:1 4502:1  |EV| 
3.2587713040417143339766425924608  |BT| (S (NP (NN (p66))(NN (overexpression)))(ADVP (RB (also)))(VP (VBD (prevented))(NP (NP (NN (activation))(NN (luciferase))(NN (reporter))(NN (gene)))(VP (VBN (controlled))(NP (NN (SOD2))(NN (promoter)))))(, (,))(S (VP (VBG (indicating))(S (NP (NN (p66))(NN (repression))(NN (MnSOD)))(VP (VBZ (operates))(NP (JJ (transcriptional))(NN (level))))))))) |ET|  |BS| 208:F01.393.821 209:G02.111.087.847 264:G05.355.315.800 1375:D08.811.682.517 1403:D08.811.682.881  |ES| 2:1 5:1 9:1 19:1 83:1 152:1 225:1 249:1 288:1 559:1 706:1 1944:1 2236:1 4601:1 4604:1 4963:1 5094:1 5095:1 5096:1  |EV| 
3.2587713040417143339766425924608  |BT| (S (NP (JJ (Differential))(NN (expression)))(VBN (selected))(NP (NP (JJ (beta-catenin/TCF-regulated))(NN (gene)))(, (,))(NP (NN (Myc)))(, (,)))(ADVP (JJ (likely)))(VP (VBZ (underlies))(NP (JJ (context-dependent))(NN (effect))(NN (Ctnnb1))(NN (gene))(NN (dosage))(NN (tumorigenesis))))) |ET|  |BS| 23:D12.776.091.249 32:C04.697.098.500 33:C04.697.098 142:I01.880.604 155:G05.355.310 280:G05.380.350  |ES| 2:1 9:1 19:1 75:1 78:1 115:1 1328:1 1786:1 1905:1 2586:1 4032:1 4724:1 4755:1 4756:1 4757:1  |EV| 
3.2587713040417143339766425924608  |BT| (S (NP (JJ (Quantitative))(JJ (real-time))(NN (RT-PCR))(NN (analysis)))(VP (VBD (showed))(SBAR (S (NP (NN (troglitazone)))(VP (VBD (down-regulated))(NP (NN (Skp2))(NN (mRNA))(NN (level)))))))) |ET|  |BS| 111:D13.444.735.544 142:I01.880.604 257:E05.393.620.500.706 351:A17.360 507:D12.776.157.743  |ES| 19:1 132:1 249:1 325:1 661:1 874:1 1148:1 1283:1 1785:1 3732:1 4508:1  |EV| 
3.2587713040417143339766425924608  |BT| (S (NP (DT (This))(NN (research)))(VP (VBZ (provides))(NP (NN (evidence))(NN (tea)))(, (,))(NP (ADVP (RB (particularly)))(NP (VBN (administered))(NN (combination))(NN (sulindac)))(, (,))(NP (PP (ADJP (RB (highly))(JJ (effective)))(S (VP (VBG (inhibiting))(NP (NP (NP (JJ (intestinal))(NN (neoplasia))(NN (male))(NN (Apc)))(PRN (-LRB- (-LRB-))(NP (NN (min)))(-RRB- (-RRB-))))(NN (mouse)))(PP (IN (via))(NP (JJ (direct))(JJ (indirect))(NN (effect))(NN (beta-catenin/APC))(NN (pathway))))))))))) |ET|  |BS| 3:C04.557.470.035.215.100 11:B01.050.150.900.649.865.635.505.500 23:D12.776.091.249 102:C04.588.274.476.411 122:C14.280.383 251:D02.455.426.559.847.486.875 644:H01.770.644 645:H01.770.644  |ES| 2:1 10:1 14:1 19:1 38:1 52:1 75:1 109:1 280:1 383:1 530:1 596:1 626:1 640:1 807:1 815:1 869:1 880:1 1402:1 1639:1 1891:1 2336:1 2378:1 2379:1 2380:1 2381:1 2382:1 2383:1  |EV| 
-3.2587713040417143339766425924608  |BT| (S (NP (NN (Demethylation))(NN (experiment)))(VP (VBD (confirmed))(NP (NP (NN (loss))(NN (ALX4))(NN (expression)))(VP (VBN (regulated))(NP (NN (CpG))(NN (island))(NN (hypermethylation))))))) |ET|  |BS| 142:I01.880.604 195:G02.111.570.080.380.160  |ES| 19:1 32:1 115:1 662:1 663:1 664:1 938:1 1664:1 2632:1 5601:1 5605:1  |EV| 
2.7122988777034091611994881532155  |BT| (S (NP (NP (NN (Cyp2b20)))(, (,))(NP (NN (growth))(NN (arrest)))(: (-))(NP (NP (JJ (damage-inducible))(NN (gene))(NN (beta)))(PRN (-LRB- (-LRB-))(NP (NN (Gadd45beta)))(-RRB- (-RRB-))))(, (,))(NP (NP (ADJP (NN (tumor))(NN (necrosis))(NN (factor))(JJ (alpha-induced)))(NN (protein))(CD (2))(JJ (insulin-like))(NN (growth))(NN (factor))(NN (binding))(NN (protein))(CD (1)))(PRN (-LRB- (-LRB-))(NP (NN (Igfbp5)))(-RRB- (-RRB-))))(NP (NN (gene))(NN (protein))))(VP (VP (VBD (upregulated))(NP (NN (oxazepam))(, (,))(NN (Cyp2b20))(, (,))(NN (Cyclin))(NN (D1)))(, (,))(S (VP (VBG (proliferating))(NP (NP (NP (NN (cell))(JJ (nuclear))(NN (antigen)))(, (,))(NP (NN (Igfbp5)))(, (,)))(NP (NP (NN (Gadd45beta))(NN (cell))(JJ (death-inducing))(NN (DNA))(NN (fragmentation))(NN (factor))(NN (alpha))(JJ (subunit-like))(NN (effector)))(DT (A)))))))(VP (VBD (exhibited))(NP (JJR (higher))(NN (expression))(NN (Wy-14,643))(NN (treatment)))))) |ET|  |BS| 6:G05.360.340.024.340 7:D12.776 45:G07.700.320.249 52:E02 134:G04.299.139 175:J01.897.280.500.269 198:D13.444.308 215:D12.644.360.262.150.100 583:D12.776.813 768:D12.776.660.740 789:D12.644.276.374.500.800 790:D12.644.276.374.750 1327:D12.776.157.420.250 1328:D06.472.699.322.326.562 1329:D03.438.079.080.070.663 1330:G05.355.180.230  |ES| 2:1 4:1 7:1 9:1 10:1 14:1 19:1 69:1 94:1 98:1 102:1 115:1 125:1 148:1 170:1 185:1 546:1 570:1 609:1 666:1 744:1 1030:1 1256:1 1487:1 1836:1 1972:1 2093:1 2865:1 4173:1 4257:1 4735:1 4736:1 4737:1 4738:1 4739:1 4740:1 4741:1 4742:1 4743:1 4744:1 4745:1  |EV| 
3.2587713040417143339766425924608  |BT| (NP (NP (NNS (CONCLUSIONS))(: (:)))(S (NP (DT (Both))(NP (NN (sulindac))(NN (etodolac))))(VP (VBD (reduced))(NP (NN (occurrence))(NN (ACF))(VBD (induced))(NN (increase))(NN (APC))(NN (mRNA))(NN (rat))(NN (colon))(NN (mucosa)))))) |ET|  |BS| 3:C04.557.470.035.215.100 12:Z01.542.049 46:A03.556.124.526.356 111:D13.444.735.544 245:B01.050.150.900.649.865.635.505.700 246:B01.050.150.900.649.865.635.505.700 251:D02.455.426.559.847.486.875 302:A10.615.550 842:N02.278.035 1317:D03.066.288.200  |ES| 11:1 19:1 40:1 104:1 113:1 239:1 325:1 412:1 452:1 579:1 849:1 869:1 2282:1 2914:1 4678:1 4679:1  |EV| 
-3.2587713040417143339766425924608  |BT| (SINV (PP (IN (By))(NP (NN (sequencing))(NN (Apc))(NN (Ctnnb1))(NN (gene))))(, (,))(VBD (found))(S (S (NP (JJ (PhIP-induced))(JJ (small))(JJ (intestinal))(NN (tumor))(JJ (obese))(NN (mouse)))(VP (VBD (carried))(NP (JJ (single))(JJ (heterozygous))(NN (mutation))(NN (Apc)))(PP (IN (By))(NP (JJ (bisulfite-sequencing))(NN (CpG))(NN (island))(NN (Apc))))))(, (,))(VP (VBD (found))(NP (NP (NN (DNA))(NN (hypermethylation))(NN (CpG))(NN (cluster))(JJ (located))(NN (transcription))(NN (initiation))(NN (site)))(, (,))(SBAR (S (ADVP (JJ (likely)))(VP (VBD (caused))(NP (NN (inactivation))(JJ (wild-type))(NN (Apc))(NN (allele)))))))))) |ET|  |BS| 3:C04.557.470.035.215.100 6:G05.360.340.024.340 8:C04 18:G05.365.590 23:D12.776.091.249 25:G02.111.570.080 26:G02.111.570.080 27:G02.111.570.080 38:Z01.058.290.120.180 40:Z01.542.248.700 77:G05.360.340.024.340.030 157:G05.380.383 195:G02.111.570.080.380.160 198:D13.444.308 218:A03.556.124.684 247:G01.374.676.530 765:B01.050.150.900.649.865.635.505.500.550.530 805:F01.829.263.315.500.725 806:F01.829.263.315.500.725 1515:G05.360.340.024.340.137.750.840 1516:G02.111.570.080.380.160  |ES| 2:1 7:1 8:1 9:1 19:1 34:1 37:1 52:1 109:1 230:1 280:1 487:1 637:1 662:1 663:1 664:1 666:1 750:1 786:1 1003:1 1314:1 1328:1 1839:1 1868:1 2205:1 2468:1 2506:1 2846:1 4032:1 4435:1 5580:1 5581:1 5582:1  |EV| 
0.52109676033501273195724934339523  |BT| (NP (NP (NP (NN (KLF4)))(NP (ADVP (RB (therefore)))(NP (JJ (potential))(NN (mediator))(NN (antitumor))(NN (effect))(NN (Notch))(NN (inhibitor))(NN (dibenzazepine)))))) |ET| 19:1 75:1 218:1 256:1 380:1 827:1 1892:1 2244:1 3018:1 3351:1  |EV| 
-3.2587713040417143339766425924608  |BT| (S (NP (NN (Coexpression))(NN (K-rasVal12))(NN (TAgWt)))(VP (VBP (produce))(NP (NN (dysplasia))))) |ET| 19:1 203:1 1565:1 5405:1 5406:1 5407:1  |EV| 
3.2587713040417143339766425924608  |BT| (S (ADVP (RB (However)))(, (,))(NP (NP (NNS (pretreatments))(NP (NP (JJ (selective))(JJ (mitogen-activated))(NN (protein))(NN (kinase)))(PRN (-LRB- (-LRB-))(NP (NN (MAPK)))(-RRB- (-RRB-))))(NN (inhibitor)))(, (,))(NP (NP (NP (NP (NN (SB203580)))(PRN (-LRB- (-LRB-))(NP (NN (p38))(NN (inhibitor)))(-RRB- (-RRB-))))(NN (PD0325901)))(PRN (-LRB- (-LRB-))(NP (NN (ERK1/2))(NN (inhibitor)))(-RRB- (-RRB-))))(, (,)))(ADVP (RB (significantly)))(VP (VBD (suppressed))(NP (NN (activation))(NN (EGCG))(NN (BTG2))(NN (expression))))) |ET|  |BS| 116:D08.811.913.696.620.682.700.567.249.750 478:D08.811.913.696.620.682.700.567  |ES| 2:1 4:1 10:1 14:1 19:1 115:1 124:1 225:1 307:1 380:1 433:1 470:1 809:1 1666:1 1749:1 2525:1 3295:1 4594:1 4883:1 4884:1 4885:1 4886:1  |EV| 
-3.2587713040417143339766425924608  |BT| (S (S (S (NP (NN (Levamisole)))(VP (VBD (increased))(NP (NNS (ECs))(JJ (integrin-dependent))(NN (matrix))(NN (adhesion)))))(PRN (, (,))(VP (VBD (inhibited))(NP (NP (NP (NP (NN (proliferation)))(PRN (-LRB- (-LRB-))(NP (CD (-70))(NN (%)))(-RRB- (-RRB-))))(, (,))(NP (NP (VBN (reduced))(NN (expression))(NN (survival))(NN (factor))(NN (clusterin)))(PRN (-LRB- (-LRB-))(NP (CD (-30))(NN (%)))(-RRB- (-RRB-))))(, (,))(NP (NN (endothelin-1))(PRN (-LRB- (-LRB-))(NP (CD (-43))(NN (%)))(-RRB- (-RRB-)))))(, (,))(NP (NN (bcl-2))(PRN (-LRB- (-LRB-))(NP (CD (-34))(NN (%)))(-RRB- (-RRB-))))(, (,))(NP (NP (JJ (endothelial))(NN (NO-synthase)))(PRN (-LRB- (-LRB-))(NP (CD (-32))(NN (%)))(-RRB- (-RRB-))))(NP (NN (pRb))(-LRB- (-LRB-))(NN (Retinoblastoma))(NN (protein))(: (:))))(NP (CD (-89))(NN (%))))(-RRB- (-RRB-))(, (,)))(NP (NP (NP (NP (VBN (increased))(NN (growth))(NN (arrest/death))(NN (signal))(NN (p21)))(PRN (-LRB- (-LRB-))(NP (CD (+73))(NN (%)))(-RRB- (-RRB-))))(NN (bak)))(PRN (-LRB- (-LRB-))(NP (CD (+50))(NN (%)))(-RRB- (-RRB-)))))) |ET|  |BS| 45:G07.700.320.249 54:G05.360.340.024.340.375.500.791.150 96:I03.784 122:C14.280.383 135:C23.550.260 871:D02.886.675.346 920:D12.776.543.750.705.408 1479:D12.776.260.704 1480:D08.811.682.664.500.772.750 1481:D12.644.276.400.225 1482:C23.550.355.274.840 1483:D12.776.395.207 1484:F04.570.200.583  |ES| 2:1 4:1 10:1 14:1 19:1 47:1 102:1 104:1 115:1 151:1 185:1 274:1 299:1 365:1 369:1 452:1 753:1 859:1 1135:1 3088:1 3092:1 3093:1 3491:1 5448:1 5449:1 5450:1 5451:1 5452:1 5453:1 5454:1 5455:1 5456:1 5457:1 5458:1 5459:1 5460:1 5461:1 5462:1 5463:1  |EV| 
-3.2587713040417143339766425924608  |BT| (S (ADVP (RB (Collectively)))(, (,))(VP (VBP (result))(VP (VBP (suggest))(SBAR (S (NP (JJ (potential))(JJ (novel))(JJ (epigenetic))(NN (mechanism)))(VP (VBZ (underlies))(SBAR (S (NP (NP (JJ (chemopreventive))(NN (effect))(NN (ASA)))(, (,))(NP (NN (mechanism)))(VP (VBZ (attenuates))(NP (NNP (CAC))(JJ (AOM/DSS-induced))(NN (CF-1))(NN (mouse)))(PP (IN (via))(NP (NN (inhibition))(NNS (HDACs))(NN (modification))(NN (H3K27ac))(NN (mark))))))(VP (VBP (suppress))(NP (NP (NN (iNOS)))(, (,))(NP (NN (TNF-alpha)))(NP (NN (IL-6))))))))))))) |ET|  |BS| 11:B01.050.150.900.649.865.635.505.500 43:F01.145.544 132:D02.172.080 201:D12.644.276.374.465.224 259:D12.776.395.240.150.500 624:D27.505.696.706.018 670:D02.455.426.559.389.657.410.595.176 671:G05.355.315.203 789:D12.644.276.374.500.800 790:D12.644.276.374.750 1008:D08.811.277.087.520 1114:D08.811.277.352.827.070.250  |ES| 2:1 19:1 52:1 67:1 75:1 101:1 103:1 162:1 596:1 796:1 827:1 891:1 1603:1 1872:1 1946:1 2374:1 2423:1 2441:1 2451:1 2775:1 3066:1 3148:1 4755:1 5596:1 5597:1 5598:1 5599:1 5600:1  |EV| 
3.2587713040417143339766425924608  |BT| (S (VP (ADVP (RB (Mechanistically)))(, (,))(VP (VBD (demonstrated))(SBAR (S (NP (NN (EPLE)))(VP (VBD (exerted))(NP (NN (function))(VBG (suppressing))(NN (Wnt))(NN (signaling))(NN (pathway)))))))(, (,))(VP (VBN (evidenced))(NP (NP (JJ (EPLE-mediated))(NN (downregulation))(NN (Wnt))(NN (target))(NN (gene))(NN (c-Myc)))(, (,))(NP (NN (Axin2))(NN (Survivin))))))) |ET|  |BS| 6:G05.360.340.024.340 85:G02.111.087.225 147:G02.149.115.800.925  |ES| 2:1 9:1 19:1 33:1 160:1 195:1 308:1 383:1 595:1 824:1 877:1 1175:1 2102:1 2250:1 2489:1 3779:1 5000:1 5001:1 5002:1  |EV| 
3.2587713040417143339766425924608  |BT| (S (PP (IN (In))(NP (NN (addition))))(, (,))(NP (JJ (ursolic))(NN (acid)))(VP (VBD (suppressed))(NP (ADJP (NP (NP (NN (EGF))(NN (receptor)))(PRN (-LRB- (-LRB-))(NP (NN (EGFR)))(-RRB- (-RRB-))))(VBD (induced)))(NN (p53))(NN (p21))(NN (expression))))) |ET|  |BS| 2:G05.360.340.024.340.375.249.385 64:D08.811.913.696.620.682.725.400.009.300  |ES| 2:1 10:1 12:1 14:1 19:1 115:1 186:1 187:1 244:1 307:1 412:1 468:1 1135:1 1275:1 4890:1 4891:1  |EV| 
-3.2587713040417143339766425924608  |BT| (S (NP (NNP (Emodin)))(ADVP (RB (also)))(VP (VBD (inhibited))(NP (NP (NN (growth))(NN (lung))(NN (xenograft))(NN (tumor))(NN (Sp1)))(, (,))(NP (VBD (increased))(NN (IGFBP1))(NN (PPARgamma))(NN (protein))(NN (expression)))(ADVP (FW (In))(FW (vivo)))))) |ET|  |BS| 7:D12.776 45:G07.700.320.249 92:E04.936.764 93:A01.941.875 122:C14.280.383 237:C04.588.894.797.520 719:D12.776.826.239.588 1327:D12.776.157.420.250 1518:D02.455.426.559.847.117.159.205.400  |ES| 2:1 4:1 5:1 7:1 19:1 47:1 102:1 115:1 244:1 265:1 328:1 365:1 378:1 2588:1 4856:1 5612:1 5613:1  |EV| 
-3.2587713040417143339766425924608  |BT| (NP (NP (NN (OBJECTIVE)))(: (:))(NP (NP (PRP (We)))(VP (VBD (aimed))(NP (NN (test))(IN (whether))(NP (NP (NN (association))(JJ (colorectal))(NN (polyp))(NN (intake))(NN (calcium)))(, (,))(NP (NN (magnesium)))(, (,))(NP (NP (NN (Thr1482Ile))(NN (polymorphism))(NN (TRPM7))(NN (gene)))(VP (VBN (modified))(NP (NN (Ca)))))(: (:)))(NN (Mg))(NN (intake)))))) |ET|  |BS| 6:G05.360.340.024.340 30:Z01.058.290.190.800 31:D08.811.520.224.800 307:G05.365.795 386:F02.463.425.069 415:F01.658.500 444:C23.300.825 1026:Z01.252.474.651 1507:A08.186.211.464.405 1508:D01.268.552.437 1509:D01.268.552.100 1510:D01.146.315  |ES| 2:1 9:1 17:1 19:1 104:1 221:1 647:1 843:1 844:1 1060:1 1298:1 1417:1 1418:1 2335:1 2563:1 5564:1 5565:1 5566:1 5567:1 5568:1 5569:1  |EV| 
-3.2587713040417143339766425924608  |BT| (S (NP (NN (Curcumin)))(VP (VBZ (sensitizes))(NP (NP (JJ (human))(JJ (colorectal))(NN (cancer))(NN (xenograft))(JJ (nude))(NN (mouse))(NN (gamma-radiation)))(VP (VBG (targeting))(NP (JJ (nuclear))(JJ (factor-kappaB-regulated))(NN (gene))(NN (product))))))) |ET|  |BS| 4:C04.588.274.476.411.307 5:C04.588.274.476.411.307 30:Z01.058.290.190.800 31:D08.811.520.224.800 55:B01.050.150.900.649.801.400.112.400.400 88:B01.050.150.900.649.865.635.505.500.550.500 92:E04.936.764 93:A01.941.875 142:I01.880.604 210:D12.776.260.600 692:D02.455.326.146.485.222.222 816:G01.358.500.505.300 973:E05.393.335  |ES| 9:1 17:1 18:1 19:1 36:1 52:1 265:1 266:1 616:1 675:1 1256:1 2062:1 3429:1 3430:1 3431:1  |EV| 
3.2587713040417143339766425924608  |BT| (S (NP (PRP$ (Our))(NNS (data)))(VP (VBP (suggest))(SBAR (S (NP (NN (TZD)))(VP (VBD (mediated))(NP (NN (suppression))(NN (Sp1))(JJ (responsible))(NN (downregulation))(NN (FoxM1))(NN (gene))(NN (expression)))))))) |ET|  |BS| 85:G02.111.087.225 155:G05.355.310  |ES| 9:1 19:1 115:1 437:1 595:1 658:1 793:1 796:1 2132:1 2453:1 3119:1 4791:1 4856:1  |EV| 
3.2587713040417143339766425924608  |BT| (S (PP (IN (At))(NP (JJ (molecular))(NN (level))))(, (,))(NP (NN (silibinin)))(VP (VBD (increased))(NP (NP (NN (IGFBP-3)))(, (,))(NP (NN (Cip1/p21)))(, (,))(NP (NN (Kip1/p27))(NN (level))(NN (ERK1/2))(NN (activation))))(VP (VBD (decreased))(NP (NN (Bcl-2))))(, (,))(NP (JJ (survivin))(NN (VEGF))(NN (level))(NN (tumor))))) |ET|  |BS| 8:C04 54:G05.360.340.024.340.375.500.791.150 116:D08.811.913.696.620.682.700.567.249.750 1291:D12.776.157.420.270  |ES| 2:1 7:1 19:1 47:1 158:1 161:1 202:1 225:1 249:1 2066:1 2229:1 2635:1 4590:1 4591:1 4592:1 4593:1 4594:1  |EV| 
-3.2587713040417143339766425924608  |BT| (S (ADVP (RB (Furthermore)))(, (,))(NP (NP (JJ (stress-associated))(NN (hormone)))(, (,))(NP (NN (isoproterenol)))(, (,)))(VP (MD (could))(VP (VP (VB (increase))(NP (NN (expression))(NN (level))(`` (``))(NN (stem))('' (''))))(: (-))(S (NP (NP (JJ (related))(NN (protein)))(, (,))(NP (NN (CD44)))(, (,))(NP (NNP (Nanog)))(, (,))(NP (NN (Rex-1)))(, (,)))(VP (VBP (induce))(NP (NN (chemoresistance))(JJ (gastric))(NN (cancer))(NN (cell)))))))) |ET|  |BS| 7:D12.776 41:A11 161:D06.472 309:A18.024.937 1474:D02.033.100.291.439  |ES| 2:1 4:1 18:1 19:1 40:1 86:1 94:1 115:1 182:1 243:1 249:1 334:1 542:1 908:1 1106:1 1282:1 1581:1 3268:1 3269:1 5421:1 5422:1 5423:1 5424:1  |EV| 
0.024794364036296201447839848697186  |BT| (S (NP (NP (JJ (CRC-associated))(NN (symptom))(NN (patient)))(PP (VBG (including))(NP (JJ (intestinal))(NN (bleeding))(NN (anaemia)))))(ADVP (RB (faithfully)))(VP (VBD (mimicked))(NP (NP (NP (JJ (AOM-treated))(NN (MybER))(JJ (transgenic))(NN (mouse)))(VBN (implicated))(NN (hypoxia))(NN (vessel))(NN (leakage)))(VP (VBG (identifying))(NP (ADJP (ADJP (JJ (additional)))(ADJP (JJ (pathogenic))))(NN (role))(NN (Myb))))))) |ET|  |BS| 4:C04.588.274.476.411.307 5:C04.588.274.476.411.307 12:Z01.542.049 15:F01.829.316.616 47:A03.556.124 50:M01.643 52:E02 99:B01.050.050.136.500 132:D02.172.080 327:G06.930 371:A07.231 1011:C23.888.852.079 1322:C15.378.071 1323:C23.550.414  |ES| 19:1 31:1 52:1 109:1 120:1 285:1 561:1 977:1 980:1 1698:1 2474:1 4710:1 4711:1 4712:1 4713:1 4714:1 4715:1 4716:1 4717:1 4718:1 4719:1 4720:1 4721:1  |EV| 
3.2587713040417143339766425924608  |BT| (S (ADVP (RB (Nevertheless)))(, (,))(NP (NN (extent))(NN (NAG-1))(NN (induction)))(VP (MD (could))(NP (VBN (altered))(NN (ERK))(NN (inhibitor))(NN (PD98059))))) |ET| 2:1 19:1 380:1 693:1 736:1 908:1 1662:1 4486:1 4968:1 5046:1 5047:1  |EV| 
2.8613955752600190862722229212523  |BT| (S (S (NP (NN (Pretreatment))(NN (p38))(NN (kinase))(NN (inhibitor)))(VP (VBD (blocked))(NP (JJ (VES-induced))(NN (increase))(NN (NAG-1))(NN (protein))(NN (mRNA))(NN (level)))))(, (,))(IN (whereas))(NP (NP (NN (inhibition))(NN (protein))(NN (kinase))(NN (C)))(, (,))(NP (NN (Akt)))(, (,))(FRAG (NN (c-Jun))(NNP (NH))(LST (-LRB- (-LRB-))(LS (2))(-RRB- (-RRB-)))(: (-))(NP (NP (JJ (terminal))(NN (kinase)))(, (,))(NP (NP (NN (MEK))(NN (activity))(NN (effect)))(JJ (VES-induced))(NN (NAG-1))(NN (level))))))) |ET|  |BS| 7:D12.776 12:Z01.542.049 13:D01.339.387 43:F01.145.544 111:D13.444.735.544 122:C14.280.383 233:D08.811.913.696.620.682.700.565 234:D08.811.913.696.620.682.700.565 378:D08.811.913.696.620.682.700.755 469:D08.811.913.696 470:C02.782.160.927 992:D08.811.913.696.620.682.700.725 1406:D02.455.526.728.650.529  |ES| 2:1 4:1 10:1 14:1 19:1 40:1 75:1 103:1 148:1 249:1 325:1 372:1 380:1 399:1 470:1 1289:1 1661:1 1662:1 1666:1 1686:1 1955:1 2777:1 5107:1 5108:1 5109:1 5110:1  |EV| 
-3.2587713040417143339766425924608  |BT| (S (NP (NN (MicroRNA-122)))(VP (VBZ (inhibits))(SBAR (S (NP (JJ (tumorigenic))(NN (property))(JJ (hepatocellular))(NN (carcinoma))(NN (cell)))(VP (VBZ (sensitizes))(NP (NN (cell))(NN (sorafenib)))))))) |ET|  |BS| 41:A11 104:C04.557.470.200.025.255 122:C14.280.383 184:D13.150.650.319 575:V02.050  |ES| 19:1 94:1 303:1 304:1 615:1 841:1 1797:1 1809:1 2062:1 2063:1  |EV| 
-3.2587713040417143339766425924608  |BT| (S (NP (NN (Exposure))(NN (alternol)))(VP (VBD (resulted))(NP (NP (NP (NP (JJ (excessive))(JJ (reactive))(NN (oxygen))(NN (specie)))(PRN (-LRB- (-LRB-))(NP (NN (ROS)))(-RRB- (-RRB-))))(NP (NP (NN (generation))(NN (Jun))(JJ (amino-terminal))(NN (kinase)))(PRN (-LRB- (-LRB-))(NP (NN (JNK)))(-RRB- (-RRB-)))))(, (,))(NP (NP (NP (JJ (extracellular))(JJ (signal-regulated))(NN (kinase)))(PRN (-LRB- (-LRB-))(NP (NN (ERK1/2)))(-RRB- (-RRB-))))(NN (p38))(NN (activation)))))) |ET|  |BS| 116:D08.811.913.696.620.682.700.567.249.750 469:D08.811.913.696 477:D08.811.913.696.620.682.700.567.249 478:D08.811.913.696.620.682.700.567 506:F01.829.263.315 636:D01.339.431  |ES| 2:1 10:1 14:1 19:1 225:1 470:1 594:1 1666:1 1707:1 1787:1 2353:1 2354:1 2355:1 2356:1 3982:1 4276:1 4594:1 4812:1 5622:1 5623:1 5624:1 5625:1  |EV| 
-3.2587713040417143339766425924608  |BT| (S (PP (IN (In))(NP (NN (HT-29))(NN (cell))))(, (,))(NP (NN (pterostilbene)))(VP (VBD (reduced))(SBAR (S (NP (NP (NN (protein))(NN (level))(NN (beta-catenin)))(, (,))(NP (NN (cyclin))(NN (D1))(NN (c-MYC)))(, (,))(NP (JJ (altered))(JJ (cellular))(NN (localization))(NN (beta-catenin))))(VP (VBD (inhibited))(NP (NN (phosphorylation))(NN (p65)))))))) |ET|  |BS| 7:D12.776 23:D12.776.091.249 32:C04.697.098.500 33:C04.697.098 41:A11 46:A03.556.124.526.356 122:C14.280.383 158:D23.101 183:G04.299.233.750 215:D12.644.360.262.150.100 792:A11.251.210.190.475 972:G02.111.087.677  |ES| 2:1 4:1 18:1 19:1 60:1 78:1 94:1 113:1 159:1 216:1 244:1 249:1 299:1 365:1 378:1 452:1 534:1 625:1 658:1 693:1 743:1 744:1 787:1 793:1 796:1 827:1 1474:1 1659:1 2250:1 2428:1 2430:1 2484:1 2782:1 3074:1 3426:1 5016:1  |EV| 
3.2587713040417143339766425924608  |BT| (S (ADVP (RB (Furthermore)))(, (,))(NP (NN (PSI))(NN (treatment)))(VP (VBD (increased))(NP (NN (level))(NN (Bax)))(, (,))(SBAR (S (NP (NP (NN (cytochrome))(NN (c)))(, (,))(NP (VBN (activated))(NN (caspase-3)))(, (,))(NP (JJ (active))(NN (caspase-9)))(, (,))(NP (NP (VBN (cleaved))(NN (poly)))(PRN (-LRB- (-LRB-))(NP (NN (ADP-ribose)))(-RRB- (-RRB-))))(NP (NN (polymerase))))(VP (VBD (decreased))(NP (NP (NN (Bcl-2))(NN (expression))(NN (level)))(NP (JJ (extracellular))(JJ (signal-regulated))(NN (kinase-1))(: (/))(CD (2))(NN (activity))))))))) |ET|  |BS| 52:E02 54:G05.360.340.024.340.375.500.791.150 116:D08.811.913.696.620.682.700.567.249.750 342:D12.644.360.075.718.400 906:D08.811.277.656.262.500.126.350.300 1248:D08.811.913.400.725.115.690 1337:D08.244.286.100 1338:D08.244.286.150 1349:D08.811.277.656.262.500.126.550.900  |ES| 2:1 10:1 14:1 19:1 47:1 115:1 158:1 163:1 197:1 202:1 249:1 334:1 394:1 399:1 546:1 1707:1 3788:1 4630:1 4777:1 4806:1 4807:1 4808:1 4809:1 4810:1 4811:1 4812:1 4813:1  |EV| 
-3.2587713040417143339766425924608  |BT| (S (NP (NP (DT (The))(NN (result))(NN (show))(NN (PhIP)))(NP (NP (ADJP (RB (extremely))(JJ (toxic)))(NN (XPA)))(PRN (-LRB- (-LRB-))(: (-))(: (/))(: (-))(-RRB- (-RRB-)))(NP (NN (mouse)))(, (,))))(ADVP (RB (even)))(VP (VBZ (dos))(NP (RB (10-fold))(JJR (lower))(VBN (tolerated))(JJ (wild-type))(NN (C57BL/6))(NN (mouse))))) |ET|  |BS| 11:B01.050.150.900.649.865.635.505.500 593:B01.050.050.199.520.520.420  |ES| 2:1 8:1 10:1 14:1 19:1 45:1 52:1 101:1 117:1 429:1 691:1 1533:1 2192:1 2641:1 2653:1 5416:1 5544:1 5545:1 5546:1 5547:1  |EV| 
-3.2587713040417143339766425924608  |BT| (S (NP (JJ (Long-term))(JJ (pharmacological))(NN (MAP))(NN (kinase))(NN (inhibition))(NN (MEK))(NN (inhibitor))(NN (PD98059)))(VP (VBD (induced))(NP (NP (NN (expression))(JJ (terminal))(NN (differentiation))(NN (marker))(NN (ITF)))(, (,))(NP (NN (sucrase-isomaltase)))(, (,))(NP (NN (mucin))(NN (gene))(NN (MUC2)))))) |ET|  |BS| 6:G05.360.340.024.340 43:F01.145.544 71:D12.776.395.560.631 233:D08.811.913.696.620.682.700.565 234:D08.811.913.696.620.682.700.565 478:D08.811.913.696.620.682.700.567 849:G08.686.785.760.769.490.500 1045:D23.050.301.264 1059:H01.158.703 1485:D08.811.277.450.770 1486:V01.185.687  |ES| 2:1 9:1 19:1 103:1 115:1 209:1 212:1 215:1 380:1 412:1 470:1 534:1 3707:1 4968:1 5110:1 5464:1 5465:1 5466:1 5467:1 5468:1  |EV| 
0.76638709747891198276192881166935  |BT| (S (PP (IN (In))(NP (JJ (present))(NN (study))))(, (,))(NP (NP (NN (report))(NN (vitro))(NN (treatment))(JJ (primary))(NN (hepatoma)))(, (,))(NP (NP (NN (HepG2)))(PRN (-LRB- (-LRB-))(NP (JJ (wild-type))(NN (p53)))(-RRB- (-RRB-))))(, (,))(NP (NP (NN (PLC/PRF/5)))(PRN (-LRB- (-LRB-))(NP (NN (p53-mutant)))(-RRB- (-RRB-))))(, (,))(NP (NP (NN (Hep3B)))(PRN (-LRB- (-LRB-))(ADJP (JJ (p53-deleted)))(-RRB- (-RRB-))))(NP (NP (NN (cell))(NN (2-chloroethyl-3-sarcosinamide-1-nitrosourea)))(PRN (-LRB- (-LRB-))(NP (NN (SarCNU)))(-RRB- (-RRB-)))))(VP (VBD (resulted))(NP (NP (NN (upregulation))(NN (p53))(, (,))(NN (p21))(-LRB- (-LRB-))(NN (Cip1/Waf1))(-RRB- (-RRB-)))(, (,))(NP (NP (VBN (phosphorylated))(NN (cdc-2))(NN (Tyr15))(JJ (wild-type))(NN (p53))(NN (cell))(NN (phosphorylation))(NN (cdc-2))(NN (Tyr15)))(NP (JJ (p53-mutant))(NP (JJ (p53-deleted))(NN (hepatoma))(NN (cell)))))))) |ET|  |BS| 2:G05.360.340.024.340.375.249.385 41:A11 52:E02 104:C04.557.470.200.025.255 249:G05.355.315.800 339:G02.111.087.880 515:C04.588.274.623 972:G02.111.087.677 1371:I01.409.418.750.600.650.225  |ES| 2:1 8:1 10:1 12:1 14:1 19:1 94:1 131:1 216:1 244:1 344:1 417:1 546:1 594:1 1126:1 1135:1 1307:1 3426:1 3481:1 3896:1 4502:1 4924:1 4925:1 4926:1 4927:1 4928:1 4929:1 4930:1 4931:1 4932:1  |EV| 
-3.2587713040417143339766425924608  |BT| (S (NP (NP (NP (NNP (Thymidylate))(NN (synthase)))(PRN (-LRB- (-LRB-))(NP (NN (TS)))(-RRB- (-RRB-))))(JJ (important))(NN (target))(NN (5-fluorouracil))(-LRB- (-LRB-))(NN (5FU))(-RRB- (-RRB-))(: (-)))(VP (VBN (based))(NP (NN (therapy))))) |ET|  |BS| 52:E02 333:D01.045 560:D03.383.742.698.875.404 713:D08.811.913.555.500.862  |ES| 10:1 14:1 19:1 66:1 130:1 160:1 509:1 902:1 2307:1 2895:1 3081:1 5493:1  |EV| 
2.0410364517101129422371741384268  |BT| (S (NP (DT (All))(NN (result)))(VP (VBD (revealed))(NP (NP (NN (pterostilbene))(JJ (effective))(NN (antitumor))(NN (agent)))(NP (RB (well))(NP (JJ (inhibitory))(NN (effect))(NN (down-regulation))(JJ (inflammatory))(NN (iNOS))(NN (COX-2))(NN (gene)))(NN (expression))(NN (up-regulation))(NN (apoptosis))(NN (mouse))(NN (colon))))(, (,))(S (VP (VBG (suggesting))(NP (NP (NP (NN (pterostilbene)))(JJ (novel))(JJ (functional))(NN (agent)))(ADJP (JJ (capable))(S (VP (VBG (preventing))(NP (JJ (inflammation-associated))(NN (colon))(NN (tumorigenesis))))))))))) |ET|  |BS| 11:B01.050.150.900.649.865.635.505.500 32:C04.697.098.500 33:C04.697.098 39:G04.299.139.160 46:A03.556.124.526.356 53:C06.405.205.265 85:G02.111.087.225 155:G05.355.310 249:G05.355.315.800 259:D12.776.395.240.150.500 339:G02.111.087.880 660:D27.505.954.248  |ES| 2:1 9:1 19:1 52:1 67:1 75:1 76:1 78:1 89:1 101:1 113:1 115:1 257:1 275:1 415:1 728:1 787:1 891:1 896:1 965:1 1009:1 1639:1 1849:1 1937:1 2244:1 2428:1 2429:1 2430:1 2431:1  |EV| 
-3.2587713040417143339766425924608  |BT| (S (VP (DT (These))(VBG (finding))(VP (VBP (suggest))(SBAR (S (NP (NP (NN (exposure))(JJ (dichloroacetic))(NN (acid)))(, (,))(NP (NN (trichloroethylene))(NN (tetrachloroethylene))))(VP (VBZ (provides))(S (NP (JJ (selective))(NN (growth))(NN (advantage)))(ADVP (RB (spontaneously)))(VP (VBG (occurring))(NP (NP (NN (mutation))(NN (codon))(CD (61))(NNS (H-ras)))(, (,))(NP (NN (time)))(, (,))(NP (NP (JJ (responsible))(JJ (small))(NN (number))(JJ (unique))(JJ (molecular))(NN (lesion)))(VP (JJ (suggestive))(NP (CC (either))(NP (JJ (random))(JJ (genotoxic))(NN (mode))(NN (action))(JJ (non-specific))(NN (result))(JJ (secondary))(NN (DNA))(NN (damage))))))))))))))) |ET|  |BS| 1:G05.360.340.024.340.375.500.791.550 18:G05.365.590 45:G07.700.320.249 113:C04.697.650 179:D01.248.497.300.459.700 322:G01.910 335:D13.444.735.544.355 526:G05.355.180 1219:D02.241.081.018.214.500 1235:D02.455.526.439.939 1236:D02.455.526.439.880 1503:E05.318.780.700  |ES| 2:1 19:1 34:1 39:1 101:1 102:1 161:1 646:1 666:1 750:1 792:1 796:1 815:1 927:1 1081:1 1119:1 1131:1 1275:1 1469:1 1506:1 1737:1 1749:1 1848:1 1953:1 2013:1 2132:1 3329:1 4273:1 4419:1 5475:1 5476:1 5477:1 5533:1 5548:1 5549:1 5550:1 5551:1 5552:1  |EV| 
1.7781903028304668623604811728001  |BT| (S (NP (JJ (Isochaihulactone-induced))(NN (increase))(NN (EGR-1))(NN (NAG-1))(NN (expression)))(VP (VBD (reduced))(SBAR (S (NP (NP (NP (JJ (mitogen-activated))(NN (protein))(NN (kinase))(NN (kinase)))(CD (1/2))(NN (inhibitor))(CD (2))('' (')))(: (-))(NP (NP (NN (amino-3)))('' ('))(: (-))(NP (NN (methoxyflavone))(-LRB- (-LRB-))(NN (PD98059))(-RRB- (-RRB-))))(, (,))(NP (NN (effect))))(VP (VBD (blocked))(NP (NP (NP (NP (NP (NN (phosphatidylinositol))(JJ (3-kinase/protein))(NN (kinase))(NN (B))(NN (pathway))(NN (inhibitor))(CD (2)))(: (-))(PRN (-LRB- (-LRB-))(NP (NN (4-morpholinyl)))(-RRB- (-RRB-))))(NN (-8-phenyl-1)))(PRN (-LRB- (-LRB-))(NP (NN (4H)))(-RRB- (-RRB-))))(: (-))(NP (NP (NN (benzopyran-4-one))(NN (hydrochloride)))(PRN (-LRB- (-LRB-))(NP (NN (LY294002)))(-RRB- (-RRB-)))))))))) |ET|  |BS| 122:C14.280.383 378:D08.811.913.696.620.682.700.755 580:D12.776.260.158.500 1376:D08.811.913.696.620.682.700.565.300 1377:D08.811.913.696.620.500.100  |ES| 2:1 4:1 10:1 14:1 19:1 40:1 75:1 115:1 380:1 383:1 452:1 470:1 763:1 1662:1 2777:1 3295:1 3874:1 4588:1 4965:1 4966:1 4967:1 4968:1 4969:1 4970:1 4971:1 4972:1 4973:1 4974:1 4975:1 4976:1  |EV| 
-3.2587713040417143339766425924608  |BT| (S (NP (JJ (DEN-induced))(NN (rat)))(VP (VBD (exhibited))(NP (NP (VBN (increased))(NN (gene))(NN (expression))(NN (NF-kappaB)))(, (,))(NP (NN (COX-2)))(, (,))(NP (NN (CYP2E1)))(, (,))(NP (NN (VEGF)))(, (,))(NP (NN (Bcl-2)))(, (,))(NP (NN (PI3K/AKT/mTOR))))(S (ADVP (RB (significantly)))(VP (VBD (decreased))(NP (NP (NN (gene))(NN (expression))(NN (p53)))(, (,))(NP (NN (Bax)))(, (,))(NP (NN (caspase-9))(NN (caspase-3)))))))) |ET|  |BS| 2:G05.360.340.024.340.375.249.385 54:G05.360.340.024.340.375.500.791.150 155:G05.355.310 175:J01.897.280.500.269 210:D12.776.260.600 245:B01.050.150.900.649.865.635.505.700 246:B01.050.150.900.649.865.635.505.700 342:D12.644.360.075.718.400 378:D08.811.913.696.620.682.700.755 906:D08.811.277.656.262.500.126.350.300 1218:D08.244.453.300 1290:D08.811.913.696.620.500 1349:D08.811.277.656.262.500.126.550.900  |ES| 2:1 9:1 12:1 19:1 47:1 76:1 115:1 124:1 158:1 202:1 609:1 714:1 849:1 2066:1 2735:1 4270:1 4630:1 4807:1 4808:1 5606:1  |EV| 
3.2587713040417143339766425924608  |BT| (S (NP (PRP (It)))(VP (VBD (augmented))(SBAR (S (NP (NN (caspase-3))(NN (activity)))(VP (VBD (downregulated))(NP (NP (NN (expression))(NN (Bcl-2)))(, (,))(NP (NN (Bcl-xL)))(, (,))(NP (NN (cIAP1))(NN (cFLIP))))))))) |ET|  |BS| 54:G05.360.340.024.340.375.500.791.150 906:D08.811.277.656.262.500.126.350.300  |ES| 2:1 19:1 115:1 158:1 399:1 426:1 1327:1 4807:1 4814:1 4979:1 4980:1 4981:1  |EV| 
-3.2587713040417143339766425924608  |BT| (NP (NP (DT (The))(JJ (K-rasVal12-augmented))(NN (apoptosis))(JJ (unrelated))(NN (dysplasia)))(: (;))(S (NP (VBN (enhanced))(NN (apoptosis)))(ADVP (RB (also)))(VP (VBD (observed))(SBAR (S (NP (NN (cycling))(JJ (nondysplastic))(NNS (enterocytes)))(VP (VBP (produce))(NP (NN (K-rasVal12))(NN (TAg))(JJ (COOH-terminal))(NN (truncation))))))))) |ET|  |BS| 39:G04.299.139.160 1475:A03.556.124.369.290  |ES| 5:1 19:1 89:1 203:1 217:1 261:1 385:1 691:1 1565:1 5362:1 5406:1 5508:1 5535:1 5536:1 5537:1 5538:1 5539:1 5540:1  |EV| 
3.2587713040417143339766425924608  |BT| (NP (NP (NNS (AIMS)))(: (:))(S (NP (DT (The))(NN (aim))(NN (study)))(VP (VBP (examine))(NP (NN (effect))(NNS (NSAIDs))(NP (NN (mRNA))(NN (expression))(NN (tumour))(NN (suppressor))(JJ (adenomatous))(NN (polyposis))(NN (coli))(-LRB- (-LRB-))(NN (APC))(-RRB- (-RRB-))(NN (gene)))(NN (rat))(NN (colon))(NN (mucosa)))))) |ET|  |BS| 3:C04.557.470.035.215.100 21:G05.360.340.024.340.375.249.050 30:Z01.058.290.190.800 31:D08.811.520.224.800 46:A03.556.124.526.356 111:D13.444.735.544 155:G05.355.310 206:G05.360.340.024.340.375.249 245:B01.050.150.900.649.865.635.505.700 246:B01.050.150.900.649.865.635.505.700 302:A10.615.550 796:D27.505.696.663.850.014.040.500  |ES| 9:1 10:1 11:1 14:1 19:1 57:1 58:1 59:1 75:1 104:1 113:1 115:1 131:1 325:1 579:1 691:1 700:1 849:1 960:1 1011:1 1567:1 1778:1 2966:1  |EV| 
-3.2587713040417143339766425924608  |BT| (S (ADVP (RB (Consistently)))(, (,))(VP (VBD (found))(SBAR (S (NP (NN (simvastatin)))(ADVP (RB (also)))(VP (VBD (increased))(NP (NP (NN (p21))(NN (p27))(NN (expression))(NN (tumor))(NN (section)))(VP (VBG (reducing))(NP (NP (NN (Skp2))(NN (expression)))(VP (VBG (inducing))(NP (NN (AMPK))(NN (activation))(NN (STAT3))(NN (suppression))(NN (tumor))(NN (tissue)))))))))))) |ET|  |BS| 8:C04 82:D12.644.360.024.342.300 98:A10 507:D12.776.157.743 754:D02.455.426.559.847.638.400.900  |ES| 2:1 5:1 7:1 19:1 37:1 47:1 115:1 225:1 251:1 272:1 1124:1 1135:1 1785:1 1864:1 2453:1 2679:1 3331:1 4686:1 4691:1 4692:1  |EV| 
-3.2587713040417143339766425924608  |BT| (S (NP (NNS (METHODS))(: (:)))(PP (IN (In))(NP (NN (study))))(VP (VBD (used))(NP (NP (NN (p53)))(VP (VBN (mutated))(VP (VB (knock))(S (NP (NP (NN (colon))(NN (cancer))(NN (cell))(NN (xenograft))(NN (tumour))(NN (study)))(NN (role))(NN (p53))(NN (apoptosis)))(VP (VBD (mediated))(NP (NNS (diaminothiazoles)))))))))) |ET|  |BS| 2:G05.360.340.024.340.375.249.385 8:C04 15:F01.829.316.616 30:Z01.058.290.190.800 31:D08.811.520.224.800 39:G04.299.139.160 41:A11 92:E04.936.764 93:A01.941.875 168:E05.581  |ES| 12:1 18:1 19:1 31:1 89:1 94:1 104:1 113:1 131:1 229:1 244:1 265:1 437:1 476:1 565:1 1011:1 5469:1 5470:1  |EV| 
3.2587713040417143339766425924608  |BT| (FRAG (NN (Ku70))(: (-))(: (/))(: (-))(FRAG (S (NP (NNS (HCCs)))(VP (VBD (showed))(SBAR (S (NP (JJ (high))(JJ (proliferative))(NN (activity)))(VP (VBD (increased))(S (NP (NN (cyclin))(NN (D1)))(VP (VBG (proliferating))(NP (NN (cell))(JJ (nuclear))(NN (antigen))(NN (expression))))))))))(, (,))(NP (NP (NNP (Aurora))(NNP (A))(NN (kinase))(NN (activity)))(, (,))(VP (VP (VBD (enhanced))(NP (NP (NN (ataxia))(NN (telangiectasia)))(NP (VBN (mutated))(NN (kinase))(NN (ubiquitination)))))(, (,))(NP (NP (NN (loss))(NN (p53)))(PP (IN (via))(NP (NP (JJ (proteasomal))(NN (degradation)))(, (,))(S (NP (NN (feature)))(ADVP (RB (closely)))(VP (VBP (resemble))(NP (JJ (human))(NN (HCC)))))))))))) |ET|  |BS| 2:G05.360.340.024.340.375.249.385 55:B01.050.150.900.649.801.400.112.400.400 104:C04.557.470.200.025.255 215:D12.644.360.262.150.100 469:D08.811.913.696 520:C10.228.140.252.190.530.060 768:D12.776.660.740 1281:D05.500.562.500 1293:G03.495 1378:D08.811.913.696.620.682.700.103.500 1379:G02.111.087.675.871.790.600.925  |ES| 2:1 12:1 19:1 32:1 36:1 47:1 69:1 94:1 115:1 132:1 178:1 229:1 385:1 399:1 441:1 470:1 596:1 597:1 743:1 744:1 855:1 1030:1 1132:1 1250:1 1256:1 2865:1 4117:1 4556:1 4982:1 4983:1 4984:1 4985:1 4986:1 4987:1  |EV| 
3.2587713040417143339766425924608  |BT| (S (NP (NN (Inhibition))(NN (JNK))(NN (chemical))(JJ (genetic))(NN (method)))(VP (VBD (attenuated))(NP (JJ (NaBT-induced))(NN (PTEN))(NN (expression))))) |ET|  |BS| 43:F01.145.544 1372:E05.393  |ES| 19:1 115:1 808:1 864:1 1599:1 1936:1 2124:1 2703:1 4276:1 4943:1  |EV| 
-3.2587713040417143339766425924608  |BT| (S (NP (NNP (CAPE))(CC (plus))(NNP (DEN)))(VP (VBD (diminished))(NP (NP (NN (expression))(NN (cytochrome))(VBN (involved))(NN (DEN))(NN (bioactivation))(NN (CYP2B1)))(VP (ADVP (RB (well)))(NP (NP (NN (expression))(NN (regulator))(JJ (oxidative))(NN (stress))(NN (glutathione))(NN (reductase)))(, (,))(NP (NN (GST-kappa))(NN (GST-theta)))(, (,))(NP (NN (cell))(NN (cycle))(NN (regulator)))(NP (NN (p53)))))))) |ET|  |BS| 2:G05.360.340.024.340.375.249.385 7:D12.776 30:Z01.058.290.190.800 31:D08.811.520.224.800 155:G05.355.310 353:G04.299.134 716:G03.495.710 1470:D08.244.453.040.550 1471:D08.811.682.667.092 1472:D08.244  |ES| 2:1 4:1 9:1 12:1 19:1 94:1 96:1 115:1 162:1 235:1 569:1 601:1 637:1 693:1 712:1 774:1 787:1 831:1 900:1 911:1 1719:1 1875:1 2332:1 2353:1 2522:1 2583:1 2744:1 3045:1 3146:1 3374:1 3788:1 4156:1 4350:1 4720:1 4888:1 5399:1 5400:1 5401:1 5402:1 5403:1 5404:1  |EV| 
0.81144301548260955314617604017258  |BT| (S (NP (NP (NN (Cr)))(PRN (-LRB- (-LRB-))(NP (NNP (VI)))(-RRB- (-RRB-))))(VP (VBD (caused))(NP (NP (JJ (significant))(NN (increase))(NN (miR-21))(NN (expression)))(VBN (associated))(NN (inhibition))(NN (PDCD4))(NN (expression))))) |ET|  |BS| 43:F01.145.544 1321:Z01.107.084.900.182  |ES| 10:1 14:1 19:1 40:1 103:1 115:1 135:1 169:1 2177:1 2506:1 4707:1 4708:1 4709:1  |EV| 
3.2587713040417143339766425924608  |BT| (NP (NP (NP (S (NP (NP (NN (Gene))(NN (expression))(NN (analysis))(NN (Bcl-2))(NN (family))(NN (gene)))(NP (JJ (antioxidant))(NN (enzyme))))(VP (VBD (revealed))(NP (NP (NN (t-PTER)))(CC (+))(NP (NN (QUER)))(NP (NN (treatment))))(SBAR (S (ADVP (RB (preferentially)))(VP (VBZ (promotes)))))))(, (,))(NP (NN (HT-29))(NN (cell)))(ADVP (VBG (growing))(FW (vivo)))(, (,))(-LRB- (-LRB-))(NP (NP (NP (-RRB- (-RRB-))(NN (superoxide))(NN (dismutase))(CD (2))(NN (overexpression)))(PRN (-LRB- (-LRB-))(NP (ADJP (ADJP (RB (approximately))(JJ (5.7-fold)))(, (,))(ADJP (IN (via))(NN (specificity))))(NN (protein))(JJ (1-dependent))(NN (transcription))(NN (regulation)))(-RRB- (-RRB-))))(PRN (-LRB- (-LRB-))(NP (NN (b)))(-RRB- (-RRB-))))(NP (NP (NN (down-regulation))(NN (bcl-2))(NN (expression)))(PRN (-LRB- (-LRB-))(ADVP (RB (approximately))(RB (3.3-fold)))(, (,)))))(PP (IN (via))(NP (NN (inhibition))(JJ (nuclear))(NN (factor-kappaB))(NN (activation)))))(ADJP (-RRB- (-RRB-)))) |ET|  |BS| 43:F01.145.544 44:F01.829.263 52:E02 54:G05.360.340.024.340.375.500.791.150 85:G02.111.087.225 142:I01.880.604 155:G05.355.310 209:G02.111.087.847 210:D12.776.260.600 700:D27.505.519.217 730:D08.811 792:A11.251.210.190.475 1050:D12.776.157.125.050.060 1052:D12.776.641.750 1224:E05.318.740.872  |ES| 2:1 4:1 9:1 10:1 14:1 19:1 94:1 97:1 103:1 115:1 146:1 147:1 148:1 151:1 152:1 158:1 166:1 167:1 225:1 257:1 275:1 298:1 378:1 438:1 487:1 546:1 596:1 661:1 1233:1 1256:1 1843:1 2388:1 2521:1 2702:1 2782:1 3059:1 3532:1 4819:1 4820:1 4821:1 4822:1 4823:1 4824:1  |EV| 
-3.2587713040417143339766425924608  |BT| (S (NP (JJ (Enzymatic))(NN (assay)))(VP (VBD (showed))(SBAR (S (NP (NN (genistein))(NN (5Aza-C))(VBD (decreased))(NN (DNA))(NN (Methyltransferase))(, (,))(JJ (methyl-CpG-binding))(NN (domain))(CD (2))(NN (activity)))(VP (VBD (increased))(NP (NN (HAT))(NN (activity)))))))) |ET|  |BS| 746:D08.811.150.240 944:D03.383.663.283.266.450.400.375 1519:E05.196.427  |ES| 2:1 19:1 47:1 132:1 148:1 202:1 310:1 399:1 666:1 1173:1 3314:1 4828:1 5614:1 5615:1 5616:1 5617:1  |EV| 
3.2587713040417143339766425924608  |BT| (S (SBAR (IN (Although))(S (NP (NP (NP (NN (Mlh1)))(PRN (-LRB- (-LRB-))(NP (NN (G67R)))(-RRB- (-RRB-))))(NN (mutation)))(VP (VBD (resulted))(NP (NN (DNA))(NN (repair))(NN (deficiency))(JJ (homozygous))(JJ (mutant))(NN (mouse))))))(, (,))(VP (VBP (affect))(SBAR (S (NP (NP (JJ (MMR-mediated))(JJ (cellular))(NN (response))(NN (DNA))(NN (damage)))(, (,))(PP (VBG (including))(NP (NP (JJ (apoptotic))(NN (response))(JJ (epithelial))(NN (cell))(JJ (intestinal))(NN (mucosa))(NN (cisplatin)))(, (,))(NP (NP (JJ (defective))(NN (Mlh1)))(PRN (-LRB- (-LRB-))(: (-))(: (/))(: (-))(-RRB- (-RRB-))))(NP (NN (mouse))))))(VP (VBD (remained))(NP (NP (NP (JJ (normal))(NN (Mlh1)))(PRN (-LRB- (-LRB-))(NP (NN (G67R/G67R)))(-RRB- (-RRB-))))(NN (mouse)))))))) |ET|  |BS| 11:B01.050.150.900.649.865.635.505.500 18:G05.365.590 39:G04.299.139.160 41:A11 191:A03.556.124.369 433:F01.470.047 498:D01.210.375 526:G05.355.180 1282:C18.452.284 1283:G05.380.554  |ES| 2:1 10:1 14:1 19:1 34:1 45:1 52:1 94:1 107:1 109:1 118:1 127:1 253:1 494:1 513:1 561:1 579:1 586:1 594:1 666:1 811:1 1486:1 1761:1 1848:1 1861:1 2223:1 3074:1 4563:1 4564:1 4565:1 4566:1 4567:1  |EV| 
1.5952695277953807817539200186729  |BT| (S (S (NP (NP (NN (MLN8237)))(, (,))(NP (JJ (investigational))(JJ (small-molecule))(JJ (selective))(NN (inhibitor))(NN (AURKA)))(, (,)))(VP (VBD (reduced))(S (NP (NP (JJ (nuclear))(NN (staining))(JJ (nuclear))(NN (factor-kappaB)))(PRN (-LRB- (-LRB-))(NP (NN (NF-kappaB)))(-RRB- (-RRB-))))(VP (NN (p65))(NP (JJ (human))(JJ (gastric))(NN (cancer))(NN (sample))(NN (mouse))(JJ (epithelial))(NN (cell)))))))(, (,))(VP (VBD (suppressed))(SBAR (S (NP (NP (NN (NF-kappaB))(NN (reporter))(NN (activity)))(, (,))(NP (VBN (reduced))(NN (expression))(NN (NF-kappaB))(NN (target))(NN (gene))))(VP (VBP (regulate))(NP (NN (inflammation))(NN (cell))(NN (survival)))))))) |ET|  |BS| 11:B01.050.150.900.649.865.635.505.500 12:Z01.542.049 55:B01.050.150.900.649.801.400.112.400.400 75:A11.436 108:G04.299.316 155:G05.355.310 210:D12.776.260.600 225:E05.337 525:C23.550.470 1378:D08.811.913.696.620.682.700.103.500  |ES| 2:1 9:1 10:1 14:1 18:1 19:1 36:1 52:1 86:1 94:1 115:1 127:1 160:1 274:1 288:1 307:1 380:1 399:1 452:1 714:1 835:1 858:1 1256:1 1605:1 1749:1 2702:1 3064:1 5012:1 5013:1 5014:1 5015:1 5016:1  |EV| 
-3.2587713040417143339766425924608  |BT| (S (NP (JJ (Short))(JJ (G-rich))(JJ (repetitive))(NN (sequence)))(ADVP (RB (previously)))(VBN (identified))(NP (NNS (hot-spots))(NN (frameshift))(NN (mutagenesis)))(VP (VBD (induced))(NP (NP (JJ (large))(NN (variety))(NN (carcinogen)))(VP (VBG (belonging))(NP (JJ (several))(NN (family))(JJ (widespread))(JJ (environmental))(NN (pollutant))))))) |ET|  |BS| 44:F01.829.263 279:D27.888.569.100 287:G05.365.590.265 612:G02.111.570.080.708 1359:G05.355.600 1498:G01.906.595.543 1499:D27.888.284 1500:C17.800.257  |ES| 19:1 97:1 262:1 293:1 412:1 623:1 952:1 1527:1 2125:1 2264:1 3446:1 4073:1 4864:1 5519:1 5520:1 5521:1 5522:1 5523:1 5524:1 5525:1  |EV| 
3.2587713040417143339766425924608  |BT| (S (NP (NP (NN (Protein))(NN (analysis)))(VP (VBN (treated))(NP (NN (tumor))(NN (biopsy)))))(VP (VBD (revealed))(NP (NP (NP (JJ (elevated))(NN (amount))(NN (cell))(NN (cycle))(NN (regulator)))(NP (NN (p21))(NN (proapoptosis))(NN (factor))))(, (,))(NP (NP (NN (caspase))(CD (3)))(CD (7))(VBN (cleaved))(NN (poly))(-LRB- (-LSB-))(NN (ADP-ribose))(-RRB- (-RSB-))(NN (polymerase)))(, (,))(VP (VBN (coupled))(VP (VBN (decreased))(NP (NP (NN (level))(JJ (antiapoptotic))(NN (factor))(NN (Bcl-2))(NN (Bcl-X)))(PRN (-LRB- (-LRB-))(NP (NN (L)))(-RRB- (-RRB-))))))))) |ET|  |BS| 52:E02 54:G05.360.340.024.340.375.500.791.150 353:G04.299.134 418:D12.644.360.075.718.937 559:E01.370.225.500.384.100 906:D08.811.277.656.262.500.126.350.300 1248:D08.811.913.400.725.115.690 1407:D12.776.624  |ES| 2:1 7:1 10:1 14:1 19:1 94:1 158:1 185:1 202:1 235:1 249:1 275:1 394:1 601:1 661:1 709:1 756:1 862:1 988:1 1099:1 1135:1 1373:1 1378:1 1436:1 1984:1 2911:1 4796:1 4809:1 4810:1 4811:1 5111:1 5112:1 5113:1 5114:1  |EV| 
3.2587713040417143339766425924608  |BT| (NP (NP (JJ (Formalin-fixed))(, (,))(NP (NP (NP (NN (paraffin))(JJ (wax-embedded))(JJ (pre-operative))(NN (biopsy)))(PRN (-LRB- (-LRB-))(S (NP (NN (n)))(VP (JJ (=))(NP (CD (14)))))(-RRB- (-RRB-))))(NP (NP (NP (JJ (surgical))(NN (resection))(NN (specimen)))(PRN (-LRB- (-LRB-))(S (NP (NN (n)))(VP (JJ (=))(NP (CD (40)))))(-RRB- (-RRB-))))(NP (S (NP (NP (NN (patient))(JJ (rectal))(NN (carcinoma)))(PRN (-LRB- (-LRB-))(NP (JJ (clinical))(NN (UICC))(NN (stage))(NN (II/III)))(-RRB- (-RRB-))))(VP (VBG (receiving))(NP (NP (JJ (neo-adjuvant))(JJ (5-FU-based))(NN (chemoradiotherapy)))(VP (VBN (studied))(S (NP (NN (TS))(: (-))))))))(, (,))(NP (ADJP (NN (TP))(: (-))(, (,))(ADJP (JJ (DPD-gene))))(NN (expression))(JJ (quantitative))(NNP (TaqMan))(JJ (real-time))(NN (PCR))(NN (laser))(NN (microdissection)))))))) |ET|  |BS| 6:G05.360.340.024.340 50:M01.643 115:E04 154:Z01.058.266.887 257:E05.393.620.500.706 333:D01.045 346:E05.393.620.500.706 347:D02.047.407 559:E01.370.225.500.384.100 560:D03.383.742.698.875.404 561:E02.186.079.500 1341:E01.370.225.998.221.580.500 1342:Z01.639.040 1343:D02.455.612  |ES| 2:1 10:1 14:1 19:1 84:1 115:1 120:1 128:1 304:1 341:1 401:1 548:1 580:1 581:1 582:1 817:1 874:1 875:1 1129:1 1154:1 1440:1 1550:1 1984:1 1986:1 1987:1 1988:1 1989:1 3543:1 4046:1 4782:1 4783:1 4784:1 4785:1 4786:1 4787:1 4788:1 4789:1 4790:1  |EV| 
-3.2587713040417143339766425924608  |BT| (S (PP (IN (In))(NP (NN (HT-29))(NN (cell))))(, (,))(NP (NN (pterostilbene)))(VP (VBD (reduced))(SBAR (S (NP (NP (NN (protein))(NN (level))(NN (beta-catenin)))(, (,))(NP (NN (cyclin))(NN (D1))(NN (c-MYC)))(, (,))(NP (JJ (altered))(JJ (cellular))(NN (localization))(NN (beta-catenin))))(VP (VBD (inhibited))(NP (NN (phosphorylation))(NN (p65)))))))) |ET|  |BS| 7:D12.776 23:D12.776.091.249 41:A11 122:C14.280.383 215:D12.644.360.262.150.100 792:A11.251.210.190.475 972:G02.111.087.677  |ES| 2:1 4:1 19:1 60:1 94:1 244:1 249:1 365:1 452:1 625:1 693:1 743:1 744:1 2428:1 2484:1 2782:1 3074:1 3426:1 5016:1  |EV| 
-3.2587713040417143339766425924608  |BT| (S (NP (NP (ADJP (RB (Highly))(JJ (metastatic)))(JJ (hepatocellular))(NN (carcinoma)))(VP (VBD (induced))(NP (NP (JJ (male))(NN (F344))(NN (rat)))(NP (VBN (treated))(NN (N-nitrosomorpholine))(NN (combination))(NNS (hepatocarcinogens))))))(VP (VBP (show))(NP (JJ (high))(NN (incidence))(NN (p53))(NN (gene))(NN (mutation)))(PP (IN (along))(NP (JJ (altered))(NN (mRNA))(NN (expression))(JJ (tumor-related))(NN (gene)))))) |ET|  |BS| 2:G05.360.340.024.340.375.249.385 8:C04 18:G05.365.590 52:E02 104:C04.557.470.200.025.255 111:D13.444.735.544 149:G05.360.340.024.340.364.875.890 155:G05.355.310 434:E05.318.308.985.525.375 590:B01.050.050.199.520.760.200  |ES| 9:1 12:1 19:1 34:1 115:1 178:1 303:1 304:1 325:1 337:1 412:1 429:1 530:1 693:1 849:1 1099:1 1402:1 1511:1 2666:1 2705:1 3185:1 3989:1 5432:1 5433:1  |EV| 
3.2587713040417143339766425924608  |BT| (S (ADVP (RB (Moreover)))(, (,))(VP (NP (NN (DENA)))(VP (VBD (decreased))(NP (NP (NN (gene))(NN (expression))(NN (GSHPx)))(, (,))(NP (NN (GST))(NN (CAT)))))(VP (VBD (caused))(NP (JJ (severe))(JJ (histopathological))(NN (lesion))(NN (liver))(NN (tissue)))))) |ET|  |BS| 98:A10 155:G05.355.310 242:A03.620 554:D02.654.442.200 1388:B01.050.150.900.649.147.354.250.125 1389:B01.050.150.900.649.147.354.250  |ES| 2:1 9:1 19:1 115:1 202:1 272:1 622:1 836:1 1131:1 2506:1 3527:1 4413:1 5034:1 5035:1 5036:1 5037:1  |EV| 
-3.2587713040417143339766425924608  |BT| (S (NP (PRP (We)))(VP (VBD (demonstrated))(SBAR (S (NP (NN (miR-122)))(VP (VBD (suppressed))(NP (NP (JJ (insulin-like))(NN (growth))(NN (factor))(CD (1))(NN (receptor))(-LRB- (-LRB-))(NN (IGF-1R))(-RRB- (-RRB-))(NN (translation)))(VP (VBD (sustained))(NP (NP (NP (NN (glycogen))(NN (synthase))(NN (kinase-3))(NN (beta)))(PRN (-LRB- (-LRB-))(NP (NN (GSK-3beta)))(-RRB- (-RRB-))))(NN (activity)))))))))) |ET|  |BS| 145:G02.111.087.675.871 518:D08.811.913.696.620.682.725.400.185 809:L01.178.682.920  |ES| 10:1 14:1 19:1 66:1 92:1 98:1 102:1 185:1 186:1 307:1 399:1 473:1 843:1 1175:1 1789:1 1847:1 1972:1 2093:1 3652:1 3653:1 5563:1  |EV| 
1.8612413074389877465364406816661  |BT| (S (PP (IN (In))(NP (NN (summary))))(, (,))(NP (NN (SAHA)))(VP (VP (VBD (inhibited))(S (NP (NN (growth))(JJ (human))(JJ (pancreatic))(NN (cancer))(NN (cell)))(VP (VBG (inducing))(NP (NN (apoptosis))))))(, (,))(NP (NP (NN (differentiation))(NN (cell))(NN (cycle))(NN (arrest)))(, (,))(ADVP (RB (well)))(NP (NN (increase))(NN (expression))(JJ (several))(NN (tumor))(NN (suppressor))(NN (gene)))))) |ET|  |BS| 39:G04.299.139.160 41:A11 45:G07.700.320.249 55:B01.050.150.900.649.801.400.112.400.400 74:G04.299.151 122:C14.280.383 206:G05.360.340.024.340.375.249 773:G04.299.134.109  |ES| 2:1 7:1 9:1 18:1 19:1 36:1 40:1 89:1 94:1 102:1 115:1 215:1 244:1 262:1 365:1 467:1 490:1 601:1 602:1 700:1 787:1 1864:1 4915:1  |EV| 
-3.2587713040417143339766425924608  |BT| (S (NP (NN (Hesperidin))(NN (treatment)))(VP (VBD (caused))(SBAR (S (NP (JJ (significant))(NP (NP (NN (up-regulation))(NN (tumour))(NN (suppressor))(NN (phosphatase))(NN (tensin))(NN (homologue)))(PRN (-LRB- (-LRB-))(NP (NN (PTEN)))(-RRB- (-RRB-))))(NN (reduction))(NN (expression))(NNP (AOM)))(VP (VBD (mediated))(NP (NN (p-PI3K))(NN (p-Akt)))))))) |ET|  |BS| 52:E02 132:D02.172.080 142:I01.880.604 206:G05.360.340.024.340.375.249 378:D08.811.913.696.620.682.700.755 1035:D08.811.277.352.650 1290:D08.811.913.696.620.500 1477:D03.383.663.283.266.450.252.500  |ES| 10:1 14:1 19:1 115:1 135:1 226:1 370:1 437:1 546:1 700:1 896:1 1011:1 1936:1 1994:1 2506:1 3619:1 3620:1 5429:1 5430:1 5431:1  |EV| 
1.2102135783648009237367659807205  |BT| (S (NP (NN (Penta-1,2,3,4,6-O-galloyl-beta-D-glucose)))(VP (VP (VBZ (induces))(SBAR (S (NP (NN (p53)))(VP (VBZ (inhibits))(NP (NN (STAT3))(NN (prostate))(NN (cancer))(NN (cell))(NN (vitro)))))))(VP (VBZ (suppresses))(NP (NN (prostate))(NN (xenograft))(NN (tumor))(NN (growth)))(FW (vivo))))) |ET|  |BS| 2:G05.360.340.024.340.375.249.385 41:A11 45:G07.700.320.249 82:D12.644.360.024.342.300 91:D09.546.359.448 92:E04.936.764 93:A01.941.875 122:C14.280.383 202:C04.588.945.440.770  |ES| 7:1 12:1 18:1 19:1 77:1 94:1 102:1 214:1 216:1 251:1 265:1 378:1 615:1 685:1 686:1  |EV| 
-3.2587713040417143339766425924608  |BT| (S (ADVP (RB (Furthermore)))(, (,))(NP (NN (UDCA)))(VP (VBD (inhibited))(NP (NP (NN (Cox-2))(NN (induction))(JJ (Ras-dependent)))(: (-))(NP (JJ (independent))(NN (mechanism)))))) |ET|  |BS| 1:G05.360.340.024.340.375.500.791.550 122:C14.280.383 737:D04.808.105.225.272.962  |ES| 2:1 19:1 62:1 162:1 334:1 365:1 736:1 2631:1 5425:1 5426:1  |EV| 
-3.2587713040417143339766425924608  |BT| (S (NP (NN (Induction))(NN (SPARC)))(VP (VBD (demonstrated))(NP (NN (treatment))(JJ (demethylating))(NN (agent))(NN (5Aza-dC))(CD (5))(CD (7))(NN (cell))(NN (line))))) |ET|  |BS| 37:D12.776.157.125.715 94:A11.251.210 775:E02.760.058  |ES| 19:1 82:1 94:1 264:1 546:1 578:1 728:1 988:1 1175:1 2020:1 5446:1 5447:1  |EV| 
2.8035608844185162524809129536152  |BT| (S (NP (NNS (Levels))(NN (PGE2)))(VP (VBD (correlated))(NP (NN (YAP))(NN (level))(JJ (human))(JJ (sporadic))(JJ (colorectal))(NN (tumor))(JJ (colitis-associated))(NN (tumor))))) |ET|  |BS| 8:C04 53:C06.405.205.265 55:B01.050.150.900.649.801.400.112.400.400 1031:C04.588.274.476.411.307 1118:D10.251.355.255.550.250.200  |ES| 7:1 17:1 19:1 36:1 249:1 410:1 446:1 725:1 4988:1 4989:1 4990:1  |EV| 
-3.2587713040417143339766425924608  |BT| (S (NP (NN (CpG))(NN (island))(NN (methylation))(NN (expression))(NN (ALX4)))(VP (VP (VBD (evaluated))(NP (NP (JJ (methylation-specific))(NN (polymerase))(NN (chain))(NN (reaction)))(PRN (-LRB- (-LRB-))(NP (NN (PCR)))(-RRB- (-RRB-)))))(, (,))(NP (NP (JJ (bisulfite))(JJ (genomic))(NN (sequencing)))(, (,))(NP (JJ (reverse-transcription))(NN (PCR))(NN (Western))(NN (blotting)))))) |ET|  |BS| 36:G02.111.087.029.538 195:G02.111.570.080.380.160 225:E05.337 256:E05.196.401.143 268:H01.158.273.180.350 269:G05.360.340 272:E05.393.620.500.725 448:E05.393.620.500  |ES| 2:1 10:1 14:1 19:1 81:1 115:1 394:1 662:1 663:1 768:1 780:1 872:1 875:1 910:1 941:1 4584:1 5580:1 5601:1 5602:1 5603:1 5604:1  |EV| 
1.1537975605839125847751347464509  |BT| (S (NP (NN (HO-3867)))(VP (VBD (induced))(NP (NN (G))(S (-LRB- (-LRB-))(NP (NP (CD (2))(-RRB- (-RRB-))(: (-)))(NP (NP (NN (M))(NN (cell))(NN (cycle))(NN (arrest))(NN (A2780))(NN (cell))(NN (modulating))(NN (cell))(NN (cycle))(JJ (regulatory))(NN (molecule))(NN (p53)))(, (,))(NP (NN (p21)))(, (,))(NP (NN (p27)))(, (,))(NP (JJ (cyclin-dependent))(NN (kinase))(CD (2)))(, (,))(NP (NN (cyclin)))(, (,))))(VP (VBD (promoted))(NP (NN (apoptosis))(NN (caspase-8))(NN (caspase-3))(NN (activation)))))))) |ET|  |BS| 2:G05.360.340.024.340.375.249.385 39:G04.299.139.160 41:A11 353:G04.299.134 768:D12.776.660.740 773:G04.299.134.109 906:D08.811.277.656.262.500.126.350.300 1034:D08.811.277.656.262.500.126.550.800 1280:D12.644.360.262 1365:D08.811.913.696.620.682.700.646.500.750  |ES| 2:1 10:1 12:1 14:1 19:1 89:1 94:1 148:1 180:1 225:1 412:1 470:1 601:1 602:1 743:1 1124:1 1135:1 1817:1 1912:1 2435:1 3016:1 3612:1 4546:1 4807:1 4880:1 4881:1 4882:1  |EV| 
-3.2587713040417143339766425924608  |BT| (S (NP (NN (Evodiamine)))(ADVP (RB (also)))(VP (VBD (suppressed))(SBAR (S (NP (NN (STAT3))(NN (DNA))(NN (binding))(NN (activity)))(VP (VBD (down-regulated))(NP (NP (NN (expression))(JJ (STAT3-mediated))(NN (gene)))(VP (VBG (leading))(NP (NN (suppression))(NN (proliferation)))))))))(, (,))(NP (NN (induction))(NN (cell))(NN (apoptosis))(NN (cell))(NN (cycle))(NN (arrest)))) |ET|  |BS| 39:G04.299.139.160 41:A11 82:D12.644.360.024.342.300 86:D01.268.556.435 142:I01.880.604 155:G05.355.310 198:D13.444.308 351:A17.360 773:G04.299.134.109  |ES| 2:1 5:1 9:1 19:1 89:1 94:1 115:1 251:1 299:1 307:1 399:1 601:1 602:1 639:1 666:1 736:1 1283:1 1487:1 2453:1 5620:1 5621:1  |EV| 
0.93482164382901444810158864129335  |BT| (S (PP (IN (In))(NP (NN (addition))))(, (,))(NP (NN (reporter))(NN (assay)))(VP (VBD (indicated))(SBAR (S (NP (NN (FXRE))(NN (promoter))(NN (activity)))(ADVP (RB (significantly)))(VP (VBD (increased))(NP (NP (NN (treatment))(NN (ACR)))(CC (plus))(NP (NN (GW4064))))))))) |ET|  |BS| 52:E02 106:E05.091  |ES| 2:1 19:1 47:1 83:1 124:1 244:1 288:1 310:1 399:1 468:1 546:1 1541:1 4503:1 4504:1 4887:1 4888:1  |EV| 
-3.2587713040417143339766425924608  |BT| (S (NP (NP (JJ (Forced))(NN (inhibition))(NN (p38))(NN (MAPK))(NN (activity))(JJ (specific))(JJ (pharmacological))(NN (inhibitor))(NN (SB203580))(NN (p38))(NN (MAPK))(NN (gene))(NN (knockdown)))(VP (VBG (using))(NP (NP (JJ (small-interfering))(NN (RNA)))(PRN (-LRB- (-LRB-))(NP (NN (siRNA)))(-RRB- (-RRB-))))))(VP (VBD (counteracted))(NP (NN (effect))(NN (FL3)))(, (,))(S (VP (VBG (demonstrating))(NP (NP (JJ (chemopreventive))(NN (action))(JJ (related))(NN (growth))(NN (inhibition)))(NP (NP (JJ (p38-dependent))(JJ (caspase-3-dependent))(NN (induction))(NN (apoptosis)))(NP (JJ (Oct4-expressing))(NNS (CSCs))))))))) |ET|  |BS| 39:G04.299.139.160 43:F01.145.544 45:G07.700.320.249 117:D13.150.650.700 400:E05.393.335.500 556:C11.768.175 906:D08.811.277.656.262.500.126.350.300 1059:H01.158.703 1520:D08.811.913.696.620.682.700.567.843 1521:D12.776.260.655.500.300  |ES| 2:1 9:1 10:1 14:1 19:1 75:1 89:1 102:1 103:1 350:1 351:1 380:1 399:1 419:1 464:1 515:1 527:1 540:1 736:1 809:1 1666:1 1946:1 1966:1 2013:1 3707:1 4883:1 5630:1 5631:1 5632:1 5633:1 5634:1 5635:1 5636:1  |EV| 
-3.2587713040417143339766425924608  |BT| (S (ADVP (RB (Notably)))(, (,))(NP (NN (AcEGCG)))(VP (VP (VBD (inhibited))(NP (NP (NN (expression))(NN (p53))(, (,))(NN (p21))(, (,))(NN (c-Myc))(, (,))(NN (cyclin))(NN (B)))(, (,))(NP (NN (p-CDK1))(NN (Cdc25A))))(ADVP (RB (also)))(VP (VBD (restored))(NP (NN (activation))(NP (NP (JJ (extracellular))(JJ (signal-regulated))(NN (kinase))(CD (1/2)))(PRN (-LRB- (-LRB-))(NP (NN (ERK1/2)))(-RRB- (-RRB-)))))))(, (,))(VP (VBD (decreased))(NP (JJ (DMBA/TPA-induced))(NN (increase))(NN (tumor))(NN (proliferation))(JJ (mitotic))(NN (index)))))) |ET|  |BS| 2:G05.360.340.024.340.375.249.385 8:C04 116:D08.811.913.696.620.682.700.567.249.750 122:C14.280.383 212:E01.370.225.500.385.500 1487:D08.811.913.696.620.682.700.646.500.500.250 1488:D02.455.426.559.847.149.301 1489:D08.811.277.656.300.760.875 1490:D12.644.360.262.120  |ES| 2:1 5:1 7:1 10:1 12:1 14:1 19:1 40:1 115:1 202:1 225:1 299:1 365:1 470:1 720:1 721:1 743:1 763:1 824:1 1135:1 1707:1 2798:1 4594:1 4812:1 4893:1 4966:1 5478:1 5479:1 5480:1 5481:1  |EV| 
3.2587713040417143339766425924608  |BT| (S (NP (JJ (Isochaihulactone-inducible))(NN (gene)))(VP (VBD (included))(S (NP (NP (JJ (early))(NN (growth))(NN (response))(NN (gene-1)))(PRN (-LRB- (-LRB-))(NP (NN (EGR-1)))(-RRB- (-RRB-))))(NP (NP (JJ (nonsteroidal))(JJ (anti-inflammatory))(JJ (drug-activated))(NN (gene)))(PRN (-LRB- (-LRB-))(NP (NN (NAG-1)))(-RRB- (-RRB-))))))) |ET|  |BS| 6:G05.360.340.024.340 45:G07.700.320.249 796:D27.505.696.663.850.014.040.500  |ES| 9:1 10:1 14:1 19:1 102:1 494:1 1128:1 1528:1 1662:1 1859:1 2795:1 3046:1 3874:1 4977:1 4978:1  |EV| 
3.2587713040417143339766425924608  |BT| (S (NP (NP (JJ (Global))(NN (gene))(NN (expression))(NN (analysis)))(NP (JJ (subsequent))(JJ (quantitative))(JJ (real-time))(JJ (reverse))(NN (transcription-polymerase))(NN (chain))(NN (reaction))))(VP (VBD (revealed))(NP (NN (BNF))(VBD (induced))(`` (`))(NP (NN (AhR))(NN (gene))(NN (battery'Cyp))(NN (1a1)))(, (,))(NP (NN (Cyp1a2)))(, (,))(NP (NN (Cyp1b1)))(, (,))(NP (NN (Nqo1)))(, (,))(NP (NN (Aldh3a1))(NN (Ugt1a6)))(RB (also))(NP (NP (NN (transcription))(NN (factor))(JJ (NF-E2-related))(NN (factor))(CD (2)))(PRN (-LRB- (-LRB-))(NP (NN (Nrf2)))(-RRB- (-RRB-))))(PRN (: (-))(NP (NP (VBN (regulated))(NN (gene))(NN (Gstm1))(, (,))(NN (Gpx2))(, (,))(NP (NP (NN (Akr7a3))(NN (Yc2)))(PRN (-LRB- (-LRB-))(ADVP (RB (also)))(NP (NN (Nqo1)))(-RRB- (-RRB-))))(, (,)))(NP (RB (presumably))(JJ (due))(JJ (adaptive))(NN (response))(JJ (BNF-triggered))(JJ (oxidative))(NN (stress))(NN (response)))))))) |ET|  |BS| 6:G05.360.340.024.340 142:I01.880.604 155:G05.355.310 197:A01.456.505.420 257:E05.393.620.500.706 346:E05.393.620.500.706 573:N05.715.350.200.650 591:G02.111.087.847.500 705:D08.244.453.040.443 716:G03.495.710 799:D12.776.260.615.249 1351:D08.244.453.040.500 1352:D08.244.453.040.332 1353:D12.776.260.262.500.750  |ES| 2:1 5:1 9:1 10:1 14:1 19:1 115:1 148:1 185:1 275:1 412:1 487:1 494:1 661:1 768:1 817:1 874:1 939:1 941:1 1319:1 2522:1 2583:1 2851:1 4037:1 4355:1 4830:1 4831:1 4832:1 4833:1 4834:1 4835:1 4836:1 4837:1 4838:1 4839:1 4840:1 4841:1 4842:1 4843:1 4844:1 4845:1 4846:1 4847:1  |EV| 
-3.2587713040417143339766425924608  |BT| (S (NP (DT (These)))(VP (VBP (result))(, (,))(NP (NP (ADVP (RB (together)))(NP (NNP (National))(NNP (Toxicology))(NNP (Program))(NN (study)))(VP (VBG (showing))(NP (NN (evidence))(NN (cytotoxicity))(NN (genotoxicity))(NN (oxazepam)))))(, (,))(S (VP (VBP (suggest))(SBAR (S (NP (NN (oxazepam)))(ADVP (RB (preferentially)))(VP (VBZ (promotes))(NP (NN (cell))(VBG (activating))(NN (lesion))(NN (ra))))))))))) |ET|  |BS| 1:G05.360.340.024.340.375.500.791.550 13:D01.339.387 41:A11 946:D27.888.569.213 1265:H01.158.891 1329:D03.438.079.080.070.663  |ES| 2:1 19:1 38:1 94:1 101:1 131:1 298:1 792:1 796:1 1115:1 1131:1 1538:1 1958:1 2201:1 3317:1 3336:1 4491:1 4492:1 4493:1 4741:1 4819:1  |EV| 
1.5187586780828326027403818443418  |BT| (S (NP (JJ (Oral))(NN (administration))(NN (gefitinib))(JJ (able))(VBP (prevent))(NP (NN (outgrowth))(NN (Bam1a))(NN (tumor))(NN (cell))(JJ (palpable))(NN (lesion))))(PRN (, (,))(S (VP (VB (shrink))(NP (VBN (established))(NN (tumor)))))(, (,)))(VP (VB (eliminate))(NP (NP (NN (HER2))(NN (HER3))(NN (phosphorylation)))(, (,))(NP (NP (NN (decrease))(NN (MAPK))(NN (Akt))(NN (signaling)))(FW (vivo)))))) |ET|  |BS| 8:C04 30:Z01.058.290.190.800 31:D08.811.520.224.800 41:A11 63:G05.360.340.024.340.375.500.791.295.305 65:D08.811.913.696.620.682.725.400.009.400 69:G02.111.087.800 378:D08.811.913.696.620.682.700.755 385:F02.784.629.131 739:E02.319.267.100 972:G02.111.087.677  |ES| 2:1 7:1 19:1 94:1 188:1 195:1 295:1 378:1 733:1 809:1 1131:1 1289:1 2575:1 2660:1 2832:1 3310:1 3426:1 4031:1 4961:1 5071:1 5072:1 5073:1 5074:1 5075:1  |EV| 
-3.2587713040417143339766425924608  |BT| (S (S (NP (NN (ERK)))(VP (VBD (mediated))(SBAR (S (NP (NN (upregulation))(NN (death))(NN (receptor))(CD (5)))(VP (VBZ (overcomes))(SBAR (S (NP (NN (lack))(NN (p53))(NN (functionality))(NN (diaminothiazole))(NN (DAT1)))(VP (VBD (induced))(NP (NN (apoptosis))(NN (colon))(NN (cancer))(NN (model)))))))))))(: (:))(S (NP (NN (efficiency))(NN (DAT1))(NN (Ras-Raf)))(NP (VBN (mutated))(NN (cell))))) |ET|  |BS| 1:G05.360.340.024.340.375.500.791.550 2:G05.360.340.024.340.375.249.385 39:G04.299.139.160 41:A11 249:G05.355.315.800 252:F02.784.692.351 339:G02.111.087.880  |ES| 12:1 18:1 19:1 72:1 89:1 94:1 104:1 113:1 186:1 229:1 411:1 412:1 437:1 578:1 868:1 1126:1 3239:1 3910:1 3915:1 3937:1 5047:1 5618:1 5619:1  |EV| 
3.2587713040417143339766425924608  |BT| (NP (NP (NN (Calcium))(NN (chloride)))(, (,))(NP (NN (DFMO))(NN (piroxicam)))(NP (NP (VBD (increased))(NN (protein))(NN (mRNA))(NN (level))(NN (p16)))(PP (IN (along))(NP (NN (sulindac)))))(NP (VBD (increased))(NN (protein))(NN (level))(NN (p27)))(, (,))(NP (NN (mRNA)))) |ET|  |BS| 7:D12.776 111:D13.444.735.544 203:G05.360.340.024.340.375.249.375 251:D02.455.426.559.847.486.875 1294:D01.146.300 1295:D12.125.068.665.340 1296:D02.886.665.500  |ES| 2:1 4:1 19:1 47:1 249:1 325:1 869:1 1124:1 1313:1 2666:1 2788:1 4612:1 4613:1 4614:1  |EV| 
2.6730755989697172481101006269455  |BT| (S (NP (ADJP (FW (In))(FW (vivo)))(NN (treatment))(NN (imatinib)))(ADVP (RB (also)))(VP (VBP (block))(NP (NN (expression))(NN (CD34))(NN (PDGF-C))(NN (Tg))(NN (mouse))))) |ET|  |BS| 11:B01.050.150.900.649.865.635.505.500 52:E02 122:C14.280.383  |ES| 5:1 19:1 52:1 115:1 244:1 378:1 546:1 742:1 4916:1 4920:1 4936:1 4937:1  |EV| 
-3.2587713040417143339766425924608  |BT| (S (NP (NNP (Nestin))(NN (silencing)))(VP (ADVP (RB (also)))(VP (VBD (upregulated))(NP (NP (NN (Axin))(, (,))(NP (NP (NN (glycogen))(NN (synthase))(NN (kinase-3))(NN (beta)))(PRN (-LRB- (-LRB-))(NP (NN (GSK-3beta)))(-RRB- (-RRB-))))(, (,))(NP (JJ (adenomatous))(NN (polyposis))(NN (coli))(PRN (-LRB- (-LRB-))(NP (NN (APC)))(-RRB- (-RRB-))))(, (,)))(NP (NP (NN (peroxisome))(JJ (proliferator-activated))(NN (receptor))(NN (alpha)))(PRN (-LRB- (-LRB-))(NP (NN (PPARa)))(-RRB- (-RRB-))))))(, (,))(VP (VBD (downregulated))(NP (NP (NN (beta-catenin)))(, (,))(NP (NN (c-Myc)))(, (,))(NP (NP (NN (cyclin))(NN (D)))(NN (MMP-7))(NN (expression))(NNP (CSC))))))) |ET|  |BS| 3:C04.557.470.035.215.100 21:G05.360.340.024.340.375.249.050 23:D12.776.091.249 536:D12.776.826.239.500 556:C11.768.175 937:D08.811.277.656.300.480.525.700.250 1046:D12.644.360.262.150 1047:D05.750.078.593.540  |ES| 2:1 5:1 10:1 11:1 14:1 19:1 57:1 58:1 59:1 60:1 66:1 92:1 100:1 115:1 125:1 186:1 426:1 743:1 824:1 1801:1 1836:1 1887:1 1972:1 2592:1 3577:1 3650:1 3651:1 3652:1 3653:1 3654:1 3655:1  |EV| 
3.2587713040417143339766425924608  |BT| (S (VP (ADVP (RB (Moreover)))(, (,))(NP (NN (inhibition))(NN (EIF5A))(JJ (small))(S (VP (VBG (interfering))(NP (NP (NP (NN (RNA))(-LRB- (-LRB-))(NN (siRNA))(-RRB- (-RRB-))(NN (deoxyhypusine))(NN (synthase)))(PRN (-LRB- (-LRB-))(NP (NN (DHPS)))(-RRB- (-RRB-))))(NP (NN (inhibitor))(NN (GC7)))))))(, (,))(VP (VBZ (inhibits))(NP (NN (EIF5A2))(NN (maturation))))(, (,))(VP (MD (could))(ADVP (RB (effectively)))(VP (VB (decrease))(NP (NN (cell))(NN (motility))))))) |ET|  |BS| 43:F01.145.544 117:D13.150.650.700 122:C14.280.383  |ES| 2:1 10:1 14:1 19:1 66:1 94:1 103:1 295:1 351:1 380:1 515:1 615:1 622:1 750:1 908:1 1177:1 1311:1 2977:1 3019:1 5038:1 5039:1 5040:1 5041:1 5042:1  |EV| 
-3.2587713040417143339766425924608  |BT| (S (NP (NP (DT (The))(JJ (dysplastic))(NN (epithelium))(NN (K-rasVal12)))(CC (x))(NP (NN (TAgWt))(NN (mouse))))(VP (VBP (develop))(NP (NN (neoplasm))))) |ET|  |BS| 8:C04 11:B01.050.150.900.649.865.635.505.500 62:A10.272  |ES| 19:1 52:1 173:1 648:1 691:1 1523:1 5406:1 5407:1 5531:1 5532:1  |EV| 
-3.2587713040417143339766425924608  |BT| (S (NP (NP (DT (These))(NN (animal)))(NP (VP (VP (VBN (reduced)))(PRN (-LRB- (-LRB-))(S (NP (NN (P)))(NP (JJR (<))(CD (0.05))))(-RRB- (-RRB-))))(NP (JJ (colonic))(NN (RFC1))(NN (mRNA)))))(VP (VBD (exhibited))(NP (JJ (2-fold))(NN (reduction))(NN (plasma))(NN (S-adenosylmethionine/S-adenosylhomocysteine))))) |ET|  |BS| 19:B01.050 46:A03.556.124.526.356 111:D13.444.735.544 175:J01.897.280.500.269 232:D02.886.030.676.180 657:A12.207.152.693  |ES| 10:1 14:1 19:1 46:1 311:1 312:1 325:1 370:1 452:1 609:1 677:1 792:1 2400:1 3549:1 3849:1 5266:1 5267:1  |EV| 
-3.2587713040417143339766425924608  |BT| (S (NP (JJ (Consistent))(NN (finding))(, (,))(NN (treatment))(NP (NP (NN (protein))(NN (kinase))(NN (A)))(PRN (-LRB- (-LRB-))(NP (NN (PKA)))(-RRB- (-RRB-))))(NN (inhibitor)))(VP (VBD (decreased))(NP (NN (MMP2))(NN (MMP9))(NN (expression))(NN (level))(JJ (ADCY3-overexpressing))(NN (cell))))) |ET|  |BS| 41:A11 52:E02 586:D08.811.277.656.300.480.205.360 1417:D08.811.277.656.300.480.205.352  |ES| 2:1 4:1 10:1 14:1 19:1 69:1 94:1 115:1 202:1 249:1 380:1 470:1 546:1 927:1 3395:1 5408:1 5409:1 5410:1 5411:1  |EV| 
3.2587713040417143339766425924608  |BT| (S (NP (NP (NNS (Rats)))(VP (VBN (fed))(NP (JJ (high-dose))(NN (CP-31398))(NN (combination))(JJ (low-dose))(NN (CP-31398))(NN (celecoxib)))))(VP (VBD (showed))(NP (NP (NP (NP (NP (JJ (considerable))(NN (enhancement))(NN (p53))(NN (p21)))(PRN (-LRB- (-LRB-))(NP (NN (WAF1/CIP)))(-RRB- (-RRB-))))(NN (expression)))(, (,))(NP (NN (apoptosis)))(, (,)))(VP (VBN (reduced))(NP (NN (tumor))(NN (cell))(NN (proliferation))(JJ (colonic))(NN (tumor))))))) |ET|  |BS| 2:G05.360.340.024.340.375.249.385 8:C04 39:G04.299.139.160 51:C04.588.274.476.411.307.180 183:G04.299.233.750 245:B01.050.150.900.649.865.635.505.700 246:B01.050.150.900.649.865.635.505.700 663:C16.320.565.398.500.330.500 684:D02.065.884.247  |ES| 2:1 7:1 10:1 12:1 14:1 19:1 89:1 94:1 115:1 132:1 299:1 452:1 530:1 677:1 1135:1 2278:1 2426:1 2807:1 3047:1 3049:1 3664:1 5117:1 5118:1 5119:1  |EV| 
-3.2587713040417143339766425924608  |BT| (S (S (VP (VBN (Taken))(ADVP (RB (together)))))(, (,))(NP (NN (DEHP)))(VP (MD (may))(VP (VB (induce))(SBAR (S (NP (NP (JJ (hepatocellular))(NN (adenoma)))(, (,))(NP (NN (part)))(, (,))(SBAR (IN (via))(S (NP (NN (suppression))(NN (G2/M))(NN (arrest)))(VP (VBN (regulated))(NP (NN (Gadd45a))(NN (caspase))(JJ (3-dependent))(NN (apoptosis))(NN (Ppar))(JJ (alpha-null))(NN (mouse))))))(, (,))(NP (NN (gene))))(VP (MD (may))(NP (VBN (involved))(NN (tumorigenesis))(JJ (wild-type))(NN (mouse))))))))) |ET|  |BS| 6:G05.360.340.024.340 11:B01.050.150.900.649.865.635.505.500 29:B01.050.050.136.500.500 32:C04.697.098.500 33:C04.697.098 39:G04.299.139.160 142:I01.880.604 536:D12.776.826.239.500 906:D08.811.277.656.262.500.126.350.300 911:D02.241.223.805.250 1194:C04.557.470.035.120  |ES| 2:1 8:1 9:1 19:1 42:1 52:1 78:1 89:1 243:1 303:1 451:1 491:1 596:1 602:1 774:1 1537:1 1538:1 1664:1 2453:1 2528:1 3205:1 4796:1 5384:1 5385:1 5526:1 5527:1  |EV| 
3.2587713040417143339766425924608  |BT| (NP (NP (NP (NNP (Grifolin)))(, (,))(NP (JJ (potent))(NN (antitumour))(JJ (natural))(NN (product)))(VP (VBZ (upregulates))(NP (NP (JJ (death-associated))(NN (protein))(NN (kinase))(CD (1))(NN (DAPK1)))(PP (IN (via))(NP (NN (p53))(JJ (nasopharyngeal))(NN (carcinoma))(NN (cell)))))))) |ET|  |BS| 2:G05.360.340.024.340.375.249.385 41:A11 793:D20.215 1285:D08.811.913.696.620.682.700.125.387  |ES| 2:1 4:1 12:1 19:1 22:1 94:1 98:1 304:1 470:1 596:1 675:1 1178:1 2153:1 2333:1 4572:1 4849:1 4850:1 4851:1  |EV| 
3.2587713040417143339766425924608  |BT| (S (ADVP (RB (Furthermore)))(, (,))(NP (NN (cancer))(NN (cell)))(VP (VBD (showed))(SBAR (S (NP (VBN (increased))(NN (level))(VBN (activated))(NN (caspase-3)))(VP (VBD (increased))(NP (NN (Bax))(NN (Bcl-2))(NN (Bax))(NN (Bcl-xL))(NN (ratio)))(, (,))(S (VP (VBG (suggesting))(NP (NP (NN (cell)))(VP (VBG (undergoing))(NP (NN (apoptosis)))))))))))) |ET|  |BS| 39:G04.299.139.160 41:A11 54:G05.360.340.024.340.375.500.791.150 342:D12.644.360.075.718.400 906:D08.811.277.656.262.500.126.350.300  |ES| 2:1 18:1 19:1 47:1 89:1 94:1 132:1 158:1 163:1 249:1 334:1 1009:1 2940:1 4630:1 4807:1 4814:1 4815:1  |EV| 
-3.2587713040417143339766425924608  |BT| (S (S (NP (DT (Both))(NNP (Tyr))(-LRB- (-LRB-))(CD (705))(-RRB- (-RRB-))(NN (phosphorylation))(NN (binding))(NN (STAT3))(NN (MICA))(NN (promoter)))(VP (VBD (reduced))(NP (NN (GSK3))(NN (inhibitor)))))(: (;))(S (NP (NP (NN (addition)))(, (,))(NP (NP (NN (overexpression)))(NP (ADJP (RB (constitutively))(JJ (active)))(NN (form))(NN (STAT3)))))(ADVP (RB (significantly)))(VP (VBZ (inhibits))(NP (NNP (MICA))(NN (upregulation)))))) |ET|  |BS| 82:D12.644.360.024.342.300 122:C14.280.383 189:V02.460 249:G05.355.315.800 339:G02.111.087.880 519:D05.500.117.875 634:D12.125.072.050.875 972:G02.111.087.677 1206:D08.811.682.690.708.125.500  |ES| 2:1 10:1 14:1 19:1 83:1 124:1 152:1 196:1 197:1 217:1 251:1 380:1 452:1 468:1 615:1 630:1 1126:1 1487:1 3426:1 4232:1 4678:1 5577:1 5578:1 5579:1  |EV| 
3.2587713040417143339766425924608  |BT| (S (NP (NN (CONCLUSION))(: (:)))(NP (PRP$ (Our))(NN (finding)))(VP (VBP (reveal))(NP (NN (p53))(NN (increase))(JJ (human))(NN (glioblastoma))(NN (sensitivity))(NN (celecoxib))))) |ET|  |BS| 2:G05.360.340.024.340.375.249.385 55:B01.050.150.900.649.801.400.112.400.400 592:C04.557.465.625.600.380.080.335 684:D02.065.884.247  |ES| 12:1 19:1 36:1 40:1 104:1 607:1 658:1 927:1 1670:1 1882:1 2186:1 2807:1  |EV| 
3.2587713040417143339766425924608  |BT| (S (NP (NP (JJ (Antisense))(NNS (oligodeoxynucleotides))(JJ (human))(NN (superoxide))(NN (dismutase))(CD (2)))(CC (and/or))(NP (JJ (ectopic))(NN (bcl-2))(NN (overexpression))))(VP (VBD (avoided))(NP (NP (NNS (polyphenols)))(SBAR (S (NP (JJ (chemoradiotherapy-induced))(JJ (colorectal))(NN (cancer))(NN (elimination)))(VP (VBD (showed))(NP (NP (JJ (mangano-type))(NN (superoxide))(NN (dismutase))(NN (Bcl-2))(JJ (key))(NN (target))(JJ (molecular))(NN (mechanism)))(VP (VBN (activated))(NP (JJ (combined))(NN (application))(NN (t-PTER))(NNP (QUER))))))))))) |ET|  |BS| 4:C04.588.274.476.411.307 5:C04.588.274.476.411.307 54:G05.360.340.024.340.375.500.791.150 55:B01.050.150.900.649.801.400.112.400.400 56:D02.455.426.559.389.657.715 57:D13.695.578.424.450 58:D08.811.682.881 59:E02.186.079  |ES| 17:1 18:1 19:1 36:1 132:1 144:1 145:1 146:1 147:1 148:1 149:1 150:1 151:1 152:1 153:1 154:1 155:1 156:1 157:1 158:1 159:1 160:1 161:1 162:1 163:1 164:1 165:1 166:1 167:1  |EV| 
0.082595075703792986132611986249685  |BT| (S (NP (NNP (UNLABELLED))(: (:)))(S (VP (TO (To))(VP (VB (evaluate))(NP (NN (possibility))(JJ (radionuclide))(NN (gene))(NN (therapy))(NN (imaging))(JJ (hepatocellular))(NN (carcinoma))(NN (cancer))))))(, (,))(VP (VBD (investigated))(NP (NP (NP (NN (iodine))(NN (accumulation))(JJ (human))(JJ (hepatocellular))(NN (carcinoma))(NN (cell))(NN (line)))(, (,))(NP (NN (SK-Hep1))))(, (,))(NP (NP (NN (transfer))(JJ (human))(NN (sodium))(NN (iodide))(NN (symporter)))(PRN (-LRB- (-LRB-))(NP (NN (hNIS)))(-RRB- (-RRB-))))(NP (NN (gene)))))) |ET|  |BS| 30:Z01.058.290.190.800 31:D08.811.520.224.800 38:Z01.058.290.120.180 40:Z01.542.248.700 55:B01.050.150.900.649.801.400.112.400.400 94:A11.251.210 104:C04.557.470.200.025.255 225:E05.337 265:C04.557.470.200 967:D01.248.497.158.490 1017:E01.370.350 1274:D01.268.380.400 1275:D01.496.749  |ES| 2:1 9:1 10:1 14:1 18:1 19:1 36:1 94:1 104:1 130:1 264:1 303:1 304:1 343:1 403:1 407:1 828:1 890:1 1644:1 2120:1 2266:1 3561:1 4513:1 4514:1 4515:1 4516:1 4517:1 4518:1  |EV| 
3.2587713040417143339766425924608  |BT| (S (NP (NN (Rapamycin)))(VP (VBZ (inhibits))(SBAR (S (NP (JJ (multiple))(NN (stage))(NN (c-Neu/ErbB2)))(VP (VBD (induced))(NP (NP (NN (tumor))(NN (progression))(JJ (transgenic))(NN (mouse))(NN (model)))(NP (JJ (HER2-positive))(NN (breast))(NN (cancer))))))))) |ET|  |BS| 8:C04 16:C23.550.291.656 63:G05.360.340.024.340.375.500.791.295.305 65:D08.811.913.696.620.682.725.400.009.400 99:B01.050.050.136.500 122:C14.280.383 827:D02.540.505.760 1002:C04.588.180  |ES| 7:1 18:1 19:1 23:1 48:1 52:1 72:1 285:1 412:1 615:1 649:1 1129:1 2225:1 5115:1 5116:1  |EV| 
-3.2587713040417143339766425924608  |BT| (S (NP (NNS (Analyses))(NN (xenograft)))(VP (VBD (showed))(SBAR (S (NP (NP (JJ (similar))(NN (cell))(NN (culture))(NN (finding)))(, (,))(NP (NN (silibinin))(NN (decrease))(NN (proliferation))(NN (expression))(NN (beta-catenin)))(, (,))(NP (NN (cyclin))(NN (D1)))(, (,))(NP (NP (NN (c-Myc)))(, (,))(NP (NN (CDK8)))))(VP (VBZ (induces))(NP (NN (apoptosis)))(ADVP (FW (vivo)))))))) |ET|  |BS| 23:D12.776.091.249 39:G04.299.139.160 92:E04.936.764 93:A01.941.875 215:D12.644.360.262.150.100 1514:E01.370.225.500.223  |ES| 2:1 19:1 60:1 89:1 94:1 115:1 132:1 214:1 265:1 295:1 299:1 332:1 378:1 743:1 744:1 824:1 927:1 2635:1 3098:1 5574:1 5575:1  |EV| 
-3.2587713040417143339766425924608  |BT| (S (NP (DT (The))(NN (effect))(NN (folate))(NN (transporter))(NN (gene))(NN (ablation))(NN (colon))(NN (carcinogenesis)))(VP (VBD (evaluated))(NP (NP (CD (8))(CD (38))(NN (week)))(JJ (post-azoxymethane))(NN (injection))(JJ (wild-type))(JJ (heterozygous))(NN (mouse))))) |ET|  |BS| 6:G05.360.340.024.340 11:B01.050.150.900.649.865.635.505.500 33:C04.697.098 46:A03.556.124.526.356 132:D02.172.080 157:G05.380.383 224:D03.438.733.631.400 225:E05.337 226:E02.319.267.530 227:D12.776.157.530  |ES| 8:1 9:1 19:1 52:1 75:1 91:1 113:1 207:1 691:1 778:1 779:1 780:1 781:1 782:1 783:1 784:1 785:1 786:1  |EV| 
-3.2587713040417143339766425924608  |BT| (S (NP (PRP$ (Our))(NN (study)))(ADVP (RB (also)))(VP (VBP (demonstrate))(NP (VBN (utilized))(NN (DEN/PB))(NN (protocol))(NNP (WT))(NN (C57BL/6))(NN (mouse))(JJ (select))(NN (beta-catenin))(NN (gene))(NN (mutation))(NN (hepatocarcinogenesis))))) |ET|  |BS| 18:G05.365.590 23:D12.776.091.249 593:B01.050.050.199.520.520.420  |ES| 5:1 9:1 19:1 34:1 52:1 60:1 131:1 502:1 658:1 900:1 1182:1 1995:1 2192:1 3216:1 4183:1 5498:1  |EV| 
-3.2587713040417143339766425924608  |BT| (S (PP (IN (In))(NP (NN (addition))))(, (,))(NP (NN (IBN-65)))(VP (VP (VBD (induced))(NP (NP (NN (apoptosis)))(NP (JJ (down-regulating))(NNP (Survivin)))))(, (,))(NP (NP (NN (Bcl-2))(VBG (up-regulating))(NN (Bax)))(, (,))(VP (VBG (leading))(NP (JJ (sequential))(NN (activation))(NN (Caspase-3))))(, (,))(NP (NP (NN (Caspase-9))(NN (cleavage))(NN (poly))(-LRB- (-LRB-))(NN (ADP-ribose))(-RRB- (-RRB-))(NN (polymerase)))(PRN (-LRB- (-LRB-))(NP (NN (PARP)))(-RRB- (-RRB-))))))) |ET|  |BS| 39:G04.299.139.160 54:G05.360.340.024.340.375.500.791.150 86:D01.268.556.435 150:Z01.542.248.960 342:D12.644.360.075.718.400 351:A17.360 906:D08.811.277.656.262.500.126.350.300 1248:D08.811.913.400.725.115.690 1349:D08.811.277.656.262.500.126.550.900 1440:G04.299.134.220.250  |ES| 2:1 10:1 14:1 19:1 89:1 158:1 225:1 244:1 394:1 412:1 468:1 639:1 1876:1 3097:1 3190:1 3779:1 4630:1 4810:1 4811:1 5247:1 5438:1 5439:1 5440:1 5441:1  |EV| 
3.2587713040417143339766425924608  |BT| (S (PP (IN (In))(NP (NN (conclusion))))(, (,))(VP (VBD (found))(NP (NP (NN (U0126))(JJ (atypical))(NN (PXR))(NN (ligand)))(PP (IN (via))(NP (NP (NP (NP (JJ (direct)))(PRN (-LRB- (-LRB-))(NP (NN (binding))(NN (activation))(NN (PXR)))(-RRB- (-RRB-))))(ADJP (ADJP (JJ (indirect)))(PRN (-LRB- (-LRB-))(NP (NN (SHP))(NN (dowregulation)))(-RRB- (-RRB-)))))(NN (mechanism)))))(PP (ADVP (RB (selectively)))(VBZ (restores))(NP (NN (CYP3A))(NN (gene))(NN (HepG2))(NN (cell)))))) |ET|  |BS| 6:G05.360.340.024.340 170:D27.720.470.480 1015:A11.251.860.180.432  |ES| 2:1 9:1 10:1 14:1 19:1 37:1 94:1 162:1 225:1 244:1 596:1 1284:1 1487:1 1835:1 1891:1 2382:1 3481:1 3523:1 4897:1 4898:1 4899:1 4900:1 4901:1 4902:1 4903:1  |EV| 
3.2587713040417143339766425924608  |BT| (S (NP (JJ (Colonic))(NN (adenocarcinoma)))(ADVP (RB (rapidly)))(VP (VBD (induced))(NP (NP (JJ (combined))(NP (NN (treatment))(JJ (2-amino-1-methyl-6-phenylimidazo))(-LRB- (-LSB-))(JJ (4,5-b))(-RRB- (-RSB-))(NN (pyridine))(NN (dextran))(NN (sodium))(NN (sulfate))(JJ (male))(NN (ICR))(NN (mouse))(NN (posse))(NN (beta-catenin))(NN (gene))(NN (mutation)))(NN (increase))(NN (immunoreactivity))(NN (beta-catenin)))(, (,))(NP (NN (cyclooxygenase-2))(JJ (inducible))(JJ (nitric))(NN (oxide))(NN (synthase)))))) |ET|  |BS| 18:G05.365.590 22:D08.811.682.664.500.772.500 23:D12.776.091.249 24:D08.811.600.720.750 46:A03.556.124.526.356 84:C04.557.470.200.025 131:D09.698.365.272.300 618:E02.186 744:D03.383.725 1316:B01.050.050.199.520.520.510  |ES| 2:1 9:1 19:1 34:1 40:1 52:1 60:1 61:1 63:1 64:1 65:1 66:1 164:1 255:1 406:1 407:1 412:1 546:1 1373:1 1378:1 1402:1 2638:1 2639:1 2640:1 3048:1 3300:1 3424:1 4675:1 4676:1 4677:1  |EV| 
-3.2587713040417143339766425924608  |BT| (S (NP (JJ (Chemopreventive))(NN (activity))(NN (plant))(NN (flavonoid))(NN (isorhamnetin))(JJ (colorectal))(NN (cancer)))(VP (VBN (mediated))(NP (JJ (oncogenic))(NN (Src))(NN (beta-catenin))))) |ET|  |BS| 4:C04.588.274.476.411.307 5:C04.588.274.476.411.307 23:D12.776.091.249 279:D27.888.569.100 328:B01.650 534:D03.383.663.283.266.450  |ES| 17:1 18:1 19:1 60:1 399:1 437:1 953:1 1098:1 1886:1 3673:1 3674:1 3972:1  |EV| 
3.2587713040417143339766425924608  |BT| (S (NP (NP (NP (NN (Modulation))(NN (dasatinib)))(PRN (-LRB- (-LRB-))(NP (NN (c-Src))(NN (inhibitor)))(-RRB- (-RRB-))))(NN (cytotoxicity))(NN (STAT3))(NN (knockdown)))(VP (VBN (measured))(NP (NP (NNP (MTT)))(, (,))(NP (NN (cell))(NN (cycle)))(, (,))(NP (NN (apoptosis))(NN (assay)))))) |ET|  |BS| 39:G04.299.139.160 82:D12.644.360.024.342.300 106:E05.091 228:E05.978 353:G04.299.134 946:D27.888.569.213 1385:G05.360.340.024.340.375.500.791.570 1386:D02.886.675.184  |ES| 2:1 10:1 14:1 19:1 89:1 94:1 251:1 310:1 380:1 464:1 601:1 789:1 2760:1 3317:1 5017:1 5018:1 5019:1  |EV| 
3.2587713040417143339766425924608  |BT| (S (NP (VBN (Presented))(NNS (data)))(VP (VP (VBP (reveal))(S (NP (NN (pterostilbene)))(ADJP (JJ (novel)))))(, (,))(NP (NP (ADJP (ADJP (JJ (effective)))(, (,))(ADJP (JJ (anti-metastatic))))(NN (agent))(NN (function)))(VP (VBG (downregulating))(NP (NN (MMP-9))(NN (gene))(NN (expression))))))) |ET|  |BS| 155:G05.355.310 259:D12.776.395.240.150.500 586:D08.811.277.656.300.480.205.360  |ES| 2:1 9:1 19:1 33:1 115:1 728:1 793:1 891:1 1639:1 1670:1 2065:1 2158:1 2428:1 5105:1 5106:1  |EV| 
-3.2587713040417143339766425924608  |BT| (S (PP (IN (In))(NP (NN (addition))))(, (,))(NP (NN (metformin)))(VP (VBD (induced))(NP (NP (NN (apoptosis))(NN (OSCC))(NN (cell)))(, (,))(VP (ADVP (RB (significantly)))(VBG (down-regulating))(NP (NP (JJ (anti-apoptotic))(NN (protein))(NN (Bcl-2))(NN (Bcl-xL)))(VP (VBG (up-regulating))(NP (JJ (pro-apoptotic))(NN (protein))(NN (Bax))))))))) |ET|  |BS| 39:G04.299.139.160 41:A11 54:G05.360.340.024.340.375.500.791.150 150:Z01.542.248.960 342:D12.644.360.075.718.400 351:A17.360 784:D02.078.370.141.450 1469:D12.644.360.075  |ES| 2:1 4:1 19:1 89:1 94:1 124:1 158:1 244:1 412:1 468:1 1876:1 3097:1 4630:1 4814:1 5087:1 5230:1 5232:1 5442:1  |EV| 
3.2587713040417143339766425924608  |BT| (NP (NP (NP (NN (Relationship))(NN (CYP1A))(NN (induction))(NN (indole-3-carbinol))(NN (flutamide))(NN (liver)))(JJ (tumor-promoting))(JJ (potential))(NN (rat)))) |ET|  |BS| 245:B01.050.150.900.649.865.635.505.700 246:B01.050.150.900.649.865.635.505.700 515:C04.588.274.623 1172:D02.065.199.420  |ES| 19:1 736:1 827:1 836:1 849:1 3647:1 3776:1 4057:1 5121:1 5122:1  |EV| 
-3.2587713040417143339766425924608  |BT| (NP (NP (NP (NN (DEN))(NN (treatment))(VBN (modified))(NN (expression))(CD (665))(NN (gene)))(, (,))(NP (NP (NN (CAPE)))(CC (plus))(NP (NN (DEN))))(VP (VBD (induced))(NP (NN (change))(CD (1371))(NN (gene)))))) |ET|  |BS| 6:G05.360.340.024.340 52:E02 155:G05.355.310  |ES| 2:1 9:1 19:1 115:1 200:1 412:1 546:1 1875:1 2332:1 2335:1 4888:1 5412:1 5413:1  |EV| 
-3.2587713040417143339766425924608  |BT| (S (ADVP (RB (Finally)))(, (,))(NP (NN (RNAseq))(NN (analysis)))(VP (VBD (indicated))(SBAR (S (NP (NP (NN (p53))(NN (signaling))(NN (Lgr5)))(CC (+))(NP (NN (stem))(NN (cell))(NN (mouse))))(VP (VBN (exposed))(NP (NNP (AOM)))(ADVP (RB (uniquely)))(VP (VBD (upregulated))(PP (VBG (following))(NP (JJ (n-3))(NN (PUFA))(CC (+))(NN (curcumin))(NN (cotreatment)))))))))) |ET|  |BS| 2:G05.360.340.024.340.375.249.385 11:B01.050.150.900.649.865.635.505.500 69:G02.111.087.800 132:D02.172.080 308:A11.872 618:E02.186 692:D02.455.326.146.485.222.222 1308:D10.212.302.380.410  |ES| 2:1 12:1 19:1 52:1 94:1 125:1 195:1 661:1 1106:1 1541:1 1929:1 1994:1 2652:1 3102:1 3510:1 4673:1 5626:1 5627:1 5628:1 5629:1  |EV| 
3.2587713040417143339766425924608  |BT| (S (NP (CD (1,25))(NN (D)))(VP (VBD (inhibited))(SBAR (S (NP (NN (MYC))(NN (gene))(NN (expression)))(VP (VBD (accelerated))(NP (NN (protein))(NN (turnover)))))))) |ET|  |BS| 7:D12.776 122:C14.280.383 155:G05.355.310 185:G05.360.340.024.340.375.500.791.420 186:G05.360.340.024.340.375.500.791.420 665:N04.452.677.680  |ES| 4:1 9:1 19:1 115:1 365:1 472:1 1391:1 2424:1 4529:1  |EV| 
3.2587713040417143339766425924608  |BT| (NP (NP (NP (NN (Role)))(NP (VBN (phosphorylated))(NN (histone))(NN (H3))(NN (serine))(CD (10))(JJ (DEN-induced))(NN (deregulation))(NN (Pol))(CD (III))(NN (gene))(NN (cell))(NN (proliferation))(NN (transformation))))) |ET|  |BS| 15:F01.829.316.616 183:G04.299.233.750 614:G05.360.340.024.340.364.875.667 926:D12.125.154.800 1416:D12.776.660.470  |ES| 9:1 19:1 94:1 299:1 402:1 503:1 1384:1 1519:1 2187:1 2280:1 2281:1 2735:1 4930:1 5145:1 5146:1  |EV| 
-3.2587713040417143339766425924608  |BT| (S (NP (NN (SAHA)))(VP (VBD (mediated))(NP (NP (NN (acetylation))(NN (histone))(NN (H3)))(ADVP (RB (globally))))(, (,))(ADVP (RB (well)))(, (,))(S (VP (VBN (associated))(NP (NP (NP (NN (p21)))(PRN (-LRB- (-LRB-))(NP (NN (WAF1)))(-RRB- (-RRB-))))(NN (promoter)))))(, (,))(NP (VBN (measured))(NN (chromatin))(NN (immunoprecipitation))))) |ET|  |BS| 228:E05.978 1416:D12.776.660.470 1454:E05.393.170 1497:G02.111.087.019.052  |ES| 2:1 10:1 14:1 19:1 83:1 169:1 437:1 503:1 787:1 789:1 1135:1 1346:1 4915:1 5145:1 5341:1 5513:1 5514:1 5515:1  |EV| 
3.2587713040417143339766425924608  |BT| (S (NP (NNS (RWPs)))(VP (VBD (reduced))(NP (SBAR (S (NP (NP (NN (expression))(NN (VEGF)))(, (,))(NP (NP (NP (NN (matrix))(NN (metalloproteinase)))(PRN (-LRB- (-LRB-))(NP (NN (MMP)))(-RRB- (-RRB-))))(CD (-2))(, (,))(NN (MMP-9))(, (,))(NN (cyclooxygenase-2))))(VP (VBD (increased))(NP (NN (expression))(NN (tumor))(NN (suppressor))(NN (gene))(NN (p16))(-LRB- (-LRB-))(NN (INK4A))(-RRB- (-RRB-))))))(, (,))(NP (NN (p53))(, (,))(NN (p73))(NN (tumor))(NN (cell)))))) |ET|  |BS| 2:G05.360.340.024.340.375.249.385 8:C04 24:D08.811.600.720.750 41:A11 155:G05.355.310 203:G05.360.340.024.340.375.249.375 206:G05.360.340.024.340.375.249 586:D08.811.277.656.300.480.205.360 1417:D08.811.277.656.300.480.205.352  |ES| 2:1 7:1 9:1 10:1 12:1 14:1 19:1 47:1 61:1 94:1 115:1 452:1 700:1 1313:1 2066:1 2158:1 2892:1 3182:1 3491:1 5147:1 5148:1 5149:1 5150:1  |EV| 
3.2587713040417143339766425924608  |BT| (S (DT (No))(NP (NP (NP (NP (NN (PPARgamma/retinoid))(NN (X))(NN (receptor)))(PRN (-LRB- (-LRB-))(NP (NN (RXR)))(-RRB- (-RRB-))))(NP (NN (consensus))(NN (DNA))(NN (binding))(NN (site))))(VP (VBD (detected))(NP (NP (NN (FoxM1))(NN (promoter)))(VP (VBG (extending))(NP (NP (CD (-10))(NN (kb)))(NP (RB (upstream))(, (,))(JJ (knockdown))(NN (PPARgamma))(NN (impact))(NN (TZD))))))))(VP (VBD (mediated))(NP (NN (downregulation))(NN (FoxM1))(NN (expression))))) |ET|  |BS| 13:D01.339.387 85:G02.111.087.225 198:D13.444.308 719:D12.776.826.239.588 1393:D12.776.826.701.500 1394:F01.829.316.068 1395:G02.111.570.120  |ES| 2:1 10:1 14:1 19:1 83:1 115:1 186:1 437:1 464:1 595:1 666:1 929:1 1003:1 1007:1 1487:1 1996:1 2588:1 3119:1 3541:1 3660:1 4791:1 5055:1 5056:1 5057:1 5058:1 5059:1 5060:1  |EV| 
-3.2587713040417143339766425924608  |BT| (FRAG (NP (NP (DT (The))(JJ (chemopreventive))(NN (effect)))(NP (NP (NNP (Protandim)))(: (:))(NP (NN (modulation))(NN (p53))(JJ (mitochondrial))(NN (translocation))(NN (apoptosis))(NN (skin))(NN (carcinogenesis)))))) |ET|  |BS| 2:G05.360.340.024.340.375.249.385 33:C04.697.098 39:G04.299.139.160 463:C23.550.210.870 565:A11.284.430.214.190.875.564 567:G05.360.340.024.340.365 624:D27.505.696.706.018 785:A17.815  |ES| 12:1 19:1 75:1 89:1 104:1 207:1 691:1 1618:1 1945:1 1946:1 2004:1 2319:1 5088:1  |EV| 
3.2587713040417143339766425924608  |BT| (S (NP (NN (Nrf2)))(VP (VBZ (transactivates))(SBAR (S (NP (JJ (wide))(NN (variety)))(VP (VBP (ARE))(PRN (-LRB- (-LRB-))(NP (JJ (anti-oxidant))(NN (response))(NN (element)))(-RRB- (-RRB-)))))))(: (-))(VP (VBN (mediated))(NP (NN (enzyme))(PP (VBG (including))(NP (NN (GSTP1-1))))))) |ET|  |BS| 730:D08.811 799:D12.776.260.615.249 1396:G02.111.570.080.689.675.700.040 1397:D08.811.913.225.500.500  |ES| 10:1 14:1 19:1 494:1 561:1 952:1 2388:1 4048:1 4355:1 4522:1 5066:1 5067:1 5068:1 5069:1 5070:1  |EV| 
-3.2587713040417143339766425924608  |BT| (S (S (S (VP (VBG (Using))(NP (JJ (genetic))(NN (engineering)))))(, (,))(NP (VBN (deleted))(NP (NP (JJ (short))(JJ (tandem))(NN (repeat)))(PRN (-LRB- (-LRB-))(NP (CD (two))(NN (repeat)))(-RRB- (-RRB-))))(NN (allele)))(VP (VBD (retained))(S (NP (JJ (long))(PRN (-LRB- (-LRB-))(NP (CD (three))(NN (repeat)))(-RRB- (-RRB-)))(NN (allele)))(VP (VBP (produce))(NP (JJ (artificial))(NN (LOH))(NN (TS))(NN (gene))))))(: (;)))(S (NN (TS))(-LRB- (-LRB-))(NP (CC (+))(: (/))(: (-))(-RRB- (-RRB-))(NN (line)))(VP (VBD (reduced))(NP (NP (NN (TS))(NN (protein))(NN (expression))(JJ (hypersensitive))(NN (5FU))(NN (5-fluoro-2)))('' ('))(: (-))(ADVP (FW (deoxyuridine))(FW (vitro))))(NP (VBN (compared))(JJ (syngeneic))(NN (control))(NN (line)))))) |ET|  |BS| 7:D12.776 30:Z01.058.290.190.800 31:D08.811.520.224.800 77:G05.360.340.024.340.030 154:Z01.058.266.887 290:G05.365.590.029.530 394:G02.111.570.080.708.800.500 560:D03.383.742.698.875.404 1505:G05.360.340.024.340.465 1506:E05.393.420  |ES| 2:1 4:1 9:1 10:1 14:1 19:1 44:1 50:1 115:1 216:1 217:1 230:1 264:1 289:1 452:1 482:1 509:1 812:1 864:1 933:1 1001:1 1004:1 1565:1 1577:1 1719:1 2325:1 5493:1 5555:1 5556:1 5557:1 5558:1 5559:1 5560:1 5561:1  |EV| 
-3.2587713040417143339766425924608  |BT| (NP (NP (NP (DT (The))(ADJP (RB (classically))(VBN (recognized)))(NN (target))(NN (NSAID))(NN (action)))(NP (NP (CD (two))(NNS (isoforms))(NP (NP (NN (cyclooxygenase)))(PRN (-LRB- (-LRB-))(NP (NN (COX)))(-RRB- (-RRB-))))(NN (gene)))(, (,))(NP (JJ (responsible))(NN (prostaglandin))(NN (production)))))) |ET|  |BS| 6:G05.360.340.024.340 238:D12.776.800 796:D27.505.696.663.850.014.040.500 1119:D08.811.600.720.500 1501:D08.811.600.720 1502:D10.251.355.255.550  |ES| 2:1 9:1 10:1 14:1 19:1 160:1 691:1 821:1 933:1 2013:1 2084:1 2132:1 2677:1 3180:1 3181:1 3237:1 4499:1 5528:1  |EV| 
3.2587713040417143339766425924608  |BT| (S (S (NP (JJ (Acute))(NN (treatment))(NN (B6C3F1))(NN (mouse))(NN (phenobarbital)))(VP (VBD (resulted))(SBAR (S (NP (VBN (increased))(NN (level))(NN (bcl-2)))(VP (VBD (decreased))(NP (NN (level))(NN (bax))(NN (protein))))))))(, (,))(NP (JJ (acute))(NN (treatment))(NN (WY-14,643)))(VP (VBD (resulted))(NP (VBN (increased))(NN (bcl-2))(NN (BAG-1))(NN (protein))(NN (liver))))) |ET|  |BS| 11:B01.050.150.900.649.865.635.505.500 52:E02 54:G05.360.340.024.340.375.500.791.150 242:A03.620 342:D12.644.360.075.718.400 756:D03.383.742.698.253.650  |ES| 2:1 4:1 19:1 47:1 52:1 90:1 151:1 202:1 249:1 546:1 594:1 836:1 1136:1 1893:1 2685:1 3986:1 4540:1 4541:1  |EV| 
-3.2587713040417143339766425924608  |BT| (S (NP (NNP (Saracatinib)))(VP (VBD (enhanced))(NP (NP (NN (effect))(NN (lapatinib))(, (,))(NN (EGFR/HER2))(JJ (dual))(NN (inhibitor)))(, (,))(NP (NN (SNU216))(NN (NCI-N87))(NN (cell)))))) |ET|  |BS| 41:A11 63:G05.360.340.024.340.375.500.791.295.305 65:D08.811.913.696.620.682.725.400.009.400 120:I01.409.418.750.600.480.150  |ES| 2:1 19:1 75:1 94:1 380:1 385:1 2067:1 3347:1 5243:1 5516:1 5517:1 5518:1  |EV| 
-3.2587713040417143339766425924608  |BT| (S (NNS (Changes))(NP (JJ (circadian))(NN (cycle))(NN (gene)))(: (-))(S (NP (RB (primarily))(NP (NN (transcription))(NN (factor)))(: (-)))(VP (VBD (showed))(SBAR (S (NP (ADJP (NP (JJ (strong))(JJ (concentration-related))(NN (response)))(JJR (higher)))(NN (concentration)))(-LRB- (-LRB-))(S (NP (NP (NN (Arntl)))(, (,))(NP (NN (Npas2)))(, (,))(NP (NN (Clock))))(VP (VBD (down-regulated))))(: (;))(PRN (NP (NP (NN (Cry2)))(, (,))(NP (NN (Wee1)))(, (,))(NP (NN (Bhlhe40)))(, (,))(NP (NN (Per3)))(, (,))(NP (NN (Nr1d1)))(, (,))(NP (NN (Nr1d2))(NN (Dbp))))(-RRB- (-RRB-))(S (VP (VBD (up-regulated))(NP (JJ (similar))(NN (directionality))(NN (tissue))))))))))) |ET|  |BS| 98:A10 142:I01.880.604 150:Z01.542.248.960 166:D12.776.930 351:A17.360 776:G01.910.645 905:F02.830.104.214  |ES| 2:1 9:1 10:1 14:1 19:1 132:1 170:1 185:1 217:1 272:1 332:1 487:1 494:1 601:1 1283:1 1301:1 1970:1 2691:1 3189:1 3578:1 5337:1 5583:1 5584:1 5585:1 5586:1 5587:1 5588:1 5589:1 5590:1 5591:1 5592:1 5593:1 5594:1 5595:1  |EV| 
-3.2587713040417143339766425924608  |BT| (S (NP (NN (RT-PCR))(NN (Western))(NN (blot))(NN (assay)))(NP (VBN (detected))(NN (expression))(VBN (known))(NN (target))(NN (miR-372))(JJ (malignant))(NN (tumor)))(VP (VBD (found))(SBAR (S (NP (NP (NN (Cyclin))(NN (A1))(JJ (Cyclin-dependent))(NN (Kinase))(CD (2)))(PRN (-LRB- (-LRB-))(NP (NN (CDK2)))(-RRB- (-RRB-))))(VP (VBD (downregulated))(NP (NN (miR-372)))))))) |ET|  |BS| 255:E05.196.401.143 272:E05.393.620.500.725 1365:D08.811.913.696.620.682.700.646.500.750 1496:D12.644.360.262.100.100  |ES| 7:1 10:1 14:1 19:1 37:1 115:1 148:1 160:1 310:1 426:1 556:1 802:1 872:1 873:1 1007:1 1148:1 1543:1 2984:1 2992:1 4742:1 5511:1 5512:1  |EV| 
0.80526177543686117132892832159996  |BT| (S (NP (NN (Cell))(NN (proliferation)))(ADVP (RB (significantly)))(VP (VBD (inhibited))(, (,))(SBAR (S (NP (NN (apoptosis)))(VP (VBD (induced))(NP (NP (NN (area))(NN (GST-P))(PRN (-LRB- (-LRB-))(CC (+))(-RRB- (-RRB-)))(NN (focus))(NNP (Valerian))(NN (group)))(VP (VBN (associated))(NP (NN (suppression))(NN (c-myc)))))(, (,))(NP (NP (NN (Mafb)))(, (,))(NP (NP (NN (cyclin))(NN (D1))(NN (induction))(NN (p21)))(PRN (-LRB- (-LRB-))(NP (NN (Waf1/Cip1)))(-RRB- (-RRB-))))(, (,))(NP (NN (p53))(NN (Bax))(NN (mRNA))(NN (expression))))))))) |ET|  |BS| 2:G05.360.340.024.340.375.249.385 39:G04.299.139.160 111:D13.444.735.544 122:C14.280.383 183:G04.299.233.750 215:D12.644.360.262.150.100 292:Z01 342:D12.644.360.075.718.400 857:B01.650.940.800.575.100.955.888 858:B01.650.940.800.575.100.955.888 1298:D12.776.260.108.500.061.500 1299:D12.644.360.225.500 1300:E05.318.308.112  |ES| 2:1 10:1 12:1 14:1 19:1 89:1 115:1 124:1 169:1 299:1 325:1 365:1 412:1 455:1 736:1 743:1 744:1 1135:1 1431:1 2300:1 2453:1 3057:1 3058:1 3059:1 4080:1 4094:1 4628:1 4629:1 4630:1  |EV| 
-3.2587713040417143339766425924608  |BT| (S (NP (DT (The))(NNS (data)))(VP (VBP (suggest))(SBAR (S (NP (NP (NN (TS))(NN (copy))(NN (number))(NN (patient))(POS ('s)))(NN (tumor)))(VP (MD (may))(VP (VBG (dominating))(PP (JJ (variable))(S (VP (VBG (affecting))(NP (NN (5FU))(NN (responsiveness)))))))))))) |ET|  |BS| 8:C04 50:M01.643 154:Z01.058.266.887 560:D03.383.742.698.875.404  |ES| 7:1 19:1 120:1 461:1 491:1 509:1 646:1 691:1 793:1 796:1 963:1 2530:1 3864:1 5493:1 5529:1 5530:1  |EV| 
3.2587713040417143339766425924608  |BT| (S (NP (NN (Microarray))(NN (analysis))(NN (liver))(NN (sample)))(VP (VBD (showed))(SBAR (S (NP (NN (arsenic)))(VP (VBD (induced))(NP (NP (JJ (aberrant))(NN (gene))(NN (expression)))(PP (VBG (including))(NP (NP (JJ (steroid-related))(NN (gene)))(, (,))(NP (NN (cytokine)))(, (,))(NP (JJ (apoptosis-related))(NN (gene))(NN (cell))(JJ (cycle-related))(NN (gene))))))))))) |ET|  |BS| 6:G05.360.340.024.340 39:G04.299.139.160 155:G05.355.310 242:A03.620 718:E05.588.570 752:D12.644.276.374 996:G05.360.340.024.340.220 1158:D01.268.513.249 1384:D04.808  |ES| 2:1 9:1 19:1 94:1 115:1 132:1 412:1 561:1 661:1 835:1 836:1 1725:1 2676:1 3738:1 4106:1 4542:1 4571:1 5011:1  |EV| 
-3.2587713040417143339766425924608  |BT| (FRAG (NP (NP (NP (NN (PhIP))(NN (diet)))(NP (ADJP (JJR (>))(ADJP (CD (43))(NN (week))))(NP (JJ (present))(NN (colon))(NN (tumor))(JJ (specific))(CD (-1))(NN (G))(NN (mutation)))))(PP (IN (within))(NP (QP (CD (5))('' (')))(: (-))(NN (GGGA-3))('' ('))(NN (sequence))(NN (APC))))(: (:)))(NP (NN (gene)))) |ET|  |BS| 3:C04.557.470.035.215.100 6:G05.360.340.024.340 18:G05.365.590 26:G02.111.570.080 51:C04.588.274.476.411.307.180 595:G07.203.650.240 596:E02.642.249  |ES| 7:1 9:1 11:1 19:1 34:1 104:1 113:1 293:1 540:1 783:1 1307:1 1466:1 1489:1 2122:1 2191:1 2641:1 5501:1 5502:1 5503:1  |EV| 
-3.2587713040417143339766425924608  |BT| (S (ADVP (RB (Finally)))(, (,))(VP (VBP (demonstrate))(NP (NP (JJ (NSAID-mediated))(JJ (nucleolar))(NN (translocation))(NN (RelA)))(VP (VBN (associated))(NP (NP (NN (downregulation))(JJ (NF-kappaB-driven))(NN (transcription))(NN (NF-kappaB))(NN (target))(NN (gene)))(, (,))(NP (NN (ICAM-1)))))))) |ET|  |BS| 6:G05.360.340.024.340 66:F01.658.293 85:G02.111.087.225 209:G02.111.087.847 210:D12.776.260.600 463:C23.550.210.870 796:D27.505.696.663.850.014.040.500 1325:D12.776.395.550.200.450  |ES| 2:1 9:1 19:1 160:1 169:1 250:1 487:1 502:1 595:1 714:1 1618:1 1929:1 4732:1 5418:1 5419:1 5420:1  |EV| 
3.2587713040417143339766425924608  |BT| (S (NP (DT (A))(NN (benzimidazole))(JJ (derivative))(VBG (exhibiting))(NN (antitumor))(NN (activity))(NN (block))(NN (EGFR))(NN (HER2))(NN (activity)))(VP (VBZ (upregulates))(NP (NN (DR5))(NN (breast))(NN (cancer))(NN (cell))))) |ET|  |BS| 41:A11 63:G05.360.340.024.340.375.500.791.295.305 65:D08.811.913.696.620.682.725.400.009.400 122:C14.280.383 175:J01.897.280.500.269 798:D03.438.103  |ES| 18:1 19:1 23:1 69:1 94:1 187:1 188:1 399:1 742:1 2153:1 2244:1 2812:1 2813:1 3755:1 3793:1  |EV| 
3.2587713040417143339766425924608  |BT| (S (PP (IN (In))(NP (NN (summary))))(, (,))(NP (JJ (small))(NN (molecule))(NN (inhibitor))(NN (imatinib)))(VP (VP (VBZ (attenuates))(NP (JJ (stromal))(NN (cell))(NN (proliferation))(JJ (PDGF-C-induced))(NN (HCC))))(, (,))(VP (VBZ (coincides))(NP (NP (VBN (decreased))(NN (expression))(NN (CD34))(NN (PDGFRalpha)))(, (,))(NP (VBN (activated))(NN (Akt))))))) |ET|  |BS| 104:C04.557.470.200.025.255 183:G04.299.233.750 378:D08.811.913.696.620.682.700.755 1370:D08.811.913.696.620.682.725.400.900.500  |ES| 2:1 19:1 94:1 115:1 163:1 180:1 202:1 244:1 299:1 380:1 441:1 490:1 750:1 1289:1 2423:1 4916:1 4917:1 4918:1 4919:1 4920:1 4921:1  |EV| 
-3.2587713040417143339766425924608  |BT| (S (NP (NN (DEN))(NN (treatment)))(VP (VP (VBD (increased))(NP (NP (NN (expression))(NN (gene)))(VP (VBN (associated))(NP (JJ (oxidative))(NN (stress))(NN (glutathione))(NN (reductase))))))(, (,))(NP (NP (NN (gene))(VBN (involved))(NN (cell))(NN (cycle))(NN (regulation)))(PP (VBG (including))(NP (NP (NN (p53)))(, (,))(NP (VBN (modified))(NN (cytochrome))(NN (P450)))))))) |ET|  |BS| 2:G05.360.340.024.340.375.249.385 6:G05.360.340.024.340 52:E02 155:G05.355.310 716:G03.495.710 1079:D08.244.453 1259:G04.299.134.109 1471:D08.811.682.667.092  |ES| 2:1 9:1 12:1 19:1 47:1 94:1 96:1 115:1 169:1 438:1 546:1 561:1 601:1 774:1 1875:1 2335:1 2522:1 2549:1 2583:1 2744:1 3788:1  |EV| 
-3.2587713040417143339766425924608  |BT| (S (NP (PRP (We)))(VP (VBD (explored))(NP (JJ (tumor-promoting))(NN (change))(JJ (gestational))(JJ (arsenic))(NN (exposure))(NN (focus))(NN (Ha-ras))(NN (mutation))(NN (gene))(NN (expression))(NN (change))))) |ET|  |BS| 1:G05.360.340.024.340.375.500.791.550 8:C04 18:G05.365.590 155:G05.355.310 216:Z01.107.084.900.425 1158:D01.268.513.249 1266:G08.686.785.760.769  |ES| 9:1 19:1 34:1 115:1 200:1 499:1 747:1 843:1 1431:1 1953:1 3776:1 3976:1 4106:1  |EV| 
-3.2587713040417143339766425924608  |BT| (FRAG (PP (IN (In))(NP (NP (NNP (AOM)))(ADVP (RB (alone)))))(NP (NP (NN (group)))(, (,))(NP (NN (Cox-2)))(VP (VBD (up-regulated))(SBAR (S (NP (ADJP (JJR (>))(JJ (50-fold)))(NN (tumor))(JJ (normal))(NP (NN (Ras)))(NN (activity)))(VP (VBD (enhanced))(NP (NN (tumor))(JJ (mutant))(JJ (signaling-activated))(NN (Ras))))))))) |ET|  |BS| 1:G05.360.340.024.340.375.500.791.550 8:C04 69:G02.111.087.800 132:D02.172.080 142:I01.880.604 150:Z01.542.248.960 829:M01.686  |ES| 2:1 7:1 19:1 62:1 118:1 241:1 244:1 385:1 399:1 811:1 1301:1 1466:1 1775:1 1994:1 2300:1 5443:1 5444:1  |EV| 
1.1559399334358886335394345223904  |BT| (S (NP (JJ (AST-induced))(NN (NAG-1))(NN (activation)))(VP (VBD (intensified))(NP (NN (PI3K))(NN (inhibitor))(NN (LY294002))(NN (Akt))(NN (inhibitor))(JJ (co-treated))(JJ (reversed))(NN (NAG-1))(NN (siRNA))(NN (transfection))))) |ET|  |BS| 52:E02 117:D13.150.650.700 217:E05.393.350.810 378:D08.811.913.696.620.682.700.755 1042:Z01.107.757.284 1290:D08.811.913.696.620.500  |ES| 19:1 225:1 351:1 380:1 746:1 1289:1 1662:1 3400:1 4352:1 4586:1 4587:1 4588:1 4589:1  |EV| 
3.2587713040417143339766425924608  |BT| (S (ADVP (RB (Furthermore)))(, (,))(NP (NP (NN (calcitriol)))(PRN (-LRB- (-LRB-))(NP (JJ (active))(NN (form))(NN (vitamin))(NN (D)))(-RRB- (-RRB-))))(VP (VBD (suppressed))(NP (NN (CYP3A4))(NN (expression))(VBG (activating))(NN (miR-627))))) |ET|  |BS| 189:V02.460 720:D04.808.247.222.474 721:D04.808.812.768 1347:D04.808.247.222.159.478.387.300 1348:D08.244.453.400  |ES| 2:1 10:1 14:1 19:1 115:1 197:1 307:1 334:1 630:1 1958:1 2591:1 2592:1 4803:1 4804:1 4805:1  |EV| 
