SVM-light Version V5.01-TK-1.5
5 # kernel type
3 # kernel parameter -d 
1 # kernel parameter -g 
1 # kernel parameter -s 
1 # kernel parameter -r 
empty# kernel parameter -u 
0.4 # kernel parameter -L 
1 # kernel parameter -T 
S # kernel parameter -C 
1 # kernel parameter -F 
0 # kernel parameter -S 
0.400000 # kernel parameter -M 
3 # kernel parameter -N 
S # kernel parameter -V 
S # kernel parameter -W 
0 # kernel parameter -U 
4332 # highest feature index 
510 # number of training documents 
396 # number of support vectors plus 1 
0.93076819 # threshold b, each following line is a SV (starting with alpha*y)
-4.520134953427480617449418787146  |BT| (NP (NP (NP (NN (BACKGROUND/AIMS)))(: (:))(NP (NP (DT (The))(NN (success))(NN (sorafenib))(NN (treatment)))(VP (VBD (advanced))(SBAR (S (NP (NP (JJ (hepatocellular))(NN (carcinoma)))(PRN (-LRB- (-LRB-))(NP (NN (HCC)))(-RRB- (-RRB-))))(VP (VBD (focused))(NP (NN (interest))(NN (role))(NN (Ras))(NN (signaling))(NN (malignancy)))))))))) |ET|  |BS| 1:G05.360.340.024.340.375.500.791.550 15:F01.829.316.616 52:E02 69:G02.111.087.800 104:C04.557.470.200.025.255  |ES| 10:1 14:1 19:1 31:1 49:1 104:1 195:1 303:1 304:1 441:1 546:1 691:1 997:1 1775:1 2063:1 2302:1 2309:1 2310:1 2311:1  |EV| 
-0.6303064721895168531773379072547  |BT| (NP (NP (NN (BACKGROUND))(: (:)))(NP (NP (NNP (Magnolol))(, (,))(NN (plant))(NN (lignan)))(NP (VBN (isolated))(NN (bark))(NN (seed))(NN (cone))(NN (Magnolia))(NN (officinalis)))(, (,))(VP (VBN (shown))(NP (JJ (chemopreventive))(NN (effect))(JJ (chemically-induced))(NN (skin))(NN (cancer))(NN (development)))))) |ET|  |BS| 30:Z01.058.290.190.800 31:D08.811.520.224.800 328:B01.650 619:D02.455.426.559.847.117.159.205 620:B01.650.940.800.575.100.680.500 621:D02.455.426.559.389.140.450 622:A08.675.650.850.625.670.100 623:A08.186.211.730.885.287.500 624:D27.505.696.706.018 625:A06.407.071.140 626:A05.810.453.324 627:A18.024.500.750  |ES| 2:1 18:1 19:1 35:1 75:1 104:1 237:1 1046:1 1098:1 1653:1 1946:1 2233:1 2312:1 2313:1 2314:1 2315:1 2316:1 2317:1 2318:1 2319:1  |EV| 
-4.520134953427480617449418787146  |BT| (S (NP (PRP (It)))(ADVP (RB (also)))(VP (VBD (nominated))(NP (NP (JJ (dichloroacetic))(NN (acid)))(VP (VBN (studied))(NP (NP (JJ (representative))(NN (class))(JJ (haloacetic))(NN (acid)))(NP (VBN (shown))(NN (cause))(NN (liver))(NN (tumor))(NN (rat))(NN (mouse)))))))) |ET|  |BS| 11:B01.050.150.900.649.865.635.505.500 30:Z01.058.290.190.800 31:D08.811.520.224.800 245:B01.050.150.900.649.865.635.505.700 246:B01.050.150.900.649.865.635.505.700 515:C04.588.274.623 1062:D01.029 1219:D02.241.081.018.214.500  |ES| 5:1 7:1 19:1 52:1 237:1 401:1 836:1 849:1 1017:1 1275:1 1327:1 1779:1 2814:1 4273:1 4274:1 4275:1  |EV| 
-4.520134953427480617449418787146  |BT| (S (S (NP (NP (NP (JJ (Caffeic))(NN (acid))(NN (phenethyl))(NN (ester)))(PRN (-LRB- (-LRB-))(NP (NN (CAPE)))(-RRB- (-RRB-))))(, (,))(NP (JJ (natural))(NN (component)))(NP (NN (propolis)))(, (,)))(VP (VBP (show))(S (NP (JJ (anticarcinogenic))(NN (property)))(VP (NP (VBN (modified))(JJ (resistant))(NN (hepatocyte))(NN (model)))(S (NP (VBN (administered))(NN (initiation))(NN (promotion))(NN (hepatocarcinogenesis))(NN (process))))))))(: (;))(RB (however))(, (,))(NP (NP (NN (information))(NN (mechanism)))(VP (VBG (underlying))(S (NP (NN (chemoprotection)))(ADJP (VBN (limited))))))) |ET|  |BS| 262:A11.436.348 632:D05.750.078.840.762  |ES| 2:1 10:1 14:1 19:1 72:1 162:1 217:1 333:1 427:1 429:1 435:1 637:1 638:1 841:1 900:1 1021:1 1275:1 1387:1 1909:1 2131:1 2329:1 2330:1 2331:1 2332:1 2333:1 2334:1 2335:1 2336:1 2337:1 2338:1 2339:1  |EV| 
-4.520134953427480617449418787146  |BT| (S (NP (NP (NP (JJ (Epidermal))(NN (growth))(NN (factor))(NN (receptor)))(PRN (-LRB- (-LRB-))(NP (NN (EGFR)))(-RRB- (-RRB-))))(NN (tyrosine))(NN (kinase))(NN (inhibitor))(NN (erlotinib)))(VP (VBP (show))(SBAR (S (NP (JJ (potent))(NP (NP (NN (antitumor))(NN (activity))(JJ (non-small-cell))(NN (lung))(NN (cancer)))(PRN (-LRB- (-LRB-))(NP (NN (NSCLC)))(-RRB- (-RRB-))))(NN (cell))(NN (line)))(VP (VBD (approved))(NP (NNP (Food))(NNP (Drug))(NNP (Administration))(JJ (second))(JJ (third))(NN (line))(NN (treatment))(NN (NSCLC)))))))) |ET|  |BS| 52:E02 64:D08.811.913.696.620.682.725.400.009.300 110:C04.588.894.797.520.109.220.249 113:C04.697.650 633:I01.409.418.750.600.650.760 634:D12.125.072.050.875  |ES| 10:1 14:1 18:1 19:1 22:1 94:1 102:1 185:1 186:1 187:1 264:1 327:1 328:1 329:1 380:1 399:1 429:1 470:1 546:1 2244:1 2340:1 2341:1 2342:1 2343:1 2344:1 2345:1 2346:1 2347:1 2348:1  |EV| 
4.520134953427480617449418787146  |BT| (NP (NP (NN (BACKGROUND/AIMS)))(: (:))(NP (NP (JJ (Several))(NN (study)))(VP (VBD (reported))(NP (NP (NP (NP (NP (NN (efficacy))(NN (combination))(NN (therapy))(NN (interferon)))(PRN (-LRB- (-LRB-))(NP (NN (IFN)))(-RRB- (-RRB-))))(NN (alpha))(NN (5-fluorouracil)))(PRN (-LRB- (-LRB-))(NP (NN (5-FU)))(-RRB- (-RRB-))))(NP (NP (JJ (hepatocellular))(NN (carcinoma)))(PRN (-LRB- (-LRB-))(NP (NN (HCC)))(-RRB- (-RRB-)))))))) |ET|  |BS| 104:C04.557.470.200.025.255 560:D03.383.742.698.875.404 617:D12.644.276.374.440 618:E02.186  |ES| 10:1 14:1 19:1 104:1 130:1 131:1 303:1 304:1 441:1 530:1 993:1 1836:1 2302:1 2303:1 2304:1 2305:1 2306:1 2307:1 2308:1  |EV| 
4.520134953427480617449418787146  |BT| (NP (NP (NP (NN (BACKGROUND)))(CC (&))(NP (NNS (AIMS))))(: (:))(S (NP (NP (NN (Androgen))(NN (effect))(JJ (hepatocellular))(NN (carcinoma)))(PRN (-LRB- (-LRB-))(NP (NN (HCC)))(-RRB- (-RRB-))))(VP (VBP (remain))(SBAR (S (NP (JJ (controversial))(NN (androgen))(NN (ablation))(NN (therapy))(NN (treat))(NNP (HCC)))(ADVP (RB (also)))(VP (VBP (lead))(NP (JJ (inconsistent))(NN (result))))))))) |ET|  |BS| 30:Z01.058.290.190.800 31:D08.811.520.224.800 52:E02 86:D01.268.556.435 104:C04.557.470.200.025.255 891:D27.505.696.399.472.161 892:D27.505.696.399.472.161  |ES| 5:1 10:1 14:1 19:1 75:1 91:1 101:1 104:1 130:1 254:1 303:1 304:1 441:1 1046:1 1090:1 1777:1 1778:1 1852:1 2181:1 3153:1 3154:1 3155:1  |EV| 
4.520134953427480617449418787146  |BT| (NP (NP (NP (NP (NN (BACKGROUND)))(CC (&))(NP (NNS (AIMS))))(: (:))(NP (NP (NP (NN (Chromodomain))(NN (helicase/adenosine))(NN (triphosphatase))(NN (DNA))(NN (binding))(NN (protein)))(NP (ADJP (JJ (1-like))(-LRB- (-LRB-))(NN (CHD1L))(-RRB- (-RRB-))(JJ (SNF2-like)))(NN (transcription))(NN (factor))))(VP (VBN (involved))(S (VP (NN (development))(NP (NP (JJ (human))(JJ (hepatocellular))(NN (carcinoma)))(PRN (-LRB- (-LRB-))(NP (NN (HCC)))(-RRB- (-RRB-)))))))))) |ET|  |BS| 14:F01.525 104:C04.557.470.200.025.255 166:D12.776.930 893:D08.811.277.040.025 894:D08.811.277.040.025  |ES| 4:1 10:1 14:1 19:1 35:1 36:1 104:1 185:1 303:1 304:1 441:1 487:1 666:1 774:1 1046:1 1487:1 1777:1 1778:1 3156:1 3157:1 3158:1 3159:1 3160:1 3161:1  |EV| 
4.520134953427480617449418787146  |BT| (NP (NP (NN (BACKGROUND)))(: (:))(S (NP (PRP (It)))(VP (VBD (suggested))(NP (NP (JJ (altered))(NN (iron))(NN (metabolism))(NN (liver))(NN (tumor)))(, (,))(NP (VBN (characterized))(JJ (iron-deficient))(NN (phenotype)))(, (,))(NP (NN (importance))(NN (tumor))(NN (growth))))))) |ET|  |BS| 8:C04 45:G07.700.320.249 80:G05.695 515:C04.588.274.623 895:D01.490.600 896:D01.268.556.412 897:Z01.252.245.500.375 898:G03.495  |ES| 2:1 7:1 19:1 102:1 104:1 236:1 693:1 836:1 925:1 985:1 1046:1 1327:1 1660:1 3162:1 3163:1 3164:1  |EV| 
4.520134953427480617449418787146  |BT| (NP (NP (NN (BACKGROUND))(: (:)))(S (NP (DT (The))(NP (NN (ErbB2/Her2/Neu))(NN (receptor))(NN (tyrosine))(NN (kinase))))(VP (VBD (amplified))(NP (ADJP (QP (RB (approximately))(CD (30)))(NN (%)))(JJ (human))(NN (breast))(NN (cancer)))))) |ET|  |BS| 55:B01.050.150.900.649.801.400.112.400.400 63:G05.360.340.024.340.375.500.791.295.305 65:D08.811.913.696.620.682.725.400.009.400  |ES| 18:1 19:1 23:1 36:1 104:1 186:1 369:1 470:1 691:1 1046:1 1520:1 1843:1 2208:1 2341:1 3165:1  |EV| 
-4.520134953427480617449418787146  |BT| (S (NP (NNS (CONCLUSIONS)))(: (:))(S (NP (DT (This))(NN (study)))(VP (VBZ (demonstrates))(NP (JJ (synergistic))(NN (antitumor))(NN (activity))(NN (combination))(NN (dovitinib))(NN (oxaliplatin))(NN (colon))(NN (cancer))(JJ (different))(NN (RAS-RAF))(NN (status)))))) |ET|  |BS| 1:G05.360.340.024.340.375.500.791.550  |ES| 18:1 19:1 104:1 113:1 131:1 239:1 399:1 414:1 416:1 530:1 807:1 2012:1 2244:1 2541:1 2542:1 2543:1 2544:1  |EV| 
4.520134953427480617449418787146  |BT| (NP (NP (NN (CONCLUSION)))(: (:))(S (NP (NP (PRP$ (Our))(NNS (data)))(VP (VBP (indicate))(SBAR (S (NP (JJ (sustained))(NN (LPS))(NN (accumulation)))(VP (VBZ (represents))(NP (JJ (pathological))(NN (mediator))(NP (NP (JJ (inflammation-associated))(JJ (hepatocellular))(NN (carcinoma)))(PRN (-LRB- (-LRB-))(NP (NN (HCC)))(-RRB- (-RRB-))))(NN (manipulation))(NN (gut))(NN (flora))))))))(VP (VBP (prevent))(SBAR (S (NP (JJ (pathogenic))(JJ (bacterial))(NN (translocation))(NN (endotoxin))(NN (absorption)))(VP (MD (may))(ADVP (RB (favorably)))(VP (VB (influence))(NP (NP (NN (liver))(NN (function))(NN (patient))(NN (cirrhosis))(NN (risk)))(VP (VBG (developing))(NP (NNP (HCC)))))))))))) |ET|  |BS| 30:Z01.058.290.190.800 31:D08.811.520.224.800 50:M01.643 61:E05.318.740.600.800 104:C04.557.470.200.025.255 242:A03.620 327:G06.930 357:C06.552.630 417:H02.403.650 662:C23.550.355 954:G06.755.375 955:G06.755.375 956:D09.400.500 957:G06.099.112.105 958:G01.595.014 959:D23.946.123.329 960:D23.469  |ES| 10:1 14:1 19:1 33:1 104:1 120:1 171:1 303:1 304:1 441:1 491:1 590:1 658:1 733:1 793:1 836:1 867:1 1199:1 1426:1 1479:1 1618:1 1698:1 1847:1 1849:1 1882:1 2120:1 2516:1 3350:1 3351:1 3352:1 3353:1 3354:1 3355:1 3356:1 3357:1 3358:1  |EV| 
-4.520134953427480617449418787146  |BT| (FRAG (PP (IN (In))(ADJP (JJ (present))(SBAR (S (NP (NP (NN (paper)))(, (,))(NP (NP (JJ (ethanol-induced))(JJ (acute))(JJ (chronic))(NN (liver))(NN (damage))(NN (rat))(NN (model)))(VP (VBN (used))))(, (,)))(VP (VBP (result))(VP (VBD (showed))(SBAR (S (NP (NN (dioscin)))(ADVP (RB (significantly)))(VP (VBD (alleviated))(SBAR (S (NP (NP (NN (liver))(NN (steatosis)))(, (,))(NP (VBN (reduced))(NN (level))(NN (alanine))(NN (aminotransferase)))(, (,))(NP (NN (aspartate))(NN (aminotransferase)))(, (,))(NP (NP (JJ (total))(NN (triglyceride)))(PRN (-LRB- (-LRB-))(NP (NN (TG)))(-RRB- (-RRB-))))(, (,))(NP (JJ (total))(NN (cholesterol))(NN (malondialdehyde)))(, (,)))(VP (VBD (increased))(NP (NP (NN (level))(JJ (high-density))(NN (lipoprotein)))(, (,))(NP (NN (superoxide))(NN (dismutase)))(, (,))(NP (NN (glutathione))(NN (glutathione))(NN (peroxidase))))))))))))))))) |ET|  |BS| 58:D08.811.682.881 242:A03.620 245:B01.050.150.900.649.865.635.505.700 246:B01.050.150.900.649.865.635.505.700 508:C06.552.241 646:D08.811.913.477.700.100 647:D08.811.913.477.700.347 655:D04.808.247.222.284 751:D02.033.375 753:C06.552.241 991:D08.811.682.732.500 1207:D08.811.913.477.700.225 1208:D12.644.456.448 1209:D10.532.432 1210:D02.047.700 1211:J01.637.650 1212:D10.351.801  |ES| 2:1 10:1 14:1 19:1 47:1 72:1 90:1 101:1 124:1 132:1 146:1 147:1 244:1 249:1 452:1 476:1 836:1 849:1 1307:1 1790:1 1848:1 2392:1 2393:1 2403:1 2672:1 2674:1 2678:1 2744:1 3132:1 3485:1 4234:1 4235:1 4236:1 4237:1 4238:1 4239:1 4240:1 4241:1  |EV| 
4.520134953427480617449418787146  |BT| (S (NP (JJ (Elevated))(NN (expression))(JJ (coactivator-associated))(NN (arginine))(NN (methyltransferase))(CD (1)))(VP (VBN (associated))(NP (JJ (early))(NN (hepatocarcinogenesis))))) |ET| 19:1 98:1 115:1 169:1 900:1 1128:1 1350:1 2655:1 3464:1 3465:1  |EV| 
4.520134953427480617449418787146  |BT| (NP (NP (NN (Inhibition))(JJ (hypoxia-inducible))(NN (factor))(NN (limit))(NN (tumor))(NN (progression))(NN (mouse))(NN (model))(JJ (colorectal))(NN (cancer)))) |ET|  |BS| 4:C04.588.274.476.411.307 5:C04.588.274.476.411.307 8:C04 11:B01.050.150.900.649.865.635.505.500 16:C23.550.291.656 43:F01.145.544 1011:C23.888.852.079 1031:C04.588.274.476.411.307  |ES| 7:1 17:1 18:1 19:1 48:1 52:1 72:1 185:1 2703:1 2797:1 3593:1  |EV| 
-4.520134953427480617449418787146  |BT| (S (NP (NN (Magnolol)))(VP (MD (could))(ADVP (RB (potentially)))(NP (JJ (safe))(JJ (potent))(JJ (anticarcinogenic))(NN (agent))(NN (skin))(NN (cancer))))) |ET|  |BS| 778:D27.505.954.444  |ES| 18:1 19:1 22:1 333:1 728:1 773:1 908:1 2312:1 2319:1 2737:1  |EV| 
4.520134953427480617449418787146  |BT| (S (PP (IN (In))(NP (NN (order))))(VB (clarify))(SBAR (IN (whether))(S (NP (NP (JJ (peroxisomal))(NN (hydrogen))(NN (peroxide)))(PRN (-LRB- (-LRB-))(NP (NN (H2O2)))(-RRB- (-RRB-))))(VP (VBP (play))(NP (JJ (important))(NN (role))(NN (peroxisome))(JJ (proliferator-induced))(NN (hepatocarcinogenesis))))))(, (,))(NP (VBN (examined))(NN (change))(NN (metabolism))(JJ (peroxisomal))(NN (H2O2)))(ADVP (FW (vivo))(FW (vitro)))(VP (VBG (using))(NP (NP (JJ (male))(NN (Fischer-344))(NN (rat))(NN (fed))(NN (clofibrate)))(, (,))(NP (NP (JJ (bezafibrate))(FW (di)))(PRN (-LRB- (-LRB-))(NP (NN (2-ethylhexyl)))(-RRB- (-RRB-))))(NP (NP (NN (phthalate)))(PRN (-LRB- (-LRB-))(NP (NN (DEHP)))(-RRB- (-RRB-)))))(NP (CD (78))(NN (week))))) |ET|  |BS| 12:Z01.542.049 15:F01.829.316.616 30:Z01.058.290.190.800 31:D08.811.520.224.800 79:I03.450.642.693 245:B01.050.150.900.649.865.635.505.700 246:B01.050.150.900.649.865.635.505.700 479:G08.686.157.500 590:B01.050.050.199.520.760.200 663:C16.320.565.398.500.330.500 898:G03.495 907:D01.248.497.158.685.750.424 908:A11.284.430.214.190.500.585.600 909:D02.065.277.067 910:D02.241.081.114.968.500.500.195 911:D02.241.223.805.250 912:D27.888.569.100.675  |ES| 2:1 10:1 14:1 19:1 31:1 200:1 216:1 221:1 238:1 244:1 324:1 350:1 378:1 783:1 849:1 900:1 902:1 1402:1 1887:1 2426:1 3163:1 3192:1 3193:1 3194:1 3195:1 3196:1 3197:1 3198:1 3199:1 3200:1 3201:1 3202:1 3203:1 3204:1 3205:1 3206:1  |EV| 
4.520134953427480617449418787146  |BT| (S (ADVP (RB (Herein)))(, (,))(VP (VBD (investigated))(NP (NP (ADJP (FW (vitro))(FW (vivo)))(JJ (anticancer))(NN (effect)))(NP (VBN (associated))(NN (mechanism))(NN (wogonin))(JJ (human))(NN (breast))(NN (cancer)))))) |ET|  |BS| 55:B01.050.150.900.649.801.400.112.400.400  |ES| 2:1 18:1 19:1 23:1 36:1 75:1 162:1 169:1 216:1 378:1 403:1 428:1 1880:1 2444:1  |EV| 
-4.520134953427480617449418787146  |BT| (NP (NP (NP (NNP (Gemcitabine)))(, (,))(NP (JJ (current))(JJ (standard-of-care))(NN (chemotherapy))(JJ (pancreatic))(NN (cancer)))(, (,))(NP (JJ (limited))(JJ (clinical))(NN (benefit))))) |ET|  |BS| 151:E02.319  |ES| 2:1 18:1 19:1 84:1 175:1 467:1 495:1 2131:1 2617:1 2618:1 2619:1  |EV| 
4.520134953427480617449418787146  |BT| (S (NP (NP (NP (NN (Expression))(NN (cyclooxygenase)))(PRN (-LRB- (-LRB-))(NP (NN (COX)))(-RRB- (-RRB-))))(CD (-2))(NN (protein))(NN (rat))(NN (hepatocarcinogenesis)))(VP (VBN (associated))(NP (NP (JJ (fatty))(NN (change)))(, (,))(NP (NN (fibrosis)))(, (,)))(NP (NP (NN (cirrhosis))(JJ (oxidative))(NN (DNA))(NN (damage)))(, (,))(VP (VBD (caused))(SBAR (S (NP (ADJP (ADJP (JJ (choline-deficient)))(, (,))(ADJP (ADJP (NN (L-amino))(JJ (acid-defined)))(PRN (-LRB- (-LRB-))(ADJP (JJ (CDAA)))(-RRB- (-RRB-)))))(NN (diet)))(VP (VBD (investigated))(NP (NP (NN (F344))(JJ (male))(NN (rat)))(, (,))(PP (IN (along))(NP (NP (JJ (chemopreventive))(NN (efficacy))(JJ (specific))(NN (COX-2))(NN (inhibitor)))(, (,))(NP (NP (NN (nimesulide)))(PRN (-LRB- (-LRB-))(NP (NN (NIM)))(-RRB- (-RRB-)))))))))))))) |ET|  |BS| 7:D12.776 24:D08.811.600.720.750 245:B01.050.150.900.649.865.635.505.700 246:B01.050.150.900.649.865.635.505.700 349:D27.505.519.389.310.500 357:C06.552.630 526:G05.355.180 590:B01.050.050.199.520.760.200 594:D02.033.100.291.211 595:G07.203.650.240 596:E02.642.249 597:D12.125 662:C23.550.355 691:C23.550.355  |ES| 2:1 4:1 10:1 14:1 19:1 76:1 169:1 200:1 316:1 380:1 403:1 540:1 666:1 849:1 900:1 949:1 1199:1 1402:1 1848:1 1946:1 2070:1 2188:1 2190:1 2191:1 2304:1 2506:1 2583:1 2666:1 3180:1 3181:1 3182:1 3183:1 3184:1 3185:1 3186:1 3187:1  |EV| 
-4.520134953427480617449418787146  |BT| (S (NP (PRP$ (Our))(VBP (result)))(VP (VBP (indicate))(SBAR (S (NP (NP (NN (administration))(NN (resveratrol)))(UCP (CC (either))(NP (JJ (early))(JJ (advanced))(NN (stage))(NN (hepatocarcinogenesis)))(ADJP (RB (equally))(JJ (effective)))))(VP (VBZ (involves))(NP (NP (NN (activation)))(NP (JJ (apoptotic))(NN (pathway))(NN (male))(NNP (Wistar))(NN (rat))))))))) |ET|  |BS| 39:G04.299.139.160 723:B01.050.150.900.649.865.635.505.700.900  |ES| 19:1 39:1 101:1 225:1 383:1 658:1 849:1 900:1 997:1 1128:1 1129:1 1402:1 1479:1 1639:1 1673:1 1712:1 2223:1 2575:1 2603:1 2854:1  |EV| 
4.520134953427480617449418787146  |BT| (NP (NP (NP (DT (A))(JJ (novel))(NN (inhibitor))(JJ (fatty))(NN (acid))(NN (synthase))(NN (show))(NN (activity))(NN (HER2)))(CC (+))(NP (NN (breast))(NN (cancer))(NN (xenograft))(JJ (active))(JJ (anti-HER2))(JJ (drug-resistant))(NN (cell))(NN (line))))) |ET|  |BS| 63:G05.360.340.024.340.375.500.791.295.305 65:D08.811.913.696.620.682.725.400.009.400 67:D26 92:E04.936.764 93:A01.941.875 94:A11.251.210 259:D12.776.395.240.150.500 921:D08.811.682.664.500.772 922:D10.251  |ES| 18:1 19:1 23:1 66:1 69:1 94:1 197:1 264:1 265:1 380:1 399:1 429:1 891:1 1275:1 2070:1 3245:1 3246:1 3247:1  |EV| 
-2.5176273568167744087986648082733  |BT| (NP (NP (NP (JJ (Partial))(JJ (hepatectomized))(NN (rat)))(PRN (-LRB- (-LRB-))(S (NP (NN (n)))(VP (JJ (=))(NP (QP (CD (11))(CD (12))))))(-RRB- (-RRB-))))(VP (VBN (fed))(NP (NN (diet))(VP (VBG (containing))(S (CD (0))(, (,))(NP (CD (0.03))(, (,))(CD (0.06))(, (,))(CD (0.125))(ADJP (CD (0.25))(NN (%)))(NN (BNF)))(NP (NP (CD (6))(NN (week))(JJ (intraperitoneal))(NN (injection))(NN (N-diethylnitrosamine)))(PRN (-LRB- (-LRB-))(NP (NN (DEN)))(-RRB- (-RRB-))))(VP (VBP (initiate))(NP (NN (hepatocarcinogenesis))))))))) |ET|  |BS| 30:Z01.058.290.190.800 31:D08.811.520.224.800 245:B01.050.150.900.649.865.635.505.700 246:B01.050.150.900.649.865.635.505.700 554:D02.654.442.200 595:G07.203.650.240 663:C16.320.565.398.500.330.500 917:E02.319.267.530.490  |ES| 2:1 10:1 14:1 19:1 286:1 369:1 580:1 581:1 783:1 785:1 849:1 900:1 1057:1 1120:1 1875:1 2191:1 2426:1 3230:1 3231:1 3529:1 3595:1 4037:1 4093:1 4163:1 4326:1 4327:1 4328:1 4329:1 4330:1  |EV| 
4.520134953427480617449418787146  |BT| (NP (NP (JJ (Critical))(NN (function))(NN (ADAM9))(NN (mouse))(NN (prostate))(NN (cancer)))) |ET|  |BS| 11:B01.050.150.900.649.865.635.505.500  |ES| 18:1 19:1 33:1 52:1 77:1 3211:1 3415:1  |EV| 
-4.520134953427480617449418787146  |BT| (NP (NP (NNS (METHODS))(: (:)))(S (NP (DT (A))(JJ (Solt-Farber))(JJ (two-step))(NN (test))(NN (model))(NN (hepatocarcino))(NN (genesis)))(VP (VBD (established))(S (NP (NP (NP (NP (NP (NN (diethylnitrosamine)))(PRN (-LRB- (-LRB-))(NP (NN (DEN)))(-RRB- (-RRB-))))(NN (2-acetylaminofluorene)))(PRN (-LRB- (-LRB-))(NP (NN (AAF)))(-RRB- (-RRB-))))(NN (rat)))(VP (VBP (investigate))(S (VP (VBG (modifying))(NP (NP (NP (NN (effect))(NN (expression))(NN (6-glucosephosphatase)))(PRN (-LRB- (-LRB-))(NP (NN (G-6-Pase)))(-RRB- (-RRB-))))(, (,))(NP (NN (succinodehydrogenase))(-LRB- (-LRB-))(NN (SDH))(-RRB- (-RRB-)))(, (,))(NP (NP (NP (NN (adenosine))(NN (triphosphatase)))(PRN (-LRB- (-LRB-))(NP (NN (ATPase)))(-RRB- (-RRB-))))(JJ (N-nitrosodiethylamine-mediated))(NN (hepatocarcinogenesis))))))))))) |ET|  |BS| 30:Z01.058.290.190.800 31:D08.811.520.224.800 168:E05.581 245:B01.050.150.900.649.865.635.505.700 246:B01.050.150.900.649.865.635.505.700 506:F01.829.263.315 554:D02.654.442.200 767:D02.065.064.150 893:D08.811.277.040.025 894:D08.811.277.040.025 1040:D08.811.277.352.650.225 1041:E01.370.370.380.250  |ES| 2:1 10:1 14:1 19:1 69:1 72:1 75:1 104:1 115:1 459:1 565:1 849:1 900:1 1418:1 1875:1 1952:1 2660:1 2762:1 3158:1 3221:1 3271:1 3624:1 3625:1 3626:1 3627:1 3628:1 3629:1 3630:1 3631:1 3632:1 3633:1 3634:1  |EV| 
4.520134953427480617449418787146  |BT| (S (NP (NP (NNP (Ling))(NN (extract)))(, (,))(NP (JJ (high))(NN (furanodiene))(NN (content)))(, (,)))(VP (VBD (showed))(NP (JJ (anti-cancer))(NN (effect))(NN (breast))(NN (cancer))(NN (cell))(NN (vitro))))) |ET|  |BS| 41:A11  |ES| 2:1 18:1 19:1 23:1 75:1 94:1 132:1 178:1 216:1 1112:1 1794:1 2496:1 3610:1 3611:1  |EV| 
-4.520134953427480617449418787146  |BT| (NP (NP (NN (BACKGROUND))(: (:)))(S (NP (NN (Alcohol))(NN (consumption)))(VP (VBZ (promotes))(NP (NP (JJ (hepatocellular))(NN (carcinoma)))(PRN (-LRB- (-LRB-))(NP (NN (HCC)))(-RRB- (-RRB-))))))) |ET|  |BS| 104:C04.557.470.200.025.255 904:F01.145.317.269  |ES| 10:1 14:1 19:1 104:1 298:1 303:1 304:1 441:1 1046:1 2387:1 3962:1  |EV| 
4.520134953427480617449418787146  |BT| (S (PP (IN (In))(NP (JJ (current))(NN (study))))(, (,))(NP (NN (serial))(NN (microPET))(NN (imaging)))(VP (VBD (used))(VP (VB (evaluate))(NP (NP (JJ (iodine-124-labeled))(NN (iodo-azomycin-galactoside)))(PRN (-LRB- (-LRB-))(NP (-LRB- (-LRB-))(CD (124))(-RRB- (-RRB-))(NN (I-IAZG)))(-RRB- (-RRB-))))))(PRN (-LRB- (-LRB-))(NP (JJ (4.2-day))(JJ (physical))(NN (half-life)))(-RRB- (-RRB-)))(S (NP (NN (hypoxia))(NN (imaging))(NN (agent)))(NP (CD (17))(NN (MCa))(NN (breast))(NN (tumor))(CD (six))(NN (FSaII))(NNS (fibrosarcomas)))(VP (VBN (implanted))(NP (NN (mouse)))))) |ET|  |BS| 11:B01.050.150.900.649.865.635.505.500 30:Z01.058.290.190.800 31:D08.811.520.224.800 225:E05.337 375:Z01.639.100 967:D01.248.497.158.490 1002:C04.588.180 1011:C23.888.852.079 1017:E01.370.350 1018:C04.557.450.565.590.350 1019:A07.231.114.228.550 1020:G01.910.405 1021:E01.370.600 1022:V02.690  |ES| 2:1 7:1 10:1 14:1 19:1 23:1 52:1 131:1 175:1 244:1 476:1 728:1 890:1 930:1 1781:1 2474:1 3559:1 3560:1 3561:1 3562:1 3563:1 3564:1 3565:1 3566:1 3567:1 3568:1 3569:1 3570:1 3571:1 3572:1  |EV| 
-4.520134953427480617449418787146  |BT| (NP (NP (JJ (Chronic))(JJ (excessive))(NN (alcohol))(NN (consumption))(NN (lead))(NN (development)))(NP (NP (JJ (alcoholic))(NN (liver))(NN (disease)))(PRN (-LRB- (-LRB-))(NP (NN (ALD)))(-RRB- (-RRB-))))(S (VP (ADVP (RB (greatly)))(VB (increase))(NP (NN (risk))(NN (liver))(NN (cancer)))))) |ET|  |BS| 61:E05.318.740.600.800 86:D01.268.556.435 650:C06.552 904:F01.145.317.269 1148:M01.066  |ES| 10:1 14:1 18:1 19:1 35:1 40:1 171:1 254:1 836:1 998:1 2387:1 2880:1 3710:1 3967:1 3982:1 3983:1 3984:1  |EV| 
4.520134953427480617449418787146  |BT| (S (NP (NN (17-Allylamino-17-demethoxygeldanamycin)))(VP (VBZ (overcomes))(NP (NN (TRAIL))(NN (resistance))(NN (colon))(NN (cancer))(NN (cell))(NN (line))))) |ET|  |BS| 94:A11.251.210  |ES| 18:1 19:1 94:1 113:1 264:1 1094:1 1695:1 3238:1 3239:1  |EV| 
-4.520134953427480617449418787146  |BT| (S (NP (NNS (CONCLUSIONS))(: (:)))(VP (VBN (Taken))(ADVP (RB (together)))(, (,))(S (VP (VBG (finding))(VP (VB (identify))(S (NP (NN (mechanism))(NN (ABT-100))(NN (function)))(VP (VBP (show))(NP (NP (NN (efficacy))(NN (ABT-100))(JJ (chemopreventive))(NN (agent)))(NP (JJ (hepatocellular))(NN (carcinoma))))))))))) |ET|  |BS| 104:C04.557.470.200.025.255 375:Z01.639.100  |ES| 2:1 19:1 33:1 104:1 162:1 239:1 303:1 304:1 429:1 728:1 832:1 927:1 1537:1 1538:1 1946:1 2304:1 2538:1  |EV| 
4.520134953427480617449418787146  |BT| (NP (NP (NP (JJ (Consistent))(NN (finding))(, (,))(JJ (ABCB5-expressing))(NN (tumor))(NN (cell))(NN (population)))(RRC (ADVP (RB (also)))(NP (NN (treatment))(ADJP (JJ (refractory))(S (VP (VBD (exhibited))(NP (NN (resistance))(JJ (5-FU-induced))(NN (apoptosis))(JJ (colorectal))(NN (cancer))(NN (xenograft))(NN (model))(NN (5-FU))(NN (monotherapy)))))))))) |ET|  |BS| 4:C04.588.274.476.411.307 5:C04.588.274.476.411.307 8:C04 39:G04.299.139.160 41:A11 52:E02 92:E04.936.764 93:A01.941.875 175:J01.897.280.500.269 275:C23.888 560:D03.383.742.698.875.404 829:M01.686 966:N01.600  |ES| 2:1 5:1 7:1 17:1 18:1 19:1 72:1 89:1 94:1 265:1 546:1 609:1 927:1 1094:1 2023:1 2308:1 3379:1 3395:1 3396:1 3397:1 3398:1  |EV| 
-1.4235997687852659510099329054356  |BT| (S (PP (IN (In))(NP (NN (conclusion))))(, (,))(NP (NP (NP (NN (dioscin))(NN (show))(JJ (excellent))(JJ (protective))(NN (effect)))(JJ (ethanol-induced))(NN (liver))(NN (injury)))(S (VP (VBG (ameliorating))(NP (NP (JJ (ethanol-induced))(JJ (oxidative))(NN (stress)))(, (,))(NP (JJ (mitochondrial))(NN (function)))(, (,)))(NP (NP (JJ (inflammatory))(NP (NN (cytokine)))(NN (production)))(, (,))(NP (NN (apoptosis))(NN (liver))(NN (steatosis)))(, (,))))))(VP (VBD (developed))(NP (JJ (new))(NN (drug))(NN (treatment))(JJ (ethanol-induced))(NN (liver))(NN (injury))(NN (future))))) |ET|  |BS| 39:G04.299.139.160 52:E02 67:D26 242:A03.620 354:I01.320 508:C06.552.241 565:A11.284.430.214.190.875.564 567:G05.360.340.024.340.365 716:G03.495.710 751:D02.033.375 752:D12.644.276.374 753:C06.552.241  |ES| 2:1 19:1 33:1 75:1 89:1 191:1 244:1 429:1 493:1 546:1 712:1 836:1 1165:1 1190:1 1284:1 2004:1 2416:1 2430:1 2522:1 2583:1 2672:1 2673:1 2674:1 2675:1 2676:1 2677:1 2678:1  |EV| 
4.520134953427480617449418787146  |BT| (S (NP (ADJP (QP (IN (About))(CD (80)))(NN (%)))(JJ (gastric))(NN (cancer)))(VP (VBD (showed))(NP (JJ (high))(NN (level))(NN (expression))(NN (cyclooxygenase))(CD (2)))(, (,))(S (NP (NN (subset))(NN (case)))(VP (VBP (express))(PP (IN (without))(NP (JJ (unknown))(NN (reason)))))))) |ET|  |BS| 24:D08.811.600.720.750  |ES| 2:1 18:1 19:1 86:1 115:1 132:1 148:1 178:1 208:1 249:1 369:1 573:1 934:1 1195:1 1285:1 2182:1 3180:1 3257:1 3258:1  |EV| 
-4.520134953427480617449418787146  |BT| (SINV (NP (NP (JJ (Hepatocellular))(NN (carcinoma)))(PRN (-LRB- (-LRB-))(NP (NN (HCC)))(-RRB- (-RRB-))))(NP (CD (one))(JJ (common))(NN (cancer)))(ADVP (RB (worldwide)))(, (,))(VP (VBD (caused)))(NP (NP (NP (NNP (Hepatitis))(NNP (C))(NN (virus)))(PRN (-LRB- (-LRB-))(NP (NN (HCV)))(-RRB- (-RRB-))))(NN (hepatotoxin)))) |ET|  |BS| 104:C04.557.470.200.025.255 550:B04.450.410  |ES| 2:1 10:1 14:1 18:1 19:1 304:1 441:1 655:1 1010:1 1422:1 1938:1 1954:1 1955:1 2151:1 2506:1 3987:1 3988:1  |EV| 
4.520134953427480617449418787146  |BT| (NP (NP (NNS (METHODS))(: (:)))(S (NP (DT (A))(JJ (Solt-Farber))(JJ (two-step))(NN (test))(NN (model))(NN (hepatocarcino))(NN (genesis)))(VP (VBD (established))(S (NP (NP (NP (NP (NP (NN (diethylnitrosamine)))(PRN (-LRB- (-LRB-))(NP (NN (DEN)))(-RRB- (-RRB-))))(NN (2-acetylaminofluorene)))(PRN (-LRB- (-LRB-))(NP (NN (AAF)))(-RRB- (-RRB-))))(NN (rat)))(VP (VBP (investigate))(S (VP (VBG (modifying))(NP (NP (NP (NN (effect))(NN (expression))(NN (6-glucosephosphatase)))(PRN (-LRB- (-LRB-))(NP (NN (G-6-Pase)))(-RRB- (-RRB-))))(, (,))(NP (NN (succinodehydrogenase))(-LRB- (-LRB-))(NN (SDH))(-RRB- (-RRB-)))(, (,))(NP (NP (NP (NN (adenosine))(NN (triphosphatase)))(PRN (-LRB- (-LRB-))(NP (NN (ATPase)))(-RRB- (-RRB-))))(JJ (N-nitrosodiethylamine-mediated))(NN (hepatocarcinogenesis))))))))))) |ET|  |BS| 30:Z01.058.290.190.800 31:D08.811.520.224.800 168:E05.581 245:B01.050.150.900.649.865.635.505.700 246:B01.050.150.900.649.865.635.505.700 506:F01.829.263.315 554:D02.654.442.200 767:D02.065.064.150 893:D08.811.277.040.025 894:D08.811.277.040.025 1040:D08.811.277.352.650.225 1041:E01.370.370.380.250  |ES| 2:1 10:1 14:1 19:1 69:1 72:1 75:1 104:1 115:1 459:1 565:1 849:1 900:1 1418:1 1875:1 1952:1 2660:1 2762:1 3158:1 3221:1 3271:1 3624:1 3625:1 3626:1 3627:1 3628:1 3629:1 3630:1 3631:1 3632:1 3633:1 3634:1  |EV| 
-0.79289261839562641398515552282333  |BT| (S (NP (NN (5-aza-dC))(NN (treatment)))(ADVP (RB (markedly)))(VP (VBD (decreased))(NP (NP (NN (atherosclerosis))(NN (development))(NN (Ldlr)))(-LRB- (-LRB-))(PRN (: (-))(: (/))(: (-)))(-RRB- (-RRB-))(NN (mouse)))(NP (PP (IN (without))(NP (NN (change))(NN (body))(NN (weight))))(, (,))(NP (NN (plasma))(NN (lipid))(NN (profile)))(, (,))(NP (NN (macrophage))(NN (cholesterol))(NN (level))(NN (plaque))(NN (lipid))(NN (content)))))) |ET|  |BS| 11:B01.050.150.900.649.865.635.505.500 52:E02 511:C14.907.137.126.307 513:C14.907.137.126 558:C23.300.821 653:C23.888.144 654:D02.145.150 655:D04.808.247.222.284 656:C07.793.208.377 657:A12.207.152.693 658:A11.329.372 659:D10  |ES| 2:1 10:1 14:1 19:1 35:1 45:1 52:1 200:1 202:1 249:1 546:1 1195:1 1711:1 1794:1 1804:1 1981:1 2395:1 2396:1 2397:1 2398:1 2399:1 2400:1 2401:1 2402:1 2403:1  |EV| 
4.520134953427480617449418787146  |BT| (S (NP (NNS (Genes)))(VP (VBD (expressed))(NP (NP (NN (PB))(CD (two))(NNS (conazoles)))(RRC (ADVP (RB (also)))(NP (VBN (compared))(NP (NN (gene))(VBN (associated))(JJ (human))(JJ (hepatocellular))(NN (cancer)))))))) |ET|  |BS| 6:G05.360.340.024.340 55:B01.050.150.900.649.801.400.112.400.400  |ES| 5:1 6:1 9:1 18:1 19:1 36:1 50:1 169:1 303:1 933:1 3495:1 3496:1 3497:1  |EV| 
-4.520134953427480617449418787146  |BT| (S (NP (NN (Phyllanthus))(NN (urinaria)))(VP (VBZ (ameliorates))(NP (NN (severity))(JJ (nutritional))(FW (steatohepatitis))(FW (vitro))(FW (vivo))))) |ET|  |BS| 508:C06.552.241 813:B01.650.940.800.575.100.350.622  |ES| 19:1 216:1 378:1 1473:1 1791:1 2875:1 2876:1 2877:1 2878:1  |EV| 
4.520134953427480617449418787146  |BT| (NP (NP (PRP$ (Our))(VP (VBP (result))(VP (VBP (demonstrate))(S (VP (NN (resveratrol))(VP (VB (potentiate))(NP (JJ (anti-tumor))(NN (effect))(NN (5-FU))(NN (CRC))(NN (cell))(NN (chemosensitizing)))(, (,))(S (VP (VBG (inhibiting))(NP (NNP (EMT))(NN (phenotype)))(PP (IN (via))(NP (NN (up-regulation))(JJ (intercellular))(NN (junction))(NN (down-regulation))(NN (NF-kappaB))(NN (pathway))))))))))))) |ET|  |BS| 4:C04.588.274.476.411.307 5:C04.588.274.476.411.307 8:C04 12:Z01.542.049 41:A11 80:G05.695 85:G02.111.087.225 122:C14.280.383 142:I01.880.604 210:D12.776.260.600 560:D03.383.742.698.875.404 1054:A11.284.149.165.420  |ES| 2:1 19:1 75:1 94:1 101:1 236:1 245:1 257:1 383:1 502:1 596:1 658:1 714:1 880:1 896:1 1712:1 1759:1 2075:1 2308:1 3677:1 3678:1 3679:1 3680:1  |EV| 
-4.520134953427480617449418787146  |BT| (NP (NP (JJ (Previous))(NN (study)))(VP (VBN (shown))(S (NP (NN (decorin))(NN (expression)))(VP (ADVP (RB (significantly)))(VBD (reduced))(NP (NP (JJ (colorectal))(NN (cancer))(NN (tissue))(NN (cancer))(NN (cell)))(, (,))(NP (JJ (genetic))(NN (deletion))(NN (decorin))(NN (gene))(JJ (sufficient))(NN (cause))(JJ (intestinal))(NN (tumor))(NN (formation))(NN (mouse)))(, (,))(VP (VBG (resulting))(NP (NN (downregulation))(NN (p21))))(, (,))(NP (NP (NN (p27)))(PRN (-LRB- (-LRB-))(NP (NN (kip1)))(-RRB- (-RRB-))))(FRAG (NP (NN (E-cadherin))(NN (upregulation))(NN (beta-catenin))(NN (signaling)))(-LRB- (-LSB-))(NP (NP (NN (Bi)))(, (,))(NP (NN (X)))))))))) |ET|  |BS| 4:C04.588.274.476.411.307 5:C04.588.274.476.411.307 11:B01.050.150.900.649.865.635.505.500 12:Z01.542.049 20:G03.495 23:D12.776.091.249 30:Z01.058.290.190.800 31:D08.811.520.224.800 41:A11 69:G02.111.087.800 85:G02.111.087.225 98:A10 102:C04.588.274.476.411 249:G05.355.315.800 338:D12.644.360.225.600 339:G02.111.087.880 549:G05.355.600.800.320 708:D12.776.395.650.750.625 820:D12.776.395.550.200.200  |ES| 2:1 7:1 9:1 10:1 14:1 17:1 18:1 19:1 43:1 52:1 60:1 94:1 109:1 115:1 124:1 131:1 195:1 237:1 242:1 272:1 384:1 452:1 595:1 864:1 929:1 1059:1 1124:1 1126:1 1135:1 1373:1 1779:1 2267:1 2900:1 2901:1 2902:1 2903:1  |EV| 
4.520134953427480617449418787146  |BT| (S (NP (NP (NN (Overexpression))(NN (cyclooxygenase))(CD (2)))(PRN (-LRB- (-LRB-))(NP (NN (COX-2)))(-RRB- (-RRB-))))(ADVP (RB (frequently)))(VP (VBD (found))(NP (JJ (early))(JJ (advanced))(NN (lung))(NN (cancer))))) |ET|  |BS| 24:D08.811.600.720.750  |ES| 10:1 14:1 18:1 19:1 37:1 76:1 148:1 328:1 668:1 698:1 997:1 1128:1 3180:1  |EV| 
-4.520134953427480617449418787146  |BT| (S (NP (NP (NNS (Data)))(VP (VBN (obtained))))(VP (VBP (suggest))(S (NP (NN (contribution))(NN (SphK/S1P))(NN (system)))(NP (JJ (related))(NN (signaling))(NN (pathway))(JJ (protective))(NN (effect))(NN (melatonin))(NN (hepatocarcinogenesis)))))) |ET|  |BS| 126:G02.111.087.800 707:D03.438.473.914.481  |ES| 19:1 75:1 195:1 383:1 419:1 493:1 593:1 796:1 900:1 1224:1 1360:1 2554:1 2555:1 2556:1  |EV| 
-4.520134953427480617449418787146  |BT| (S (NP (JJ (Overall))(NN (finding)))(VP (VBP (substantiate))(SBAR (S (NP (NN (artesunate)))(VP (VBZ (promotes))(SBAR (S (NP (JJ (anti-tumour))(, (,))(JJ (anti-proliferation))(NN (apoptosis))(NN (nitrosodiethylamine)))(VP (VBD (mediated))(NP (JJ (hepatocellular))(NN (carcinoma))))))))))) |ET|  |BS| 8:C04 39:G04.299.139.160 104:C04.557.470.200.025.255 554:D02.654.442.200 696:V02.270.500  |ES| 2:1 19:1 89:1 298:1 303:1 304:1 437:1 927:1 2434:1 2858:1 2859:1 2860:1 2861:1 2862:1  |EV| 
-4.520134953427480617449418787146  |BT| (S (NP (NN (Hepatocarcinogenesis)))(VP (VBD (induced))(NP (NN (diethylnitrosamine))(JJ (hepatic))(NN (deletion))(NN (PTEN))))) |ET|  |BS| 306:G05.355.600.800 554:D02.654.442.200  |ES| 19:1 412:1 838:1 1059:1 1936:1 1952:1 1959:1  |EV| 
4.520134953427480617449418787146  |BT| (NP (NP (NN (Inhibition))(NN (licorice))(NN (flavonoid))(NN (oil))(NN (glutathione))(JJ (S-transferase-positive))(NN (focus))(JJ (medium-term))(NN (rat))(NN (hepatocarcinogenesis))(NN (bioassay)))) |ET|  |BS| 43:F01.145.544 106:E05.091 245:B01.050.150.900.649.865.635.505.700 246:B01.050.150.900.649.865.635.505.700 534:D03.383.663.283.266.450 780:D08.811.913.225.500 849:G08.686.785.760.769.490.500 914:L01.178 1027:B01.650.940.800.575.100.401.300 1028:B01.650.940.800.575.100.401.300 1029:D10.627.700 1030:D10.627  |ES| 19:1 849:1 900:1 1431:1 1886:1 2614:1 2703:1 2744:1 2931:1 3215:1 3590:1 3591:1  |EV| 
4.520134953427480617449418787146  |BT| (NP (NP (S (VP (TO (To))(VP (VB (clarify))(S (VP (VBG (modifying))(NP (NP (NN (effect))(NN (N-Acetyl-L-Cysteine)))(PRN (-LRB- (-LRB-))(NP (NN (NAC)))(-RRB- (-RRB-)))))))))(, (,))(NP (NP (JJ (antioxidative))(NN (ability)))(, (,))(NP (NN (hepatocarcinogenesis)))(VP (VBD (promoted))(SBAR (S (NP (NP (NP (NP (NN (fenofibrate)))(PRN (-LRB- (-LRB-))(NP (NN (FF)))(-RRB- (-RRB-))))(, (,))(NP (NP (NP (NN (peroxisome))(JJ (proliferator-activated))(NN (receptor)))(PRN (-LRB- (-LRB-))(NP (NN (PPAR)))(-RRB- (-RRB-))))(NN (alpha)))(NP (NN (agonist))))(, (,))(NP (NP (JJ (male))(NN (F344/N))(NN (rat)))(VP (VBN (administered))(NP (NP (NP (ADJP (JJ (single))(JJ (intraperitoneal)))(NN (injection))(NN (N-diethylnitrosamine)))(PRN (-LRB- (-LRB-))(NP (NN (DEN)))(-RRB- (-RRB-))))(NN (initiator))))))(VP (VBD (followed))(NP (NN (administration))(NN (diet))(VBG (containing))(CD (3,000))(NN (ppm))(NN (FF))(CD (16))(NN (week)))))))))) |ET|  |BS| 30:Z01.058.290.190.800 31:D08.811.520.224.800 385:F02.784.629.131 536:D12.776.826.239.500 554:D02.654.442.200 590:B01.050.050.199.520.760.200 596:E02.642.249 791:D02.886.030.230.259 805:F01.829.263.315.500.725 806:F01.829.263.315.500.725 916:D02.241.081.114.968.500.625 917:E02.319.267.530.490  |ES| 2:1 10:1 14:1 19:1 75:1 186:1 286:1 783:1 785:1 828:1 849:1 900:1 1300:1 1402:1 1801:1 1836:1 1875:1 1887:1 1912:1 2191:1 2336:1 2575:1 2644:1 2846:1 3130:1 3193:1 3221:1 3222:1 3223:1 3224:1 3225:1 3226:1 3227:1 3228:1 3229:1 3230:1 3231:1 3232:1 3233:1 3234:1  |EV| 
4.520134953427480617449418787146  |BT| (S (ADVP (RB (Here)))(, (,))(VP (VBP (provide))(NP (NP (NP (NN (evidence))(NN (periostin))(, (,))(NN (protein))(JJ (structural))(NN (sequence))(NN (homology))(JJ (TGF-beta-inducible))(NN (gene)))(, (,))(NP (NN (beta))(NN (ig-h3)))(, (,)))(VP (VBN (upregulated))(NP (JJ (colorectal))(NN (cancer))(NN (liver))(NN (metastasis)))))(, (,))(VP (MD (may))(VP (VB (play))(NP (NN (role)))(S (VP (VBG (promoting))(NP (NN (growth))(NN (tumor))))))))) |ET|  |BS| 4:C04.588.274.476.411.307 6:G05.360.340.024.340 8:C04 15:F01.829.316.616 45:G07.700.320.249 79:I03.450.642.693 112:D12.776.097.820 113:C04.697.650 242:A03.620 503:D12.644.276.374.687 1005:G02.111.810  |ES| 2:1 4:1 7:1 9:1 17:1 18:1 19:1 31:1 38:1 102:1 125:1 238:1 293:1 400:1 491:1 711:1 806:1 836:1 881:1 1972:1 3512:1 3513:1 3514:1 3515:1 3516:1  |EV| 
-4.520134953427480617449418787146  |BT| (S (NP (NNP (Administration))(NN (HMGB1))(NN (release))(NN (inhibitor))(NN (ethyl))(NN (pyruvate)))(, (,))(VP (VBP (affect))(NP (NP (JJ (p53-mediated))(JJ (hepatic))(NN (apoptosis)))(, (,))(VP (ADVP (RB (substantially)))(VBD (prevented))(NP (JJ (carcinogen-induced))(NN (cirrhosis))(NN (tumorigenesis))(NN (rat))(NN (liver))))))) |ET|  |BS| 2:G05.360.340.024.340.375.249.385 32:C04.697.098.500 33:C04.697.098 39:G04.299.139.160 242:A03.620 245:B01.050.150.900.649.865.635.505.700 246:B01.050.150.900.649.865.635.505.700 279:D27.888.569.100 357:C06.552.630 433:F01.470.047 585:D12.644.276.087.371 589:E02.204.125 662:C23.550.355  |ES| 2:1 19:1 78:1 89:1 380:1 836:1 838:1 849:1 1199:1 1486:1 1944:1 2164:1 2165:1 2346:1 2417:1 2418:1 2419:1 2420:1 2421:1  |EV| 
-4.520134953427480617449418787146  |BT| (S (NP (NP (NP (DT (The))(NN (process))(NN (hepatocarcinogenesis))(NN (diethylnitrosamine)))(PRN (-LRB- (-LRB-))(NP (NN (DEN)))(-RRB- (-RRB-))))(JJ (initiation/phenobarbital))(-LRB- (-LRB-))(NN (PB))(-RRB- (-RRB-))(NN (promotion))(NN (mouse))(NN (model)))(VP (VBZ (involves))(NP (NP (JJ (selective))(JJ (clonal))(NN (outgrowth))(NN (cell))(NN (harboring))(NN (oncogene))(NN (mutation))(NN (Ctnnb1)))(, (,))(S (NP (JJ (spontaneous))(JJ (DEN-only-induced))(NN (tumor)))(ADVP (RB (often)))(NP (NP (NN (Ha-ras)))(: (-))(NP (JJ (B-raf-mutated)))))))) |ET|  |BS| 1:G05.360.340.024.340.375.500.791.550 8:C04 9:G05.360.340.024.340.375.500 11:B01.050.150.900.649.865.635.505.500 18:G05.365.590 23:D12.776.091.249 41:A11 216:Z01.107.084.900.425 278:D08.811.913.696.620.682.700.559.842.374 301:A11.251.353 554:D02.654.442.200 756:D03.383.742.698.253.650  |ES| 2:1 7:1 10:1 14:1 19:1 24:1 34:1 52:1 72:1 94:1 283:1 632:1 638:1 691:1 900:1 1069:1 1304:1 1673:1 1749:1 1875:1 1952:1 2337:1 3496:1 4030:1 4031:1 4032:1 4033:1 4034:1 4035:1  |EV| 
4.520134953427480617449418787146  |BT| (S (NP (NNS (Effects)))(VP (VBP (magnolol))(NP (NP (JJ (UVB-induced))(NN (skin))(NN (cancer))(NN (development))(NN (mouse)))(JJ (possible))(NN (mechanism))(NN (action))))) |ET|  |BS| 11:B01.050.150.900.649.865.635.505.500 742:G03.787  |ES| 18:1 19:1 35:1 52:1 162:1 1359:1 2013:1 2319:1 2526:1 2752:1 3461:1  |EV| 
-4.520134953427480617449418787146  |BT| (S (NP (PRP$ (Our))(NNS (data)))(VP (VBD (indicated))(NP (NP (NN (silymarin))(JJ (therapeutic))(NN (effect)))(NP (JJ (early))(NN (stage))(NN (liver))(NN (damage))))(, (,))(S (VP (VBG (reversing))(NP (NP (JJ (fatty))(NN (change)))(VP (VBG (recovering))(NP (NN (liver))(NN (histopathology))(JJ (dose-dependent))(NN (manner))))))))) |ET|  |BS| 242:A03.620 801:D03.383.663.283.266.450.268.777  |ES| 2:1 19:1 75:1 200:1 541:1 658:1 793:1 836:1 1128:1 1129:1 1541:1 1668:1 1848:1 2070:1 2740:1 2821:1 2822:1 2823:1 2824:1  |EV| 
4.520134953427480617449418787146  |BT| (S (ADVP (RB (Herein)))(, (,))(VP (VBD (investigated))(NP (NP (NP (NN (effect))(NN (alpha-LA))(NN (development))(NN (rat)))(JJ (pre-neoplastic))(NN (lesion)))(VP (VBD (generated))(NP (NN (model))(NN (hepatocarcinogenesis))(, (,))(NN (similarity))(JJ (histopathological))(NN (sequence))(JJ (human))(JJ (hepatocellular))(NN (carcinoma))(NN (development))(NN (cirrhosis))))))) |ET|  |BS| 8:C04 14:F01.525 25:G02.111.570.080 26:G02.111.570.080 27:G02.111.570.080 30:Z01.058.290.190.800 31:D08.811.520.224.800 104:C04.557.470.200.025.255 245:B01.050.150.900.649.865.635.505.700 246:B01.050.150.900.649.865.635.505.700 357:C06.552.630 662:C23.550.355 1006:D01.268.558.362.500  |ES| 2:1 19:1 35:1 36:1 72:1 73:1 75:1 293:1 303:1 304:1 403:1 428:1 849:1 900:1 1131:1 1199:1 3524:1 3525:1 3526:1 3527:1  |EV| 
4.520134953427480617449418787146  |BT| (NP (NP (NP (NP (NNP (Neurotensin))(NN (receptor-1)))(PRN (-LRB- (-LRB-))(NP (NN (NTR-1)))(-RRB- (-RRB-))))(NP (JJ (overexpressed))(NN (colon))(NN (cancer))(NN (colon))(NN (cancer))(NN (cell))(NN (line))))) |ET|  |BS| 94:A11.251.210 1048:D12.776.543.750.100.550  |ES| 10:1 14:1 18:1 19:1 25:1 94:1 113:1 264:1 3656:1 3657:1 3658:1  |EV| 
4.520134953427480617449418787146  |BT| (S (NP (NN (Curcumin)))(VP (VBZ (sensitizes))(NP (NP (JJ (human))(JJ (colorectal))(NN (cancer))(NN (xenograft))(JJ (nude))(NN (mouse))(NN (gamma-radiation)))(VP (VBG (targeting))(NP (JJ (nuclear))(JJ (factor-kappaB-regulated))(NN (gene))(NN (product))))))) |ET|  |BS| 4:C04.588.274.476.411.307 5:C04.588.274.476.411.307 30:Z01.058.290.190.800 31:D08.811.520.224.800 55:B01.050.150.900.649.801.400.112.400.400 88:B01.050.150.900.649.865.635.505.500.550.500 92:E04.936.764 93:A01.941.875 142:I01.880.604 210:D12.776.260.600 692:D02.455.326.146.485.222.222 816:G01.358.500.505.300 973:E05.393.335  |ES| 9:1 17:1 18:1 19:1 36:1 52:1 265:1 266:1 616:1 675:1 1256:1 2062:1 3429:1 3430:1 3431:1  |EV| 
-4.520134953427480617449418787146  |BT| (NP (NP (NN (Inhibition))(NP (NN (c-Jun))(JJ (NH2-terminal))(NN (kinase))(NN (switch)))(NN (Smad3))(NN (signaling))(NN (oncogenesis))(NN (tumor)))(: (-))(NP (NN (suppression))(NN (rat))(JJ (hepatocellular))(NN (carcinoma)))) |ET|  |BS| 8:C04 30:Z01.058.290.190.800 31:D08.811.520.224.800 32:C04.697.098.500 33:C04.697.098 43:F01.145.544 69:G02.111.087.800 104:C04.557.470.200.025.255 245:B01.050.150.900.649.865.635.505.700 246:B01.050.150.900.649.865.635.505.700 771:D08.811.913.696.620.682.700.567.374  |ES| 19:1 195:1 303:1 304:1 470:1 849:1 1686:1 2453:1 2703:1 2708:1 2709:1 2710:1 2711:1 2712:1  |EV| 
4.520134953427480617449418787146  |BT| (NP (NP (PP (IN (Among))(NP (NNS (others))))(, (,))(NP (NN (bladder))(, (,))(NN (lung))(, (,))(NN (colon))(, (,))(NN (breast))(NN (cancer))(VBN (associated))(NN (4-ABP))))) |ET|  |BS| 46:A03.556.124.526.356 182:A04.411 933:A05.810.890  |ES| 2:1 18:1 19:1 23:1 113:1 169:1 328:1 564:1 1000:1 3281:1 3282:1  |EV| 
-4.520134953427480617449418787146  |BT| (S (NP (JJ (Bromelain-containing))(NN (food))(CC (and/or))(NN (bromelain)))(VP (MD (may))(VP (VB (represent))(NP (JJ (good))(NN (candidate))(JJ (colorectal))(NN (cancer))(NN (chemoprevention)))))) |ET|  |BS| 4:C04.588.274.476.411.307 5:C04.588.274.476.411.307 253:E02.319.162 679:D08.811.277.656.262.500.096 680:G07.203.300  |ES| 17:1 18:1 19:1 149:1 491:1 799:1 870:1 1243:1 1318:1 2469:1 2470:1 2471:1  |EV| 
-4.520134953427480617449418787146  |BT| (S (S (NP (JJ (Previous))(NN (work)))(VP (VBD (showed))(NP (NN (loss))(NN (TIP30)))))(, (,))(ADVP (RB (also)))(VP (VBN (called))(S (NP (NN (CC3))))(, (,))(NP (NP (JJ (putative))(NN (tumor))(NN (suppressor)))(, (,))(NP (VBD (increased))(NN (incidence))(JJ (hepatocellular))(NN (carcinoma))(NN (mouse)))(, (,))(NP (JJ (clinical))(NN (sample))(JJ (human))(NN (HCC))(NN (tissue))(JJ (aberrant))(NN (expression))(NN (TIP30)))))) |ET|  |BS| 11:B01.050.150.900.649.865.635.505.500 55:B01.050.150.900.649.801.400.112.400.400 98:A10 104:C04.557.470.200.025.255 206:G05.360.340.024.340.375.249 434:E05.318.308.985.525.375 445:I03.946  |ES| 2:1 5:1 7:1 19:1 32:1 36:1 47:1 52:1 84:1 115:1 132:1 272:1 303:1 304:1 441:1 700:1 835:1 918:1 1511:1 1546:1 1547:1 1725:1 2900:1 2904:1 2905:1  |EV| 
4.520134953427480617449418787146  |BT| (S (NP (NN (Pamidronate)))(VP (VBD (induced))(NP (JJ (anti-proliferative))(, (,))(NP (JJ (apoptotic))(, (,))(NP (JJ (anti-migratory))(NN (effect))(JJ (hepatocellular))(NN (carcinoma))))))) |ET|  |BS| 39:G04.299.139.160 104:C04.557.470.200.025.255  |ES| 2:1 19:1 75:1 303:1 304:1 412:1 2223:1 3694:1 3695:1 3696:1  |EV| 
-4.520134953427480617449418787146  |BT| (S (NP (NNP (Erlotinib)))(ADVP (RB (also)))(VP (VBD (decreased))(NP (NN (hepatocyte))(NN (proliferation))(NN (liver))(NN (injury))))) |ET|  |BS| 242:A03.620 262:A11.436.348  |ES| 5:1 19:1 202:1 299:1 836:1 1909:1 2416:1 2596:1  |EV| 
-4.520134953427480617449418787146  |BT| (S (NP (NNP (Lycopene))(JJ (active))(JJ (chemopreventive))(NN (agent))(NN (offer))(NN (protection))(JJ (DEN-induced))(NN (hepatocarcinogenesis)))(VP (VBG (inhibiting))(NP (NN (NF-kappaB))(NN (mTOR))(NN (pathway))))) |ET|  |BS| 122:C14.280.383 210:D12.776.260.600  |ES| 19:1 197:1 383:1 714:1 728:1 880:1 900:1 1042:1 1946:1 2733:1 2734:1 2735:1 2736:1  |EV| 
4.520134953427480617449418787146  |BT| (S (NP (NNP (Dovitinib)))(ADVP (RB (also)))(VP (VP (VBD (caused))(NP (NP (NP (NN (dephosphorylation))(NN (retinoblastoma)))(, (,))(NP (NN (upregulation))(NN (p-histone))(NN (H2A-X))(NN (p27)))(, (,)))(NN (downregulation))(NN (p-cdk-2))(NN (cyclin))(NN (B1))))(, (,))(VP (VBD (resulted))(NP (NN (reduction))(JJ (cellular))(NN (proliferation))(NN (induction))(NN (tumor))(NN (cell))(NN (apoptosis)))))) |ET|  |BS| 8:C04 39:G04.299.139.160 41:A11 85:G02.111.087.225 183:G04.299.233.750 249:G05.355.315.800 339:G02.111.087.880 510:C23.550.444 978:D08.811.913.696.620.682.700.646.500 979:D12.644.360.262.120.100 980:C04.557.465.625.600.725  |ES| 2:1 5:1 7:1 19:1 89:1 94:1 299:1 370:1 594:1 595:1 736:1 743:1 1124:1 1126:1 2506:1 3074:1 3449:1 3450:1 3451:1 3452:1 3453:1 3454:1 3455:1  |EV| 
-4.520134953427480617449418787146  |BT| (S (NP (DT (All))(NN (result)))(VP (VBD (revealed))(NP (NP (NN (pterostilbene))(JJ (effective))(NN (antitumor))(NN (agent)))(NP (RB (well))(NP (JJ (inhibitory))(NN (effect))(NN (down-regulation))(JJ (inflammatory))(NN (iNOS))(NN (COX-2))(NN (gene)))(NN (expression))(NN (up-regulation))(NN (apoptosis))(NN (mouse))(NN (colon))))(, (,))(S (VP (VBG (suggesting))(NP (NP (NP (NN (pterostilbene)))(JJ (novel))(JJ (functional))(NN (agent)))(ADJP (JJ (capable))(S (VP (VBG (preventing))(NP (JJ (inflammation-associated))(NN (colon))(NN (tumorigenesis))))))))))) |ET|  |BS| 11:B01.050.150.900.649.865.635.505.500 32:C04.697.098.500 33:C04.697.098 39:G04.299.139.160 46:A03.556.124.526.356 53:C06.405.205.265 85:G02.111.087.225 155:G05.355.310 249:G05.355.315.800 259:D12.776.395.240.150.500 339:G02.111.087.880 660:D27.505.954.248  |ES| 2:1 9:1 19:1 52:1 67:1 75:1 76:1 78:1 89:1 101:1 113:1 115:1 257:1 275:1 415:1 728:1 787:1 891:1 896:1 965:1 1009:1 1639:1 1849:1 1937:1 2244:1 2428:1 2429:1 2430:1 2431:1  |EV| 
4.520134953427480617449418787146  |BT| (NP (NP (JJ (Prognostic))(NN (significance))(NN (metallothionein))(JJ (human))(JJ (gastrointestinal))(NN (cancer)))) |ET|  |BS| 55:B01.050.150.900.649.801.400.112.400.400 777:D12.776.556.670  |ES| 18:1 19:1 36:1 183:1 557:1 2731:1 3716:1  |EV| 
-4.520134953427480617449418787146  |BT| (S (NP (NN (CONCLUSION))(: (:)))(PP (IN (In))(NP (NN (summary))))(, (,))(S (VP (VBG (finding))(VP (VB (provide))(NP (NP (JJ (preclinical))(NN (evidence)))(VP (VBG (supporting))(NP (NN (evaluation))(NN (agent))(NN (DMAPT))(NN (gemcitabine))(NN (prevention))(NN (treatment))(JJ (pancreatic))(NN (cancer))))))))) |ET|  |BS| 52:E02 225:E05.337  |ES| 2:1 18:1 19:1 38:1 104:1 244:1 467:1 490:1 546:1 711:1 728:1 927:1 1472:1 1474:1 1494:1 1882:1 2503:1 2504:1 2505:1  |EV| 
4.520134953427480617449418787146  |BT| (S (VP (ADVP (RB (Here)))(VBP (show))(SBAR (S (NP (NP (JJ (ATP-binding))(NN (cassette))(NN (member))(NN (B5)))(PRN (-LRB- (-LRB-))(NP (NN (ABCB5)))(-RRB- (-RRB-))))(VP (VBZ (identifies))(NP (NP (JJ (therapy-refractory))(NN (tumor))(NN (cell))(JJ (colorectal))(NN (cancer))(NN (patient)))(PP (VBG (following))(NP (NP (NN (fluorouracil)))(PRN (-LRB- (-LRB-))(NP (NN (5-FU)))(-RRB- (-RRB-)))))))))(: (-))(S (NP (VBN (based))(NN (chemoradiation))(NN (therapy)))(VP (VBP (provide))(NP (NP (NN (evidence)))(JJ (functional))(NN (role))(NN (ABCB5))(JJ (colorectal))(NN (cancer))(NN (5-FU))(NN (resistance))))))) |ET|  |BS| 4:C04.588.274.476.411.307 5:C04.588.274.476.411.307 8:C04 15:F01.829.316.616 50:M01.643 52:E02 59:E02.186.079 333:D01.045 560:D03.383.742.698.875.404 1004:E02.095.147  |ES| 7:1 10:1 14:1 17:1 18:1 19:1 31:1 38:1 94:1 120:1 130:1 400:1 415:1 429:1 711:1 769:1 1094:1 1610:1 2308:1 2895:1 2919:1 3505:1 3506:1 3507:1 3508:1 3509:1 3510:1 3511:1  |EV| 
4.520134953427480617449418787146  |BT| (S (NP (NN (Acylglycerol))(NN (kinase)))(VP (VBZ (promotes))(NP (NN (cell))(NN (proliferation))(NN (tumorigenicity))(NN (breast))(NN (cancer)))(PP (IN (via))(NP (NN (suppression))(NN (FOXO1))(NN (transcription))(NN (factor)))))) |ET|  |BS| 183:G04.299.233.750 209:G02.111.087.847  |ES| 18:1 19:1 23:1 94:1 185:1 298:1 299:1 300:1 470:1 487:1 596:1 2453:1 3263:1 3264:1  |EV| 
-4.520134953427480617449418787146  |BT| (S (PP (IN (Despite))(NP (JJ (recent))(JJ (therapeutic))(NN (advance))))(, (,))(NP (NP (NN (response))(NN (rate))(NN (chemotherapy))(NN (patient)))(JJ (metastatic))(NN (colon))(NN (cancer)))(VP (VBP (remain))(NP (NP (NP (QP (RB (approximately))(CD (50)))(NN (%)))(NP (NN (fluoropyrimidine))))(, (,))(NP (NN (5-fluorouracil))(-LRB- (-LRB-))(NN (5-FU))(-RRB- (-RRB-))))(, (,))(S (VP (VBG (continuing))(VP (VB (serve))(NP (NN (foundation))(JJ (chemotherapeutic))(NN (agent))(NN (treatment))(NN (disease)))))))) |ET|  |BS| 30:Z01.058.290.190.800 31:D08.811.520.224.800 46:A03.556.124.526.356 50:M01.643 52:E02 113:C04.697.650 151:E02.319 288:C23.550.288 560:D03.383.742.698.875.404 660:D27.505.954.248 709:N03.219.483.311  |ES| 2:1 10:1 14:1 18:1 19:1 41:1 113:1 120:1 337:1 368:1 369:1 494:1 495:1 532:1 541:1 546:1 550:1 659:1 728:1 998:1 1762:1 1843:1 2181:1 2307:1 2308:1 2558:1 2559:1 2560:1 2561:1  |EV| 
4.520134953427480617449418787146  |BT| (S (PP (IN (In))(NP (NN (study))))(, (,))(VP (VBD (determined))(NP (NP (JJ (combined))(NN (effect))(NN (celecoxib)))(, (,))(NP (NN (COX-2))(NN (inhibitor)))(, (,)))(PP (IN (along))(NP (NP (NP (NN (exisulind)))(PRN (-LRB- (-LRB-))(NP (NN (sulindac))(NN (sulfone/Aptosyn)))(-RRB- (-RRB-))))(JJ (low))(NNS (dos))(NN (prostate))(NN (cancer)))))) |ET|  |BS| 349:D27.505.519.389.310.500 684:D02.065.884.247  |ES| 2:1 10:1 14:1 18:1 19:1 75:1 76:1 77:1 131:1 164:1 244:1 380:1 531:1 869:1 1582:1 2653:1 2666:1 2807:1 3575:1 3576:1  |EV| 
4.520134953427480617449418787146  |BT| (NP (NP (NP (JJ (Immunohistochemical))(NN (analysis))(NN (thymidylate))(NN (synthase)))(, (,))(NP (NN (thymidine))(NN (phosphorylase)))(, (,))(NP (NP (NN (dihydropyrimidine))(NN (dehydrogenase))(JJ (rectal))(NN (cancer)))(PRN (-LRB- (-LRB-))(NP (NN (cUICC))(NN (II/III)))(-RRB- (-RRB-))))(: (:)))(NP (NP (NN (correlation))(JJ (histopathologic))(NN (tumor))(NN (regression)))(NP (JJ (5-fluorouracil-based))(JJ (long-term))(NN (neoadjuvant))(NN (chemoradiotherapy))))) |ET|  |BS| 8:C04 59:E02.186.079 333:D01.045 560:D03.383.742.698.875.404 713:D08.811.913.555.500.862 846:F01.393.784 849:G08.686.785.760.769.490.500 869:D08.811.913.400.725.850.500 870:D08.811.682.660.350 1013:E02.186.450  |ES| 2:1 7:1 10:1 14:1 18:1 19:1 66:1 104:1 661:1 719:1 1986:1 1989:1 2578:1 2648:1 3002:1 3082:1 3083:1 3084:1 3085:1 3542:1 3543:1 3544:1 3545:1 3546:1 3547:1  |EV| 
-4.520134953427480617449418787146  |BT| (NP (NP (NN (CONCLUSION))(: (:)))(S (ADVP (RB (Collectively)))(, (,))(VP (VBP (result))(VP (VBP (suggest))(SBAR (S (NP (NN (curcumin)))(VP (VBZ (potentiates))(NP (NP (JJ (antitumor))(NN (effect))(NN (radiation))(NN (therapy)))(JJ (colorectal))(NN (cancer))(VBG (suppressing))(NP (NN (NF-kappaB))(JJ (NF-kappaB-regulated))(NN (gene))(NN (product))))(, (,))(NP (VBG (leading))(NN (inhibition))(NN (proliferation))(NN (angiogenesis)))))))))) |ET|  |BS| 4:C04.588.274.476.411.307 5:C04.588.274.476.411.307 7:D12.776 43:F01.145.544 52:E02 86:D01.268.556.435 142:I01.880.604 210:D12.776.260.600 692:D02.455.326.146.485.222.222 693:G01.750.745  |ES| 2:1 9:1 17:1 18:1 19:1 75:1 101:1 103:1 104:1 130:1 299:1 639:1 675:1 714:1 796:1 1872:1 1882:1 2244:1 2250:1 2498:1 2499:1 2500:1 2501:1 2502:1  |EV| 
4.520134953427480617449418787146  |BT| (NP (NP (NNS (CONCLUSIONS))(: (:)))(S (NP (DT (The))(NN (absence))(JJ (retinoid-containing))(NN (HSC))(NN (lipid))(NN (droplet)))(VP (VBP (promote))(SBAR (S (NP (NN (HSC))(NN (activation)))(VP (VBZ (reduces))(NP (NN (hepatocarcinogenesis))))))))) |ET|  |BS| 711:D02.455.326.271.665.202.495 962:A11.148.378 963:A11.284.430.214.190.875.393  |ES| 19:1 104:1 142:1 225:1 239:1 679:1 691:1 900:1 1534:1 2401:1 3381:1 3382:1 3383:1  |EV| 
-4.520134953427480617449418787146  |BT| (NP (NP (PRP$ (Our))(S (VP (VBP (result))(S (VP (VBP (provide))(NP (NP (ADJP (NN (clue))(JJ (molecular)))(NN (event)))(VP (VBN (involved))(NP (NN (mechanism))(NN (action))(JJ (HCB-induced))(NN (hepatocarcinogenesis))))))))))) |ET|  |BS| 742:G03.787 1232:D02.455.426.559.389.261.400  |ES| 19:1 101:1 161:1 162:1 205:1 658:1 711:1 774:1 900:1 1142:1 2013:1 4320:1  |EV| 
4.520134953427480617449418787146  |BT| (S (PP (IN (In))(NP (NN (line))(NN (observation))))(, (,))(NP (JJR (lower))(NN (serum))(NN (level))(JJ (active))(NN (Caspase-3)))(VP (VBD (found))(SBAR (S (NP (NN (patient))(JJ (metastasised))(NN (CRC)))(VP (VBD (revealed))(NP (NP (JJ (stable))(NN (disease))(NN (tumour))(NN (regression)))(VBN (compared))(NN (disease))(NN (progression)))))))) |ET|  |BS| 4:C04.588.274.476.411.307 5:C04.588.274.476.411.307 8:C04 16:C23.550.291.656 50:M01.643 288:C23.550.288 429:N04.761.559.590.900 430:E05.581.249 782:A12.207.152.846 846:F01.393.784 906:D08.811.277.656.262.500.126.350.300  |ES| 2:1 19:1 37:1 48:1 50:1 117:1 120:1 197:1 244:1 245:1 249:1 264:1 275:1 360:1 998:1 1011:1 1477:1 2741:1 3002:1 3190:1 3191:1  |EV| 
-4.3353056468925785793544491752982  |BT| (S (NP (JJ (Branched-chain))(NN (amino))(NN (acid))(-LRB- (-LRB-))(NN (BCAA))(-RRB- (-RRB-)))(, (,))(S (VP (VB (improve))(NP (NN (insulin))(NN (resistance)))))(, (,))(VP (VBD (inhibited))(NP (NP (JJ (obesity-related))(NN (colon))(NN (carcinogenesis))(JJ (rodent))(NN (model)))(, (,))(S (ADVP (RB (also)))(VP (VBD (reduced))(NP (NN (incidence))(JJ (hepatocellular))(NN (carcinoma))(JJ (obese))(NN (patient))(NN (liver))(NN (cirrhosis)))))))) |ET|  |BS| 33:C04.697.098 46:A03.556.124.526.356 50:M01.643 104:C04.557.470.200.025.255 122:C14.280.383 357:C06.552.630 434:E05.318.308.985.525.375 514:B01.050.150.900.649.865 564:C18.654.726.500 639:D12.125.070 678:C18.452.394.968.500  |ES| 2:1 5:1 10:1 14:1 19:1 72:1 113:1 120:1 207:1 303:1 304:1 365:1 452:1 836:1 1094:1 1199:1 1275:1 1511:1 2173:1 2189:1 2360:1 2364:1 2465:1 2466:1 2467:1 2468:1  |EV| 
-4.520134953427480617449418787146  |BT| (FRAG (ADVP (RBR (More))(RB (importantly)))(, (,))(NP (NP (NN (EPLE)))(VBN (hampered))(NN (tumor))(NN (development))(NN (CRC))(NN (xenograft))(NN (model)))) |ET|  |BS| 4:C04.588.274.476.411.307 5:C04.588.274.476.411.307 8:C04 92:E04.936.764 93:A01.941.875  |ES| 2:1 7:1 19:1 35:1 72:1 245:1 265:1 2489:1 2767:1 2768:1 2769:1  |EV| 
4.520134953427480617449418787146  |BT| (S (PP (IN (In))(NP (NN (view))(JJ (strong))(NN (association))(NN (estrogen))))(, (,))(NP (NP (NN (progesterone)))(, (,))(NP (NN (prolactin)))(, (,))(NP (NN (breast))(NN (cancer)))(, (,))(NP (NN (PhIP))(NN (repertoire)))(NP (JJ (hormone-like))(NN (activity))))(VP (VBZ (provides))(NP (JJ (mechanistic))(NN (support))(JJ (tissue-specific))(NN (carcinogenicity))(NN (chemical))))) |ET|  |BS| 98:A10 161:D06.472 279:D27.888.569.100 386:F02.463.425.069 889:D27.505.696.399.472.277 1010:D04.808.745.745.654.829 1023:D06.472.699.322.576.773  |ES| 2:1 18:1 19:1 23:1 244:1 399:1 815:1 1298:1 1364:1 1626:1 1890:1 2124:1 2641:1 3168:1 3536:1 3578:1 3579:1 3580:1 3581:1 3582:1 3583:1  |EV| 
-4.520134953427480617449418787146  |BT| (S (NP (NP (NNP (UNLABELLED)))(: (:))(S (NP (JJ (Epidemiological))(NNS (data)))(VP (VBP (associate))(NP (NP (NN (coffee))(NN (consumption)))(NP (JJR (lower))(NN (prevalence))(JJ (chronic))(NN (liver))(NN (disease))))(VP (VBD (reduced))(NP (NP (NN (risk))(JJ (elevated))(NN (liver))(NN (enzyme))(NN (level)))(PRN (-LRB- (-LRB-))(NP (NN (gamma))(NN (glutamyl))(NN (transpeptidase))(NN (alanine))(NN (aminotransferase)))(-RRB- (-RRB-)))))))(, (,)))(VP (VBD (advanced))(NP (NP (NN (liver))(NN (disease))(NN (complication)))(, (,))(NP (JJ (hepatocellular))(NN (carcinoma)))))) |ET|  |BS| 60:E05.318.308.985.525.750 61:E05.318.740.600.800 104:C04.557.470.200.025.255 242:A03.620 646:D08.811.913.477.700.100 647:D08.811.913.477.700.347 648:D08.811.913.050.200.500 649:E01.370.225.124.200 650:C06.552 651:H02.403.720.500 652:D20.215.784.249  |ES| 2:1 10:1 14:1 19:1 104:1 117:1 171:1 179:1 249:1 303:1 304:1 452:1 756:1 793:1 836:1 997:1 998:1 1790:1 2266:1 2384:1 2385:1 2386:1 2387:1 2388:1 2389:1 2390:1 2391:1 2392:1 2393:1 2394:1  |EV| 
4.520134953427480617449418787146  |BT| (S (S (VP (VBN (Taken))(ADVP (RB (together)))))(, (,))(VP (VBP (result))(VP (VBP (suggest))(SBAR (S (NP (NN (ADAM9)))(VP (VBZ (contributes))(NP (NN (pathogenesis))(NN (prostate))(NN (cancer)))(ADVP (RB (potentially)))(ADVP (RB (also)))(NP (NN (carcinoma)))(, (,))(S (VP (VBG (raising))(SBAR (S (NP (NN (possibility))(NN (ADAM9)))(VP (MD (might))(NP (JJ (good))(NN (target))(NN (antitumor))(NN (drug)))))))))))))) |ET|  |BS| 265:C04.557.470.200 369:E02.319.300  |ES| 2:1 5:1 18:1 19:1 77:1 101:1 160:1 191:1 304:1 343:1 501:1 773:1 796:1 798:1 845:1 1318:1 1537:1 1538:1 2244:1 3211:1 3212:1  |EV| 
-4.520134953427480617449418787146  |BT| (S (NP (PRP$ (Our))(NNS (data)))(VP (VBD (indicated))(SBAR (S (NP (NN (nifuroxazide)))(VP (MD (may))(ADVP (RB (potentially)))(NP (JJ (therapeutic))(NN (agent))(NN (growth))(NN (metastasis))(NN (breast))(NN (cancer)))))))) |ET|  |BS| 52:E02 113:C04.697.650  |ES| 18:1 19:1 23:1 102:1 491:1 541:1 658:1 728:1 773:1 793:1 806:1 1541:1 2820:1  |EV| 
4.520134953427480617449418787146  |BT| (UCP (ADVP (RB (Here)))(, (,))(NP (NP (NN (report))(NN (identification))(JJ (hepatic))(NNS (microRNAs)))(SBAR (S (NP (VBN (dysregulated))(JJ (early))(NN (stage))(S (VP (VBG (feeding))(NP (NP (NP (NN (C57BL/6))(NN (mouse))(JJ (choline-deficient))(NN (amino))(JJ (acid-defined)))(-LRB- (-LRB-))(JJ (CDAA))(-RRB- (-RRB-))(NN (diet)))(ADJP (VBN (known)))))))(VP (VBP (promote))(FRAG (NP (NP (JJ (nonalcoholic))(NN (steatohepatitis)))(PRN (-LRB- (-LRB-))(NP (NN (NASH)))(-RRB- (-RRB-))))(: (-))(NP (VBN (induced))(NN (hepatocarcinogenesis))(CD (84))(NN (week))))))))) |ET|  |BS| 30:Z01.058.290.190.800 31:D08.811.520.224.800 184:D13.150.650.319 374:F01.393.446 509:C06.552.241.519 593:B01.050.050.199.520.520.420 594:D02.033.100.291.211 595:G07.203.650.240 596:E02.642.249 597:D12.125  |ES| 2:1 10:1 14:1 19:1 52:1 400:1 409:1 417:1 556:1 679:1 783:1 838:1 900:1 1128:1 1129:1 1259:1 1791:1 1796:1 2188:1 2189:1 2190:1 2191:1 2192:1 2942:1 3065:1 3184:1 3469:1 3517:1 3518:1  |EV| 
-0.87768934717291813285555690526962  |BT| (NP (NP (ADVP (RB (However)))(, (,))(NP (NN (investigation))(JJ (protective))(NN (effect))(NN (betaine))(NN (hepatocarcinogenesis))))) |ET|  |BS| 225:E05.337 743:D02.092.877.883.077  |ES| 2:1 19:1 75:1 433:1 493:1 900:1 1497:1 2636:1  |EV| 
-4.520134953427480617449418787146  |BT| (NP (NP (NP (NN (METHODOLOGY/PRINCIPAL))(NNS (FINDINGS)))(: (:))(NP (NP (JJ (Pancreatic))(NN (cancer))(NN (cell))(NN (line)))(VP (VBN (treated))(NP (NN (resveratrol))))))) |ET|  |BS| 52:E02 94:A11.251.210  |ES| 18:1 19:1 94:1 104:1 264:1 1099:1 1213:1 1712:1 2748:1 2749:1  |EV| 
-4.520134953427480617449418787146  |BT| (NP (NP (NNS (CONCLUSIONS))(: (:)))(S (NP (NN (Magnolol))(NNS (pretreatments)))(VP (VBP (prevent))(S (NP (JJ (UVB-induced))(NN (skin))(NN (cancer))(NN (development)))(VP (VBG (enhancing))(NP (NN (apoptosis)))(, (,))(S (VP (VBG (causing))(NP (NN (cell))(NN (cycle))(NN (arrest))(NN (G2/M))(NN (phase)))))))(, (,))(S (VP (VBG (affecting))(NP (JJ (various))(NN (signaling))(NN (pathway)))))))) |ET|  |BS| 39:G04.299.139.160 126:G02.111.087.800 702:G04.299.134.109.750  |ES| 2:1 18:1 19:1 35:1 89:1 94:1 104:1 195:1 239:1 383:1 601:1 602:1 733:1 1096:1 1491:1 2312:1 2319:1 2525:1 2526:1 2527:1 2528:1 2529:1 2530:1  |EV| 
4.520134953427480617449418787146  |BT| (NP (NP (NNS (METHODS))(: (:)))(S (NP (JJ (Male))(ADJP (ADJP (NN (C57BL/6))(NN (mouse))(NN (fed))(NN (methionine))(JJ (choline-deficient)))(PRN (-LRB- (-LRB-))(NP (NN (MCD)))(-RRB- (-RRB-))))(NN (diet)))(VP (VBP (induce))(NP (NN (steatohepatitis)))))) |ET|  |BS| 30:Z01.058.290.190.800 31:D08.811.520.224.800 168:E05.581 508:C06.552.241 593:B01.050.050.199.520.520.420 594:D02.033.100.291.211 595:G07.203.650.240 596:E02.642.249 663:C16.320.565.398.500.330.500 664:D02.886.030.676  |ES| 10:1 14:1 19:1 52:1 104:1 243:1 565:1 1791:1 2050:1 2188:1 2191:1 2192:1 2426:1 2524:1 3635:1  |EV| 
-4.520134953427480617449418787146  |BT| (S (NP (PRP (It)))(VP (VBD (suggested))(SBAR (S (NP (NN (CYP2E1)))(ADVP (RB (completely)))(VP (VBZ (participates))(NP (JJ (diethylnitrosamine-induced))(NN (hepatocarcinogenesis)))(, (,))(SBAR (S (NP (JJ (high))(NP (NN (frequency)))(NN (tumor))(JJ (wild-type))(NN (mouse)))(VP (MD (could))(VP (VBN (associated))(NP (VBN (increased))(NN (apoptosis)))))))))))) |ET|  |BS| 8:C04 11:B01.050.150.900.649.865.635.505.500 39:G04.299.139.160 554:D02.654.442.200 1218:D08.244.453.300  |ES| 2:1 7:1 8:1 19:1 47:1 52:1 89:1 169:1 178:1 900:1 908:1 925:1 1247:1 1327:1 2732:1 4270:1 4271:1 4272:1  |EV| 
4.520134953427480617449418787146  |BT| (S (NP (JJ (Antisense))(NP (JJ (E1AF-transfected))(NN (MKN45))(JJ (gastric))(NN (cancer))(NN (cell))))(VP (VBD (expressed))(NP (VBN (reduced))(NN (level))(NN (matrilysin)))(NP (DT (le))(NP (JJ (invasive))(NN (vitro))(JJ (mock-transfected))(NN (MKN45))(NN (cell)))))) |ET|  |BS| 41:A11 937:D08.811.277.656.300.480.525.700.250  |ES| 6:1 18:1 19:1 86:1 94:1 144:1 216:1 249:1 452:1 489:1 2850:1 3287:1 3288:1 3289:1 3290:1  |EV| 
-4.520134953427480617449418787146  |BT| (NP (NP (NP (JJ (Pharmacogenetic))(NN (approach))(NN (capecitabine))(NN (5-fluorouracil))(NN (selection)))(SBAR (S (NP (VBN (combined))(NN (oxaliplatin))(JJ (first-line))(NN (chemotherapy)))(VP (VBD (advanced))(NP (JJ (colorectal))(NN (cancer)))))))) |ET|  |BS| 30:Z01.058.290.190.800 31:D08.811.520.224.800 151:E02.319 375:Z01.639.100 560:D03.383.742.698.875.404 810:D03.383.742.680.245.500.425 811:H01.158.273.343.750 812:G05.355.800  |ES| 17:1 18:1 19:1 164:1 495:1 911:1 997:1 2307:1 2490:1 2543:1 2872:1 2873:1 2874:1  |EV| 
4.520134953427480617449418787146  |BT| (S (NP (NN (CONCLUSION))(: (:)))(VP (VP (VBN (Taken))(ADVP (RB (together))))(, (,))(SBAR (S (NP (NNS (data))(VBP (show))(NN (Akt))(NN (inhibitor))(NN (AZD5363)))(VP (VBZ (synergizes))(SBAR (S (NP (JJ (lysosomotropic))(NN (inhibitor))(NN (autophagy))(NN (chloroquine)))(VP (VBP (induce))(NP (NN (apoptosis))(NN (delay))(NN (tumor))(NN (progression))(NN (prostate))(NN (cancer))(NN (model))(JJ (resistant))(NN (monotherapy))(NN (AZD5363)))(, (,))(S (VP (VBG (providing))(NP (NP (JJ (new))(JJ (therapeutic))(NN (approach)))(RRC (ADVP (RB (potentially)))(NP (JJ (translatable))(NN (patient))))))))))))))) |ET|  |BS| 8:C04 16:C23.550.291.656 30:Z01.058.290.190.800 31:D08.811.520.224.800 39:G04.299.139.160 50:M01.643 52:E02 202:C04.588.945.440.770 390:G04.299.139.399 961:D03.438.810.050.180  |ES| 2:1 7:1 18:1 19:1 48:1 72:1 77:1 89:1 104:1 120:1 136:1 243:1 380:1 427:1 429:1 541:1 712:1 773:1 793:1 911:1 1289:1 1317:1 1537:1 1538:1 1882:1 3025:1 3375:1 3376:1 3377:1 3378:1 3379:1 3380:1  |EV| 
-4.520134953427480617449418787146  |BT| (NP (NP (NP (NN (GP73)))(PRN (-LRB- (-LRB-))(PRN (: (-))(: (/))(: (-)))(-RRB- (-RRB-))))(, (,))(NP (NN (GP73))(PRN (-LRB- (-LRB-))(CC (+))(: (/))(: (-)))(-RRB- (-RRB-))(, (,))(NP (NP (NN (GP73))(PRN (-LRB- (-LRB-))(CC (+))(: (/))(CC (+))(-RRB- (-RRB-)))(NN (mouse)))(VP (VBN (given))(NP (NN (injection))(NN (diethylnitrosamine))))))(S (VP (VBP (induce))(NP (NN (liver))(NN (injury)))))) |ET|  |BS| 11:B01.050.150.900.649.865.635.505.500 30:Z01.058.290.190.800 31:D08.811.520.224.800 226:E02.319.267.530 242:A03.620 554:D02.654.442.200  |ES| 2:1 10:1 14:1 19:1 29:1 44:1 45:1 51:1 52:1 243:1 785:1 836:1 1952:1 2416:1 4174:1  |EV| 
4.520134953427480617449418787146  |BT| (NP (NP (NP (NNP (UNLABELLED)))(: (:))(NP (NP (DT (The))(NN (Wnt/beta-catenin))(NN (pathway)))(VP (VBN (implicated))(NP (NP (NN (pathogenesis))(JJ (hepatocellular))(NN (cancer)))(PRN (-LRB- (-LRB-))(NP (NN (HCC)))(-RRB- (-RRB-)))))))) |ET|  |BS| 23:D12.776.091.249 147:G02.149.115.800.925  |ES| 10:1 14:1 18:1 19:1 104:1 302:1 303:1 383:1 441:1 501:1 691:1 977:1 2266:1  |EV| 
4.520134953427480617449418787146  |BT| (S (ADVP (RB (Herein)))(, (,))(VP (VBD (found))(SBAR (IN (whereas))(S (VP (VBG (sparing))(NP (NP (JJ (normal))(NP (JJ (human))(NN (colon))(JJ (mucosal))(JJ (epithelial))(NN (cell))))(, (,))(NP (NN (EPLE))))(VP (ADVP (RB (selectively)))(VBD (inhibited))(NP (NN (proliferation))(NN (CRC))(NN (cell))(NN (line)))(ADVP (RB (well)))(NP (JJ (primary))(NN (tumor))(NN (cell))))))))) |ET|  |BS| 4:C04.588.274.476.411.307 5:C04.588.274.476.411.307 8:C04 41:A11 46:A03.556.124.526.356 55:B01.050.150.900.649.801.400.112.400.400 75:A11.436 122:C14.280.383 183:G04.299.233.750 302:A10.615.550  |ES| 2:1 7:1 19:1 36:1 37:1 94:1 113:1 118:1 127:1 245:1 264:1 299:1 344:1 365:1 372:1 428:1 787:1 2489:1 3521:1 3522:1 3523:1  |EV| 
-4.520134953427480617449418787146  |BT| (S (NP (NNP (Garcinol)))(VP (VBZ (suppresses))(NP (JJ (inflammation-associated))(NN (colon))(NN (carcinogenesis))(NN (mouse))))) |ET|  |BS| 11:B01.050.150.900.649.865.635.505.500 33:C04.697.098 53:C06.405.205.265  |ES| 19:1 52:1 113:1 207:1 686:1 1849:1 2612:1  |EV| 
4.520134953427480617449418787146  |BT| (S (PP (IN (After))(NP (JJ (2-week))(NN (treatment))))(, (,))(NP (NN (animal)))(VP (VBN (subjected))(SBAR (`` (``))(S (NP (NP (JJ (resistant))(NN (hepatocyte))('' (''))(NN (model))(NN (hepatocarcinogenesis)))(PRN (-LRB- (-LRB-))(NP (NP (NN (initiation))(NN (diethylnitrosamine)))(, (,))(NP (NN (selection/promotion))(JJ (2-acetylaminofluorene))(JJ (partial))(NN (hepatectomy))))(-RRB- (-RRB-))))(VP (VBD (euthanized))(NP (ADJP (CD (8))(NN (week)))(NN (treatment)))))))) |ET|  |BS| 19:B01.050 52:E02 262:A11.436.348 554:D02.654.442.200 812:G05.355.800 881:D02.065.064.150 927:E02.760.905.850 928:E04.210.556  |ES| 2:1 10:1 14:1 19:1 46:1 72:1 427:1 546:1 637:1 781:1 783:1 900:1 1909:1 1952:1 3265:1 3266:1 3267:1 3268:1 3269:1 3270:1 3271:1 3272:1 3273:1 3274:1  |EV| 
-4.520134953427480617449418787146  |BT| (S (NP (NNP (Pravastatin)))(VP (VBZ (reduces))(NP (NN (lung))(NN (metastasis))(NN (rat))(JJ (hepatocellular))(NN (carcinoma)))(PP (IN (via))(NP (VBN (coordinated))(NN (decrease))(NN (MMP))(NN (expression))(NN (activity)))))) |ET|  |BS| 104:C04.557.470.200.025.255 113:C04.697.650 182:A04.411 245:B01.050.150.900.649.865.635.505.700 246:B01.050.150.900.649.865.635.505.700 817:D02.455.426.559.847.638.930 818:D08.811.277.656.300.480.525  |ES| 19:1 115:1 142:1 295:1 303:1 304:1 328:1 399:1 596:1 806:1 849:1 2890:1 2891:1 2892:1  |EV| 
4.520134953427480617449418787146  |BT| (S (NP (JJ (Constitutive))(NN (activation))(NN (Wnt/beta-catenin))(NN (pathway)))(VP (VBN (implicated))(NP (JJ (primary))(NN (cause))(NN (colon))(NN (cancer))))) |ET|  |BS| 23:D12.776.091.249 147:G02.149.115.800.925  |ES| 18:1 19:1 113:1 225:1 302:1 344:1 383:1 977:1 1779:1 3399:1  |EV| 
-4.520134953427480617449418787146  |BT| (S (NP (NN (Latexin)))(VP (VBP (exhibit))(NP (NN (tumor))(NN (suppressor))(JJ (potential))(JJ (hepatocellular))(NN (carcinoma))))) |ET|  |BS| 104:C04.557.470.200.025.255 175:J01.897.280.500.269 206:G05.360.340.024.340.375.249  |ES| 7:1 19:1 303:1 304:1 587:1 700:1 827:1 2720:1  |EV| 
-4.520134953427480617449418787146  |BT| (S (NP (EX (There)))(NP (JJ (abundant))(JJ (epidemiological))(NN (evidence))(JJ (heavy))(NN (alcohol))(NN (intake)))(VP (VBZ (contributes))(NP (NP (NP (JJ (hepatocellular))(NN (carcinoma)))(PRN (-LRB- (-LRB-))(NP (NN (HCC)))(-RRB- (-RRB-))))(NN (development))))) |ET|  |BS| 104:C04.557.470.200.025.255 651:H02.403.720.500 904:F01.145.317.269  |ES| 10:1 14:1 19:1 35:1 38:1 303:1 304:1 441:1 767:1 845:1 1798:1 2563:1 3217:1 3710:1 4039:1  |EV| 
4.520134953427480617449418787146  |BT| (S (NP (NN (Glycine))(NN (soya))(NN (diet)))(ADVP (RB (synergistically)))(VP (VBZ (enhances))(SBAR (S (NP (JJ (suppressive))(NN (effect))(NN (tamoxifen)))(VP (VBZ (inhibits))(NP (NP (JJ (tamoxifen-promoted))(NN (hepatocarcinogenesis)))(JJ (7,12-dimethylbenz))(PRN (-LRB- (-LSB-))(NP (NN (alpha)))(-RRB- (-RSB-)))(JJ (anthracene-induced))(NN (rat))(JJ (mammary))(NN (tumor))(NN (model)))))))) |ET|  |BS| 122:C14.280.383 245:B01.050.150.900.649.865.635.505.700 246:B01.050.150.900.649.865.635.505.700 408:C04.588.531 595:G07.203.650.240 596:E02.642.249 640:D02.455.426.559.389.150.700.900 1001:B01.650.940.800.575.100.401.750 1002:C04.588.180 1003:D12.125.481  |ES| 7:1 19:1 72:1 75:1 615:1 849:1 900:1 1356:1 1373:1 1378:1 1836:1 1974:1 2191:1 2248:1 2371:1 3349:1 3499:1 3500:1 3501:1 3502:1 3503:1  |EV| 
-4.520134953427480617449418787146  |BT| (S (NP (NP (DT (The))(JJ (present))(NN (study)))(VP (VBN (undertaken))))(VBP (investigate))(NP (NP (NN (effect))(JJ (dietary))(NN (supplementation))(NN (nimesulide))(NN (eugenol))(NN (N-nitrosodiethylamine)))(PRN (-LRB- (-LRB-))(NP (NN (DEN)))(-RRB- (-RRB-))))(: (-))(VP (VBN (initiated))(NP (JJ (early))(NN (hepatocarcinogenesis))(NN (F344))(JJ (male))(NN (rat))))) |ET|  |BS| 30:Z01.058.290.190.800 31:D08.811.520.224.800 554:D02.654.442.200 590:B01.050.050.199.520.760.200 595:G07.203.650.240 1165:D02.241.223.200.054.500  |ES| 10:1 14:1 19:1 75:1 131:1 459:1 691:1 849:1 900:1 1128:1 1307:1 1402:1 1875:1 2567:1 2594:1 2602:1 3185:1 3186:1 4022:1 4023:1 4024:1  |EV| 
4.520134953427480617449418787146  |BT| (S (ADVP (RB (However)))(, (,))(NP (JJ (molecular))(NN (mechanism))(NN (progesterone))(NN (action))(NN (breast))(NN (cancer)))(ADVP (RB (still)))(VP (VBP (remain))(ADJP (JJ (elusive))))) |ET|  |BS| 742:G03.787 1010:D04.808.745.745.654.829  |ES| 2:1 18:1 19:1 23:1 161:1 162:1 433:1 776:1 777:1 2013:1 2181:1 3536:1  |EV| 
-4.520134953427480617449418787146  |BT| (NP (NP (NP (NN (Involvement))(NN (Mouse))(JJ (Constitutive))(NN (Androstane))(NN (Receptor))(JJ (Acifluorfen-Induced))(NN (Liver)))(NP (NNP (Injury))(JJ (Subsequent))(NN (Tumor))(NN (Development))))) |ET|  |BS| 8:C04 242:A03.620  |ES| 19:1 1218:1 2059:1 2127:1 2721:1 3399:1 4264:1 4265:1 4266:1 4267:1 4268:1 4269:1  |EV| 
4.520134953427480617449418787146  |BT| (S (ADVP (RB (Finally)))(, (,))(NP (NN (Apo-FHL2))(NN (mouse)))(VP (VBD (developed))(SBAR (S (NP (NP (NN (tumor)))(, (,))(NP (NN (FHL2))(NN (transgene))))(VP (VBD (enhanced))(SBAR (S (NP (NN (hepatocarcinogenesis)))(VP (VBD (induced))(NP (JJ (liver-specific))(NN (deletion))(NP (NP (JJ (adenomatous))(NN (polyposis))(NN (coli))(NN (gene))(JJ (aberrant))(NN (Wnt/beta-catenin))(NN (signaling))(NN (Apc)))(PRN (-LRB- (-LRB-))(NP (NN (lox/lox)))(-RRB- (-RRB-))))(NN (animal))))))))))) |ET|  |BS| 3:C04.557.470.035.215.100 8:C04 11:B01.050.150.900.649.865.635.505.500 19:B01.050 21:G05.360.340.024.340.375.249.050 105:G02.149.115.800.925 242:A03.620 547:G05.360.340.024.340.825 548:D08.811.682.664.500.848 549:G05.355.600.800.320  |ES| 2:1 7:1 9:1 10:1 14:1 19:1 46:1 52:1 57:1 58:1 59:1 195:1 280:1 302:1 385:1 412:1 900:1 1059:1 1165:1 1725:1 1799:1 1929:1 1930:1 1931:1 1932:1 1933:1  |EV| 
-4.520134953427480617449418787146  |BT| (S (NP (NP (JJ (Combined))(NN (treatment))(NN (EPLE))(NN (5-fluorouracil)))(, (,))(NP (JJ (first-line))(NN (chemotherapy))(NN (CRC))(NN (patient)))(, (,)))(VP (VBD (achieved))(NP (JJ (synergistic))(NN (effect))))) |ET|  |BS| 4:C04.588.274.476.411.307 5:C04.588.274.476.411.307 50:M01.643 151:E02.319 560:D03.383.742.698.875.404 618:E02.186  |ES| 2:1 19:1 75:1 120:1 245:1 495:1 546:1 2012:1 2307:1 2488:1 2489:1 2490:1 2491:1  |EV| 
4.520134953427480617449418787146  |BT| (S (NP (NNP (Sorafenib))(NN (increase))(NN (survival))(NN (rate))(NN (patient)))(VP (VBD (advanced))(NP (NP (JJ (hepatocellular))(NN (carcinoma)))(PRN (-LRB- (-LRB-))(NP (NN (HCC)))(-RRB- (-RRB-)))))) |ET|  |BS| 50:M01.643 104:C04.557.470.200.025.255 779:E05.318.308.985.550.900  |ES| 10:1 14:1 19:1 40:1 41:1 120:1 274:1 303:1 304:1 441:1 997:1 3210:1  |EV| 
4.520134953427480617449418787146  |BT| (NP (NP (JJ (EXPERIMENTAL))(NN (DESIGN)))(: (:))(S (PP (IN (In))(NP (JJ (present))(NN (study))))(, (,))(VP (VBD (investigated))(NP (NP (NP (NN (effect))(JJ (novel))(NN (farnesyltransferase))(NN (inhibitor)))(, (,))(NP (NN (ABT-100)))(, (,))(NP (JJ (human))(NN (liver))(NN (cancer))(NN (cell))(NN (line))))(, (,))(NP (NN (HepG2))(NN (Huh7)))(, (,))(NP (NN (animal))(NN (model))(NN (hepatocarcinogenesis))))))) |ET|  |BS| 55:B01.050.150.900.649.801.400.112.400.400 94:A11.251.210 204:E05.581.500 205:E05.581.500 259:D12.776.395.240.150.500 285:E05.598 988:D08.811.913.225.431 989:D08.811.913.225.437 990:C22.232  |ES| 2:1 18:1 19:1 36:1 46:1 72:1 75:1 94:1 104:1 131:1 244:1 264:1 380:1 403:1 689:1 690:1 836:1 891:1 900:1 1307:1 2538:1 3480:1 3481:1 3482:1  |EV| 
4.520134953427480617449418787146  |BT| (NP (NP (JJ (Hepatoprotective))(NN (effect))(NN (tamoxifen))(NN (steatosis))(JJ (non-alcoholic))(NN (steatohepatitis))(NN (mouse))(NN (model)))) |ET|  |BS| 11:B01.050.150.900.649.865.635.505.500 508:C06.552.241 509:C06.552.241.519 640:D02.455.426.559.389.150.700.900  |ES| 19:1 52:1 72:1 75:1 1791:1 2069:1 2371:1 2678:1 3504:1  |EV| 
-4.520134953427480617449418787146  |BT| (NP (NP (NN (AIM))(: (:)))(S (S (VP (TO (To))(VP (VB (elucidate))(S (NP (JJ (anticancer))(NN (mechanism))(NNP (Huqi))(NNP (San)))(VP (VBG (assessing))(NP (NN (expression))(NN (G-6-Pase))))))))(, (,))(NP (NP (NN (SDH)))(, (,))(NP (NN (ATPase))(NN (AFP))(JJ (N-nitrosodiethylamine-mediated))(NN (hepatocarcinogenesis))(NN (rat)))))) |ET|  |BS| 30:Z01.058.290.190.800 31:D08.811.520.224.800 245:B01.050.150.900.649.865.635.505.700 246:B01.050.150.900.649.865.635.505.700 554:D02.654.442.200 893:D08.811.277.040.025 894:D08.811.277.040.025  |ES| 2:1 19:1 104:1 115:1 162:1 828:1 849:1 900:1 959:1 1196:1 1697:1 1880:1 2762:1 2765:1 2766:1 3630:1 3632:1 3634:1 3957:1  |EV| 
-4.520134953427480617449418787146  |BT| (S (NP (JJ (Epidemiological))(NN (study)))(VP (VBP (indicate))(NP (JJ (adequate))(JJ (dietary))(NN (folate))(JJ (protective))(NN (colon))(NN (cancer)))(, (,))(SBAR (IN (although))(S (NP (NN (mechanism)))(VP (VBP (remain))(ADJP (RB (largely))(JJ (elusive)))))))) |ET|  |BS| 224:D03.438.733.631.400 595:G07.203.650.240 722:E05.318.760.500  |ES| 2:1 18:1 19:1 113:1 131:1 162:1 493:1 777:1 778:1 1479:1 1592:1 2181:1 2384:1 2593:1 2594:1 2595:1  |EV| 
-4.520134953427480617449418787146  |BT| (S (ADVP (RB (However)))(, (,))(NP (NNP (Sorafenib))(NN (treatment)))(ADVP (RB (transiently)))(VP (VBD (inhibited))(SBAR (S (NP (NN (cell))(NN (cycle))(NN (progression)))(VP (VBD (resulted))(SBAR (S (NP (JJ (mitotic))(NN (catastrophe)))(VP (VBD (enhanced))(NP (JJ (non-apoptotic))(NN (liver))(NN (injury))(NN (regeneration))))))))))) |ET|  |BS| 16:C23.550.291.656 39:G04.299.139.160 52:E02 122:C14.280.383 353:G04.299.134 925:G10.261.326.520  |ES| 2:1 19:1 48:1 94:1 365:1 385:1 433:1 546:1 594:1 601:1 720:1 836:1 2416:1 2833:1 3210:1 3260:1 3614:1 4213:1  |EV| 
4.520134953427480617449418787146  |BT| (NP (NP (DT (No))(VBG (Modifying))(NP (NP (NN (Effect))(JJ (Antioxidant))(NN (N-Acetyl-L-Cysteine)))(JJ (Fenofibrate-induced))(NNP (Hepatocarcinogenesis))(NNS (Rats))))) |ET|  |BS| 13:D01.339.387 245:B01.050.150.900.649.865.635.505.700 246:B01.050.150.900.649.865.635.505.700 791:D02.886.030.230.259 916:D02.241.081.114.968.500.625 1049:D27.505.519.217  |ES| 19:1 1959:1 3222:1 3638:1 3660:1 3661:1 3662:1 3663:1 3664:1  |EV| 
-4.520134953427480617449418787146  |BT| (S (NP (NN (Liver))(NN (tumor)))(VP (VBG (promoting))(NP (NN (effect))(NN (etofenprox))(NN (rat))(JJ (possible))(NN (mechanism))(NN (action))))) |ET|  |BS| 245:B01.050.150.900.649.865.635.505.700 246:B01.050.150.900.649.865.635.505.700 515:C04.588.274.623 742:G03.787  |ES| 7:1 19:1 75:1 162:1 849:1 881:1 1359:1 2013:1 2721:1 4287:1  |EV| 
4.520134953427480617449418787146  |BT| (S (NP (JJ (Diet-induced))(NN (obesity))(NN (ethanol)))(VP (VBP (impair))(NP (NN (progression))(JJ (hepatocellular))(NN (carcinoma))(NN (mouse))(JJ (mesenteric))(NN (vein))(NN (injection))(NN (model))))) |ET|  |BS| 11:B01.050.150.900.649.865.635.505.500 16:C23.550.291.656 104:C04.557.470.200.025.255 226:E02.319.267.530 564:C18.654.726.500 595:G07.203.650.240 596:E02.642.249 751:D02.033.375 976:A07.231.908.670.385  |ES| 19:1 48:1 52:1 72:1 303:1 304:1 785:1 2010:1 3439:1 3440:1 3441:1 3442:1 3443:1  |EV| 
-4.520134953427480617449418787146  |BT| (S (PP (IN (For))(NP (FW (vivo))(NN (study))))(, (,))(NP (JJ (1,2-dimethylhydrazine))(NN (dihydrochloride))(-LRB- (-LRB-))(NN (DMH))(-RRB- (-RRB-))(NN (s.c.)))(VP (VBD (injected))(VP (VBP (induce))(NP (NP (NP (NN (colon))(NN (cancer))(NN (PPARgamma)))(PRN (-LRB- (-LRB-))(CC (+))(: (/))(CC (+))(-RRB- (-RRB-))))(NN (PPARgamma))(PRN (-LRB- (-LRB-))(CC (+))(: (/))(: (-)))))(-RRB- (-RRB-))(NP (NN (mouse))))) |ET|  |BS| 11:B01.050.150.900.649.865.635.505.500 30:Z01.058.290.190.800 31:D08.811.520.224.800 719:D12.776.826.239.588  |ES| 2:1 10:1 14:1 18:1 19:1 44:1 51:1 52:1 113:1 131:1 243:1 378:1 2588:1 2642:1 2643:1 3489:1 3586:1 4165:1 4166:1  |EV| 
-4.520134953427480617449418787146  |BT| (S (VP (TO (To))(VP (VB (clarify))(NP (NP (JJ (possible))(NN (mechanism))(JJ (non-genotoxic))(NN (hepatocarcinogenesis)))(VP (VBD (induced))(NP (NP (NP (NN (piperonyl))(NN (butoxide)))(PRN (-LRB- (-LRB-))(NP (NN (PBO)))(-RRB- (-RRB-))))(, (,))(NP (NP (JJ (male))(NN (F344))(NN (rat)))(VP (VBN (administered))(S (NP (NN (i.p)))))))))))) |ET|  |BS| 30:Z01.058.290.190.800 31:D08.811.520.224.800 590:B01.050.050.199.520.760.200 967:D01.248.497.158.490 1077:D03.383.246.118.600  |ES| 2:1 10:1 14:1 19:1 162:1 412:1 828:1 849:1 900:1 1359:1 1402:1 2336:1 3185:1 3193:1 3777:1 3778:1 4049:1 4050:1 4051:1  |EV| 
-4.520134953427480617449418787146  |BT| (S (NP (NNP (Cyclooxygenase))(CD (2))(NN (Prostaglandin))(NN (E2)))(VP (VBN (Involved))(NP (JJ (N-Nitrosodiethylamine-Initiated))(JJ (Early))(NN (Rat))(NN (Hepatocarcinogenesis))))) |ET|  |BS| 24:D08.811.600.720.750 245:B01.050.150.900.649.865.635.505.700 246:B01.050.150.900.649.865.635.505.700 554:D02.654.442.200 1118:D10.251.355.255.550.250.200  |ES| 19:1 148:1 1959:1 3432:1 3909:1 4008:1 4132:1 4133:1 4134:1 4135:1  |EV| 
4.520134953427480617449418787146  |BT| (S (NP (NN (Claudin-1))(NN (overexpression))(JJ (intestinal))(JJ (epithelial))(NN (cell)))(VP (VBZ (enhances))(NP (NN (susceptibility))(JJ (adenamatous))(NN (polyposis))(JJ (coli-mediated))(NN (colon))(NN (tumorigenesis))))) |ET|  |BS| 3:C04.557.470.035.215.100 32:C04.697.098.500 33:C04.697.098 46:A03.556.124.526.356 47:A03.556.124 75:A11.436 401:C23.550.291.687 952:D12.776.543.984.200.100  |ES| 19:1 58:1 78:1 94:1 109:1 113:1 127:1 152:1 1353:1 1356:1 3333:1 3334:1 3335:1  |EV| 
4.520134953427480617449418787146  |BT| (FRAG (NP (NNS (CONCLUSIONS))(: (:)))(NP (NN (Pitavastatin))(JJ (effective))(VBG (inhibiting))(NP (JJ (early))(NN (phase))(JJ (obesity-related))(NN (liver))(NN (tumorigenesis))))(, (,))(ADVP (RB (therefore)))(, (,))(NP (MD (may))(NP (JJ (useful))(NN (chemoprevention))(NN (liver))(NN (cancer))(JJ (obese))(NN (individual))))) |ET|  |BS| 32:C04.697.098.500 33:C04.697.098 122:C14.280.383 242:A03.620 253:E02.319.162 493:M01 564:C18.654.726.500  |ES| 2:1 18:1 19:1 78:1 104:1 218:1 239:1 491:1 836:1 870:1 880:1 1036:1 1128:1 1639:1 2467:1 2468:1 2512:1 2529:1 3387:1  |EV| 
4.520134953427480617449418787146  |BT| (S (NP (NN (Cryptotanshinone)))(VP (VBZ (inhibits))(NP (NP (JJ (constitutive))(NN (signal))(NN (transducer))(NN (activator))(NN (transcription))(CD (3))(NN (function)))(VP (VBG (blocking))(NP (NN (dimerization))(NN (DU145))(NN (prostate))(NN (cancer))(NN (cell))))))) |ET|  |BS| 41:A11 122:C14.280.383 209:G02.111.087.847 250:E07.305.812 970:E06.658.453.560.100 971:G02.149.250  |ES| 18:1 19:1 33:1 77:1 94:1 487:1 604:1 615:1 859:1 860:1 861:1 862:1 3420:1 3421:1 3422:1 3423:1  |EV| 
4.520134953427480617449418787146  |BT| (NP (NP (NP (NNP (Farnesyltransferase))(NN (inhibitor)))(, (,))(NP (NN (ABT-100)))(, (,))(NP (JJ (potent))(NN (liver))(NN (cancer))(JJ (chemopreventive))(NN (agent))))) |ET|  |BS| 988:D08.811.913.225.431 989:D08.811.913.225.437  |ES| 2:1 18:1 19:1 22:1 380:1 728:1 836:1 1946:1 2538:1 3487:1  |EV| 
4.520134953427480617449418787146  |BT| (S (NP (VBN (Increased))(NN (expression))(NN (cyclooxygenase-2))(NN (protein))(NN (rat))(NN (hepatocarcinogenesis)))(VP (VBD (caused))(ADJP (ADJP (JJ (choline-deficient)))(, (,))(NP (NP (NN (L-amino))(JJ (acid-defined))(NN (diet))(JJ (chemopreventive))(NN (efficacy))(JJ (specific))(NN (inhibitor)))(, (,))(NP (NN (nimesulide))))))) |ET|  |BS| 7:D12.776 24:D08.811.600.720.750 245:B01.050.150.900.649.865.635.505.700 246:B01.050.150.900.649.865.635.505.700 594:D02.033.100.291.211 595:G07.203.650.240 596:E02.642.249 597:D12.125  |ES| 2:1 4:1 19:1 61:1 115:1 380:1 540:1 849:1 900:1 1212:1 1946:1 2188:1 2190:1 2191:1 2304:1 2506:1 3183:1 3186:1  |EV| 
-4.520134953427480617449418787146  |BT| (FRAG (PP (IN (In))(NP (JJ (present))(NN (study))))(, (,))(NP (VBD (investigated))(NP (JJ (anticancer))(NN (activity))(JJ (tolfenamic))(NN (acid))(JJ (human))(JJ (colorectal))(NN (cancer))(NN (cell))))) |ET|  |BS| 4:C04.588.274.476.411.307 5:C04.588.274.476.411.307 41:A11 55:B01.050.150.900.649.801.400.112.400.400  |ES| 2:1 17:1 18:1 19:1 36:1 94:1 131:1 244:1 399:1 403:1 1275:1 1307:1 1880:1 2598:1  |EV| 
-4.520134953427480617449418787146  |BT| (S (NP (NP (NN (DNA))(NN (microarray))(NN (analysis)))(VP (VBN (used))))(VP (VBP (analyze))(NP (NP (JJ (transcriptional))(NN (profile))(NN (HCT116))(JJ (colorectal))(NN (cancer))(NN (cell)))(VP (VBN (treated))(NP (NP (NP (NN (5-fluorouracil)))(PRN (-LRB- (-LRB-))(NP (NN (5-FU)))(-RRB- (-RRB-))))(NN (oxaliplatin))(VBN (selected))(NN (resistance))(NN (agent))))))) |ET|  |BS| 4:C04.588.274.476.411.307 5:C04.588.274.476.411.307 30:Z01.058.290.190.800 31:D08.811.520.224.800 52:E02 198:D13.444.308 209:G02.111.087.847 560:D03.383.742.698.875.404 717:A11.251.210.190.380 718:E05.588.570  |ES| 10:1 14:1 17:1 18:1 19:1 94:1 476:1 559:1 566:1 661:1 666:1 728:1 913:1 1094:1 1099:1 1711:1 2307:1 2308:1 2543:1 2585:1 2586:1  |EV| 
4.520134953427480617449418787146  |BT| (S (NP (NN (Expression))(NN (glutathione))(NN (peroxidase))(CD (2)))(VP (VBN (associated))(NP (JJ (early))(NN (hepatocarcinogenesis)))(ADVP (RB (also)))(NP (JJ (late))(NN (stage))(NN (metastasis))))) |ET|  |BS| 113:C04.697.650 991:D08.811.682.732.500  |ES| 5:1 19:1 148:1 169:1 316:1 806:1 900:1 1128:1 1129:1 2649:1 2744:1 3485:1  |EV| 
-4.520134953427480617449418787146  |BT| (FRAG (ADVP (RB (However)))(, (,))(NP (NP (NN (action))(NN (compound))(JJ (ethanol-induced))(NN (liver))(NN (injury)))(ADJP (RB (still))(JJ (unknown))))) |ET|  |BS| 242:A03.620 751:D02.033.375  |ES| 2:1 19:1 433:1 776:1 836:1 2013:1 2182:1 2416:1 2433:1 2674:1  |EV| 
-4.520134953427480617449418787146  |BT| (S (NP (NNS (CONCLUSIONS))(: (:)))(NP (NNP (Aliskiren)))(VP (VBZ (attenuates))(NP (NN (steatohepatitis))(NN (fibrosis))(NN (mouse))(NN (fed))(NN (MCD))(NN (diet))))) |ET|  |BS| 11:B01.050.150.900.649.865.635.505.500 508:C06.552.241 595:G07.203.650.240 596:E02.642.249 663:C16.320.565.398.500.330.500 691:C23.550.355  |ES| 19:1 52:1 104:1 239:1 949:1 1791:1 2191:1 2422:1 2423:1 2426:1 2524:1  |EV| 
4.520134953427480617449418787146  |BT| (NP (NP (NP (NN (Intake))(NNS (isoflavones)))(SBAR (S (NP (VBN (derived))(NN (soybean))(NN (product)))(VP (MD (may))(VP (VB (impact))(NP (NN (prostate))(NN (cancer))(NN (risk))))))))) |ET|  |BS| 61:E05.318.740.600.800 1001:B01.650.940.800.575.100.401.750 1032:D03.383.663.283.266.450.400  |ES| 18:1 19:1 77:1 171:1 491:1 675:1 1721:1 3541:1 3597:1 3598:1 3599:1  |EV| 
4.520134953427480617449418787146  |BT| (S (NP (NNP (Methylenetetrahydrofolate))(NN (reductase))(NN (gene))(NN (polymorphism))(NN (response))(JJ (fluorouracil-based))(NN (treatment)))(VP (VBD (advanced))(NP (JJ (colorectal))(NN (cancer))(NN (patient))))) |ET|  |BS| 4:C04.588.274.476.411.307 5:C04.588.274.476.411.307 6:G05.360.340.024.340 50:M01.643 52:E02 307:G05.365.795 333:D01.045 560:D03.383.742.698.875.404 606:D08.811.682.662.290  |ES| 9:1 17:1 18:1 19:1 96:1 120:1 494:1 546:1 997:1 1060:1 3636:1 3637:1  |EV| 
-4.520134953427480617449418787146  |BT| (S (NP (NN (Overexpression))(NN (Klotho)))(VP (VBZ (suppresses))(SBAR (S (NP (NN (liver))(NN (cancer))(NN (progression)))(VP (VBZ (induces))(S (NP (NN (cell))(NN (apoptosis)))(ADVP (RB (negatively)))(VP (VBG (regulating))(NP (JJ (wnt/beta-catenin))(NN (signaling))(NN (pathway)))))))))) |ET|  |BS| 16:C23.550.291.656 39:G04.299.139.160 41:A11 105:G02.149.115.800.925  |ES| 18:1 19:1 48:1 89:1 94:1 195:1 214:1 383:1 668:1 686:1 836:1 2867:1 2868:1 2869:1 2870:1  |EV| 
4.520134953427480617449418787146  |BT| (S (ADVP (RB (Previously)))(, (,))(VP (VBD (showed))(SBAR (S (NP (JJ (habitual))(JJ (heavy))(NN (alcohol))(NN (ingestion)))(VP (VBD (amplified))(S (NP (NP (JJ (age-related))(NN (hepatocarcinogenesis))(NN (P))(NN (rat)))(, (,))(NP (NP (CD (80))(NN (%)))(NP (JJ (alcohol-consuming))(NP (NN (P))(NN (rat))(VBG (developing))(NNS (HCCs)))(NP (CD (18))(NN (month))(NN (alcohol))(NN (exposure)))))(, (,)))(VP (VBN (compared))(NP (ADJP (CD (5))(NN (%)))(NN (water-drinking))(NN (control)))))))))) |ET|  |BS| 104:C04.557.470.200.025.255 245:B01.050.150.900.649.865.635.505.700 246:B01.050.150.900.649.865.635.505.700 751:D02.033.375 822:D02.033 904:F01.145.317.269 1060:D01.045.250.875.300  |ES| 2:1 19:1 50:1 132:1 289:1 311:1 369:1 573:1 578:1 590:1 767:1 849:1 900:1 1132:1 1953:1 2208:1 2723:1 3708:1 3709:1 3710:1 3711:1 3712:1 3713:1 3714:1 3715:1  |EV| 
4.520134953427480617449418787146  |BT| (S (NP (NNP (Dovitinib)))(VP (VBZ (demonstrates))(NP (JJ (antitumor))(JJ (antimetastatic))(NN (activity))(NN (xenograft))(NN (model))(JJ (hepatocellular))(NN (carcinoma))))) |ET|  |BS| 92:E04.936.764 93:A01.941.875 104:C04.557.470.200.025.255  |ES| 19:1 72:1 265:1 303:1 304:1 399:1 2244:1 2245:1 2541:1 3449:1  |EV| 
-4.520134953427480617449418787146  |BT| (S (VP (NP (NNP (Digital)))(VBG (karyotyping))(VP (VBZ (identifies))(NP (NN (thymidylate))(NN (synthase))(NN (amplification))(NN (mechanism))(NN (resistance))(NN (5-fluorouracil))(JJ (metastatic))(JJ (colorectal))(NN (cancer))(NN (patient)))))) |ET|  |BS| 4:C04.588.274.476.411.307 5:C04.588.274.476.411.307 30:Z01.058.290.190.800 31:D08.811.520.224.800 50:M01.643 560:D03.383.742.698.875.404 712:E01.370.225.500.385.315 713:D08.811.913.555.500.862 714:A01.378.800.667.430  |ES| 17:1 18:1 19:1 66:1 120:1 162:1 337:1 921:1 1094:1 1610:1 2307:1 2576:1 2577:1 2578:1  |EV| 
4.520134953427480617449418787146  |BT| (S (NP (NN (Decrease))(JJ (hepatic))(JJ (stellate))(NN (cell))(NN (rat)))(VP (VBD (enhanced))(NP (NN (sensitivity))(JJ (clofibrate-induced))(NN (hepatocarcinogenesis))))) |ET|  |BS| 245:B01.050.150.900.649.865.635.505.700 246:B01.050.150.900.649.865.635.505.700 677:A11.561 910:D02.241.081.114.968.500.500.195  |ES| 19:1 94:1 385:1 607:1 838:1 849:1 900:1 2461:1 3433:1 3434:1  |EV| 
-4.520134953427480617449418787146  |BT| (S (S (VP (TO (To))(VP (VB (investigate))(NP (NP (NP (JJ (protective))(NN (effect))(NN (bilberry))(NN (extract)))(PRN (-LRB- (-LRB-))(NP (NN (BBE)))(-RRB- (-RRB-))))(NP (NP (NP (ADJP (RB (enzymatically))(VBN (modified)))(NN (isoquercitrin)))(PRN (-LRB- (-LRB-))(NP (NN (EMIQ)))(-RRB- (-RRB-))))(NP (NP (JJ (hepatocarcinogenic))(NN (process)))(VP (VBG (involving))(NP (NP (JJ (oxidative))(NN (stress))(NN (response)))(, (,))(VP (VBN (used))(S (NP (NP (JJ (two-stage))(NN (hepatocarcinogenesis))(NN (model))(JJ (N-diethylnitrosamine-initiated))(NN (piperonyl))(NN (butoxide)))(PRN (-LRB- (-LRB-))(NP (NN (PBO)))(-RRB- (-RRB-))))))))))))))(: (-))(VP (VBD (promoted))(NP (NN (rat))))) |ET|  |BS| 30:Z01.058.290.190.800 31:D08.811.520.224.800 245:B01.050.150.900.649.865.635.505.700 246:B01.050.150.900.649.865.635.505.700 554:D02.654.442.200 716:G03.495.710 1077:D03.383.246.118.600  |ES| 2:1 10:1 14:1 19:1 72:1 75:1 459:1 476:1 493:1 494:1 638:1 828:1 849:1 900:1 2335:1 2372:1 2496:1 2522:1 2583:1 2971:1 3773:1 3774:1 3777:1 3778:1 4029:1 4050:1 4052:1 4053:1 4054:1 4055:1 4056:1  |EV| 
4.520134953427480617449418787146  |BT| (FRAG (ADVP (RB (Collectively)))(, (,))(NP (NP (NNS (data)))(SBAR (IN (along))(S (NP (JJ (negative))(NN (genotoxicity)))(VP (VBP (demonstrate))(SBAR (S (NP (NP (NN (oxyfluorfen)))(PRN (-LRB- (-LRB-))(NP (ADJP (QP (JJR (>))(CD (98)))(NN (%)))(NN (purity)))(-RRB- (-RRB-))))(ADJP (JJ (potential)))(VP (VBP (induce))(S (NP (NN (mouse))(NN (liver))(NN (tumor)))(ADJP (JJ (nongenotoxic)))))))(, (,))(NP (NP (JJ (mitogenic))(NNP (MOA))(JJ (clear))(NN (threshold)))(VP (VBD (predicted))(NP (JJ (carcinogenic))(JJ (human))(JJ (relevant))(NN (exposure))(NN (level)))))))))) |ET|  |BS| 8:C04 11:B01.050.150.900.649.865.635.505.500 30:Z01.058.290.190.800 31:D08.811.520.224.800 55:B01.050.150.900.649.801.400.112.400.400 279:D27.888.569.100 515:C04.588.274.623 575:V02.050 953:D27.505.519.593.624  |ES| 2:1 7:1 10:1 14:1 19:1 36:1 52:1 243:1 249:1 369:1 449:1 502:1 793:1 827:1 836:1 865:1 1466:1 1872:1 1953:1 2666:1 3336:1 3337:1 3338:1 3339:1 3340:1 3341:1 3342:1 3343:1 3344:1 3345:1 3346:1  |EV| 
-4.520134953427480617449418787146  |BT| (NP (NP (NP (NN (BACKGROUND)))(: (:))(NP (NP (JJ (Prolonged))(JJ (high))(NN (intake))(JJ (dietary))(NN (selenium)))(VP (VBN (shown))(VP (VBP (induce))(NP (JJ (gestational))(NN (diabetes))(NN (rat))(NN (hyperinsulinemia))(NN (pig)))))))) |ET|  |BS| 30:Z01.058.290.190.800 31:D08.811.520.224.800 245:B01.050.150.900.649.865.635.505.700 246:B01.050.150.900.649.865.635.505.700 595:G07.203.650.240 935:D01.268.185.850 1053:C18.452.394.968 1142:B01.050.150.900.649.077.880.399 1143:B01.050.150.900.649.077.880 1144:C13.703.170  |ES| 19:1 104:1 178:1 237:1 243:1 849:1 1046:1 2009:1 2563:1 2594:1 3284:1 3670:1 3975:1 3976:1 3977:1  |EV| 
4.520134953427480617449418787146  |BT| (S (NP (NN (Beta-ionone)))(VP (VP (VBZ (inhibits))(NP (JJ (colonic))(JJ (aberrant))(NN (crypt))(NN (focus))(NN (formation))(NN (rat))))(, (,))(VP (VBZ (suppresses))(NP (NN (cell))(NN (growth))))(, (,))(VP (VBZ (induces))(NP (NN (retinoid))(NN (X))(NN (receptor-alpha))(JJ (human))(NN (colon))(NN (cancer))(NN (cell)))))) |ET|  |BS| 20:G03.495 41:A11 45:G07.700.320.249 46:A03.556.124.526.356 55:B01.050.150.900.649.801.400.112.400.400 122:C14.280.383 245:B01.050.150.900.649.865.635.505.700 246:B01.050.150.900.649.865.635.505.700 824:C04.834.020 941:D12.776.826.701.500.500  |ES| 2:1 18:1 19:1 36:1 43:1 94:1 102:1 113:1 214:1 615:1 677:1 686:1 849:1 929:1 1431:1 1725:1 1889:1 2454:1 2573:1 2913:1  |EV| 
-2.919285113907562845270149409771  |BT| (S (NP (NP (JJ (Dietary))(NN (intake))(NN (pterostilbene)))(, (,))(NP (NN (constituent))(NN (blueberry)))(, (,)))(VP (VBZ (inhibits))(NP (NN (beta-catenin/p65))(JJ (downstream))(NN (signaling))(NN (pathway))(NN (colon))(NN (carcinogenesis))(NN (rat))))) |ET|  |BS| 23:D12.776.091.249 33:C04.697.098 46:A03.556.124.526.356 69:G02.111.087.800 122:C14.280.383 126:G02.111.087.800 245:B01.050.150.900.649.865.635.505.700 246:B01.050.150.900.649.865.635.505.700 595:G07.203.650.240 710:B01.650.940.800.575.100.343.774.249  |ES| 2:1 19:1 113:1 195:1 207:1 383:1 560:1 615:1 849:1 2428:1 2457:1 2562:1 2563:1 2564:1 2565:1  |EV| 
4.520134953427480617449418787146  |BT| (NP (NP (NP (NNP (UNLABELLED)))(: (:))(NP (NP (NP (JJ (Antidiabetic))(NNS (thiazolidinediones)))(PRN (-LRB- (-LRB-))(NP (NN (TZD)))(-RRB- (-RRB-))))(PP (FW (vitro))(NP (NP (JJ (antiproliferative))(NN (effect))(JJ (epithelial))(NN (cancer)))(, (,))(PP (VBG (including))(NP (NP (JJ (hepatocellular))(NN (carcinoma)))(PRN (-LRB- (-LRB-))(NP (NN (HCC)))(-RRB- (-RRB-)))))))))) |ET|  |BS| 104:C04.557.470.200.025.255 862:D02.886.675.933 878:D27.505.696.422  |ES| 2:1 10:1 14:1 18:1 19:1 75:1 104:1 127:1 216:1 303:1 304:1 441:1 561:1 2266:1 3117:1 3118:1 3119:1 3120:1  |EV| 
-4.520134953427480617449418787146  |BT| (S (NP (JJ (Overall))(NN (finding)))(VP (VBP (substantiate))(SBAR (S (NP (NN (artesunate)))(VP (VBZ (promotes))(SBAR (S (NP (JJ (anti-tumour))(, (,))(JJ (anti-proliferation))(NN (apoptosis))(NN (nitrosodiethylamine)))(VP (VBD (mediated))(NP (JJ (hepatocellular))(NN (carcinoma))))))))))) |ET|  |BS| 8:C04 39:G04.299.139.160 104:C04.557.470.200.025.255 554:D02.654.442.200 696:V02.270.500  |ES| 2:1 19:1 89:1 298:1 303:1 304:1 437:1 927:1 2434:1 2858:1 2859:1 2860:1 2861:1 2862:1  |EV| 
-4.520134953427480617449418787146  |BT| (S (NP (NN (Peroxisome))(JJ (proliferator-activated))(NN (receptor-gamma)))(VP (VBZ (contributes))(NP (JJ (inhibitory))(NN (effect))(NN (Embelin))(NN (colon))(NN (carcinogenesis))))) |ET|  |BS| 33:C04.697.098 46:A03.556.124.526.356 719:D12.776.826.239.588  |ES| 19:1 75:1 113:1 207:1 845:1 1800:1 1801:1 2429:1 2587:1 2871:1  |EV| 
4.520134953427480617449418787146  |BT| (S (NP (NN (Monensin)))(VP (VBZ (inhibits))(SBAR (S (NP (JJ (canonical))(NP (NN (Wnt))(NN (signaling))(JJ (human))(JJ (colorectal))(NN (cancer))(NN (cell))))(VP (VBZ (suppresses))(NP (NN (tumor))(NN (growth))(JJ (multiple))(JJ (intestinal))(NN (neoplasia))(NN (mouse)))))))) |ET|  |BS| 4:C04.588.274.476.411.307 5:C04.588.274.476.411.307 8:C04 11:B01.050.150.900.649.865.635.505.500 45:G07.700.320.249 55:B01.050.150.900.649.801.400.112.400.400 69:G02.111.087.800 102:C04.588.274.476.411 122:C14.280.383 1043:D03.383.312.600  |ES| 7:1 17:1 18:1 19:1 36:1 52:1 94:1 102:1 109:1 195:1 615:1 640:1 649:1 686:1 877:1 3236:1 3648:1  |EV| 
-4.520134953427480617449418787146  |BT| (S (NP (NN (GT-094))(JJ (first))(NN (nitrate)))(VP (VBD (reported))(VP (VB (reduce))(NP (NP (NP (JJ (aberrant))(NN (crypt))(NN (focus)))(PRN (-LRB- (-LRB-))(NP (CD (45))(NN (%)))(-RRB- (-RRB-))))(NP (VBN (administered))(NN (carcinogen))(NN (standard))(NN (azoxymethane))(NN (rat))(NN (model))(JJ (colorectal))(NN (cancer))))))) |ET|  |BS| 4:C04.588.274.476.411.307 5:C04.588.274.476.411.307 30:Z01.058.290.190.800 31:D08.811.520.224.800 132:D02.172.080 245:B01.050.150.900.649.865.635.505.700 246:B01.050.150.900.649.865.635.505.700 279:D27.888.569.100 824:C04.834.020 1195:D01.248.497.158.606  |ES| 10:1 14:1 17:1 18:1 19:1 72:1 369:1 816:1 849:1 993:1 1431:1 1725:1 1993:1 2125:1 2336:1 2361:1 2913:1 4175:1 4176:1 4177:1 4178:1  |EV| 
-4.520134953427480617449418787146  |BT| (NP (JJ (Arsenic))(VP (VBN (induced))(NP (NP (NP (JJ (dose-related))(NN (increase))(NN (lung))(NN (adenocarcinoma)))(PRN (-LRB- (-LRB-))(NP (NN (sex)))(-RRB- (-RRB-))))(, (,))(NP (NP (JJ (hepatocellular))(NN (carcinoma)))(PRN (-LRB- (-LRB-))(NP (NN (sex)))(-RRB- (-RRB-))))(, (,))(NP (NP (NN (gallbladder))(NN (tumor)))(PRN (-LRB- (-LRB-))(NP (NN (male)))(-RRB- (-RRB-))))(, (,))(NP (JJ (uterine))(NN (carcinoma)))))) |ET|  |BS| 104:C04.557.470.200.025.255 265:C04.557.470.200 1158:D01.268.513.249 1178:F01.145.802.188 1179:F01.393.446.250 1180:F01.145.802 1181:G08.686.810 1182:C04.588.274.120.401 1183:A05.360.319.679  |ES| 2:1 7:1 10:1 14:1 19:1 40:1 255:1 303:1 304:1 328:1 412:1 1402:1 4086:1 4087:1 4088:1 4089:1 4090:1  |EV| 
4.520134953427480617449418787146  |BT| (FRAG (NP (NP (NN (ErbB2))(NN (ErbB3))(NN (receptor))(NN (tyrosine))(NN (kinase)))(NP (VBN (associated))(NN (development))(JJ (human))(NN (colon))(NN (cancer)))(, (,))(NP (NN (expression))(NN (receptor))(JJ (high))(NN (HT-29))(NN (cell))))) |ET|  |BS| 55:B01.050.150.900.649.801.400.112.400.400 792:A11.251.210.190.475 987:D08.811.913.696.620.682.725.400  |ES| 2:1 18:1 19:1 35:1 36:1 94:1 113:1 115:1 169:1 178:1 186:1 470:1 1705:1 2341:1 2782:1 3475:1  |EV| 
4.520134953427480617449418787146  |BT| (NP (NP (NN (INTERPRETATION)))(: (:))(S (S (NP (NN (Stimulation))(NN (survivin))(NN (expression))(NN (TCF/beta))(NN (catenin)))(VP (MD (might))(VP (VB (impose))(NP (NN (stem))(JJ (cell-like))(NN (phenotype)))(SBAR (S (NP (JJ (colonic))(NN (crypt))(NN (epithelium))(NN (coupling)))(VP (VBD (enhanced))(NP (NN (cell))(NN (proliferation))(NN (resistance))(NN (apoptosis)))))))))(, (,))(VP (VBP (contribute))(NP (JJ (molecular))(NN (pathogenesis))(JJ (colorectal))(NN (cancer)))))) |ET|  |BS| 4:C04.588.274.476.411.307 5:C04.588.274.476.411.307 23:D12.776.091.249 39:G04.299.139.160 46:A03.556.124.526.356 62:A10.272 80:G05.695 183:G04.299.233.750 308:A11.872  |ES| 2:1 17:1 18:1 19:1 89:1 94:1 104:1 115:1 161:1 173:1 236:1 299:1 385:1 450:1 501:1 677:1 798:1 1094:1 1106:1 2229:1 2913:1 3601:1 3602:1 3603:1 3604:1 3605:1 3606:1 3607:1  |EV| 
-4.520134953427480617449418787146  |BT| (NP (NP (NNS (CONCLUSIONS))(: (:)))(S (NP (PRP$ (Our))(NNS (data)))(VP (VBP (suggest))(S (NP (VBN (truncated))(NN (PPARalpha))(NN (splice))(JJ (variant))(NN (function)))(NP (NP (JJ (endogenous))(NN (inhibitor))(JJ (proliferative))(JJ (pro-inflammatory))(NN (gene)))(SBAR (S (NP (JJ (human))(NN (cell))(NN (absence))(NN (mouse)))(VP (MD (may))(VP (VB (explain))(NP (JJ (species-specific))(NN (difference))(JJ (fibrate-induced))(NN (hepatocarcinogenesis)))))))))))) |ET|  |BS| 6:G05.360.340.024.340 11:B01.050.150.900.649.865.635.505.500 41:A11 55:B01.050.150.900.649.801.400.112.400.400 536:D12.776.826.239.500 1185:D12.125.072.401.623 1186:G16.824  |ES| 9:1 19:1 33:1 36:1 52:1 94:1 104:1 239:1 380:1 491:1 658:1 793:1 796:1 900:1 990:1 1534:1 1674:1 3870:1 4114:1 4115:1 4116:1 4117:1 4118:1 4119:1 4120:1 4121:1  |EV| 
4.520134953427480617449418787146  |BT| (S (NP (NNP (Coffee)))(VP (VBZ (reduces))(NP (NP (NN (liver))(NN (damage))(NN (rat))(NN (model))(NN (steatohepatitis)))(: (:))(NP (VBG (underlying))(NN (mechanism))(NN (role))(NNS (polyphenols))(NNS (melanoidins)))))) |ET|  |BS| 15:F01.829.316.616 56:D02.455.426.559.389.657.715 242:A03.620 245:B01.050.150.900.649.865.635.505.700 246:B01.050.150.900.649.865.635.505.700 508:C06.552.241 652:D20.215.784.249  |ES| 19:1 31:1 72:1 104:1 142:1 154:1 162:1 435:1 836:1 849:1 1791:1 1848:1 2480:1 2481:1  |EV| 
-4.520134953427480617449418787146  |BT| (S (ADVP (RB (Importantly)))(, (,))(NP (NN (cotreatment))(JJ (low))(NNS (dos))(NP (NP (NNS (oligoamines))(NN (DNA))(NN (methyltransferase))(NN (inhibitor)))(ADVP (RB (highly)))))(VP (VBZ (induces))(SBAR (S (NP (NN (reexpression)))(ADVP (RB (aberrantly)))(VP (VBD (silenced))(SBAR (S (NP (NN (SFRP2))(NN (gene)))(VP (VBP (result))(NP (NP (JJ (significant))(NN (inhibition))(NN (growth)))(VBN (established))(NN (tumor))(JJ (human))(NN (colon))(NN (tumor))(NN (model)))(FW (vivo)))))))))) |ET|  |BS| 6:G05.360.340.024.340 8:C04 43:F01.145.544 45:G07.700.320.249 51:C04.588.274.476.411.307.180 55:B01.050.150.900.649.801.400.112.400.400 618:E02.186 746:D08.811.150.240  |ES| 2:1 7:1 9:1 19:1 36:1 72:1 101:1 102:1 103:1 113:1 135:1 214:1 378:1 380:1 531:1 626:1 666:1 2651:1 2652:1 2653:1 2654:1 2655:1 2656:1 2657:1 2658:1 2659:1 2660:1  |EV| 
-4.520134953427480617449418787146  |BT| (S (NP (NN (K-Ras))(NN (mutation))(NN (treatment))(NN (outcome))(JJ (colorectal))(NN (cancer))(NN (patient)))(VP (VBG (receiving))(NP (JJ (exclusive))(NN (fluoropyrimidine))(NN (therapy))))) |ET|  |BS| 1:G05.360.340.024.340.375.500.791.550 4:C04.588.274.476.411.307 5:C04.588.274.476.411.307 18:G05.365.590 50:M01.643 52:E02 164:E01.789.800  |ES| 13:1 17:1 18:1 19:1 34:1 120:1 130:1 546:1 547:1 548:1 549:1 550:1  |EV| 
4.520134953427480617449418787146  |BT| (NP (NP (NNS (CONCLUSIONS))(: (:)))(S (NP (PRP$ (Our))(NN (result)))(VP (VBP (suggest))(SBAR (S (NP (NN (Raloxifene))(JJ (potent))(NN (IL-6))(: (/))(NN (GP130))(NN (inhibitor)))(VP (MD (may))(VP (VB (chemoprevention))(NP (NP (NN (agent))(NN (liver))(NN (cancer)))(VP (VBG (targeting))(NP (JJ (persistent))(NN (STAT3))(NN (signaling)))))))))))) |ET|  |BS| 69:G02.111.087.800 82:D12.644.360.024.342.300 201:D12.644.276.374.465.224 253:E02.319.162 964:D02.455.426.559.389.150.700.900.775  |ES| 18:1 19:1 22:1 101:1 104:1 195:1 239:1 251:1 380:1 491:1 616:1 658:1 728:1 796:1 836:1 870:1 3384:1 3385:1 3386:1  |EV| 
4.520134953427480617449418787146  |BT| (NP (NP (NNP (Promotion))(NN (hepatocarcinogenesis))(NN (perfluoroalkyl))(NN (acid))(NN (rainbow))(NNS (trout)))) |ET|  |BS| 38:Z01.058.290.120.180 40:Z01.542.248.700 1061:B01.050.150.900.493.817.750.825.580.600 1062:D01.029  |ES| 19:1 900:1 1275:1 3717:1 3718:1 3719:1 3720:1  |EV| 
-4.520134953427480617449418787146  |BT| (S (NP (PRP$ (Our))(NN (finding)))(VP (VBP (suggest))(NP (NN (rimonabant))(ADJP (JJ (able))(S (VP (VBP (inhibit))(NP (NP (JJ (colorectal))(NN (cancer))(NN (cell))(NN (growth))(JJ (different))(NN (stage))(NN (colon))(NN (cancer))(NN (pathogenesis)))(VP (VBG (inducing))(NP (JJ (mitotic))(NN (catastrophe))(NN (vitro))))))))))) |ET|  |BS| 4:C04.588.274.476.411.307 5:C04.588.274.476.411.307 30:Z01.058.290.190.800 31:D08.811.520.224.800 41:A11 45:G07.700.320.249 122:C14.280.383 385:F02.784.629.131  |ES| 17:1 18:1 19:1 94:1 102:1 113:1 216:1 414:1 501:1 658:1 720:1 796:1 927:1 1129:1 1370:1 1864:1 2831:1 2832:1 2833:1  |EV| 
